{"layers":[14,128,128,4],"weights":[[[0.1280806782750973,-0.2156055979009185,-0.2588887010407762,-0.235422503587737,-0.43399239938016543,-0.6195893115680845,0.06768336047857905,-0.6948048060994061,-0.18380694360489083,0.002424044767620949,-0.5609097832229925,-0.003738947000172115,1.855490090381884,0.0629906909737102,0.8583794530570055,-0.11876121085929373,-0.16670539876162538,0.4560719926042852,1.100234888872381,-0.88617146413107,-0.2378609724491047,0.8660197426607238,0.19459964969855284,-0.013537741906111931,0.6492293894086903,-0.16185974959324426,-0.05256193473887355,0.3028949548521326,-0.3175492286534557,1.1799682531688243,0.05295301508418387,-0.24936010904944908,-0.8407031058152857,-0.8414122429381651,0.4676430867945506,-0.4313990783942364,-0.056235671102468424,0.526513324068485,0.7539882235905946,-0.0072209999384701485,-0.07705100926182076,0.5008270782561892,0.0010673229516064019,1.357237207786868,-0.7203148137809123,0.5055016290339392,0.6482182013826994,0.1916669202800057,0.10230091141478036,0.4095723520513688,0.5707926550497859,0.18397265695860188,0.2190766207354767,0.037138151196062584,0.844286313370143,0.03734599342510246,0.25360277920979346,-0.5785700289975707,0.0630270384358501,0.9676747169140888,0.6754066018506234,0.5435144875438542,0.6731846909634973,0.13704035217054145,-0.5029091567658862,0.7747344677409075,-0.45399918647311566,-1.1611935069144945,1.7678900238589372,-0.14556465178419817,-0.0180337455113866,-0.0983474797652983,0.38061146798545853,0.8196312164338433,-0.5420989732412602,-0.15033914012262062,0.0061403861743722435,0.011717879694750946,-0.8037052074272899,0.052777711802854524,-0.07281024545230642,-0.5720957069481567,0.21474575271490529,-0.30517167714676635,-0.08293317584235009,0.1879564119388992,2.1630781851781746,0.8061782532936191,-0.47660167362111705,1.2495735420581104,0.8445323952190361,0.38623958593296376,0.145631039413129,0.7328702380523429,0.2342183756468525,-0.369660119206406,-0.49616452703569836,0.9084644061805086,0.14040206648408377,0.2134538407409006,1.0785126105196057,-0.2235855420085678,-0.15797809465190332,-0.162287950063381,0.7516181520893549,0.4884786760043703,-0.7144394742481448,0.8377719637151494,0.6157193607604361,-0.27055119092702196,-0.10617208214167069,-0.5568220297173357,-0.31640953449314313,-0.6172190429940211,0.4090372750858669,-0.5140149535610454,-0.6197627952784717,0.6088484991828893,1.268545290384274,0.4988575750388509,0.1646076325320834,-0.535785816852087,0.3116735218009951,0.5782174080983652,0.020345053138466348,-0.18162003187391648,0.03975166532669868,1.4217729688104885],[-0.47359240144403475,0.9136765873214096,0.469304769915933,0.5774896300909638,0.20643490683601734,0.02864262499375159,-0.8398121270435734,-0.9008537332754774,-0.3115323929445908,0.015401484573084745,-0.2601701075439086,0.7686991415497726,-0.2630438171597935,-0.6172319541429644,-0.06569929740712109,2.280931872908631,0.4351991437102452,0.0836143581319557,-0.11985518634494273,0.68346363993213,0.023967862856943658,0.012703769918532249,0.9154234594618542,0.09960553189887578,0.30796143565162554,-0.12208562909992246,-0.4173093793678258,1.3266187353010976,-0.2956822350799593,0.3892720652701981,-0.2034501580998578,1.3372139312411997,-1.047797952678869,1.0550432077634524,0.11510774662653024,1.0131806656920332,0.37224050963474065,1.7562609665944493,-0.11902478401564873,0.5739966662472985,1.3698804089014307,-0.6918435722918632,0.2890913437118774,0.8370116665795222,0.34097428508775607,0.00032025819188000485,0.4506597548537662,-0.9320302161069478,-0.07990224591525635,-0.054625642171333096,0.3788830593618287,-0.8285658925532718,0.5796567572489512,-0.2740293878381982,0.30063668779287855,0.4244701788731339,-0.26653780172441677,0.4378369553190578,-0.5057213487092702,0.5623730540835961,-0.1532595082629767,0.6358828827364276,-0.19559440479851706,-0.11335785270721171,-0.45598805255194286,-0.2574895548619027,0.5842101191611251,1.0043174900331013,-0.013620778147951084,-0.14838951306097353,-0.012457197742062059,0.08210735737159008,0.5871584547960051,-0.008858110016938892,-0.6139786346438624,-0.24084459591882168,0.21332494312411787,1.0702873266358428,-0.3256014490777502,-0.03821023218978238,0.47862004205679776,-0.4351870054379732,-0.10750810040782217,-0.01015396170368646,0.5782362156835694,0.05730649374757809,-1.1465572501305263,0.39136507975517776,-0.26230653432406026,0.9557610304647168,0.003073787840523943,1.7061423944636056,-0.349549196929872,-0.6355048165867629,0.4528552679692084,0.7570864734061044,0.0399342748128749,-0.032706462098302955,-0.5699222592240295,0.027582826157397152,0.5724317910655949,0.14315655914209569,-0.414881441745554,0.036350730680498385,-0.07725535548319562,-0.42572922947994263,-0.3271790046554667,-0.2050312945843891,0.9770557905432539,0.3445266701326553,-0.09985419212983818,0.631966115743889,-0.5129148481248308,-0.03940506259066074,0.4733221984573467,-0.026897194387126275,-0.1511862907874164,1.0250797372316216,0.009396753992909788,-0.28592475259203054,-0.9413202137055837,0.16051143766834713,0.6266061360385818,0.1937598905187787,0.49677838096100435,-0.03167016661071032,0.08419091062735572,0.537050426238954],[-0.3720210750682077,1.3102513837445238,-0.5265050293892035,0.5835970188083004,0.6030939332182274,-0.4874074242691539,1.1373476081175207,0.16261961609287573,-1.6752751012547948,-0.4258678327399898,-0.9216335805969864,-0.21450653885567206,-1.265482277926462,0.025988823673758262,0.5821156239549415,0.1205764309037465,0.1512885251775251,-0.26885306529606484,-0.5800572370525753,0.32795175850052466,0.04476878787280514,0.011676936780376413,-0.3390896210183621,-0.02131014826325031,-0.7493142334256465,-0.14030711118260233,-0.2562564217482256,0.9387410897202223,0.3004503351833423,-0.40722454241222616,0.24950302745178415,-0.8878871696760826,0.9571621395662118,-0.649010919546387,0.23979820347804354,0.7357883669353468,-0.18421280641026022,-0.036488241192076803,-0.2624974033995777,0.054477473427041165,0.3023243150565755,1.5002818785946204,0.40024750825872885,0.010774146034641528,0.18781725914395347,0.727140855373121,-0.21680483221628538,-1.1591441573039765,-0.23266573141978825,0.8836304590954609,-0.07074133052374747,-0.01582611547375741,0.052125370869833515,1.427512919639404,-0.8455774690459393,-0.05603958787824548,-1.19553948731151,-0.23539422078623162,0.18834456272576833,-0.01571588201848999,0.4424558423271285,-0.6758550546788932,0.515441049690295,0.24333885508852718,-0.08696712955130231,0.09744232118716849,-1.6081031041975877,0.7496512223527063,-0.004867841355513575,0.05638427428705728,0.04175945194891313,-0.07027722249278569,0.361217377444619,0.5505438691086091,0.059426397132782215,0.6558450160905777,0.20459213469671958,-1.4976052582262624,0.16276742620113818,0.03245337518140315,1.9241562823920064,-0.03305139003289399,0.4427112054685717,0.7698951991409756,0.6760418010321854,0.02297624840973889,-0.7708692571687685,0.1487600027376373,1.5242213158698743,0.647017313185585,0.3906238751683853,-0.7335154161183609,0.7703199723575963,-0.1624480497599627,0.45039370378012084,0.7935163433733933,0.129423622643795,-0.18800463863697384,-0.019793532492481284,-0.13461147840128423,0.7874194934243769,1.1244186504133578,1.1070547862497069,0.1598917899345952,-0.12263178171090473,0.46018890418593256,0.6038290603424709,0.2458103724629955,0.796575092741438,1.2542272070186145,0.08575785606589219,0.40717643442165674,0.24612795767188372,0.5951885499920377,-1.2699247992657792,0.6076824990142073,-0.04782182800523252,-1.1435045322795665,-0.078711999508331,0.8509826134910178,1.7177439141700195,0.19140876258029113,-0.2237339219619396,-0.350669939148191,0.13032823593667847,-0.07358460942026615,1.296890871694226,0.6746856370413026],[0.41247650210761333,-0.7237643224000744,-0.7464681988390258,-0.5110909063870858,-0.18981897398469208,-0.6639013583641323,-1.304051461174509,0.22087254502474324,-0.535930469462158,0.11101561427914583,-0.13161440859008167,-0.1667010001149457,-0.300636977835799,0.27793241658043016,-0.7115973929484353,-0.9809115626350479,-0.4189373805604005,-0.5314449035672688,0.18101258774631307,-0.7223020102158789,-0.4365900965532766,-0.1379295893358076,0.0033512826910708916,-0.15159133891237386,-0.07707988475106936,-0.0688966273174925,-0.8685184100771338,-0.603062932184086,0.14863688767612612,-0.24495610627106842,0.8819703219308853,0.011888710040802136,-0.7328647985264546,-0.8392446920817799,0.03207844082999701,-0.15370515999644674,-0.1374519767035096,-0.25251495081950337,0.3400765309322719,-0.3677475481452857,0.017039721260762627,-0.2203001883105023,-0.29849662474385097,0.10926786475412004,-0.3328841224109748,-0.44523402216136276,-0.09391965653218005,0.6390309460691843,-0.09147778187420426,-0.8613571085494022,-0.3684214823376564,-0.28636123505725314,-0.1510037402532556,-0.08221311440958405,-1.7204840685454872,-0.14776976712327347,0.09832353505608041,-1.9315292397391117,0.7658296543288129,0.6504090218129223,-0.5074811377749425,-0.35933198283697665,0.2426374851419018,-0.17604074196038966,-0.43877672829669623,-0.4166369951376125,0.9493211885365236,-0.43743659230281307,-0.3741088827559025,0.042928071735851954,-0.015719233574630242,-0.6751133152957868,0.33615271769990246,-0.5651092228101887,-0.5633006270562585,0.31502297451197064,-0.024339386909388423,0.829208562213352,-0.772808028677676,0.046787312411411854,-0.7868840269266741,0.3132788216194854,-0.23867950755703235,0.18763469969266464,-1.1874511842589055,-0.11922808011382455,-0.4954790805902091,-0.1879987704106453,-0.3576307917166228,-0.6513364411077625,-0.2032143634459288,-0.25733482924558987,-0.16415266105168075,-0.9032060881684706,-0.34451786095691384,-0.679778593819858,-0.6598790046991987,-0.6183233961154098,-0.8652016647742211,0.10007770422701665,-0.37058422143124864,-0.3447042660047455,-0.6886464397586258,-0.04560886266885603,0.09958706574611992,1.4724605449229782,0.6028998963015141,-0.18099156100298905,-0.19237508873177597,0.2334553759520583,-0.17559073547884202,0.11308176138002078,0.17955379390390358,-0.5648657082035033,-0.1717112644803558,-0.11896953739797099,0.20018035960980426,-0.3960298749981645,-0.329868396045433,-0.33607511817598273,-0.07948923677251431,0.5208032281761291,-0.4552565942681523,0.21578608699043753,-0.4125414013690767,-1.1024386607950276,0.3840637962669106,0.12033171727396344],[-0.42909411646822715,-0.1520112153625149,0.8802572971539783,0.06510489562030672,0.10774618952956452,-0.46581086073369926,-0.7712026528758827,-0.9337944064590492,-1.7712544665095955,-0.8987166198827484,0.29666434600584346,-0.3524797087760731,-0.7472783130992272,-0.019797898968116817,0.6266240371812666,-1.0517080430455983,0.4871304548696623,0.3442188972658649,-0.18409422835069092,-0.06582012765590116,-0.7007311931414393,0.356534902120546,-0.13579480328964644,0.016945668181751198,-0.38729896410239895,-0.16462905905278255,-0.2524553747373222,-0.5439635065527735,0.010479472005751474,-0.23660816868765058,-0.20397527697494286,-0.36759196239816727,-1.3391488252177823,-1.1150959589943887,-0.4651250848551013,0.022413968244626662,-0.16039242137909057,-0.1643686041112779,-0.233619603535894,0.653853948960501,-0.19319622993780755,-0.23802819130161457,-0.3176017470605378,0.2716313003351132,0.33323646351078196,-0.65992686249476,-0.6162811333716006,-0.9111225571618968,-0.08933359270741678,0.8546959936704125,0.33224450560022084,-0.003584150281851303,-0.8032018616029807,0.02352387356131474,-2.4101232249715503,-0.5114261766531798,-0.044762606731664524,1.0301775877515138,0.035255501652699694,-0.28015992246031063,0.3940418061948692,-0.3683232011460075,-0.5393325260088963,-0.017875658349715728,0.9332548782998088,0.1450947510228307,-0.20436299875119565,-0.32528977078750176,-0.16215054403217558,-0.042012474452211825,0.093602461209089,0.1470306335564493,0.19017747399301285,0.20408062958807116,0.022066000910981143,-0.5804775746930328,-0.3411213820737277,-0.43364656293633513,0.20664350910921742,-0.01555396167568696,-0.6360067843596248,0.02118687821608912,0.10123686382302588,-0.1779192292940401,0.17284957264388465,0.19666188427569972,-0.28834842693082313,-0.075365708382309,-0.12424122298356823,-0.6982383710899229,-0.4071635050416742,-0.19906679857121318,-0.02484049156444055,-0.7961667310050394,0.0381610899088231,-0.29512085426994805,0.5067395633330052,-0.8204715466896312,-0.058321908858157356,0.0748114115981361,-0.29962374068390446,-0.21475702213614348,0.027447128390344078,-0.1232186291007953,-0.18804640117667068,-0.2625123498614726,-2.7172589005998855,-0.6230886429426412,-0.21779601720314168,-0.6216401644473822,-0.15828464397268235,-0.5385479906683794,-0.1914972066966287,-0.4120657179105173,-0.44915010638605096,-0.019849415738106634,1.06063690726454,-0.3842131618368161,0.6031048632620885,-0.3068342341508357,-0.22583431847377494,-0.5393425280515267,-0.7531585282372989,-0.18958790168105152,0.08313476473935569,-0.5861045076209843,-0.22721651070942678,-0.019131146819173547],[0.2646885488899051,-0.3971734050509735,-0.23696043850190782,-0.46830687864028026,0.4457109319857141,1.1101404041373086,0.43568388505309646,0.05901161323197488,-0.3613354105667427,0.3830550111199275,0.38054277505917306,0.039707269244684686,-0.6561075472297982,0.30586836032689435,0.42024370072430445,-0.6654901525010043,-0.43415033063559133,0.11223093668005261,0.4932931408879126,0.47733700850168526,-1.4060854824896354,-0.18761690101147716,0.20773461535892376,-0.0935983810208769,0.1943879743926477,-0.05408995527185334,1.3911829422359032,-0.15074355139365503,0.04513339902701108,0.1551030333895599,-0.4557827796945368,-0.4002222142349633,-0.5925360216074848,0.2945534241836566,-0.38192196334241024,-0.0319682108068643,0.0498857496823732,0.3423179167092631,-0.4653553369400294,0.15264953588355865,0.1272454237513389,-0.2309977689501454,-0.22158077583069322,0.3316350417083476,-0.9962785159499622,-0.46018402643502737,0.12195814494945627,0.2267641918512785,0.20434872516759128,-1.5608379548160176,-0.5639809910714986,0.018898025551144934,0.25025472831017315,0.37108834796454737,1.0571950219882404,0.24882956216153224,0.1563317231220134,0.1175900810170797,-1.0507731586447482,-0.05939542248249745,0.37229088397774657,-0.20124215872667234,0.08930490804675648,-0.16719682438241398,-0.7206441435036733,0.6217382788454913,-2.9227589696374725,-0.22422025449105984,-0.16938898838999122,-0.05635690311729334,-0.04484053133127753,0.226678413878332,-0.16338447168203096,-0.23975641122268646,-0.33183882215801147,0.034127936390765896,-0.1930826867247818,-0.34812528012446214,-0.34250736511825636,-0.015569901766388542,0.21546314949598558,0.440087418604165,-0.8590817317923558,-0.682070801572537,-0.93578339428297,-0.40836589253655897,-0.1034004587176854,0.2551135349003326,-0.7157543650590401,-0.20868028294386165,-0.3596658395370361,-0.09300887274677157,-0.1296443050256221,-0.38651741874664824,-0.1252979591130087,-0.04498910940577518,0.953135289256251,0.7268671297514763,0.048108587717118095,-0.29969543031105017,-0.6554773641451136,0.05063410775850837,-0.11774427221799362,-0.11041163212761312,-0.21618262118859574,-1.2033781721029604,-0.9837840321727762,-0.1989018686416868,-0.02258071386591343,0.1169167686084362,-0.036771923119876704,-0.3698757137409722,0.36596947959384846,0.22102429241063856,-0.6130059425560047,0.012711811033523694,-0.14326866558422083,-0.10157031521358197,-1.0146430464216043,-0.4269113207509029,0.008191735111149834,-0.5833947771118629,-0.012237090431937313,-0.18895665071602066,-0.46182382772710767,1.2923703636643624,0.08918152024699003,-0.6496837081237926],[-0.4544925225078765,-0.45145734317139025,-0.5474417109529797,0.21174209463582996,0.006642475326000277,-0.21150807496567342,-0.04087519837726616,-0.24051340882511202,1.5162600854699362,-0.47181078898359063,0.1925179384997904,0.18839123078834072,-0.37360802554992933,-2.165878945844692,-0.8211595433226615,-0.402603467696051,-0.7189784049208654,-0.167643244927225,0.14841809345263163,-0.506226633810188,0.5285446513675688,-0.42950249174477284,0.12492111238481751,0.08184536967417505,-0.15057567995164678,-0.16366832968708267,-0.2647054722222632,-0.1729288636355982,-0.014360223429433957,0.04725585004688916,-0.3193211549126833,-0.3822377765444939,1.8931659613186886,0.4964028870148531,0.40031325154014313,-0.4237831061729126,-0.012887921767310576,-0.8298497767623868,-0.2025171415308056,-0.4216209003930851,-0.2516457456294471,-0.48116081421055445,0.16956173980752642,0.010182582071150852,-0.3987175059038207,-0.7320874470652992,-0.8197463047890735,0.17740715284600422,-0.22135776523903264,-0.6251432340371287,-0.44143018248483495,0.10175242363045091,-0.18705361621506716,-0.8872843682559098,0.4414838366281846,-0.44827358614298274,-1.1867162520631371,-0.968324138728574,-0.39312084267128605,0.20377970386316516,-0.4060055924540668,-0.4394650742015074,-0.2595898943660793,-0.1718936429898093,-1.1979335241457743,-0.009663152533422328,0.15248314607963256,-0.00696081739565536,-0.31470066401358926,0.10473145446952652,-0.11435799232908263,-0.0035504136710273995,-0.22658621899766526,-0.11920043992699683,0.012964534845592558,-0.7374334003477654,0.08089385088678144,-1.3476020921533576,0.5912632076428146,0.01280670534191547,-1.5382802923223662,-0.531350859290212,0.07232274970730858,0.09056628844805509,0.18659157776517535,-0.1754625996245528,0.10637959043099017,-0.27933552204980144,-0.6132912796598077,-0.08123707727496954,0.1251913019969439,-0.05934739529747823,0.0020036238729703518,0.12535808083090802,-0.5366056565663521,-0.2599306186452004,-1.3114567623685556,-0.22182400055534665,0.22839395550657415,0.19381498365943886,0.11898576101874825,-0.013835027864498018,-0.3445278507703449,-0.021678771393405762,-0.07128321360167575,-0.2599623128664748,0.5963393295952502,0.10056976077646154,-0.18287843180847332,-0.4635682444871609,0.19722565865844222,-0.141709320736451,0.140080003479503,-0.7937741145921678,-0.19696240123863182,-0.4735493321725245,-1.9268662415374826,-0.39804091650836687,-1.000773253548136,-0.23698460582146325,0.2302203966329836,-0.3846858565669297,-0.5329450744524493,-0.5703530252704615,0.2272251588394514,-0.008764343212243888,-0.3939495101649134,0.020782446374982604],[0.20868766597288388,-0.2607373977126252,0.2437659552945726,0.1689476723594687,-0.16752137697743885,-0.294092985237879,-0.4231066539376986,0.16967386136475118,0.49115011977087597,-0.12718038359837816,-0.2913147833569797,-0.6138826129186421,-1.1362122892453412,0.4760747268423776,-0.6533345970907504,0.09479595844990064,-0.292151360471576,-0.19993279709480774,0.376112730465616,0.04950928128605789,0.0311954566573755,0.02168672236126766,-0.6001589816565481,-0.02531029758311473,-0.5863365832907041,-0.016089616430415773,-0.35659249518002056,0.24326994134272503,-0.2222133865524382,0.4286145070511097,-0.6479268157191307,-0.6734382686082829,-0.36291073947554775,0.45768684251098235,-0.26346518072025316,-0.16249985785528068,0.17828327810297726,0.36316111817300933,-0.6904348990303742,-0.05508673962776492,0.07683148520233392,0.025868056066630625,-0.07611789830808333,0.27922365184276327,-0.15888667940076556,0.3652631087398128,-0.6909505047819744,0.21939076590521045,0.15787676735827394,0.2987450915439642,-0.11426062768354675,-0.2622160733648503,-0.24166464357895562,-0.5551139101420078,-0.46535302541808415,-0.22252420256423944,-0.0007177337412630801,0.18612801372884405,0.09689010654758108,-0.9423624546735748,-0.14743923899772496,-0.36116761683743276,0.16288169020414883,-0.1427845076737538,0.46461458771765957,-0.023776472495105422,-0.08877186189512289,0.7728161199147067,-1.0233753903771368,-0.02346283664782298,-0.10530114799394845,0.37154419540752287,-0.3103112394992821,0.16143952861867797,0.2082133918108845,-0.5456301976010026,0.23552026323350087,0.3343698037379325,-0.18350565768645621,-0.1743291506273316,0.4386237606294047,0.08309560744311653,-0.26228555712789864,-0.11393583858161847,0.2214312714092926,0.15147938031304375,0.6424917551382711,0.10243034596810391,1.1453675695333883,0.27274082770519403,-0.0041816752635556575,0.15511519882800073,-0.011476852784207986,-0.4553579075533474,-0.05396397953630662,0.22010758849853454,-0.6752464565155505,0.0770631139412702,0.04664906817695729,-0.27920745851606504,0.34499542015642215,-0.42596879614574934,-0.2945840958896467,-0.0232051055722731,0.07330975180461516,0.25221970488454276,0.3301960807811761,-0.0880826702835583,-0.022522837655047957,-0.8526839856856342,-0.06635028143536113,0.44929362692604874,-0.013622945398289562,0.00646351111972009,1.0339545190509736,-0.32708407256922506,-0.0537134392305144,0.8461552405996755,-0.6082195741450558,0.30681285049021206,-1.2566885182143872,-0.15694175794725962,-0.0907420968913281,0.041884618277158316,-0.6400735890745524,0.14706095990599855,-0.45365757621893177,-0.362420021074432],[-0.05968703701613866,0.47933246106426647,0.45378734326938475,0.004434611069660967,0.3436794077582245,0.27236271740263107,-0.9958828466033246,0.5962410282591524,-0.7441022310497599,0.20335284317369456,0.44982565923087353,0.1974083844291194,1.0867656545666298,-0.10795433710335804,-0.8117967532619415,1.199734029530035,-0.56048617607604,-0.0860718186969624,-0.342008152573701,-0.33220542299842515,-0.6200807915178939,-0.8347778967449394,-0.6145273093195263,-0.09610141946724522,0.08296971264810107,-0.16785400396253855,0.18195489542502183,0.26081099330132057,-0.27978782285295034,-0.18523377894161416,-0.011528781535352129,-0.5219899905238705,0.18401643990701785,-0.6403311440267163,0.6648083391471908,0.33043888887407635,0.09153696907087287,-0.6949148454532427,0.6151323306158326,-0.6303097310948241,0.2517717643412548,0.5076154106889651,0.061212688524595875,-0.172508270569794,-0.09235945236439633,-0.13806832530904442,0.1759702119652463,-0.04203426844855728,-0.034929194612718276,0.13756607412380364,0.4520796590905113,-0.10151323719769181,-0.11878397783158874,-0.7411559538446115,0.09323499367618185,0.4167742231639104,0.6382790006644591,0.2313285842535587,-0.04873402441087368,-0.1342710351424146,-0.05517846825925123,0.6342079847870133,-0.11057844889578655,-0.19848709587500502,0.0550068106437226,-0.5875315457711459,0.4675959076273498,-1.0281287604254967,0.8860399070678386,-0.16437650583487565,0.02381756003944311,-0.06524073646903812,0.24828917217068897,-0.3233557544123822,-0.20647560752449481,0.43043495378288577,0.23934144798495335,-0.9047829976501948,0.39959842980349747,-0.11058968519805866,-1.2040059380272838,-0.3993876305557001,-0.03647116136242417,-0.2346063792670295,-0.1936601104055565,-0.13203306575124027,-1.0184867037146697,-0.38340610561475297,-0.39842616878266435,-0.951321327468723,-0.1849934685049977,-1.10417600188326,0.42938556909086223,0.7258174572808388,0.4172089199191527,-0.5953257758394842,-0.5256282190157816,-0.0022329862997939654,-0.4980814268790859,0.29303329895902536,-0.5038388412095137,0.06513359263806309,0.796965057088453,-0.07487310944760436,-0.20120423210849323,0.14127045584007525,-0.06115523672475091,0.28347059382891926,-0.7583029583816007,0.7214836373580665,-0.12386637524122174,-0.6274918943945268,0.37269335846011953,0.3459914484845329,-0.04937361137592722,0.603154281810019,0.7186792340924762,0.6606411436124542,-0.5898665328525423,0.052104992635003865,0.042826563831246854,-0.2631887587447678,-0.40891260927679907,0.29715542099836223,-0.10395236468100076,0.187524423174806,-0.8358940391669941,0.42717796912808736],[-0.334032601448671,-0.8101064884602177,-0.19975022447265403,-0.39910424663949134,-0.2648799658206804,-0.01627560741299541,0.7963723131719234,-0.46946775199827184,0.1801046645651013,-0.03846827306764157,-0.04447484406281826,0.30310217419313124,-0.9677934298211786,0.3297024332863119,-0.2747967864912067,-0.9045305759213983,0.5618058678233504,0.022371831673177724,0.025423455721661464,0.03210248803565177,0.3113190014960138,0.16122904542954922,0.22360096168596685,-0.037397328965400024,-0.553977709750629,-0.20405343600051834,0.18509579226716544,-0.3137981499913121,0.029254230893786537,-0.11510750625788749,0.754601814623431,1.2909316185136215,-0.3819346758436232,-0.7766312188077049,-0.49611266910417395,-0.8329263886348657,-0.202857521691218,-1.4146966780535803,-0.5076169790228523,-0.4874158482888192,-0.9783842795524521,0.21097708152390565,0.24337323859644713,-0.5698766436126653,-0.010634998388199871,-0.28517943820789043,-0.1559653708905998,0.5641686726438128,-0.16346280291454682,0.589073337087826,-0.34741444097513274,0.6724512303845024,-0.4433610806687637,0.7391558922196675,0.1508936491871862,0.08965742063123427,-0.564888688416637,0.10663393497924135,0.5990980051885334,0.3344517886311684,-0.7442415504837255,-0.42643133365487645,-0.6227535890992452,0.16267380000541456,0.6418167896935709,-0.08176568415376975,-0.07977695445632403,0.5090087988532088,-0.9683374324376121,-0.1487818880260956,0.1003097452543649,-0.40371036697980484,-0.3731513106144105,-0.2295770018971298,-0.3449099707785423,-0.08840643881982435,-0.40851997736944023,-0.5813402790802108,-0.011231750725904526,0.03245938327309081,-0.2110778888165061,0.19153093048324912,0.019582586833234536,-0.14014175232697768,-0.3087781357178422,0.06939071821439388,0.8279098023577034,0.26472476973647396,-0.4494602352019544,0.21034623188365117,0.30821909890199567,-0.04684007045794041,-0.14915794932214185,0.04447303791023891,-0.5058396005662055,0.17165654882726133,0.06607438299870168,-0.3126593932849859,0.23396608775685307,-0.32793162267216835,0.4178647954197283,-0.4347529550993084,-0.2942086516264741,-0.0745830486113067,0.275034075277638,-0.5512305817360545,-0.2713377824967312,-0.021039143588071792,-0.14906126926310004,-0.8058058010777844,0.3062665000715813,0.4452133856307694,0.09861805890535809,-0.17463882377171297,-0.3055417300726881,-0.5520033395789129,-0.5237585075619176,-0.8733878865257603,-0.34387321815128274,-0.4850845909744113,1.011073690849459,-0.367421008395799,-0.19667348125920325,0.16536749260877945,-0.16100825798440255,-0.18621316972803068,0.481713687642212,-0.06705268746089535],[0.09411851755711656,0.29770604918237653,-0.3540146424675639,-0.11949919528427538,-0.10274980402841004,0.10509475254616539,0.3400843164955116,-0.4151977159745563,0.2436852221181329,0.43095362528555853,0.06251412386185479,-0.4832432870389106,0.5855927233518974,-0.07203989472623806,0.6066497564498133,-1.0428407519886034,0.4467107053358277,0.10119162339846739,-0.3685604387462364,-0.008872318289070428,0.2796853672168904,-0.08451744358878703,0.16446797357491175,-0.11655018633741301,0.6161745213153192,-0.10314823415667662,0.08227921468490199,-0.12183689718622714,0.2266982555522371,-0.6405825209982378,0.09410763649237981,-0.5918703045163259,-0.36507795566838314,0.7425703357121141,-0.24760315053390408,-0.1757647289277866,-0.0645688323840747,0.6352001125344555,0.3313194619279708,0.5221041157152643,0.33830259748544095,-0.9117425117998992,-0.41151380313713637,-0.48493942704013615,0.3159059939564493,-0.6199979564138318,0.28977786759395147,-0.8106771663438217,0.01090840323938084,-1.0852219788054533,-0.31436278321371613,-0.6413561714866275,0.1813634365504532,0.2634618264692973,-0.06757316321628233,-0.3119080001772266,-0.10703544505475032,-0.4272730351948945,-0.4943765559469681,-0.08565679275452433,-0.07587582880526078,-0.6427446802486053,-0.13768379334782144,0.06654734884706873,-0.6997823968355914,0.0022384759078439617,0.229927999153198,-0.6995435171401139,0.6327988565455676,0.012616503525581534,-0.14123192701063744,0.10466812978404555,-0.1510067220524884,0.09524130432433471,0.033162482753509775,-0.2695154270001755,-0.16299436368805348,0.9614057365395758,-0.4741805721918818,-0.019881261650666806,0.326103832330983,0.3729577953988602,-0.08017186249869822,-0.6219756083836308,-0.01956643117035647,-0.12099800135629228,-1.4067379825235393,-0.281681867515961,-0.5087448495951239,-0.6039966224818301,-0.5533690265383208,0.29006479450624023,-0.4930281493075911,-0.1450250300877682,0.2701518314954892,-0.5687407125390879,0.7780290146478964,-0.050684816459834386,0.03300250360258677,0.36784477587731423,-0.5480881269985578,-0.34272704451688424,-0.6655640554735148,-0.13480226344407217,-0.5061931886142954,0.10926533853368353,0.2965991405687597,-0.7154007599874239,-0.17757954216957827,0.2385910338543862,-0.06698764905524164,-0.49402889029777564,-0.3527423758407152,0.026877649443290078,-0.8144047053278067,0.01118324223337143,-0.22626997736355056,-0.9482556834837024,0.9089295431350736,-0.3321541598139777,-0.7717795819819925,0.4267465502055894,0.4743804543861534,-0.4268336557498595,0.39958092107539084,-0.10825892013334915,0.5229192704756785,-1.0028683905146412],[0.4304263619319669,-0.40207494387367543,-1.5165844642037674,0.16346670576052028,-0.1683043587849812,0.2612015899268925,1.0213487564780934,0.03739645110008387,3.580307398843617,0.3778875939719298,0.15147444017744155,0.48794427985870725,0.1930538129497947,-2.3858301414078755,-0.803996526946385,-1.1832818885303578,-1.9338924777401554,0.283004832338895,-2.790908276107332,-0.436177674020052,1.8388732877797265,2.502577616688578,0.19564249904069303,-0.008131705751753015,0.15137479930331693,0.0015975770319608983,0.1061544589809101,0.3966571096677902,-0.0969825799472294,0.35613442042286725,-0.1310954825952856,-0.05164512921683371,3.6226476904980287,1.24244231033083,0.367541530608111,0.4484877106862932,-0.12160111482112605,-0.6893226370186148,0.4779719090431327,-1.1141827702628404,-0.02891348240236413,0.1433718665668862,-0.3874638331419541,-0.7855570283406796,0.008615647468752602,-1.4627100508554685,0.2585989266973477,0.6929544476562713,0.22338235685801805,-1.6398304299380349,-0.2885049690068987,0.5849786019073286,0.09235738244790868,-1.087737729805551,3.099442742219898,0.18026316849903173,-1.924926223264406,-1.9482410340946223,-0.9671709707436869,-0.7088570739828223,-0.4843261161065928,0.1129407030099304,0.5005118360705927,0.08409586285783792,-2.0538116052817714,-1.2677952194399662,0.36258206729932324,0.4107253289634693,-0.4018696782369567,0.1895850187636002,-0.16193932119295032,-0.579374552885514,1.9445406973841517,1.5316904348970923,0.0578087068729693,0.435841844391228,-1.2479476026396872,-0.1090634380290616,1.5715165667873958,-0.023976283442698757,-1.5707886391252226,-1.772944241299758,0.6961444829050882,-0.6513060313050628,-0.37703017626636104,-0.06318434963720075,-0.22355442976083012,0.0076129692825379494,-0.3909705435922785,0.18808947238813273,1.1264801796021344,0.7683187389800418,0.1860004269629901,0.7571633553471957,-0.1293298821688729,0.361518343879092,-1.8542316621660788,-0.7082586886390051,0.4696144753546804,0.14330581973221862,0.2123203314612645,-0.5663825199120622,-0.8651096329901562,-0.05335035483146111,0.18763354514759722,0.18560068837791974,3.657456472721421,0.2298702820820356,-0.2872237496384644,-0.7457502060740975,-0.08959531234248132,-0.060103320102301246,0.6053466724089948,0.021720488420466876,0.19410869430098093,0.08734733766463318,-3.275483801723486,-0.2525764920348344,-1.4111066949373723,-0.29237711737655736,0.03068790737562805,1.0173121158459306,0.09967919885174142,0.11573034309015043,0.32346281324715037,1.0678557063908778,-0.014014843095448691,-1.600653625393416],[-0.03901492517725786,-0.6956677152495099,-1.639610766676794,-0.5023449248818334,0.668053268771377,-1.6996029577511615,-1.058575126931259,0.30249286707718437,-0.33180286874232456,0.5581336053687127,0.6371213369550036,0.2211779950087662,-0.6751204653277395,-0.31983557954913966,0.0603902825987561,0.26940313892118184,0.24699935684431423,-0.18103117519012465,-0.42231461158916006,-1.4582986795030621,1.159140319104006,-0.5040061747842951,-0.05005336048520758,-0.04622858305047749,-0.04196468534005857,-0.0015684000821950543,-2.1924777483157314,-0.29836215540255323,-0.33924104332488164,0.6450458691849634,1.193203473448367,-0.12667841650144582,-0.18054171515744874,-1.4731566555654243,-0.9866054302471527,0.011726217435291689,0.5331839078203487,-1.172341487638933,0.5487722038127675,0.40669213183188385,-0.10923812411341471,-0.16944034601882868,-0.7863765009125002,-1.1578669474355379,0.6963937799230949,-1.091328174390032,-0.10795821371281528,0.15903010728258168,-0.007037694658440791,-0.09115453854086915,0.268692618709319,0.0034824882820610184,0.11192450194559965,-0.9653098315573581,-3.1295156938066633,0.10853416878038315,-0.2848750717027893,-2.028866246508849,2.2108706429068232,0.023889106311872948,-0.20129687387073847,0.5089320081776568,0.7093981708149021,-0.19766025287709207,0.5642922990705495,-1.0698421560269167,4.261685935168587,-0.5002619426527438,-0.19670173691591045,0.037350762513614466,0.03019266044041751,-0.2967496061480497,0.5253569783231412,0.6949761063652683,0.1773956923566055,0.7045456502436657,-0.7175974768155181,1.4291522524755667,-0.5602037217979214,0.15669767956990086,0.5753991434556471,0.2801725455455541,-0.1111254458859857,-1.2029070268644946,-0.22316739011817568,0.11949227125765025,-0.5182402293806073,0.34139241297323164,-0.6066695616789898,-0.39169933573325993,0.2843758807207938,0.3081545579364628,0.042131806767060485,-0.9390583229643132,-0.2760547780570236,0.09256298738416133,-2.0571272973919683,-0.7696879737837304,-0.9233351869683103,-0.34914071153814086,-0.22294316177611728,0.9125740126506031,-0.38686826436229343,0.1074411628690604,-0.1394886675300782,2.636591653700182,1.7159546513192354,-0.4371447183261815,0.08750884035342209,-0.1984753992024991,-0.2693738081189131,0.4425242042953122,-0.1427468515911446,-0.6611729364815068,1.040366419906326,0.34625429031071,0.6964443592321157,-0.30990952091468965,-0.4251963625032508,-0.10719272504392183,-0.1906102139689177,0.8045547566207305,-0.5600277797895208,-0.1467358960813185,0.5463421604100456,-1.8515997642748279,-0.45302338605471865,0.48557510867152665],[-0.8999401114420023,-0.1450003244074586,-1.2288637426054636,0.15674896445908404,0.7209868520460774,-1.5425155933600998,-1.1008631792009926,-0.32980849441403703,-1.7116662972661292,-0.2852479263461971,-0.08881682189578233,0.3283850380837251,-0.36805394768087873,-2.18438837279744,0.32871732050454294,-0.06152002169303122,-0.2025161259749827,0.19917191431591488,0.7793301256680388,-0.6064763253459975,-0.33835199355903905,1.9838428878017051,0.5013115597674053,-0.0048880188339069834,-0.14692758769712033,-0.19382973639881407,-1.8016550304131196,0.6088907035657323,0.05565167883694433,0.617491953226135,-0.9077229972575467,0.0937353364297855,-1.3578070743031518,-0.20255848611551974,0.44195222409656687,-0.004526751830944166,-0.21360727793094156,-0.056387823213619445,0.3028152840000435,-0.03367838161594617,-0.1474171173757607,0.45611369431113635,0.11848835504572643,0.8083255517819842,-0.7462972409576323,0.4097999258138661,0.22971898286907208,-0.561151428033356,-0.03543055512305434,-0.17215599808304613,-0.38598957161587694,-0.5526390057565089,0.24145156794798556,-0.17734921438309936,-1.6231316773507336,-0.46268771149672916,-1.1588751042213208,-1.3694395341395498,-1.0352613447810304,0.9249923859496467,0.07145902728389357,-0.43259495729227543,0.40060594264873184,0.01056374991179388,-1.3970493265218022,0.5703305243355882,-2.336608561889536,-0.5874497290826661,-0.2658929605142839,-0.14142036373831815,0.1297179030385663,0.2196969735916374,1.4858261402384543,1.6337553851329296,-0.37562184556797185,0.41103507056227107,0.4130976496033223,-0.5683249224976198,-0.06244863933713137,-0.17704991567711745,0.44417329661287797,-1.3836754418976926,0.2608682954512483,0.3118861549380451,0.13726726988703997,-0.07825178366508208,-0.04859944316128851,0.2709692201396037,0.311008667115013,0.4057278946854192,0.0505577672633988,0.09598716228920039,0.2236685849414091,-0.29563899517931325,-0.050749680977555924,0.540830941998288,-1.389708623912083,0.1854048738589673,-0.17664047518565495,0.39617235222188235,0.11384809224770974,0.22571280230060178,0.29653136306923555,-0.20248925526726236,-0.07483098162597786,-2.6721158148057618,-1.2750577682575754,0.33699224805397426,0.3416595343511341,0.11311804065723279,0.021390830338712537,-0.3373304963483594,-0.38586539151277943,-0.2349597546044108,-0.6198196706594654,0.2814939239803056,-2.265020660987258,-0.6925018384598643,0.22383374197500738,0.021803866751906157,-0.32894483686534454,-0.29336477010643214,-0.04802053794938294,0.21758732060062547,-0.2132177715029888,-1.7906596739609375,0.15989406610387147,1.066446884001705]],[[0.011076477148613864,-0.04598204304781472,0.044142288297196484,-0.06753762737514751,0.037554134660305424,0.03401330942555968,0.027766911866295502,0.11764065271222154,-0.14432586543563003,0.12159646974541082,0.0856792281599376,0.10617029965389727,-0.004599062534935388,-0.1400350262708244,-0.13197894437411142,-0.11336478679819834,-0.20526190429334457,0.07052629891549661,0.19242345083672951,-0.07135452311205272,0.19377311795178986,0.11489132959019784,0.01464566128371159,-0.012977886490506466,-0.040046902330794755,-0.2831968404040508,-0.08318990299204757,-0.10953811648177901,-0.13424324980977445,-0.01797757000246115,-0.012044184314831455,0.12554121953586994,-0.2254910031546127,0.012699548221079058,-0.0949650786991434,0.05690503709129388,-0.15038170902612014,-0.08092482796100887,0.1260247134426271,0.0024006493144507687,-0.14128919492843992,-0.1803735467227122,-0.02334577952238939,0.055334338381265925,-0.15299785816014927,0.07635673815306646,-0.11812536244582365,-0.5693798089262438,0.12800876877134248,0.15656855052196114,-0.31362213262284094,-0.05012182742816689,-0.1246408627512332,-0.10225856848857252,-0.14718764824091632,0.2087160114254575,-0.1479996783695741,-0.08626063400302351,0.03545413115331088,0.12214155965582865,-0.2776455464995237,-0.050278123376500394,0.16547181723658302,0.05555724521527971,-0.12460940471621838,-0.1443525435830668,0.01565454938163546,-0.04856693382764668,0.26412347037032186,-0.030490429826434965,-0.04283162412387229,0.20037146105277806,-0.053374894424323485,0.20805017936749864,-0.16428849586173216,-0.13633862182348497,-0.24326092384239126,-0.12766050012457905,0.12252172426903829,-0.03383155649669943,-0.029682345934832113,-0.06949933806495927,0.022275680927446626,-0.0450057307644237,-0.08340722779397658,-0.08390666406100121,0.17454651215888897,0.0691037002082615,0.11106686047889927,-0.022751740619811105,-0.21481914882497358,-0.09974660001224755,-0.03296999942987147,-0.15039629476647173,0.20016338454961163,0.006525229390991774,0.05137312654752775,-0.17864218210742588,0.05631625199320562,0.035027109715076964,-0.2021366627770516,0.12368404239748779,0.07263919619078309,0.13524939975118902,-0.10048277584732318,-0.05997814743453444,0.08711964993440552,0.4418872267873912,-0.11282713973414463,-0.19713563346950816,-0.2885246655275168,-0.0735673414009069,-0.04934246354084088,-0.011689310565162191,0.19540567990081653,-0.12276516747730706,-0.6180068334986245,-0.08936844990743865,-0.04948517807620203,-0.3226858379440017,-0.2678184845967367,0.20754459175310314,-0.27798224375339814,-0.04959322498827191,-0.06626722661697974,0.08400827784711193,0.09046033821328665,-0.09633755225974139],[0.0020611473784801332,0.08481383312262834,0.2804857907388211,-0.08796115239624744,-0.02187788177479516,-0.23490335272097568,0.009766390202088948,-0.06388970888457701,-0.07428874489579754,-0.0485714788628049,0.0009688594890462382,-0.16185548336446282,0.09418085304963056,0.003462105043750148,-0.023270897734851723,0.020631428336352824,0.14277597368699646,0.22828452755760045,-0.25388287745909305,-0.09779869900635806,-0.07394951318833219,-0.026276930406125512,0.010604230077177637,0.24472203530562517,-0.2058068673323008,0.2778118673937897,0.141412997613381,0.10190730577062823,-0.2375305639449512,0.07157125814016038,-0.13597965214698365,-0.008201049353923733,0.6558183796279178,-0.4609807237577528,-0.005366380781890501,0.05051042214438562,0.17696242160548234,-0.02114724989532219,0.052506622487352106,0.364665390852583,0.3396431454713329,0.1774456489996059,0.2283258262184459,-0.08309374810537937,-0.18571110879442618,-0.32462435735700024,-0.09139540993910912,0.20466263156383843,0.22745826015860462,-0.23559751080894806,0.4919242826393862,-0.15696900875501252,0.46327902192440795,-0.24463881964767123,-0.07089495288323228,-0.2782387250265027,-0.08645138081057559,-0.08778540784645984,-0.1397785958538023,-0.02176719011255759,0.21379331397239754,-0.12368262540224091,-0.14616440486437846,-0.21958093063105327,-0.06904848112383834,0.25281775979763466,-0.15061695123552116,0.19684211643990207,-0.0005313712281763123,-0.2002763774600223,0.3340170538204191,0.005225647029173167,-0.10636843738464415,-0.17760417456274447,-0.11442087896095421,0.014058797757937972,0.3576457049558982,0.28636463582132404,-0.08712054979706399,-0.009599496846762227,-0.013502022164458841,-0.18400419105516325,0.31443773465169117,0.1899280316624798,0.03451333120391398,0.27854169359919606,-0.017654299389592017,-0.1183800750858539,-0.1360882254676167,0.07589059845119246,0.08442861335854718,-0.07997333101525822,-0.1632481551866464,0.018231485196244717,0.11763111893949389,0.09739377902560585,0.2010380326765539,-0.13156922567390852,0.4510512919438303,0.24417972186911455,-0.08896830971166833,-0.48785048562703026,-0.3445091011547517,-0.08464520924041848,-0.287456337625347,-0.09251517306817579,0.0984780134543621,-0.46058609299427106,-0.07613730180680937,-0.21993914281217694,0.27321850672646664,-0.13419712173376913,-0.10357031459659637,-0.09684119959151652,0.09267363667916109,0.3540484712823816,0.1577375895758626,0.04010619159768924,-0.13779173208365036,0.12923718495623474,-0.10511341840221344,-0.0247585690285954,0.39165213902213164,-0.20182581918413536,-0.1677898117388242,-0.04208712818143297,-0.1882854447104679,-0.026508351769782765],[-0.25602099153214214,-0.23180561939508762,-0.036171640066628666,0.17558756786717133,-0.16218704673661014,0.044768120869991226,0.10156815129237055,-0.10762915033899574,0.028371806031533456,0.145016625615844,0.018481662431076802,-0.0423721380672565,0.0037356791780699546,-0.15115476682401063,-0.0027661692883138413,-0.11316881502443664,-0.19723965844869712,-0.08769964775854311,0.25256430607806574,0.16178511403192347,0.18473558006340526,-0.7743554643418614,0.04651769850273148,-0.24191492565792685,0.16819654311135196,-0.4437804263796605,0.1478894562885986,0.06234631691132327,0.029403264062266433,-0.3369151422954517,0.11669873216853006,0.04471825540729626,0.11692091063579926,0.15677695017982207,0.10007759570549543,-0.1765561809224702,0.047828443013694544,-0.09723085445422522,-0.06449784604525097,0.3400091766748887,0.005388322835557766,0.014975092805902576,0.1564784523442583,0.004761409191666049,-0.19927294945056975,-0.35062107071671955,-0.09186675472029329,-0.24069642177296693,-0.073250442426388,0.21665500358407785,-0.025618594024532638,-0.004536244225841587,0.02156439646642256,-0.1142670318594618,-0.030588840685704707,0.19757411033503328,-0.12928337903404516,-0.40864449838102296,-0.055190179846258874,-0.057308755577980215,-0.6560875435857026,-0.07367417305949968,0.257801959750976,-0.07327875566026874,0.28873401959527994,0.14651554730934477,-0.21306832985802202,0.39557350537805724,0.5461280955279906,-0.2170599354518019,0.22083898345527633,0.025899268253373436,0.18859166963297408,-0.20790775334784087,0.14135539673486802,-0.1640645737234899,-0.10878361798044649,-0.24941048922541187,-0.1921888243792983,-0.19942735326798997,-0.025696050001782978,-0.08516656857980567,-0.062467111228035,0.08253078302931673,-0.08949601589023444,0.039879120008970946,-0.33869777454581895,-0.29542978089413496,0.08210888325531873,-0.09026528605236868,0.12929488525066524,-0.11479833752884874,0.08151486275971852,0.01992832431587578,0.11059961148325208,-0.4060411166859906,-0.10302955298000746,-0.22950359762144776,0.11614206177170232,0.0419421362168911,-0.01672803121655382,0.2660293219892087,-0.0333490918844076,-0.031890098836349204,0.08916381266658938,-0.12308103862690382,-0.06844076484818379,0.0367789922559323,0.04600533561469058,-0.12048045550184723,-0.33673306102934536,-0.0045465905364630325,-0.23784091789965622,-0.046479132922853564,0.05047254181744901,-0.284225414967575,-0.08089252504733362,0.21477229966782274,0.3077531282555898,0.10385571029358066,0.016185009726185678,-0.17081319178430923,0.020493534834794883,-0.4372334575342367,0.046696124973372395,-0.0074647430022578695,-0.11683747943565098,0.03555436633202558],[-0.1555671173470564,0.07587062678988887,-0.10700580940439555,0.10192638676667272,0.024047300674708137,-0.032122180632817,0.062453773206440626,0.12279880022747627,0.11901985105268269,0.0230286831671739,0.10297934619800682,0.02410364104690851,-0.10202789439307516,-0.0469683514378393,0.05332675324242157,-0.1107353342503397,0.07290413782922134,0.008841655565898297,-0.08685379481028094,-0.14180997188377037,-0.036180593597998544,0.1330311965261888,0.10096873902629609,-0.007459561362079422,0.27506808263738786,-0.05901565047610096,0.18204061951803271,-0.03770245209673256,-0.4255805376868615,-0.15153449257275511,-0.09928259409804048,0.02354746895053542,0.32014009643755476,-0.2629922885620225,-0.12050752360410337,-0.23593033425591883,0.12697935981265154,0.1797200270325549,0.03952705413514499,0.29208907287013325,0.1332777581020551,-0.09377633872661129,-0.04733566579628132,0.10348055022053823,0.043276664403478396,0.11553944285102058,-0.1327795860974287,0.3792310999722433,0.05258813746591337,-0.19476760937217477,0.10068988427189324,-0.12526946408635453,-0.15639323570705738,-0.16517284081372538,0.0639984346326413,-0.12009423295234732,-0.14206269885771947,0.12928182398557075,0.09563208271686953,-0.11247886683465437,-0.3686781756340976,0.38955039916187345,-0.03013421614459192,-0.2590690429018057,-0.0005500964114117563,-0.016898258859330807,-0.09372294531507117,0.1479745549540243,-0.03198819739148759,-0.18411592839042815,0.06472693620840334,-0.11409515399223549,-0.027724515802906063,0.11754178476878385,-0.24310647201206823,0.14404712968515462,0.3010110573417654,0.1874352031206448,-0.009711713652711727,0.12715236952575382,0.06817550046298777,-0.1494279401902373,0.2461611790542236,0.09886392062339171,0.00014230736077100532,0.2214684562295453,-0.04690366385000961,-0.13807635681191088,-0.14565228672506073,-0.16103707848907473,-0.04356240954689494,0.2539179854807894,-0.1103834070010074,-0.011362799221050475,0.050525832974344355,-0.0665815069691703,0.1808762051655213,-0.11716189458740017,0.0992433397088884,0.13931301123313736,-0.15277119675286652,-0.21723032266241327,0.0984707689263508,0.026815106924062575,-0.049584716344700346,0.041394632963131575,0.06709426681598216,-0.17588860592054273,0.11072342006929381,-0.008960367352969442,0.10239256687561685,-0.11450947329011754,0.07705599708647747,-0.0567842082071991,0.007784762511300137,0.24301874826168574,0.20919944886646763,-0.152518598797296,0.07383871308329999,0.07626426175537689,-0.038891261275755845,0.04900569003873276,0.15240861847504883,-0.08715093954466416,0.4161502018956181,-0.09307966573115967,-0.24245336424194908,-0.13316123130362179],[-0.04200220058482561,0.15176368864689527,0.10911020895664672,-0.04792875472600931,0.15176129837914418,-0.2776189286722136,-0.19893477957350492,0.03372801953855363,-0.208130805192855,-0.16626308697783956,0.08416413444656488,-0.027854632160413437,-0.031081055216279567,0.04342082173686758,0.09299674663991357,-0.06293799953169335,-0.06252328929072491,-0.06110779259595838,-0.060575663916694625,-0.09928211782623818,0.12123496531074561,-0.05337233277205418,0.05612706354852531,-0.028920710159838846,-0.0703789963878358,0.17898741021646858,0.05746839916998952,-0.009530101302483447,-0.055800127772359986,0.021759260934274157,0.04490950688662697,-0.10403145743334782,0.14420750252006892,-0.17192267002850556,0.1365066799782565,0.0013325191629650203,0.08070449191955037,-0.023595630486788057,-0.04914620211588045,0.09798033591335585,0.01958007164829546,0.0275946578242846,-0.2618833413338851,-0.09665883328387913,-0.01386853668973009,-0.3593325598481839,-0.14218123538120048,-0.2793969154365417,0.007744021035955433,-0.39090123846368113,-0.08296512425201087,-0.06320166758235438,0.017580589350857795,-0.09629511055818339,-0.012726817017886964,-0.13079022026558493,-0.06408538077300834,-0.010698679076478382,-0.044479399973517394,-0.020685868030539258,0.32224634801735824,-0.09000456833103729,-0.0986266571950059,-0.41552951957286755,-0.21121333721984858,-0.08273506849141067,-0.019065666035102142,-0.13443329634612655,-0.08829894766883394,0.11433171376033986,-0.09838768997583691,0.16230484452626262,0.14769914092134584,0.12354688434744106,-0.14320717322412166,0.07947176285440055,-0.04021524040802918,-0.11471817809110392,-0.06767738477220368,0.07873448311111206,0.043959188251567596,0.00010391307150468864,-0.20549258104610016,-0.10508806592260478,0.18291006922331585,0.012216714372620539,0.01957631387964707,-0.22366169525673202,0.007810655724602228,0.0017769288286084617,0.31646043084273257,0.15308333367803442,-0.003263911251612128,0.10185797233932817,0.013927506908325568,0.24256882354740572,-0.14716696929543624,0.017005165583852153,-0.06795178153899913,0.08273958945991708,-0.10596598205093503,-0.12034779085572384,-0.06432294715466208,0.08064849696732138,-0.09764168040186681,-0.13112886478618402,-0.06715093622972533,-0.09865959375296433,0.09831169635332297,0.005135439142184098,-0.12012546295250258,0.025208200365031196,0.03628650495697448,-0.1863284871632531,-0.04788552340623399,-0.0029072261473149868,-0.24960824216684513,0.07624962764754172,-0.06060852451907731,0.25663154368875685,0.11569517838745473,0.06523969402889979,0.3062077893314846,0.1017248752875643,0.02818975583748576,-0.11571441536518741,-0.07675715090810245,0.0823335055842489],[-0.22372152649216048,-0.03663863809830178,-0.0924943057739779,0.06330632710748584,0.14665580790226423,0.12714079635659362,-0.32826325744990853,0.029158193725959267,-0.14041016811147994,-0.023845390879185777,0.17487353034065947,-0.18014776840044833,0.03474138807357056,0.019213467161040786,0.10974119522460953,0.08873326833471906,-0.014662794413257501,-0.045551486307321046,0.2077316504496166,0.07270907953969033,-0.38895825656438304,-0.4575474472468325,-0.10323114622086807,-0.211559976768192,0.14577998713983903,0.09814071898360552,0.14216352484515402,0.061832525030653916,-0.15599942613666642,0.22801727879329445,0.1979176199858137,-0.008724794814782779,0.16067140447230827,0.08449347662882789,-0.017582244781320432,0.06664742815711575,0.3046054098928768,-0.1331201733658805,-0.04951180736514583,0.20185181574146316,0.029434605218157706,-0.062083805200046055,-0.2593738144894048,0.052693559243203944,0.1397015064662281,0.24171263755816055,-0.05198299512727922,-0.08970579831918031,-0.08991180336793167,0.16552767532164314,-0.3973374755365823,0.01141649996642257,-0.19905202080934062,0.012542000225428502,-0.022101764664631988,0.18737003066059538,0.27785684339194716,0.082620249212489,0.3174771301840646,0.1092994680925261,-0.3366578799011232,-0.07024859391663249,0.05467308679933967,-0.16124480054681006,-0.10691059309808104,-0.16543522925274523,0.14212979342667728,0.10110624202867098,0.1087997445184968,0.05865406659389534,0.16166578610682786,0.06092557858922584,-0.006767081232893446,-0.004530062719094221,-0.03365273777422203,-0.12036965633389075,0.09962792279894601,0.041392955664412055,-0.129567638477865,-0.17885168077736735,0.03741432600643137,-0.08122800356084837,-0.12617180039503975,0.10588089300376394,-0.1964753425879675,0.10324614330484032,0.10862383124030289,0.1834020704390696,-0.13992130780867948,-0.1659933289827774,-0.15178379260807875,0.008148540988743659,-0.14959283677115534,-0.21518800022047993,0.09538447098645084,0.16040193988319756,-0.18070500613867244,-0.02681700005642832,-0.04773977012240071,-0.0005432489838835925,0.11701533268794931,-0.021767852186719932,-0.11991933758509607,-0.03551059022227966,-0.11482758185426128,-0.10361070188863426,0.16478293744502018,-0.32090241815385806,0.04511047573194519,-0.06461174982484322,0.03525438114345426,-0.09472876788877774,-0.3060496071579376,-0.01858613951933635,-0.006655063304071424,0.05935477801518761,-0.2886298460441321,0.17213975729482764,0.08264118197513037,-0.27055740482759427,-0.045588315871960494,-0.05033610833626111,0.003456264023487158,-0.11928198096705753,0.057057949756148106,-0.25577824382450004,0.18470885460352535,0.22462110101695984],[-0.14825529274522087,0.021045946611521822,-0.19780304512831265,-0.040091788775597,0.06761980119361091,0.3436767010245456,0.2189986894693784,-0.005806401125826296,-0.2857334156759194,-0.1704581799432496,-0.007984611817581162,-0.06763922929465103,0.1596744933915442,-0.0806160747659199,0.19672661493890117,-0.19950150534437794,0.09854129203848518,0.08088862580729643,-0.17564728828042453,0.032081260915830544,-0.10767273062478537,-0.16027556570917753,-0.11651147878456691,0.26970249286871445,-0.09442332858909751,-0.3691853739097868,0.1432037856408374,-0.07986815156228225,-0.007237906355499298,0.1851634331768494,-0.11484172426207465,0.06377777093021886,-0.08479838291716477,0.006165415780758403,0.16117509900623742,-0.5396820427558605,0.17242053408089772,0.06851327947162503,-0.123788384709301,0.38444410318596073,-0.09099985884530108,0.12057242838713107,-0.1402377176385216,-0.12461451532251004,-0.08720058017784284,0.13088618295980164,-0.05117158500926473,0.1567223603503783,0.18435544379042543,-0.18288146766877905,0.14865915761891724,-0.01110023328551597,0.45366603623384005,0.010304793427753636,0.09527436552821394,-0.03173714632764119,-0.274203283683041,-0.047504773416019844,-0.3120323082659521,0.13876138097541038,-0.7914314811671702,0.180805645257352,0.10889838495353146,-0.16332001877192562,0.10749288396482039,-0.12618894812578593,-0.20391797412171672,0.0176378574234602,0.32888905168606863,0.09097500826196198,0.13573558600724214,-0.15829546647711515,0.1019846972920704,-0.00609106303029699,-0.21124457896274962,-0.03035422163250967,-0.13587653936911892,0.5671863997224295,0.09372191872015224,0.11638320287833083,-0.5120471614758392,0.372677338591558,0.5514568424114755,0.02679481475193727,-0.0762215926915221,0.36202266323781174,-0.04343808095519046,0.23094392824972038,-0.21234976238557668,0.22020343784401045,-0.19177237003720493,-0.07861967687531325,-0.15842569485266994,-0.2681503963925473,-0.01852133251829254,-0.10163416918302667,-0.007455197551022042,-0.03695965758766338,0.46183071546526194,-0.013091052576731389,0.4580247789889114,-0.2872368334657757,0.03736604934221595,-0.02636850666051725,-0.12836326315804994,0.12268656023074516,-0.14396511635454576,-0.4809108959177152,-0.12464167719739279,-0.18275160526206896,-0.45473436435356446,0.12234372775709992,-0.05939758106434613,-0.08505867661724481,0.10309814657552514,0.24180902315764669,-0.12109170346733811,0.12376769715159101,0.15327374912488573,-0.1394356821362797,0.3425225435540982,-0.24237164649725595,0.09677876020795596,-0.13259386206319568,0.06138013681883075,0.13868925247627573,0.22102529909107793,-0.14935065708002057],[-0.3606541297956458,0.01700070895338879,0.055332677421831275,0.20136043539588086,-0.12622566164364477,0.1386686118518914,-0.12967701588904765,0.015536032762180671,-0.07481230313822362,0.05310565933721684,-0.2226866178232324,-0.1294437358743498,-0.05514122147543767,0.15555212368351243,-0.2104805482979037,-0.13392806984119252,0.11032926527514933,-0.11883582832854107,0.03344091834694363,0.014573491854682067,-0.054622851288745125,-0.4095586373738922,-0.20158147549245933,-0.12127951862677472,-0.0672599915279123,0.3050206043735927,0.09572302998208615,0.02397651559224166,-0.11958139487283242,0.193279403187055,0.025188795609858337,-0.17456541953242694,-0.5052386194686111,-0.3136197923225467,-0.1348735488720056,0.2544842726207972,0.11023044342539609,0.010522922771045704,0.038931926846916515,-0.09894000649796476,0.02807530829305768,-0.13128759260500625,-0.11483735110734603,-0.027285492080368345,0.1630608078159263,-0.19190307482772329,0.027149165740899966,-0.0889089230707234,0.03818410962862145,0.047389669448819824,0.14448980677032502,-0.12087610937296647,-0.16844836747334735,0.032514956554302234,-0.13635782584177136,-0.2617711697571755,-0.3379446575073249,-0.08545578108200767,0.08810461888439605,0.09900307552709316,0.1830238154266761,-0.06297923186768788,-0.10949364459844074,-0.3288987058996447,-0.31272053008466927,-0.055861088805571904,-0.2693456967053846,-0.17977309517097617,0.08553956371642266,0.04391659967908583,-0.1653614761777396,-0.16718744149821949,-0.0499030640848923,0.25318586409103194,0.057474153243391404,0.1261354453930546,0.051329382460106626,-0.1733032206024565,-0.012964816905883894,-0.2758281740494289,0.1427932055384318,0.05312783883970897,-0.30443710443587463,0.08184255261877832,-0.07567945631536682,-0.17774127321369557,0.10358497535849805,0.2134512490051011,0.029588529030010562,0.008172369651222403,0.33751382805741076,0.10261326989985238,0.0032588467581730184,0.02128292821795417,-0.14237407426613954,0.32934671272318344,-0.1519215181234679,-0.07530788223283348,-0.12778844274497927,0.08311930831748601,-0.10398638185621606,-0.19304716436450356,-0.08983275114153691,-0.17099043948129466,-0.26152832827012995,0.11946137366288842,0.1338263467226329,0.14258238184099856,-0.034685933632235176,-0.16514219749765638,-0.03284446189765408,-0.2839800690003524,0.06887025656052814,0.19598494076386813,-0.12251813040702128,-0.06748096229867433,-0.18298578250656247,0.2099003715739495,0.0034765281016413806,-0.034455128606645895,-0.5088193761483731,0.19388608403444024,-0.003839545115550995,-0.05280041714352016,0.013066192014165269,0.06054176711505216,0.2903414180053129,-0.05908399299587793],[-0.2537906387597096,-0.4263442438253304,-0.22777733945249162,-0.10104728170013313,-0.19286283959695585,0.3052003357476581,-0.22147642940381954,0.030292565828103753,-0.05083547844765273,0.1993081927188462,0.1171345644681784,0.1498894804422302,-0.13067681545863466,-0.10457653889943039,-0.2859424118925481,0.18217505231764278,-0.32804867464427406,0.020964092809204266,-0.156653783121957,0.07819081401215776,0.25871684423029595,-0.930271385539552,-0.07745888623791657,-0.3700114042520116,-0.6258983575211194,0.12576572079380827,-0.18989925954585288,-0.1000457140557532,-0.09972774143554664,0.5251404686017163,-0.0065750079087892235,-0.09293176787573182,0.29967950352024564,-0.23912957746631175,-0.17762601308300163,0.12266072182929276,0.2081376298933495,-0.08127678668090245,0.07560091297747494,-0.2078614273153372,0.5773580658409795,0.2414836673956123,-0.17529195008618084,-0.26045941094364694,-0.07651702397708668,0.2290233913335505,-0.10175955352045218,-0.04579549741725312,-0.009841646737500485,0.3348315100276749,-0.5141024923122708,0.04547159848841729,-0.20547765897453535,-0.050837940252654784,-0.4863091910449982,0.06217002592350694,0.1680101949886367,-0.3946997303799286,-0.43068351453164183,-0.18721220748581663,0.20168975852226703,0.08772014595329583,0.25241337751166004,-0.09330240008880397,0.13019591165955835,0.02362988389254815,-0.5807529636388237,0.4354396457612669,0.2848707407075268,0.08799659967795903,-0.011425417769420467,-0.09045778670444463,0.17729981493136804,0.19970051625450588,-0.04117380748566096,0.07607601226806546,0.2543761658230596,-0.2130156338167341,-0.024853589082936278,0.05836981297444835,-0.23085920529241222,-0.11563331451669111,-0.24752653256697885,0.13101055623577146,-0.014688071611491578,-0.039345314396301144,0.02793918801329277,0.22567100425147651,0.21023971283433135,-0.3644222659199455,-0.057525202044675705,-0.3119972992380786,-0.0015307443837864953,-0.04943733529603184,-0.01955320658506352,-0.22194623292689425,-0.18419550251434275,0.021875221438832148,-0.45981372840327495,0.03489315973380475,-0.14448134589082495,0.350510457208721,0.30543743938445056,-0.07741272980125684,0.15315358591849484,-0.19595607956011493,0.11129049834214177,-0.10788864670967538,-0.04855222803840461,-0.13094001892871088,0.10634107602666054,-0.03879086472773722,-0.4010182337724103,0.30601285272010975,-0.12962566242998286,-0.5547111282941375,0.06088234632876599,-0.23963097598750016,-0.6512412244205964,-0.1528894869718287,-0.15079770360039352,0.05492696930134887,-0.4713578678221346,0.017870025403460485,0.44229623019442005,-0.5423056717484699,0.03680413008007673,-0.4167503373298315],[-0.2542450066918141,-0.039508596935931554,0.15754708197277853,-0.13670474939083513,-0.14447692955643207,-0.04245295841296476,0.13152640597661344,-0.05080549429992966,-0.04782232551216583,0.14996199159565216,-0.20489465845320579,-0.06785532312430545,0.0020093626465143093,-0.14196884787088285,-0.1757587122491096,0.11881007761424575,-0.2424538995268083,-0.10745885221554864,-0.015494799341241004,0.010478880887475719,-0.02850480126182067,-0.36175345414217536,-0.04758314316048794,-0.05924036764923191,-0.02034901416066526,0.013734268905693322,0.028766903074531603,-0.07568398818592727,-0.262058616576061,0.13753881524819972,0.2023351607819125,0.1001402908690434,-0.024487878598354093,-0.03381758398535584,-0.06755703123815371,0.011483021768004779,-0.15196323754089844,-0.1565363762793593,0.20404676493769947,0.0077381121951170745,-0.07625764691506023,0.04945080405987415,0.14604694946722704,-0.06830377737961582,-0.14730633445185343,0.1466884391433791,0.09157092229110933,-0.3439443098867833,-0.13511742041959546,0.19896293783223337,-0.4804515800257279,0.0518342586234741,0.2344910588249236,0.09366642146333679,-0.07420417728125865,0.21496074932611706,-0.13073259690782799,-0.18279684252654094,-0.010569547950361014,0.0013699209215129974,0.254372151787677,-0.2356539464955676,0.10556147568703243,0.16708789908307636,-0.02110728875931749,-0.06540668162533896,-0.2384284607159372,-0.0835012613340714,0.30813875548942293,0.11020373175508645,-0.09500801686516495,-0.05864186144611636,-0.08265031694480761,0.06687413539572612,0.11283840879651179,0.10211745261976686,-0.10561304087961583,0.0743955871167309,-0.10833176098359458,-0.08591003368795005,0.20097262490083906,0.08630600501538804,-0.006708442800489195,-0.09349173042962461,0.1621629341977167,-0.14755912115317618,0.024822922512673522,0.07426660566892104,0.18807371596103048,-0.1633300103228236,0.0487017551263151,0.04886359644137877,-0.0745051887011214,0.11973655268755588,0.06339165544941891,-0.07703405653966568,-0.05041219550466983,-0.23882682764612265,0.06451439390590878,0.13922419942468978,-0.1834537288297415,0.15428280538413452,-0.13988296480953397,-0.043233627783865275,0.11569391869953041,-0.10633710401047435,-0.07537993708050097,-0.1076987010703594,-0.06090046598752029,-0.16241274322343238,0.04966515472676004,-0.028722892184943005,0.04878558283566306,0.1989219977496226,-0.032220287487606025,-0.003319751574998053,-0.1945760857469473,-0.042070501526339864,-0.17110350124609328,-0.02318287109645,-0.20462530506251514,0.12292858836088755,0.1434382293553051,0.12349107243966938,-0.12122511545108454,0.0033528994810380574,-0.050098998950868695,-0.1238224096011886],[-0.21236931453123276,0.04197058429674874,-0.04302801356123295,-0.1279812338891149,-0.26717371165396725,-0.1831450183457364,-0.09664632910505548,-0.17342383469528225,0.06368818913528845,-0.0444947370861598,-0.05340483261056744,-0.25711379751657226,-0.2801676809140226,0.026588299904242916,-0.2106468998304981,0.017186186780804896,-0.14630488394378474,-0.01808543323899947,0.24206372042897958,-0.20200866791887057,0.15082537997909568,-0.1864573470333842,-0.18822957840374474,-0.1306614718851043,-0.41937438824357437,-0.5551302871994382,-0.028579290304133746,-0.11700355957098985,-0.3065000248072757,-0.13631489213097184,0.1105072350959467,0.009199726796430623,0.26524096122630625,-0.10594182268151425,-0.21920361267170455,-0.21124351343411119,0.03987834880042452,-0.16186960597292127,0.014066158851900072,-0.5464206019784164,-0.05057895578227952,-0.15824014201325534,-0.2482251843228859,0.2254654853673674,-0.2089328280391143,0.21261579445607467,0.013538711174629205,-0.21315724039769682,-0.0008634845350123092,-0.07320004114251878,-0.3824772565720507,0.09658825425947516,-0.08190251528016569,-0.13947097872312889,-0.20881720699477174,0.0456166990309138,-0.3278537264243586,0.13959807561190954,-0.0833395474287729,-0.03709925299682117,-0.07231851981743098,-0.48756912114110673,-0.11268253045757452,-0.08068563071979828,-0.17785009671585708,0.06588134089560649,-0.07527497596691236,-0.17367624646118976,-0.11261489789871904,-0.09881756687537663,-0.11533733177166174,-0.2101711820262873,-0.07416913305658371,-0.0788978861233694,-0.31862037238650986,-0.1302571912339624,0.04262125366574799,-0.27657268025283716,-0.19520835123871064,-0.08717855759508526,0.07298901479177515,-0.1943870759631679,-0.06943095353824127,-0.594864583794284,-0.20886832583486675,-0.3557465711890447,0.07895402990287056,-0.2982376210155347,-0.1570126758911576,0.003976142458499176,-0.10835965484937368,0.0028678840774790273,0.12029278938183112,-0.13129848720083065,0.07388327658136712,0.14651494221874092,-0.20551186813311734,0.013324443977719825,-0.31776020357285656,-0.17429351658111528,-0.45049923916923756,0.04474334963092416,-0.012722189361532172,0.12422665060061837,-0.17184518628274764,-0.028077184280517368,0.05652689771723541,-0.2539899804989894,-0.053030382915494625,0.09507372241389865,-0.09810194184983238,0.2013031420510102,0.14887943987467417,-0.04090284188190026,-0.1591187973557827,-0.2900793621112507,-0.23661298314518317,-0.15086539074783337,-0.37438014194676933,0.13125101776701903,-0.22431236191781703,0.1804432993553595,-0.1708746241815755,-0.01729504910158404,-0.4614491946337801,-0.17651387487901699,-0.0728262222833886,-0.16683597030500716],[-0.03159910853725096,-0.16502020553200814,-0.15633834063892127,-0.036444725631222676,-0.028985421877951056,-0.20046059869778896,-0.05104814173090271,0.07076579241692135,0.3242123105730448,0.06524741310924297,0.13573112791967457,0.15936277899725002,-0.06907666185931044,0.07413185017418282,-0.14896998179678914,0.1906041244466245,-0.13164362430326373,0.09752191606694215,-0.08968076651638103,0.030758623657727666,-0.12295040228471832,0.10250492229558596,-0.05585059187089725,-0.1447569244968649,0.27973775448585314,0.044189949398022184,0.017075884508154275,-0.006193191062652622,0.10511158862344092,-0.01878288425836058,0.0013273870500971514,-0.0325210769055866,-0.08427172747386569,-0.13260924167878768,-0.019162056223321226,-0.0880838307319818,-0.0417594738858836,0.005067398520655612,-0.031069499403657694,0.017907735352817474,0.032051107833543,-0.10655057516811402,-0.10061418894843004,0.11231308592847275,-0.020329334298674808,0.10730984140706966,-0.04724505644735771,0.062949460975474,0.07562173374499366,-0.09466080074757673,0.31275603172144884,-0.1492535543325474,0.08546127565785429,-0.1779227664162914,0.008316653545209454,-0.015650797678420803,-0.008774409232156406,0.031800698232446314,0.2676088838307785,0.12515649894667646,-0.175547698852724,-0.2264358924613429,-0.015294164419860241,0.006881613159252904,-0.06826931258225344,0.1278351700959608,0.1418601107585031,0.019339602855893322,0.055351797099054724,0.08787154605632512,-0.08221074883743071,0.037475414945226694,-0.04114868167515275,-0.14429533924489465,0.09834673164883702,0.1402242636706456,0.022785368204691004,0.025547872109923937,-0.13334235134487726,0.11422097731503633,0.1261334872439679,-0.017486758645174467,0.06577670209878914,0.10081395360508105,-0.20328320807202405,-0.001521748004805781,0.20713945396602698,-0.10340343215885511,0.13827164465191066,-0.0534142337559616,-0.010752277286982222,0.08504764414798072,0.015211221660177025,0.06005738234995902,-0.13180040829605183,0.00044020030911886415,0.07284785286335718,0.07690748358397037,0.19218811025812957,-0.06680908740529837,-0.11690101564369816,-0.0547050506781463,-0.1802063754256832,0.1516487223640024,-0.09825776511427918,0.06162956763386544,-0.08872932837370998,-0.1267251566039008,0.13377083278696084,0.04277486061044775,0.0417112066873732,-0.051484701144505526,-0.27365231143772956,-0.08744904317360247,0.14359722914375742,0.0430237539418171,-0.11442620772614005,-0.06332449071824828,0.43194437429501803,-0.03516929528032517,-0.25820071980607173,0.10408233533823315,-0.09090244264284555,-0.019048978995152815,-0.016260933063087915,-0.21310487207940237,-0.1421914378882288,0.15041505305168784],[0.28439138763960703,-0.1440833569119074,-0.23312576062896848,-0.04110535611354969,-0.04044359039936522,0.28288037924874815,0.38373578456842966,0.052263866677543847,0.588456056095853,-0.14221895960470698,0.024736366882673246,-0.1406974652945649,-0.37762091711161916,0.1796429216976195,0.10239586831065524,0.1389983593887664,0.46967338613609105,-0.16449059032305996,0.1009016045412087,0.13242893031432387,0.25601711311274084,0.6994995234655049,-0.05767217413205258,0.13408584886140887,-0.4082844327524239,-0.9102565886236086,-0.14107608210151956,0.07383260699687985,-0.8624580189171983,-0.18081415887652885,0.05991960257215483,0.24862411874412496,-0.2969309616061264,-0.4151702341689612,-0.11790470299551395,-0.5423617759197455,0.05294138504077991,-0.02807683276890043,0.08682085879337084,-0.26834519663719403,-0.23932890645152896,0.1316439908897538,0.18622548210817563,-0.14765643253734922,-0.0907162673771436,-0.09567360618193614,0.05029879701062082,-0.2217733937385976,-0.0392919761742423,0.2266046118857752,-0.029844962285014393,-0.015819502584870797,0.08969401088409514,-0.09011952068366456,0.0695653164841306,-0.07185613288254677,-0.20546040273980853,-0.17432595483561714,-0.15963294660653948,0.05329426469181307,-0.31336176115589975,0.006988594800835123,-0.02337505526159301,-0.611203523214353,-0.28331034859091764,-0.07541530408866494,-0.1263575930766494,0.20187691181148662,-0.3512144709885055,-0.06609091632949858,-0.07722176251281976,-0.03397924690154995,0.042304695487522824,-0.048253497375294684,0.13610518050937637,-0.029016286161225036,0.18715144777249398,-0.3691235413358956,0.02179279947917819,0.03429211831181532,0.7770436862769075,-0.09575384359328687,-0.2266762086916459,-0.0907141570146768,0.23894459842524374,-0.037371426227549034,-0.1308157360379526,-0.3093629764734448,0.20270779041825737,-0.002565290351648302,0.2535214458258145,0.4498277162386494,-0.04159819544195237,0.20514395039479189,-0.10359953973005943,-0.09660020241742726,-0.08278752281433728,-0.01969105756550594,0.08494233667576874,-0.04555194032993745,0.048055706250008795,0.23152607712912857,0.06743253993220466,0.03274533252350457,-0.2655281374092055,0.04939881377123384,-0.10733052427632726,-0.3127716663856932,-0.012942805500818154,0.003114426840161876,0.3747246612007324,0.14261450495601377,0.538726924336395,0.11693176350519463,-0.17737782865205165,-0.4077525114898339,-0.18750736995823272,0.1534631011679089,-0.21676455655368626,0.2226707264164086,-0.325817823147762,-0.0189692624619575,0.17244230853754064,-0.3459247732673836,-0.3568253374207292,-0.020567396316618556,0.24846626761393456,-0.1704673395664116],[0.34486808624106186,0.12554218144261742,0.04485445132021993,-0.05236093793050019,0.014355775350078894,0.26869821915416203,-0.38597208478366835,0.06947024201388895,-0.20149761837569993,0.14539245948696222,0.017407821970006968,0.15748854666269368,-0.21476325750887532,-0.05665132408224658,-0.39985149517377644,0.028674198643156356,0.17142760822429445,-0.08369142217676004,0.28553755184942264,0.1133963307915501,0.1969653942290116,-0.35527716287966393,-0.20570746316760866,0.14224202862342772,0.002041368100352183,-0.25792661371840053,-0.1902391992722259,-0.08363529421976096,-0.3143522980494866,0.15393273735362878,0.14161658630285556,0.15252941591993951,-0.1736862270789602,-0.004572234080543599,-0.17399395785543792,0.2903382200759589,-0.2077886795100111,-0.2930470358803883,-0.12160641539699701,-0.1557411375068121,0.07480386278572736,-0.09731585611621411,-0.04264754690825451,0.21513649278711106,0.20697273842601663,-0.10063827622548192,0.05204491120257378,-0.2026884657350732,0.17279189954521537,0.11551010884976456,-0.23689690971689578,-0.1373297765052311,-0.2811779670134373,0.06453301550614,-0.3232011157157581,0.24473923759876795,-0.22090128244473345,-0.3475215940012444,0.35202170224558804,-0.2273963990828952,-0.6000440820702069,-0.1779139394356184,0.387781537727191,0.25787784570993366,0.06363323184686082,-0.2070173121302261,-0.056633854959876516,0.05754585293204789,0.36472845497829687,-0.13326083088714383,0.04322129828073409,0.09365579387815973,0.10912716542737504,0.006149656851134699,-0.022284440176810867,0.013548268898369601,0.018274759344391354,-0.3517532081124765,-0.051395768913458664,-0.159968518109277,-0.09780917120381395,0.3206972190191948,-0.253193536507022,0.33238869033952284,-0.20439077665665795,-0.19965387252393366,0.16940402466779284,-0.10106190915985927,-0.10857231151470796,-0.14812176392607598,-0.18579531822862158,-0.23723142258204477,-0.13770539692921155,0.19666696751631044,0.08893929911916097,0.2976555400244609,0.01875542685675817,-0.06490744815968244,-0.2878877903954055,-0.08875380105266174,0.1774602164445725,0.10916678706432426,0.0607208059331527,-0.09270391491674654,0.05815698652582849,-0.07287510583213051,-0.09962384969024192,0.2200185173825647,0.16687522445631608,-0.1405816898477681,-0.08945815846281066,-0.025960237904144198,-0.13793018331337253,0.011054012044914355,-0.3768088344130608,-0.726727546170757,-0.11941063517849389,0.16047542956048189,-0.4437603345472121,-0.08107947284544764,-0.3503912278673851,0.015347323562283513,-0.07503012163645117,0.06870750342752269,-0.726169253896503,0.11071628209122375,0.1047088643629261,-0.31975314582144976],[0.4810751787860455,-0.0592770666448525,0.12212769542460444,-0.03756010558135615,0.2645521483350725,0.08063212432728106,0.20135914174362812,-0.06339559468729541,0.20998632780159143,0.08423465614948926,-0.03597736305354221,0.08425847557582267,-0.009552508852017529,0.10891029546406077,0.28478666744685893,0.06099655854553528,0.21151631400787402,-0.12014253566315619,0.009040038005732212,-0.06753509712240315,0.1747698199483992,0.5086141401916352,-0.21734097743532763,0.20979958688844466,-0.2584220287588795,-0.6191813700841725,0.0378938151095266,0.08240948317853855,0.08176946966885489,0.06040365659852234,0.010930889857970826,-0.09667098397692432,-0.7251372896881012,0.1683196294622703,0.08229219300871592,0.02877275558041418,-0.0232019442446629,0.07668616253997634,-0.01247594059369261,-0.021103136677438968,-0.2846139523246187,-0.07529154145769335,0.0993656948023809,0.1886877767990102,0.024557184904246195,-0.051530895470356164,0.11344045740395119,-0.04368447459919921,0.17884634653907402,-0.3429266710199464,0.6680812337224981,0.10280435657905022,0.2636434255388098,0.2042840224904547,0.41240071891564223,-0.008253083187350713,-0.10608713246660897,0.2658985760634176,-0.15273987123677452,-0.06030289294450668,-0.3052804703205922,0.12025673981772565,-0.3987688095670473,0.19508111507859194,0.029242545622688437,-0.09010184325718955,0.15429005518478894,-0.2470516814882776,0.03733714323987779,0.145355542201123,-0.34701660947903307,-0.06419569176260849,0.08519539993996406,-0.07678591301944335,0.050845126488984704,-0.004254170531220276,-0.2851340930711623,0.04346556646756776,0.25603150119811113,0.235697689133862,0.04667119304954574,0.11745134702544277,0.12005456526322228,-0.021887928333693303,0.11645512296389303,0.3263920141384979,-0.00414475833541501,0.025728163134784245,0.0772590228969541,0.40989948057740555,-0.17211397571390236,0.0950202675623801,0.10221253754074715,0.07225066927734952,0.2072133946316338,0.06957628968350997,0.26381618275428054,0.03986119246417496,0.0744799660578541,0.09576130444374192,0.12988569864336763,-0.2997512132683464,-0.20995546106477214,0.11618572262848226,0.040360673706165834,0.08938536569741701,0.1270697326365233,-0.09280767056801856,0.12521977587896585,0.17766651797542052,0.24148716682253096,-0.04309023552934395,0.22437806562608617,-0.10122136858920347,-0.08800440912830691,-0.21152397993165314,0.030497094217006675,0.006426464939567089,-0.036974799998937824,0.22907640067604457,0.07670362835692289,-0.04239139310364082,0.23276568218549845,0.009629333861476226,0.26103464945360094,-0.12067275814476716,-0.12759152043513325,0.009504375545171861],[0.037874122459652666,-0.19876120870466224,-0.061538568389065795,-0.0013753048234152012,0.0382517332679828,-0.660160649093539,-0.10452189298690352,0.12734204143471345,-0.4443086117201008,-0.12425939741336212,0.24728436268491602,-0.09094863134031465,0.17356913577541375,-0.10293734579314334,0.16801505153275462,-0.151081106266713,-0.002330608070569568,0.06197665142388604,-0.31616703956402736,0.03697629335827006,-0.0890414138256469,-0.18013800596819707,-0.19479510034488345,-0.02348686662177605,0.33677954757408035,-0.20712246084251246,-0.1727501180003987,-0.13806777396578646,0.5139649602214736,0.16865137425053406,-0.018809413983585172,-0.21634372686378534,-0.39284272309527113,-0.12751235707227482,0.23472893236685957,-0.05357653627645957,0.20608038911604096,-0.08994713931447865,0.09313100488104832,0.09815333329410532,0.23051325798206534,0.10063551065439409,0.1281067887887748,-0.05657048593046084,0.10113876730561162,-0.21867621728708203,0.21684440927377477,-0.3506300677510874,-0.07277720830438121,-0.2774075531113897,0.6372937271723528,0.028522441268613526,0.6490172077519524,-0.25538539369486035,0.4165272900979023,-0.11679617290046757,-0.133728212362385,0.10321314204076638,0.14228761837887532,-0.04514947719246852,-0.07931846533410541,-0.044315041847192115,-0.059867808527941366,-0.3348666465446923,0.3553181461054191,0.5879841261224492,-0.18535884000309713,0.48813898504185,-0.089892000904179,-0.20589184204325428,0.26192009297499,0.09809006730914234,0.31657132456540815,0.15080962798941522,-0.587728256049321,0.01485005260828434,0.10585325919016543,0.054211212519099716,0.4398569508243605,0.38723216713429076,-0.49512076166466357,-0.2335114458843035,0.19922466958249763,-0.43764377844754654,-0.028592465179720333,0.18861937829875375,-0.0758485224033782,-0.8075010625264228,-0.5221145734447941,0.2198115689777914,-0.09308234169229836,0.0949470355094718,0.07752570926901803,-0.34518917721993714,-0.06470594903518637,0.19787608735117582,0.09680638870908725,0.050095606403875656,0.6200531342669264,-0.10011250706849346,-0.22739858335887964,-0.34620950837251385,0.39538722407441546,-0.13216972063920332,-0.049247562180279564,0.1648421265791312,-0.16226575117094255,0.4031053730260535,0.06565994950141094,-0.0634194673470579,0.015458017414114457,0.5619220408875425,-0.02715960313526314,-0.14864055940700907,0.281768971448226,-0.10977499121772871,-0.1272038894958431,0.05878385027842388,-0.2211758960544799,0.2803850837808945,0.37151358251266525,0.27559252455376143,0.12325733893126785,-0.028883369901333476,-0.10931261544683571,-0.25004750145613847,-0.4650017438680138,-0.32328873440408806],[0.10266385448574583,0.12280308114060884,-0.061895102360678814,0.06068804026784281,0.11344179013531049,0.05632599289212583,-0.15990800881447528,-0.08974692823763288,0.08937938117480608,0.07946543078159325,0.10967965903776741,-0.054831305284804885,-0.12431727651591377,-0.03017340405969806,-0.12056685755435509,0.16231059014152832,0.23948567128999115,0.005677971432035549,0.18868295044540637,0.08943454970067315,-0.013478491730925718,0.27032067426870504,-0.08561007282107315,0.23379177072605473,0.13945463571998298,-0.11968543142842782,-0.08076874857005116,-0.04540647991500013,-0.09128264955967201,0.7339945172949353,0.25907207471613697,-0.1385855306154498,-0.47313699017780597,0.27061110196144833,-0.12809971751916227,0.2557639589257697,-0.2755520107492843,-0.16801394489424937,-0.11126185453159297,-0.6130666136427845,-0.21916181513687658,-0.06789442204398147,-0.3073919493009251,-0.06748574263693029,-0.03141816802461208,-0.2169086082213701,0.04360292406321524,-0.3950463086240997,-0.0059525290288202585,0.11016997416503674,0.21170673961129363,-0.1300456539938798,-0.09202499229074874,-0.028234373486417733,0.07212423316075355,0.1047257725224408,-0.07741538997274122,-0.16139082676961522,0.5614830825377366,-0.08045409632075506,-0.3540108785926934,-0.12291705038288891,-0.024233611644820265,0.28004033307299747,0.032472686458102966,0.004225425982749115,0.03864136795287426,-0.07446875623160361,0.17154328235174188,0.12604062964826612,-0.01774925644996395,-0.07145510040717093,-0.07207955167252837,-0.05692576026972552,-0.015931799252611362,-0.030587564897403448,-0.3970781883471023,-0.19382456202340012,-0.15767349436962563,0.11283779124315516,-0.16349840231641352,0.34761173827815717,-0.37411814287630163,-0.22517304424189266,-0.19083406651845378,-0.09429794000530044,-0.11348179838692506,-0.4731120964579785,-0.014288396348604498,0.0898666741571914,-0.2459683558944806,-0.31569122641774844,0.005408592447740344,0.036299770653711656,-0.13233437372138201,0.13705900285559633,0.09892132528851769,0.0003944555566222384,-0.12370959177006761,0.0020947919811617876,-0.11292148916015027,0.1378667400745316,-0.22281966360170266,-0.06480795782320035,0.07173503228821768,-0.14468562046894218,-0.04353653302657328,0.13415116700804597,0.05065597410702523,0.05566995654526051,0.3989238851491724,-0.07538216970858706,-0.2021601727888027,-0.2442324155899642,-0.0046839843916854605,0.08106402462659827,0.01967330380747203,-0.14565984555692335,0.35815567141157323,-0.2252763915042534,-0.3097171014675146,-0.10223858273411814,-0.08710579540089572,-0.062453929193979685,-0.21143642597147763,-0.0071972060323793555,0.1422029966025383,0.15214327644219058],[0.06033580692011002,-0.0849105936926422,0.04470310226521705,-0.12700700964305545,0.00904399836093808,-0.02961014083703498,-0.008918732855086172,0.002278929051444796,0.1415693564318004,0.0007406001937305072,-0.017799379985863957,0.10402712886675407,-0.1416694110830883,-0.1272288476776875,0.012632534519669277,0.006528266978707605,0.0702387454849352,0.059485936742396696,-0.12618277160193733,0.09374147405339503,0.11179818798335427,-0.06907174501491839,-0.08349543792252785,0.03742589581154341,-0.04025861357592543,-0.12699074534811633,0.10793933709503296,0.045750999407782725,0.0770895731546328,0.018191410009039368,-0.06085968209265375,0.022222255865703765,0.01700491974547585,0.034240858563073344,-0.09595153492104753,0.11978692307210494,0.09672861187966875,0.016155207966009433,0.10724204154918208,-0.027538763776494512,0.00993635495381084,0.030064471259099328,0.0844601118138695,-0.11600907888817924,-0.03902101282018919,-0.07299446000489741,-0.11841728755689783,-0.03894357011040905,0.1592552249706236,-0.008312654544724097,0.42527139995024654,-0.063500164429132,0.188365932412397,-0.13530577363165364,0.1637904092206653,-0.16094557753316988,0.025750504447009968,-0.018722940864869655,-0.027648529378461604,0.061071713026970266,-0.10581665796944782,-0.021354145969425007,-0.09548364971259013,0.14879615845208038,-0.05301879701297845,-0.09008063453543358,0.22663318808676716,0.070103172372298,-0.11165964274042367,-0.1357031785894122,-0.1537712213703097,-0.0872954526560232,0.07159969483761347,-0.012841476924624623,0.0013498375571295114,-0.000054751476407636,-0.045609546635355935,-0.170429329835677,-0.055341867860134175,0.05717490629687517,0.03557840370265045,-0.24254738715288776,0.04746213641406836,-0.18809960133718184,0.001964691035297229,0.006391161564487731,0.20399715897267406,0.037829039673183934,0.07602574207946726,0.19534637874320102,0.002642871645580504,0.10374101768676043,-0.1384785648600764,0.20141608880036485,0.06977940279016102,0.06500022382114794,0.0883187131545647,0.15079090802232709,-0.1321476716381345,0.1284443534531458,0.04908493853034642,-0.09210527549826901,0.13800551574927794,-0.0010138791673052862,0.04179850688848082,0.018351382458348282,0.0530576323057834,0.14844977175135407,-0.12527426327950117,0.14717622233814717,-0.09617121597345234,-0.012699797106677083,0.10031291724708342,0.013235197362192601,-0.09392873972949262,-0.18397097584782443,0.09775098972011478,0.004268811089139613,-0.010830553635740118,-0.01809437641221447,-0.17127238679001983,-0.03812132235220624,-0.058306888236923864,0.09184676402958679,-0.11636267128748705,-0.11366805635346197,0.21699217208979915,-0.08597747752189126],[0.18068509475548433,-0.03151974323626235,-0.49672923723709067,0.09139294055757859,-0.2084361128963284,0.470556729111208,-0.05873986697871848,-0.1512244382017472,-0.04757725695862693,0.18232429618362672,0.24966097890831596,-0.197347221266626,-0.23290960896966503,-0.06586925764256311,-0.09342747095491732,-0.0030101945393202333,0.10008555921452875,0.09742641424155203,-0.21465412841093476,0.2090508939646019,0.07166501223566986,0.3586085718699103,-0.19763733171751757,0.296228816342224,-0.25965941434086176,-0.24963367326196836,-0.02088866781657803,-0.15089707288560048,0.12238299521244068,0.1004267297208198,-0.16952476947525644,0.0562990202957158,-0.6007600076825659,0.220605923266356,-0.1867143998941259,-0.08922194440133903,0.15925716014156738,-0.10868733829529424,-0.018211293865483924,-0.27976444335844514,-0.06950789273779429,-0.02127044553046175,-0.14125461357812763,-0.7140266533404376,-0.28380152169322376,-0.592941349345556,0.035430960274303744,-0.12241864469130205,-0.19114324963237844,0.21432639783138935,0.18134267429431605,0.08629554559485583,-0.20119387350723242,0.07991800487378993,-0.1561848781228205,0.03122765745833461,0.018370228065914308,0.0033077528517611522,-0.3593420941859991,0.072788192468048,-0.07772607974989236,-0.0887036344567962,0.21097873958522817,0.05040202995146509,0.27144436094645263,-0.04653490943418864,0.12092860632836981,-0.22292595054182512,-0.4758044066863056,-0.18151151885900704,0.17949805343778505,0.030056155572564074,-0.11118592947212462,-0.1457628564685894,-0.48920261476109034,-0.020723322375385666,-0.22415489492953586,0.09673116805457653,0.15699991385153814,0.029345957281441636,-0.10161624472766632,0.08599946744626069,-0.11829937095231433,-0.087307039677935,0.18548145464202007,0.0704330562612079,-0.7537570347911866,-0.2520174653953095,-0.16559268582508996,-0.04711111354158574,-0.07301958453895145,-0.1485650208763694,-0.02349401270411517,0.4684531993555446,-0.16180921974694942,-0.4487557925164806,0.08940879409147798,-0.04195875423281809,-0.24364097901195758,-0.26823950739834673,-0.20697893922594915,0.3146338716886524,0.23400522289793937,-0.12754466473083545,-0.03962900599664564,-0.18237915430381765,-0.032034046984495135,0.26915261915172733,-0.048739116466610985,-0.08749272352775911,0.21070172016144603,0.10618684097006419,-0.2368515184248074,-0.38490482876622995,0.1696702782668203,0.49941538596542684,-0.1141075281453018,0.036485404767839125,-0.4486398247947244,-0.13729585148090076,-0.119410968543248,-0.07680030075825064,-0.7799495004639276,0.03125834346826316,0.08016700500507958,0.4885007977052936,-0.22028015459477157,-0.22562027237758614],[-0.02713211024638787,-0.1194837095794749,0.3276295013898681,0.01328881799246026,0.05712766061240396,0.17812289160280323,0.17223085870066576,0.01716310106526551,0.007073302807783629,0.02563565086060063,0.09557532760039582,0.1881481232034144,0.03312041261515454,0.09656268263040838,-0.019487206978498293,-0.07028404211373834,0.22614214002067887,0.009296013379804196,0.11880505496775848,-0.0910496709898453,-0.24286813585423295,0.3844524355855429,0.0007833079703290398,-0.1320824856350292,0.18563616329140928,0.10410571635978086,-0.11830585766248901,0.08651178614609288,-0.31539523978484363,0.08959664144215233,-0.133723714039239,-0.08906720407499029,0.4888941264746275,-0.282362956363375,0.2119844906114587,-0.20286745386401417,-0.041941065661821264,0.08751262637602913,-0.05002554085998871,0.5267637894435442,0.002375356037043181,-0.12376253906018059,-0.1876199764078251,0.38420961010229737,0.26882897688250895,-0.35103722262267084,0.1369377287244269,0.21985325797748412,0.29960281319222126,0.2901798715702947,-0.26001549850421807,0.09569306361018746,-0.19192494183013012,-0.2730505944497566,0.13851821071337928,0.01061099537324012,0.3017513276210386,0.23973219863293335,0.34649588290811073,0.022219885012731744,-0.033372006003277194,0.09396188576255032,0.07702627933499566,-0.1451288767549357,0.030168059645671104,0.14964803179496577,0.37100128677718297,0.16499395664770491,-0.1415320567357774,-0.0233909523339243,0.0370572534702807,-0.10602132549339383,-0.08218111265696613,0.21078723989780937,0.32122331607433724,-0.04851949951684132,0.13014602276753395,0.26074081199339744,-0.1558358279800303,0.11937880148780668,0.11601354007664683,0.16596210991819874,0.47027033327824336,0.04591467736061525,-0.10260754014486657,0.07748348924046161,0.3217317830732187,-0.14062979904845094,0.19030109828503383,-0.1660364724025266,0.013201651081920935,-0.3551578062379248,-0.12023327403987294,-0.07317807735620271,0.04497395187469857,0.03735602895517318,-0.14376997399102143,0.0526336580829713,-0.006279906422416621,0.09357201898006492,0.1940305386521146,0.231573343981536,0.024346451964877922,-0.0719998928328262,-0.18848446151989237,0.10563752801358008,0.004127362569157315,0.14242486795994036,-0.09111523794945377,-0.27380125148688506,0.3634071874016505,-0.06200640542816881,-0.06908369051169579,0.24680915155584357,0.22022655317814624,0.5349225558746049,-0.601023690486752,-0.3741307036809614,0.2530024793525586,-0.19671253647177897,0.18634685968394674,0.05507294613369247,0.15336071581318889,0.05317154358762547,0.3168647689302083,0.03192373843454514,-0.1725786240197166,0.1116077727929907],[0.054713355058558316,-0.1361377271722013,0.35177058932627087,-0.00014741694077254996,-0.03256651258047514,0.16512939231552826,-0.023335743941669106,-0.11574189722926823,0.14903411866360491,-0.02446153710533387,-0.07440547384041755,0.1106367351178565,-0.04715096138168135,0.0005784729152278919,0.07822887173608126,0.1845821320684341,-0.16402092153268155,-0.08452540929640823,-0.20111828922023944,0.05582256859800025,-0.06696559211813119,-0.2020143357152281,0.13051048041130445,0.021394840191627736,-0.03849883017454187,-0.07440099479959937,0.05182010086507392,-0.14248248372912845,0.12470417823276346,0.1018793863186505,0.08697770371503707,-0.09668363347727998,-0.032406642590425985,0.08098966074843698,0.005663639653753119,-0.0741397970292164,0.0661330092266002,-0.09396930994710881,0.058348615056542895,-0.05283585939691991,0.007546998473891148,0.1206069215865717,-0.02406215429476886,0.18995882179059256,-0.06529198036197138,0.2602531989962959,-0.07613836205710862,0.2129422379940254,0.04837277688582524,-0.06463385077418626,-0.06346823809330264,-0.0035180071587870114,-0.16016740079170025,-0.004326281916132518,-0.15408826438870962,-0.13128274329327042,-0.004971211340525424,-0.16575791666986894,0.02218297022742209,0.09205750829292232,0.009441512560317106,0.14074609600034524,0.19939055565418962,0.10792224728458776,0.06574368530243949,-0.10060842043300944,-0.03799388244564147,0.1800006248179518,0.1555328815526136,-0.026818455892259147,-0.1075866319305247,-0.06501357659740731,0.09457491002972583,-0.18150857691504185,-0.13410324388894537,0.14125404105809497,0.18392249675821426,-0.14999117888602603,0.05488242765015659,-0.080810837942122,-0.01667263037466736,-0.05799342964235146,-0.1085004230706709,0.10907645772300828,0.05075874019179284,-0.0026778918253069443,0.09256496491353615,0.1840399404397257,-0.11944068831377114,-0.0418460966662964,-0.0952568092056474,-0.09979249840100109,-0.1414258947722418,-0.019880524998207288,-0.12912553500330343,0.1527380677987162,-0.1628877956929208,-0.2437185884964232,-0.1977043430825322,-0.08183577488562202,-0.008922146527794763,-0.0758358645499371,0.10628587142386388,0.007021716580182758,0.2635387368831977,-0.1873196161113135,-0.08964371331745395,-0.04142845772966532,-0.0036123652430808833,0.12378723473114471,-0.18020050963812584,-0.07733733565272112,-0.17250957713273288,0.21593646656006346,-0.13377198834617562,-0.036242443376567665,0.3178498161038101,-0.03347611209604593,-0.2230849700981861,0.09169383480875636,0.28629394896760607,0.035138683030975906,0.009875714238298788,-0.035605798338375697,0.40023009619370187,-0.19570076600097952,0.007944237688688025,-0.34724689542282544],[-0.23513281678087805,0.035319206054030945,-0.20963800519881307,-0.14550290361713655,-0.4173998288937247,-0.10795671956359823,-0.03737906152046947,-0.21953595438262677,-0.20418718159168667,0.13323157522793835,-0.042657969365753313,-0.1673650744450206,0.074938313646336,0.006772362904826541,-0.10236838001792357,0.027454622515295624,-0.21212628531261266,-0.0793548977545919,-0.061975111023617795,-0.001857175344353516,-0.30325596732018273,-0.5166354161112781,0.029536960706755856,-0.18371072604706593,0.0537305940553807,-0.2639757300987187,-0.11868490353292482,-0.023292990928836823,0.23152056411826144,-1.096310775692732,-0.2515935552983167,-0.08914580313495929,-0.17157749662038985,0.16721269293565158,-0.0653963532156619,0.29190016470627506,-0.16045852676635378,-0.052650439333369194,-0.2599903066545102,-0.19367924746734924,-0.09239751605008775,-0.12790184611574268,-0.055872931253501415,-0.1411230784677548,-0.23519646318540754,-0.247696084579114,0.08934958576493335,0.0007884327120691089,-0.25857906034717315,0.18490714494747948,0.01743776065669666,-0.02411055265088006,-0.11058182344565365,-0.10182331282886817,-0.14380625594270466,0.12286725344210699,-0.1877839909807371,0.21572682644866784,-0.22738036303515669,0.02313270320567079,-0.026291682608735358,0.047071330313505154,-0.037173682506260235,0.24063780220543438,-0.06575591855477525,-0.17851544985173132,0.2903193615479092,0.207997273000637,-0.4564837309818822,-0.6821218456894367,-0.5370589083118464,-0.2361144626159172,-0.21562390332050457,-0.39558808302841925,-0.2335438563600075,-0.03416374639405353,-0.8631291776988755,-0.20689980040808056,0.04304706469876074,-0.7208805835825546,-0.18592204498814494,-0.49524787852972507,-0.5852657476398957,-0.4502746007202956,-0.07786229100818337,-0.3936906008859225,0.12337651252678739,-0.0256363925788674,-0.33842128103806857,-0.3140837402438321,-0.09994703620260323,-0.20893310575532928,-0.050904591215468475,0.1667287874319305,-0.18031294126318895,0.09159701032284383,-0.23094007102991795,0.09110187399848167,-0.7041205969087061,-0.027711121013708283,-0.49362230750945923,-0.4149046699676893,-0.09474486179722902,-0.03546195126507152,0.14318134557855933,-0.055427044121014915,0.19004519293381383,0.2379657843068203,-0.025082755731436635,0.194673093378791,-0.021870169302566803,0.12055446156694186,-0.21624975835847005,0.02668444253528262,0.07820047363949727,0.0427430233364017,0.19406118890678356,-0.1043888151010418,-0.09703994594969328,0.19281817181418798,-0.12444372603913718,-0.2607820095973243,-0.700112437057512,0.1849227044210811,-0.05176093311124231,-0.23185359446789175,-0.2600458417372517,0.11389908367796778],[0.11365930642414729,0.0685621574948798,0.05896430614671527,0.09411417255404278,-0.14097891822261752,-0.228466346630019,-0.12386627775930953,-0.13285158027614213,0.2919268551970928,-0.005494550642962681,-0.1683532966580797,0.021812955389168203,0.14664003296743294,-0.006659808602719176,0.041730962816892946,0.06835343407574246,-0.10457505256186204,-0.12168596345555316,-0.06207075582849828,-0.004742789068515696,-0.11288828390556559,0.19367426444714952,-0.013808788760944917,0.025981555495313568,0.5453435299005535,0.4253588716025722,0.02880755359381851,-0.00020517171479935486,-0.01562746967014857,0.10711668059676852,0.1416468791842412,0.04515141211608272,0.37940942008874706,-0.13045653872163648,0.12952725082223776,0.2418783620934887,-0.0725821077148938,-0.16623416726228016,-0.11959815775446522,0.09992973747506198,0.07201638822113017,-0.08029021526894674,-0.1828594623129679,-0.0813080861387866,0.16494849424851746,-0.08076870361397608,0.13810243520677565,0.14971676799795214,0.14016410937244678,-0.10008637317890012,-0.03914491270260273,0.14521359057104227,-0.058641220821517855,-0.03055790641631842,0.0569388084797774,0.14299951023194304,0.1436466685886707,-0.11025648424457897,-0.039015503723438885,0.027343737037084828,0.16883866902297218,-0.05896789877948878,0.04198597488568661,-0.03016885067928091,-0.07176429360653734,-0.13245461246110604,0.13256099276482886,-0.14502241465723284,-0.193013246815583,0.06768533780824094,-0.16306946257969024,-0.051413637192888655,-0.07033127842262789,-0.08061297462737589,0.2081037494849287,0.03234743728580795,-0.07541582126453177,-0.09244620835600227,-0.08334962323003804,-0.14573942728845374,0.10670939090265162,0.08319262158643802,-0.08441021096612827,-0.14613348630533712,0.08602886801758512,-0.14885721038479996,0.1694905657102127,-0.04726488403342169,0.1821550421359568,-0.12169703169378243,-0.1869139074596665,-0.21341619134374742,0.12833016305290235,0.030721936757952123,0.19091888985113123,0.12053416704567031,-0.10228944175284238,-0.09141437158491932,-0.25369597341255096,0.04710520686308455,0.10600203783426523,0.03482743166253973,-0.1377541833689199,-0.13493219551753183,-0.07409229164619058,0.046385597546036,0.11993981244662118,0.003609740834737428,-0.052455783688238396,-0.0644682445261664,0.1271146332637002,0.1366102179647135,-0.07405214138366602,-0.009571262759990444,0.0282140088155255,-0.10221487827662984,-0.2010173669045101,-0.08112543423591101,0.3184968989788121,-0.05750603451139241,-0.09774223539783172,-0.020171253051195017,0.08481514975341777,-0.17195728322139475,-0.32882024658296694,-0.2277775138341329,-0.06526084741013244,0.09486686430138004],[0.06919327060752903,-0.019519361607070476,-0.05378808023762429,-0.11592691973372536,-0.05903229528539021,0.049259205553967886,-0.03404141209824448,-0.043527884772007634,0.051137321073327906,-0.11108870028430234,0.0019360120002936368,-0.04231162291720931,0.1542556575990889,0.08355356108793,-0.12410835549643214,0.05788208804735399,-0.02643664203883327,0.08228169910874598,0.12117255278963174,0.12279626130094194,-0.06730076226674242,0.1069308145944775,-0.08011785001362833,-0.032094308000800716,-0.1049355434803727,-0.09699512867028721,-0.035793036394049633,-0.08918150108015535,0.10368664497685286,-0.07398955747042452,0.11512523285645472,0.07741005209417527,0.03266415144123429,-0.01584880625327076,-0.05057171157075236,0.13317365565418227,0.0748693231557812,0.08806885514428944,-0.12153249488067382,0.144292846036667,-0.007527093925888196,-0.11570848907922529,-0.14020430614341173,0.011059564091585329,-0.03559756070990249,0.12854630995262958,0.12691052514067377,0.05685430423039829,0.026050808905558595,0.018305797159977454,-0.14733788085370023,0.05388768703179739,-0.14808558701939872,0.10618962223720708,0.019300103564726518,0.029070978264208833,0.0798554561740355,0.09109766729357757,-0.13401226628890148,0.1090595119258886,0.11511029200004741,-0.038077097796167574,0.13709608649799798,0.0031821949622499084,-0.11515858338130898,0.09188786718323158,-0.1502689143689784,0.06224565160012819,-0.019042865573580627,0.01686020180651642,-0.15179749642184115,0.10610289738810749,0.0277385476436954,0.08635829786895942,0.016814666184099596,-0.059461342717006586,0.03290133468108484,0.1422662223466452,-0.005914241385846705,-0.011675994032932098,-0.13029161700498937,-0.15162211367798442,-0.10463778222475825,-0.06250566596512797,0.12664728755031043,-0.10878325086259394,0.10616710962640341,0.08622889095102122,0.04335802895722031,0.12054014055880266,-0.019543516686169507,0.0541680508900443,0.13545585486518086,-0.08480873417283265,-0.12937033854099186,-0.018181735197760302,0.08288890730739781,0.09637835017850735,-0.021261594167126002,-0.10682131022579162,-0.11527240118109336,-0.08239076043417981,-0.0498668859321307,0.04289387254888085,-0.14187582249097014,-0.1500537552234562,0.13433073075650934,0.10700619924581493,-0.07845084104204855,-0.1361439133405054,-0.026271024055203394,-0.11614352482902783,0.019819668398326457,0.04695591152129199,0.08672782259112716,0.06205310132832622,-0.07224918843858985,-0.048032671711913895,-0.03735047858105779,0.13222031360581554,-0.12111250840964964,-0.12132395996378684,0.0651959870131481,-0.03693096526187354,0.00581263692435009,-0.08164509879781857,-0.14030652475497837,0.10690639860230725],[0.317762621847219,-0.14632951068930314,-0.07022257967789013,-0.16185814409701502,-0.2360761074425394,0.010042265060981062,0.1547275449092028,0.016125662546302356,0.18448483479346586,-0.2414807381165056,-0.12865769578749844,0.06940695397028225,-0.1902388733019433,0.04962176602483815,-0.08554565944092798,0.1595649130837916,0.10726924494041756,-0.0888226638565669,0.09731989452409422,0.08607037454353564,0.14263675829672728,0.26297375109655197,-0.19751462105105783,0.02255556258151038,-0.1487048459083248,0.0354944417854809,-0.042700204550723625,-0.049719850686200585,-0.13362852454465116,-0.2895573069397546,0.09736498354912261,0.302195269101863,0.5630603851929664,-0.2707137823234199,-0.08911959641633078,0.2588639716482496,0.02935393056423853,0.07206862024703045,0.09282423953814492,0.029307991226877172,0.11212062741275836,-0.06696371038413526,0.2808691485937297,-0.10606391642134153,-0.03685474996733362,0.035021738002845165,-0.0595890395130057,0.17012662689828753,-0.17338607177871135,-0.0069304616801731155,0.2135227325796408,-0.012413558994260528,0.20279187056779624,-0.33002179212962257,0.05854394128688019,0.2291589751829192,0.07674709116916374,