{"layers":[14,128,128,4],"weights":[[[-0.938575336451842,0.4776045074212896,-0.8344184830957775,0.01478873118028854,0.09753130991918431,0.4135242752628024,0.16906588293190788,0.6809004703910931,0.5437171486074552,0.13983086678551226,-0.7189834598151118,-0.46398512031710487,-0.3117941889510678,0.17341663737168164,0.8421514517673645,1.4777672820989314,1.6607482523051154,-0.8231903356714066,-0.2654187144842736,0.1232779442986269,-1.2270003888686505,1.387731160939939,-1.2902798340736665,0.2581257415233074,0.7569326875764189,0.667578233627865,0.862307602302564,-1.5574035263582362,0.03123927168189624,-0.9924791302541941,0.4314146018743415,1.6805158736528072,-0.2742451845087122,0.09725427689237666,1.6291616373555924,0.6886453145775326,-0.07846284608988653,-0.5783017939887671,1.5603859728569607,0.14854939548377363,1.231758251394987,-0.22928361133529637,-0.8734445034167664,-0.3094730710068616,-0.09902882131879086,0.386633281027273,-0.40843926841428657,-0.7090426901483547,0.7014719435442417,0.7282539673490035,0.8694031174390157,0.2794346171033331,-2.056824704632847,-0.19313792979897834,1.2868263187121567,-1.1816303437158893,-0.03547300548328457,-0.006739148448039385,-0.8024982657209263,-0.7401480340430053,-0.09182084146354197,1.6602334547012179,-0.1383697246602856,0.19481252947986155,1.8677845785430465,-0.6216935950360418,0.05872892079059803,-1.139034963675004,0.731495303671037,-0.3515322234308192,-0.31398510934484264,0.326441442505046,0.08988754614007362,2.218924493369054,-0.2098690514092879,1.0728291769575309,-0.8599518231491041,-1.0574736519506176,0.13148469556047537,1.3804422358677004,-0.9770409508928731,-0.2508720264555453,0.6731566772207324,0.6588905327825485,-0.23433835599584782,-0.20557027943051462,-0.2577756999012912,0.6767280384878831,-1.0039178186279265,-0.7996815106798586,1.490364992279182,0.8238121882804088,-0.46659045223878787,0.6680904574069334,-0.621545816860743,-0.16501853627066387,0.8992915944502143,-1.5913677334491585,1.5423996797210835,0.014681274662828515,1.6724134580279704,0.6530777701795494,0.5117482286808439,-1.426357463650624,-1.0238244073848444,-0.7892517790119967,0.033727245670283096,-1.219786875966547,0.9548792634859476,0.7375149389187888,0.3156266175381904,-0.8579863508778416,-0.31285450847781193,1.1633772213105629,1.0658478330725532,-0.11581101058475106,0.2486639611155522,-0.13787296166780721,0.7429359251433514,0.5871597491157728,-0.16788704649577285,0.18278922395670957,2.0793897511689616,-0.6320652319740194,0.6504491741239335,-1.768757097639006,-1.5184953223436917,-0.04173359167850806],[0.06952000091474812,-0.694526741043082,0.8734120172497126,-0.2735794156488909,0.8805815261594269,0.3211202453200765,-0.9180248387500416,-1.5143604221827416,-1.823440945871098,0.007919494758299526,-0.29806983274754384,0.43222513209226837,-0.7145244333851494,0.21588708813435478,-0.9958597577067041,-1.4180318855590552,-0.27882558330997753,0.17545624952463393,-0.49183174486633807,1.1570228428130238,1.0550481864366903,1.0387861039327868,0.6049738697286289,1.2541786867601752,1.0985409138043694,-0.4572191460674979,-0.7664724841233109,1.526638605241669,-0.8287057414404517,0.32708620945271405,-0.1325342763110293,-0.02086121165586517,0.6103126510583938,0.364899482330606,0.3154900537626728,-0.943684249784169,1.1546452311155446,-0.029212816326223596,-0.47359594833699953,0.018513640579552876,-1.2334574738673727,0.19370400086547704,0.9913760816940203,0.08698689433822154,0.6038250866894604,0.7786274783971505,-0.05202086459265339,1.2528380117466296,0.0537963684161853,-0.24600210317563992,-0.7754259718395377,-0.423171883836503,1.6432626726445723,-0.6426458894372294,1.1280626867696686,-0.7009789602673623,-0.6250799717352096,1.667170778619545,1.2434242295313096,0.13776132444056302,2.2887717632185747,1.897616665027577,-1.9124834999579352,-0.7727970712121277,-0.3620580353033634,-0.5248456933069673,-0.40463271581458277,0.9094769106410476,0.9358668262233336,0.160061398262752,0.4050175841041633,-0.3456855400814081,0.24943970148811745,1.6658905867516054,-1.2250401998095972,-0.9422462381177116,0.5450067272645835,0.34174185331277,-0.22532656017530425,1.4869137077068684,1.0584145783508654,-0.6804773217454833,0.45224192804781443,0.9120443285694527,0.6382421042253316,-0.07711548251092595,0.6435159401986622,-2.234606599833952,-0.24838587717772273,-0.16601124486653498,-0.0939616829288748,-0.9738821086078137,0.6220728548942658,-0.9751924697594299,-0.7162373894898636,-0.6339424501425844,1.5026752019696208,1.022691049551432,-0.3178484864823387,-0.47759647109221504,-0.6817228733105389,-0.2081002189541591,1.3065504861875086,-1.4181725434365091,-0.5081239163755519,-1.041510519140549,0.14732199759640766,-0.44355516368221903,2.0719052311243726,-0.7496848006836238,-0.8811325852995466,-0.14465525864378054,0.8238904907203735,-0.2710977639703754,1.5839107519273343,0.2249536416524941,0.5781342791194573,-0.8391173410694206,0.1370427664987155,-0.6591142850640267,0.8411880818860622,0.2887508733411606,-0.12079077249499824,0.29891185568512724,0.10233462496118478,-0.10475221643811101,0.968326458043114,-1.394312531706925],[0.8476730828824115,0.8612480881495079,0.5459999892972718,0.09479723633785897,0.3157477601561825,0.7185518972407668,0.837438259893856,0.9681388665169371,1.0952500761741677,0.009070727055485561,0.7221777098716388,1.423994530041688,0.9665607608197481,-0.297103507933207,-0.2252703722270622,-0.27761421489918714,-0.2484234923604024,1.7324488393761155,0.22646356601941733,-0.6835195718735125,-0.304735339368569,0.9765657153326925,0.9426227938435591,-0.18725580302729722,-1.716678972230977,2.0605705740075635,0.06433872419310785,0.47725672733972363,0.457461783085432,1.715323141417917,0.880060714641199,0.567750536326595,-0.8550091246984659,-0.1709978586831274,0.871331651477665,0.4136053007431547,-0.7032422424111211,-1.3710868247283223,-0.7815774697963254,-0.002653027092253009,0.34046628681961044,0.6706401689926382,0.19076165496160022,-0.5635748623866272,1.0695472518578932,0.8662197002453635,0.1501927172821371,-0.5969901841312948,-0.948381515513508,1.3268137937513758,0.3992583291176208,-0.8912611778049108,1.2504566867000788,0.581635253821537,0.9473603874553541,-0.4658071879932456,-0.7231624076471367,-1.6542946239072547,0.26495043688379477,0.6234804877326509,-1.5044678968051663,0.8828128600239181,1.2360880143240325,0.4411845256624208,-1.1247457852358405,-0.22326141003358618,0.3164012411077114,0.4456302410829867,0.771644632577483,0.2833073549027811,-1.083959678443207,-0.3742621487354903,-0.45656024464011496,0.6284334438199538,-0.2513724000742903,0.2737305175520009,-0.20936616318201093,0.3988579939425569,0.6859862986319254,1.434056311809064,1.3241283027165465,0.11955537968748091,0.4794802097024626,-0.11444420268733936,-1.1078896234179345,-0.06646368466788832,0.022417968206466632,0.9546893857808539,-0.7098100158380367,0.38321810281136903,-2.2150887761787206,-0.003217867599983241,-1.031610408293218,0.6733983949967726,0.0825348499779475,1.3116313116673666,0.8938475022100931,0.15034341345475483,0.2934360442279973,-1.0320498487080074,0.3113740516188355,0.08433376781254967,-1.4673458046673475,0.17518888778873767,0.16468098318135327,1.286350997910908,0.23432767935761395,-0.4039489538788866,-1.7352487553651719,1.1227982877319413,1.6377620797845829,0.5677581280532734,1.2343133643014634,-0.0223114991220602,-0.4343534355279747,-0.12677595240146888,-0.3446498426667953,1.3074416177355495,-0.19994552137039112,-0.1455135376354395,-1.852455467686048,-0.9312110997759047,-0.21994584145486523,1.1243107621365567,-0.6723596695823293,-0.09425050687082459,1.61395294671573,1.61005006421373],[-1.921331765111126,-0.34425904609191993,-0.6468768500609829,-0.2857078081252293,-0.4452028366583675,-0.5382326814398488,-0.37317236002113685,-2.1228361624175998,0.43319300364695223,-0.07802621036865649,-0.5547462876623058,-1.7330758788582434,-0.11676139662592402,-2.4284193656883706,0.12680845739930663,0.8061841256716379,0.2841291629437263,-0.025184078661452943,-1.485037901124683,-0.028398626361251355,-0.13120324817974632,-0.23128595718185976,-0.26318517977454725,-0.4462303695300611,-0.40935552609723974,-0.5236695168557476,-0.4861613895704177,-0.06062957221184979,-0.9298177072816678,-0.35195284855349096,-0.027201983658364928,0.8631209516129478,-0.6265326440014265,-0.03026680673959456,-0.21045329606065308,-0.5038996133555257,-0.4649603225511261,-0.4487966488347625,-0.3362840234787724,1.5682217642138736,0.19337439956554817,-0.38268306943355557,0.24331702762904991,-0.2580197204630788,-0.5240407196040932,0.24490370644870416,-0.17785312235595951,-0.7744706659282371,-0.10619537082396005,-1.1981359064317396,-0.07234600771451014,-0.4225566705754732,0.4644641732802043,-0.4833375141010395,0.6744286731986046,-0.0743780646064569,0.6607614550177356,0.1699957412579258,-0.8583942430674425,-0.6847074657464917,-0.01924741546970514,-0.7049313332094075,0.6902547806042332,0.44720826440624295,-0.2772994952993412,-0.21994543475677136,0.16658052992376887,0.05995209532553239,0.6290348945445371,-1.2691147727875522,-0.7257559542172994,-0.012748482748236476,0.15923541709943143,-1.2865561122004245,0.5971777633170897,-0.4277830518161541,0.12586322892312723,0.9314644634051674,0.1210640723191186,-1.020122782279905,-0.32811383646383385,0.02241851396024811,-0.2333095300197566,-0.8596764177944554,-0.6943095561264738,0.05219928748581766,-0.7674464899303993,-0.6384173096760404,-0.23554031712764512,0.30973558341049273,-0.23277209203921997,1.463021369873195,0.9267916817980749,0.38296793664328993,-1.587851610834603,0.29950380033407803,-0.12346236785548845,-0.1711359665579552,-0.4956893652973173,-0.4352855953821746,0.5180803564438554,-3.2621507203204456,-0.47072891719451815,0.215917791790629,-1.3225389003930204,-0.26353878635450034,-0.09555112849954338,0.9279262431237302,-0.32700798183706564,-0.03361210761184577,0.19797726687867445,0.8027264144845823,-0.5824464012862444,-0.36989090127410346,-0.640418635043169,-0.4357854801071405,-1.8012945176270985,-1.6979674031883278,0.8020166961251967,-0.44030509134047574,0.21514960772468422,-1.3385718124427717,-0.4979552440732676,-0.7875924527618046,0.7184545651348582,-0.05174367742332268,0.009386348057360947,0.30024688903347024],[-0.5826894470737117,-1.362166805030136,-0.8425386402296101,0.25768209390031893,-0.4054552100799047,0.8220924484994192,-0.3907620049942683,0.8884892210645663,0.6649514829979394,-0.20290536149965543,0.5014663780049966,-1.0010432489157228,0.6424354266095413,-1.3015519886468734,0.010715141671200634,-0.040295293467369486,-0.8508077698953124,-0.8092198751499602,0.2889864487319199,0.2515219252666178,-0.289703075721779,-0.5077722696841546,0.23894424468435266,-0.22033273132246337,-1.5220495168772386,-1.3433352607007203,-0.1459188918017822,0.4768126058444324,0.04310795753763879,-0.6027093852498159,-0.6854492595034264,0.5657220113188997,0.0004643452650937802,-0.0856569581388123,0.8688920827927628,-0.881659453428526,-1.1807085321776618,0.3283034724390941,-0.33669970691403517,0.14853382068236434,-0.5184320603257085,-0.28085988796485584,-0.8761975561318477,-1.505598298642507,-1.584117913720091,-2.414976179052242,-2.1926892569050005,-1.0633598374210167,0.06644066742264225,-0.5100793702263552,-0.8066974833812937,2.3745126059032273,-0.4098775088479797,0.3602238085659133,-0.17588985448292746,0.3062323369543112,-0.35617084504203267,-0.8514368791596917,-0.9181508443297068,-0.8032591396237768,-0.9915163312541531,0.44164280096955344,-0.8016310235607133,-0.229206192488478,0.6621667954115936,1.0124078944593968,-0.21463793615518903,0.6847598799192612,0.6757364472331504,-2.0131989132208528,0.6976630347822675,-1.101452533909264,-0.29785829102050027,-0.011053007857712792,-1.891817588443382,-0.44172600188338856,-0.04771633523197615,-0.5694938908267712,-0.20072491376488738,-0.35143769420904847,-0.721392631672713,-0.3908326212229762,0.10934524512061258,-0.13753850306605295,-0.760966000414901,0.4358274539746584,-0.022002603368155627,-0.667392452064745,-0.11077356151729843,-1.0602513224267893,-0.14250000971760013,0.024523235724036,-1.0334323441063977,-0.04938305901064869,-0.10304149259039078,0.12403984057681781,0.4632147447539303,0.5075103401984036,-0.767569517538789,-0.4299855969413809,-1.295370396691243,0.06240230754021188,-0.9037287044732963,-0.6092087251398818,-0.4283313239345396,-0.1974237066593738,0.03166379216404778,0.4621011099639551,0.4462731883237025,0.1711361079710243,-0.2824963872116603,-0.5043307586623125,-1.468337548900238,-1.0983037527013222,0.11269049955108369,-0.2389635781290317,-0.5912087866109446,-1.0668328913803105,-1.6544888023630682,-0.6136359787903025,0.16019567608447954,-0.181259460492412,-1.5982081429062434,0.7199673785807553,-0.23467477198233702,-2.1106515927018483,0.5714700666679157,-0.08135996121238906],[-0.6587191546818085,0.44218019950965287,-0.9797726914338089,-1.2831470988433629,0.406364292389181,-0.4277575733427184,0.01647060298939731,-1.140215941301678,-0.2190764522760524,-0.195980298507986,-0.3165468576172547,0.19917157337800867,-0.4296835369803966,-0.30495853694511216,-1.0230417794722089,0.28902064682720613,-0.9754154559998536,-0.32079425334020667,1.245725382786961,-0.4938426118428623,-1.0153965542619148,0.08965879289514272,-0.9046965505911555,-0.32160546600416295,0.12716374313208004,0.5750835035518949,0.3248971151252793,0.014487468547854472,-1.3393332423804964,-0.18149268859298798,-0.30200123255199557,-0.005726308509349752,-0.0731375650057849,-0.2028774959562927,0.16646787569384425,-0.443598643887249,0.7076702403836569,-0.03908234700040527,0.4834017873694864,-2.186407592410049,-0.2542745745097676,0.1442225103961324,-1.0440456548847932,1.2442548917015572,-0.8215114674313225,0.10921127159543846,0.12032551929017586,-0.7137455292271211,0.03845670606510373,0.19785468471344042,-0.06105494958572175,-0.2283583917779259,-0.39353608325786005,0.6961279145821441,0.11845489604887717,-1.1747459901554718,-1.258785816769355,-0.47388239042858815,0.7883105193146084,0.4017369395806029,0.16789473330821017,-1.0076636691973024,-0.3887544565066784,0.588234679900266,-0.3975960240130739,-0.07172264103165271,-1.4548949486834921,-1.0148899266902138,-0.06653908920074846,-0.7519837613026216,-0.07596027254407213,-2.359962302996097,-0.1513571157910471,-0.29823629166724647,0.06563090505787775,-0.30308553649289016,-0.04839844534329354,-0.8267872967175199,-0.20779174231320124,-0.5429911923225127,0.054128167121724344,0.0038268457703649105,-1.6308293405144063,-0.5133349442944961,-0.21505813573595747,-2.6033051958063727,0.3105684579788695,0.3800629457792097,-0.668079623068166,-2.052483287620996,0.04536303800632833,-1.1719535541820754,-0.22779538482339676,-0.3569733710974839,0.9736526022951537,-0.19849209489682862,0.2261767209235407,-0.560178589657378,0.40075460612896613,0.5727759411809572,0.6878859128785315,0.47645389956632267,-0.5644625142689892,0.16248791168203067,-0.1093420512890436,-0.3805774102260219,0.05045641644623429,0.5623537892227868,-1.055239816102686,0.16281234106926362,-1.96268252418551,-0.7229991814076231,-0.00006727790654325163,0.514228562223337,-1.0544987799391825,-0.24451969949144736,1.2873880196273186,-0.36778915975866444,-1.1976838088256008,0.736629179212748,0.21560959868593693,1.9089648604420466,0.07384541252648295,1.2217454018031844,-0.6511596985307169,-0.3089338034494033,-0.062229297923411045,-0.29235720257194275],[-0.4334579050717398,-0.16418698087370553,-0.20866091997493208,0.25546724485621297,-1.3810195033523,-0.9601929583763219,-0.12030393620190494,-1.3548054796013171,-2.443154638971351,0.0392205527175608,-0.5771864759905965,0.4673606460202942,-0.3192767429004773,1.5895428911013427,0.1709469011768132,-0.9941775205590279,-0.739701928509787,-0.20293355980369987,-0.15794668462331618,0.0013120225935994497,-1.276133171621735,-0.260352188279187,0.039827072922822,0.050489957880033,-0.7658639656203441,-0.8790765964640416,-0.11725657341936703,-0.39379678284997505,0.34907349337972343,-1.5242156651237708,0.4245066826885914,-0.3747450126439333,-2.5999151440481962,-0.07038884314819834,-0.12424235831147556,0.6665475976605163,-0.0017491833449862074,-0.08899452197172637,-0.6950355196034723,-0.5177393193266061,-0.6166745138739009,0.07833101478310472,0.4236461499099248,-2.8586128019095454,-0.5143921312421506,-0.17951783587577705,2.901610359464599,0.5624469683588568,-0.09165734388748475,-0.41836162316648257,-0.2276531622586293,-2.8927021691220753,-0.05020509443612001,-0.9704291409504782,-0.07355023889390934,-0.36114605517887316,-0.8966313896200073,-0.07473118072683818,0.5300014264306442,-0.21052830401945197,-0.6099170117732204,0.8868023694109274,0.17513868559100498,-0.3164302214072446,0.625382145101776,0.7550651881072453,-0.6825304564841164,-0.3572265824924963,0.23552747816410144,0.1151133419590911,-2.307561146601896,1.4101125724934536,-0.2829165655569367,-0.9778421786701755,0.6804281219869368,0.3157837193320281,-1.4374355479871601,-0.31719340110187566,-0.40809978290980004,-0.512887153233071,0.2674676008663653,0.4302449687443049,0.07846256681559381,-0.024974519321591757,0.44028463614522884,-2.303061719879991,-0.5680837218758176,-0.5238843626826776,-0.07255224287946582,0.6035211689953401,-0.8745789527585729,-3.3545440188241007,-0.8547782595297416,-0.27040119278399327,0.20002220901815254,-0.3784099708248804,-0.885563914747194,-1.5978612685538296,-0.1637651692827813,-1.62722260954944,1.01216940042623,-0.5259424569328481,-0.47605022319915646,0.10293001263072933,0.897495949300771,-0.5296470904558443,-0.39422919914096,-0.19730611824339558,-0.37794082711815175,-1.4783027225860548,-0.09182418322837232,-1.613363476578902,0.0934009841596529,-1.111885573840925,-1.0014163645315952,0.2681664369578301,0.28323967048049614,0.9253272215928237,-1.1351781714094134,-1.1331528975236147,-0.6661573036239528,0.03067276539089382,-0.44303441976591207,-1.7976987972945129,0.8505042634386536,0.7479405883839625,-0.3655530237010472,-0.8087744548675154],[0.14393848556184055,-0.740162178970015,0.46145382612559144,-0.373922379149168,0.02669098839716172,-0.3271802319690664,-0.030262653394848564,0.5644190684446172,-0.40527154660043296,-0.01108187811112518,-0.47138339976384674,-0.08414273501499582,-0.1137630224980432,-0.15763395515649997,0.5152458579068605,-1.2132166191188494,-1.0121105799416306,-0.6951912238452193,0.1805605936523796,0.8989285221349466,0.2654916907773965,-0.6551344157833169,0.6034587299282267,-0.7646366271227106,-0.6188457383888438,1.1924899099530393,0.35710714498480756,-1.3153811160819828,-0.10726127992473718,-0.036637339991700234,-0.13270352653557285,-1.6012717841339341,-0.25567991811664104,-0.09936621523731703,-0.2105562754523651,-0.4112071441511494,0.5042452510844564,0.3328862132890115,0.9422411173786986,0.4350343491790471,-0.424721099898963,-0.1754176578107446,-0.7583838596443744,0.6436287773044319,-0.30901457714774444,0.008725815876225574,0.10074068676050492,1.192073430544402,-0.3029757830471941,0.13392016375598415,-0.6637975358860813,0.25825157398789966,0.20190487908940616,-0.7751539971494805,-0.5276904212966188,-0.2661104846857004,-1.0657362105918389,0.7651700406551025,-0.8727761937098436,-0.19293557885348145,0.8476125949508229,-1.0991541084863032,-1.0664182603292918,0.15507966550448513,-0.28477609857869307,0.648934813495811,0.37375929611336084,-1.1806351560689052,-0.026587284779276035,1.1916740493848497,-0.24071453058224948,0.32871173164457856,-0.1927283379559858,0.13700686679064222,-0.14778138050551062,-0.006628123778896121,0.6386680852932827,-0.7319721366967642,0.32796462536190835,-0.5142429814216674,-0.5257681621899795,-0.08524611171673775,-0.9814942353403465,-0.4726344309445819,0.8047166393128722,0.39708429624500907,0.5232648538694897,-0.30445476711887975,0.059357940979404014,0.6518524733337382,-1.0964054872138627,0.7889746692841101,-0.5295741055382721,-0.5560166502413598,-0.11063374301526126,-0.7161208313755871,-0.3586229822134069,-0.7338594097897395,-1.101990335840063,-0.48634437486237975,-1.0933956334554882,0.26175243144231986,-0.6434330654455628,0.6892152906621077,0.024237544867815645,-0.7404094963597792,-0.16775624586611723,-0.5758865176297892,-1.1645452053643002,-1.3463905094659483,0.3966365038185706,0.24239343941302138,-1.0571712346657252,-0.7581945806780411,-0.8947861298298385,0.29583908038241563,-0.24666914534425544,-0.16876076968303982,0.43224031686309455,-0.45565010934483197,-0.9354950243196377,-0.44575045435154625,0.7592760988699677,-0.40354528572693554,-0.14196542544831314,-0.7109146229867218,0.8538461370554683,0.8275350150956258],[0.2224952438488656,0.6255251386618442,-0.2906285632204571,-0.16495348048618388,-0.365855942677507,-0.6203796448666106,-0.30768297066238776,0.33871906735542395,0.7976950664925714,-0.12017568332807617,0.6556699294246802,-1.0728069303740362,0.19237113402674866,-0.8419407405105062,-0.9356148319289834,0.06831228983340237,0.9813771303602427,-0.3930777558220188,0.22034329508047631,-0.10641307671670065,-0.9044340993935873,-0.2324476486737327,-0.5121911995832814,-0.5632371815410372,-0.8519415152292922,-0.5408611132632858,-0.5004892493412005,0.14111215408522013,-0.3120982904273563,0.9177418312322194,-0.7073834594008408,-1.3215385149982617,-0.5266637583169049,-0.0960245748098912,-0.10380315905701111,1.0149801260133386,-0.19003593240869568,0.129071248496011,-1.103506669645806,0.10704152501869632,-0.02348675981348724,-0.2229471590253962,-0.21238165070591078,0.8038668636815496,-0.3951178797060467,0.13845229319582295,-0.30764169191731694,-0.7480468521259078,-0.09010435074150522,0.5870349564926001,0.07240434506494053,0.21584298182506456,-0.4926991516345779,-0.7592105257585807,-0.6298283612130305,0.13781689119879592,0.8004582302224543,-0.9893057595331897,0.6441048139107601,0.16306000623716116,0.7662032710761776,-1.2001322801546734,-0.9149420146931402,-0.17890626144840255,-1.0710944785784882,-0.6888164795600888,0.042058735155828995,0.26553504371662295,-0.1823669929134939,0.9379153158144911,0.2844275882539613,-0.6191535980926371,-0.4722740155891089,-0.7646901967280575,-0.14782820462138446,-0.19842934723303166,-0.5320016252368346,-0.5609999891892071,-0.448380309495897,-0.25727836882928873,0.886512148994455,-0.15582426736889723,0.5082767556528387,-0.43134474527582056,-0.5157360813218722,0.44890843019049675,-0.2452974102602118,1.3053914139555844,0.23360064810376624,0.20522749737501425,0.5917265595443009,-0.5287729624218168,0.6630217827782294,0.0016425573986864584,0.30047669045928105,-0.8704569712404716,-1.2968983220253727,1.015486248290366,0.4810046893148926,-0.06543548863840334,0.2381805772318321,0.18259032022741317,0.5503541533124018,-0.3652737748072266,0.8911099617176897,1.0115762319263615,-0.3900507666309235,-0.13165779273671116,0.832251357869134,-0.711938071820886,-1.0289217095133636,0.19986236486402734,0.21353760057753082,-0.4437383977153805,-0.6679754133391321,0.002085722476323038,-0.12588814742154555,-0.4213463045813296,0.7636710469135531,0.18195842497161527,-0.5608006286731679,-0.04397271911571823,-1.264563724451486,-0.5718259375292778,-0.044527118148474425,-0.21327513078973814,-0.6131495048156116,-0.22004980789766448],[-0.8326730531807128,0.42095701621696424,-0.0413496244111137,0.6655083305504913,-0.30054316711202284,-0.13981675110154396,-0.33216844667183854,-0.019899481767273026,0.3505225914534654,-0.0007501877923152667,-0.1543587273154849,-0.07954563765218471,-0.078434384389803,0.4979029928187164,0.5491783894312249,-0.20558105889688172,-0.764947244096388,1.1174062557263735,-0.15182827363136212,-1.132108132910732,0.7167206338859842,-0.7044125486753735,0.319180502962716,0.6115942330637142,0.7991167645262569,-1.4594569019448345,0.0970734442921601,-0.7463755064569818,0.43703290573761333,-1.2136846281819267,0.23023415527516786,0.38878350679924756,0.7286432442448961,-0.0477339841820829,-0.721464477148668,-0.7534060238803758,-0.8812721215268131,-0.05686218833628799,0.3206624332721244,-0.29011595852513783,-0.8289423530003875,-0.2546144797676819,-0.6028263587442847,-0.1249293824723742,0.5297872084028098,0.3834527318568593,0.1732016298454501,0.2190906902581466,0.22951900644594947,-1.1184228238146028,0.5183795891039498,0.2548509425623861,-0.1260154939745568,0.4352918697509329,-0.46656229908341634,0.09347249447848255,-0.7997054510886771,-1.0602556143024855,0.2552953654389645,0.13860927349037425,-1.042459926578949,0.11943602558918666,0.4624373161821276,-0.6941357468689869,1.1398222708006023,0.3711094538765613,0.4078687780971339,-0.9646863223665422,-0.5800091871534871,-0.39239910093282127,0.6198066214240904,-0.043935574301108164,0.13273831957214674,-0.1778577647764982,0.7364110678041013,-0.3236247504228273,0.815757184996975,0.010000017647907089,-0.48644344012311846,-0.3096577830976569,-1.1984227841366104,-0.19318022209565575,0.6551608498313581,0.5400522958738501,-0.7130022321242419,0.16271693117647282,-0.24484667095991497,-1.0940623958415574,0.13234218784815432,-1.1114357668663828,-1.2201055189931993,-0.67675012461068,0.5351766391258475,0.6553309936096131,0.25161189424872776,-0.3719564378304101,-0.0070602117306690386,0.09509732045990366,-0.35324280995698326,-0.15130487089919326,-0.9878481814049052,0.6226181146300701,0.20248411878948355,0.03807646373678836,-0.9008921644928882,-0.8288092933615523,0.0991729870554749,0.48416104216800887,0.38079458406392463,0.2997052885625885,-0.24363326933753307,-1.159169087629942,-0.35902616235785545,-0.05304542389680953,1.107617618880756,-0.3175356699823255,0.016951883134415695,0.8801124008353062,-1.1382110737917224,0.17013962461692508,-0.10886915702110768,0.47243730630389413,0.5893589957618052,0.5924145342454579,-0.4515731409912912,-0.6911648483583773,-0.9733439887311953,-1.079852811175018],[0.624631093017868,-0.9893605312885864,-1.0375491255238989,-0.18654430367761643,-0.48562749969877334,0.37876530344644443,0.3715573771182419,-0.5667019569857398,-1.0322186509387792,-0.014643105061873392,-0.47449334670613685,0.12963741311145552,-0.22001431440085614,0.348409104945648,-0.7873252318268927,0.568617459304,0.2304260223570291,-1.1940148889753792,0.1792627073867696,-0.777066650395706,-0.049222759404519784,0.11519150737932571,-1.31103581800388,-0.3294253076448784,0.7048215493914571,-0.6079032406171858,-0.5872119878918691,0.8378927464193916,-0.14692286364616958,-0.759477991500901,-0.1808955001418422,0.27634433942887815,0.4354451428221849,0.08152916013382358,-0.516072106419804,-0.39952047697672444,0.2179650110244298,0.1905805942159409,-1.1482856694340318,0.24871715877132702,0.7981044258336372,-0.12569833861310797,0.349174768725349,-0.1967656781963812,-0.47503339781739284,0.07241410562535837,0.068298735838331,-0.942185859687681,0.07759745896411524,-0.3940905652560883,-0.40835681185585027,-0.26759115299953323,-0.9550569021920219,0.24449843919523326,-0.5165579816816567,0.3016463490384555,0.9535874580903717,0.7569889990923777,-0.7659105973140804,-0.40330162714134216,-1.2292410870820059,-0.5450059455537786,0.9417036638144027,-0.1597448660873296,-1.3480198003372386,-0.7607771760059412,0.5464916863546135,0.48312074489173684,-1.0078901406378802,-1.068896696902297,0.1275332245719019,0.32159899387784674,0.21373334646934017,-1.04690756129028,0.003464355175117612,-0.13233113663807397,-0.395978915989398,0.2695967490945335,0.1693284149915148,-0.6993522581365319,-0.7537544874563454,-0.2592627644826273,-0.6805472811468498,-0.4612024832190046,0.5534407367345842,-0.31217867191224563,-0.4478475475951097,-0.7737821078532762,0.23710693227688462,-0.1689148430633051,1.1804131969593712,0.2742129886061851,-0.29840965351379184,-0.7818397025351763,-0.3147672299275588,0.7017959316831532,0.061362455699244804,-0.6822137800046125,0.02965115784658858,1.0959549142348046,-0.10195781043633774,0.5806255528855974,-0.6969177720342816,0.4234944128742326,-0.007583223653869179,0.0018257474132591814,0.17238828512451784,-0.5031873915836149,-1.2300927132318222,0.32556896408011776,0.4340489902789588,0.07347651134714056,0.101542982373995,0.6898285472852731,-0.6851955663737083,-0.2166734665650449,0.37767026791780545,-0.9712048945409146,0.5471200185481959,-0.35213730546618655,0.960147700850811,-0.22079666974583737,-1.3094989417128595,-0.7363430277279632,-0.34741696017068463,1.2284638911706272,-0.9860108364635599,-0.5026183607252449],[0.1180207327638076,0.5732452100053679,0.971701075139625,0.019444036282621688,0.42314950285239733,-1.5173297297565325,0.10724572130783812,-2.4674740478870896,-3.725634156318488,0.006251274727000053,-0.5273674873751403,0.40753245450830783,-0.6014660112346363,2.8292804600859998,0.008095255696215208,0.0796636669029702,0.021536287531050916,0.1596658887609068,-0.905942391100732,-0.14968734391182345,-0.5541471033261574,0.307851726266173,-0.4124439623844155,0.31764901789738764,0.2864373158008071,-0.8074697504846453,0.16166860700199795,-1.9045767791723907,-0.7038749535492969,0.7673381178766692,0.16767567882825365,-2.3087333557773033,-3.0797662477944177,0.24269059817531777,-0.41771272440759105,1.1473250787217564,2.0434778970095397,1.1349125885941538,0.5924483427710324,-0.32316616771549334,0.06890232170837852,-0.6062370282758246,0.5031474095071815,-1.3715462652844235,1.899091190969957,3.1799183600358187,5.011519708608886,0.24344634331259796,-0.2985455405916969,0.23696986994333918,-0.2559126335863457,-5.452470662012445,0.30397909178147664,-0.38350859899712025,-0.5096051849056575,-0.6891278234044854,0.04228622893671839,1.007143937540575,2.4319694961539344,1.0724322367720387,-0.46283772536686857,0.8981802607455259,1.0484609661987494,-0.8096287392776959,0.4415526363097917,0.055198261691127,-0.5609764764790683,-0.010850838938686262,-2.6373930758937365,3.188690116879341,-2.8434288143029085,2.575384076800951,-1.3131099107074822,-0.5415906070879284,3.1727825608009166,0.5936783207566466,-1.2489645125669915,-1.5921189419747952,0.4767664578687798,-1.6059911254446422,-0.27214727363308316,-1.8703154716181072,1.033862233406432,-0.7552971688554101,0.6995476422314523,-2.876582599990666,0.15333560607282964,0.5107205633376171,-0.10645214897314731,1.7270794375426615,-0.7305376110401355,-3.3766521650482706,0.028547135155392953,0.7875159236088096,0.6286465097566111,-0.20932129981428965,-1.160158773612252,-2.2566408985787745,0.2519129744031626,-0.9464867988324559,1.1905647314218437,0.10589928740941942,-0.6131263890403164,0.4505818552739186,0.7848125432855972,0.06694424345566083,2.7347900772507807,-0.7979525112812305,-0.26964680145495457,-1.3656587650323995,-1.5314431568140467,-1.021719942929323,0.9930138156250561,-0.465499517216049,-0.9823460165492909,0.19438890191830105,1.6337452117027804,1.5726345520910554,0.5040221262044816,-0.42941253293823933,-0.26316844175027765,0.10930851109789085,-0.7210992209507376,-2.3747485421273224,0.5831774665229794,3.280847422598718,-1.1779653111463098,-0.34183841025549955],[-0.4300135168941187,-1.6433356686235927,-0.6308910225500579,0.8792185064278845,1.8945383163024867,0.7522781544112968,0.16809636980360293,-0.4775067612065858,0.5786652793048807,0.07688216530895114,0.20430551081258888,-1.199925311744959,0.34370331609706595,-2.471905767372596,0.5940176364399199,0.5211872337903136,0.7979359980694747,-0.29534138508043367,-2.393504411802638,-0.9329950433498941,-0.6506457010621306,-0.249430907374905,0.00011439434988617951,0.4937656238323387,-0.4417199529890416,-1.5345167150243761,0.07532772538173574,0.7508652217999705,0.5496667695972548,-0.12783160840317276,-0.6841454849151258,1.1284543872740953,-1.2510004642077994,-0.32869019033557634,-1.1707187992000518,0.2038737928851839,0.02913556225498093,0.050247262117790424,-0.8728702372394369,3.7305767544476347,0.2101742385521029,0.6503186852368997,0.4062802743626102,-1.5397751599058613,-0.6600640793092715,0.7147270887615429,-0.35895909170075074,-0.36656680193698116,-1.9204170469722828,0.18112088088574058,0.5498820275823217,-0.4742128394672251,1.2641440456682689,-0.4528610823097125,2.3074408119880694,0.19352448257524466,2.0559449975849042,1.193691022263887,-0.16411178553657282,-0.2723906460354955,0.3048199525746662,-1.1669099799455316,1.256830295866536,1.5088430122240657,0.07617792362589187,-0.14473747233061923,1.9944506044805255,1.2606101923462794,0.5783331312329038,-0.42689731854291024,-0.7454158333802312,2.2920716247438966,-0.02106904392997306,-0.8155512160713806,0.07050934660857629,1.0399936402710315,0.2047859705759552,0.7332730456775004,-0.669884327948484,-1.3321624853696656,-0.8835942454144885,-0.6799653123458421,2.7066125229016658,-0.8713386813753362,-0.7797457509797795,2.482325588075894,-1.119248280725419,-0.7867326818928716,1.0899952803655868,3.1094374918856094,-0.2841035778703872,2.7795956367501096,1.3107042523870425,0.660510021205676,-2.239391420000778,0.32443620599679807,-0.8952510290629886,0.04353261156649703,-0.8655255204679104,-0.5290597547443946,-1.263961889247522,-4.123032448013392,0.5538797641139176,-0.1659916222182931,-1.2424791180548393,-0.7160704834801883,-0.1132908660038862,0.0027916657281159113,-0.1698266671249885,-2.279496748591112,2.8637224824182717,2.953690696984788,-1.4386803161210264,1.046617929652779,1.5546211159701147,-0.016912532845409126,-3.221882163806828,-0.5182616251253197,2.0775175040219396,0.08752002639030669,-0.6924612229161133,-3.652496398000984,-0.6891139799749555,-1.3690933627336497,1.55684625017203,0.07439976547195831,-0.1534552244189575,-0.20930295276225722],[-0.802014643716898,-1.0141619008475327,0.542275683754439,-0.26697079165173304,0.8539701981886947,0.2235333877450322,0.5024544153478949,-1.0036238316513795,-2.2090009939789774,0.1694178123805982,-0.02629071445458361,-0.590842940215416,-0.9099758818865871,-1.473984661702927,-0.860023370573304,-0.3543432443305904,0.8032342340952621,1.0393126927899765,-3.498115291899148,-1.1263738414837445,-0.6729247641209449,0.45871554174051127,-0.6376295708183937,-0.11519762717006683,-1.434482165366279,0.34170935858276835,-0.1287382838754754,0.2422292832719888,-0.061110333214951185,0.09264339428606165,0.5793310592032347,1.598411187768308,-3.124138260555244,-0.049412726260057396,2.8065477142861806,0.12721064532170093,-1.93262262197216,-2.356563508784205,-0.8302640891161122,-6.813776439720123,-0.1758340231107295,0.6363995873873812,-0.15056307453010698,-1.77742305494016,-0.975183495378992,-2.863943364887577,-7.642757719891868,-0.2157191481385308,2.6774756934557984,-0.21237899178050557,0.0207063868869208,-7.274678775694702,-0.8173591529127432,-0.7161740481847598,1.7267188916691956,-2.5245650746359907,-1.425499173943941,-1.588149409432426,0.4648722921783893,-1.0567892304512083,-0.5512550430610438,1.867921787734291,-2.089817809055088,3.0383493717575676,-0.761334887120787,0.8065015556414196,-3.9057192910381753,-0.10321956569832054,1.7650580471067419,0.55609798112347,-3.671492406115401,-1.2151825141235912,-0.21363772473134332,1.71721803655617,-2.322632129453563,-0.44038229013709335,-1.4209557294216106,0.5461805784218747,-0.26715879097878426,0.6473930205538212,0.38156540641365516,1.132675214840643,0.5339724463440779,-0.20368289864895617,-1.0331643939575221,-2.2833288269283605,0.3242702583435822,-0.045442498386135156,-5.064030321936977,-1.6479291488109902,-1.5520223547432948,-2.50717024376088,-2.9465360107745306,-0.367197120000793,-1.7216844473779522,0.3670559872639797,0.8141279095428314,-1.2853720664163983,0.09866235764862238,-1.1163664607211812,0.34808228281162806,-7.14230293021724,0.38612884049319024,-3.8400541506336276,-1.53700008447275,-0.20211922837370652,3.104983927841094,-1.1595001997653136,0.0992153642339013,1.1593674807647647,-2.45278121123536,-1.0314360633468285,1.6706605227185025,0.2887251978925636,0.9294156663682073,-0.13828041840037683,-3.1129964584955054,0.09870794883611231,-3.0963729168716485,-0.41877613107573436,0.09936660545381601,-4.815412323882897,-0.9039292110546309,-1.3093901749682888,-0.490013252631184,-1.468281393130547,-0.3104252255439045,-0.5427901718771517]],[[-0.27932046766624763,-0.1392931575676363,0.2138549431711507,0.05215549962784149,0.5409054612741168,-0.07990310780084911,0.058589996745822055,0.08813286680997615,-0.2575544805263259,0.06738254602504146,0.17644816644408698,0.014581259874196895,0.38016637620259985,-0.16639183772314395,-0.2977930007229169,-0.18457173942224628,0.1325864789530369,0.007895667458189282,0.3285423946717184,-0.21291156555258306,0.34564883857178413,0.0038787781420644924,-0.023494235797808294,0.03457312750981704,-0.5094008344629547,-0.2295600786178386,0.14732266610032946,-0.2390028554533165,-0.27289091514629193,-0.3463511113124139,-0.31592653080951166,-0.7371767150371985,0.0033867394787529034,0.2551151584827113,0.2591119105285408,-0.10135083120240897,-0.1279645513825343,0.08349868593756536,-0.10271635125841314,-0.18082009592413878,0.1879137757674338,-0.1550245475672902,-0.18065163717605084,0.08293967754003358,0.007090020376716875,-0.10198857712767555,0.5534854068859745,-0.10794933410618016,0.19602539613588424,-0.20772896749230166,0.097508407796396,0.20025053082532024,0.1264773268285739,-0.4088417821742188,-0.2902956226191278,-0.04552435089418457,0.5183523891663165,-0.0073804562290095185,0.20531092223658695,0.06947052071214657,-0.0223589199803644,-0.11532750217582324,-0.3279989925867401,0.0664497643498965,0.03433026594291576,0.20135339658208284,-0.28494606731626576,0.17466690186634634,-0.06967761638623794,0.4294540399945179,-0.08252917012176014,-0.15476849739618642,0.39183478770776564,0.2615204436046908,0.08366886944666171,-0.126106634653337,0.3363529497364514,0.0851933001485552,0.19573247777048902,-0.1131429820916724,0.2042753516558801,0.25483006034744304,-0.4434275031696583,-0.20129191166532598,-0.2232382580681117,-0.03303295582311255,-0.3163971373395905,-0.2261520961602873,0.021675755032061848,-0.07654158400896309,-0.017992948787690432,0.2381312927327561,0.20032178590945923,-0.0695624219478116,-0.14195511744766998,0.23421304345890645,-0.17506847057779948,0.20101290335778882,-0.12846730189207892,0.001534583341518755,-0.01286493157128765,0.028974487609212948,-0.16185916628332309,0.1904606944427035,-0.0943446925890295,0.018189856352669127,0.013226287338757841,-0.07402448908361695,-0.5648814513924292,0.2811127427208553,0.14190370409752487,-0.055468904169600715,0.04217932018586423,0.5022142099175386,0.12337755009591603,-0.41669489413320693,-0.5942391831685049,0.07464549637865107,-0.20960222957561309,-0.18748552245562203,-0.10487169909334663,-0.126208704971975,0.23461244628281924,0.006235244768382489,-0.42329320476836796,-0.03663006428025597,0.03822437982826429,-0.012854244574518657],[-0.23791527694512535,0.06915308281785337,-0.05274630728347128,-0.0143111322237762,-0.08030893254172357,0.12855072690929525,0.05699537209396234,-0.31602827096191644,-0.05128144353478424,-0.08284773154199258,0.27211817714922426,0.18246907150411798,-0.3137272593772011,-0.23615230394160103,0.04514609528352106,0.024848448938645545,0.08396412672038342,0.26749004599974346,0.10230571665916947,0.020798660314399742,-0.013583738769966512,0.21482192108767217,0.15197997527984186,0.21459538669095252,-0.1489100380922058,0.10173650847900093,-0.06235060161420031,-0.09665625217060976,-0.38677086280170064,0.09017381202586228,-0.19580955615804904,0.11806295376060791,-0.23168987658209908,0.4458035618170202,0.014298530081732036,0.18899801332174349,-0.14113630383883677,-0.20839318196113962,0.06925087681977223,-0.2833263061221056,-0.1383706108504803,-0.18502274170231955,0.202994111052822,0.2148999498138798,0.4359345991606632,-0.15631871788696272,-0.1535820218582893,0.006883778119638675,0.19058642404185078,0.6298444779741684,-0.4602965712659804,-0.007129707808707159,-0.1676971886920627,0.09020600293584255,-0.06376011408965417,-0.21278850798276372,-0.20222965558094172,-0.11696715658082232,0.20673913725172532,0.009239840170433876,0.15377207304289248,0.12380712387283146,-0.4147422001155007,0.0670303497482657,-0.10675541213944635,-0.15701395787443426,-0.11515810621632207,-0.20158228715619714,-0.13599479218116778,-0.09035845621147182,-0.03791504354665615,-0.09530950026437894,-0.36724585993522746,-0.384940026996226,-0.19431341202773536,-0.2796063764428744,-0.3062610974167478,0.1128227382235087,-0.5697885359995953,0.2083235185001838,-0.3017577187985058,-0.20315690955890847,-0.2229389206869118,-0.17104944752269338,0.11497157010025381,-0.08086408944947372,-0.19357304678061968,-0.050606479554700406,0.05096999015432727,-0.1564075167596161,-0.10541878957994545,0.04071336903574625,-0.19980917224353392,0.005514403304437904,0.23196433975252112,-0.359179188927468,0.12259508789735901,0.4958921455216193,0.17929750973499975,0.4961413635335043,-0.08583856606189026,0.20363338960626806,-0.2913631960655723,-0.04792957359767222,0.02187220612238493,-0.4685807109292345,-0.37067314559688397,-0.22459047547068345,0.02205735652959014,-0.2174064320626373,-0.26483940999270983,0.18636371569413973,-0.0557221291831984,-0.37997387929386295,0.1797392483753096,-0.3537808777579194,0.13687097143120514,-0.16303757132359029,0.10553288386988928,0.03440711018890553,-0.20784895392605532,-0.1263187164710001,0.19626765540058602,0.1052557238214756,-0.31399775659966916,0.2753290666464554,-0.19233820471520321,0.0021971416236610517],[-0.01504468136603819,0.014128349707779897,-0.37026084374035406,0.12778140738776703,0.33201578879134136,0.16053992871880357,0.05748194222422363,-0.23420331908691777,-0.16316125281943772,-0.1615513190748991,-0.14066541320001147,-0.4787446235038521,0.023211802664297003,-0.05955579967419131,0.24284602275315026,0.13454462063226455,0.05222133544922671,-0.16404906518122456,-0.03304074052349968,-0.2411587319017093,0.08746797398756158,-0.2658428722105158,-0.16340364250406753,-0.27501454724894153,0.05761764989126416,-0.18136139699184567,-0.019889658574855914,0.25324602945620217,-0.004809365989094405,-0.25455069880300946,-0.003026574489780581,-0.006235378456640789,0.08721324232402884,-0.14809811230367168,-0.06581183779661606,-0.050321607133289294,-0.06912115112103207,-0.4090393309148133,-0.0891997257441362,-0.13010168162370014,-0.059586636867163076,0.05692235149102804,0.029513376951994113,0.039967757644058154,0.06228449882172023,-0.15455996696257002,0.29117629259323263,-0.10521665379343087,-0.19919613328209793,0.7015027255996164,0.20747942817219334,-0.2716643768139999,-0.07919605764096124,0.15678671761945873,0.1678381239075115,-0.17165129304922902,-0.26999867432024655,0.10553972899538241,-0.10281193324045013,0.07347873025970095,-0.19300435859075915,-0.1018224232620908,0.032353608506112456,-0.10063171896057692,0.03153490606510818,-0.2684265684453181,0.07074143034850902,-0.022009542784468334,-0.10385253524431931,-0.001940799218588835,-0.10073427129460007,-0.1726722443498069,-0.1204839752411452,0.2911489467990431,0.10738597686919332,-0.01588217645590979,0.06763562612381514,-0.1471256044552302,0.06370130869261485,0.1173832576356612,0.044279859569824,0.10740141122362597,-0.2235286149297661,-0.06332528426967571,0.017524500484932093,-0.20573531038719348,0.09846188278755347,-0.05634714025381177,-0.03599161984649852,-0.006723962086383923,-0.23312447818923873,0.0649349160490731,0.031196363125670833,0.02449036011285468,-0.15211204365669906,-0.04411607669183601,-0.06683705696328182,-0.08418334103452955,-0.1843247080985812,-0.12299395289639221,0.06023369848401317,0.07934740883969253,0.03173100456396207,-0.3287325692172778,-0.08006531747784651,-0.47492196738661,0.13510433051815163,0.09878105102321387,0.13441060806402694,-0.11638063168506602,-0.13690181945745977,0.027080364325347408,0.032270379330548764,-0.19245503660385435,0.011535741708114436,-0.010969407831648863,0.2079687469563731,-0.025746031330807367,-0.2954901331729068,0.04839542432969737,-0.07496366571626946,-0.2946175018439826,-0.16818263644895937,-0.2595782365913946,-0.0006430899546723904,-0.1175542635393985,-0.10634752165353731,0.1252390091199195],[-0.09384365965433825,-0.10489855023455112,-0.017011315631690525,-0.1047056361364469,0.1472394494951246,0.23425777303720194,-0.11966774097167483,0.3232290593723237,-0.24739021615651366,-0.07705684684616473,0.07932394189306809,-0.26235009668957543,0.30492658157687086,-0.3541929368394015,0.14068675479258183,-0.009227827610626058,0.0010083821408062002,-0.06843173154619639,0.3171047109235701,-0.083570659145679,-0.12828614598568397,-0.2891701535225891,-0.1284281806844688,0.015796537925401033,-0.1121476074377329,0.14140844112168133,-0.1589979240648013,-0.0950018008934593,0.25918689726475685,-0.034830279939537745,-0.21250040330289544,-0.11087852817604173,0.01734319738540057,0.016768793348678823,0.11690277105438308,-0.1661296846320109,0.008451019624234947,0.13602317710534736,0.14266031976118015,-0.10759990729268258,0.12091399069050916,-0.02136201594520019,-0.007197876987408112,0.11832071801023782,-0.06389376564164007,-0.04522068708979943,-0.08070377139138862,-0.03277285759691794,-0.03867599997384464,-0.0434635309794498,0.004963196723573501,-0.08477658034174489,-0.0763032966924306,0.34443134789248986,0.449398478701623,0.13858098763602233,0.007896695833141672,-0.05463548178873609,-0.27619303230120257,-0.10938412292202192,-0.1655862418885494,0.01752728598693864,-0.18856341621781025,-0.02208687895591077,-0.1087398241921703,-0.34283889059524514,0.07369244372267522,-0.07585923032264785,0.13641766392107116,-0.057908915522136485,0.39747209710634107,0.2955118132804157,-0.2845831892751128,0.053813873206197696,-0.009877757687017479,0.2914807539001369,-0.28914388547134795,-0.17495935845305474,0.38080155568946794,-0.08399895608530546,-0.10061296122287622,0.17264582188906127,-0.1263314286858794,-0.12299926909447062,0.15518022566963477,-0.17158248872794932,-0.04343842519122703,-0.03620485430975908,0.005790953613057589,-0.03633985227358786,0.1922590671350928,0.3917849830581778,-0.351746538701219,-0.13338597167699426,0.14666149405081377,0.05503237047427586,0.013877281010700373,0.16543798118149441,-0.04727896591520201,0.3594542153482173,-0.07260318822157917,-0.10776132586911892,0.1789090665097085,-0.03662346517231406,-0.11272277274558076,0.20803088482140428,-0.140824692018469,-0.1651330405084722,0.1854860321122042,-0.05396538405779917,0.21568920059281213,0.08444905365464628,-0.2989080736228711,-0.0814170429570958,-0.04638649758520681,-0.02422602749295467,0.305714839812186,-0.090246936844322,-0.056177755876939836,0.4361473600700306,0.1973448085758177,-0.29985739607006634,-0.008391974870741541,0.07652844790736167,0.26129721776799814,0.029259276292849353,-0.09726821807222848,0.19986259860007208],[0.2916944360722883,-0.04292795684640625,-0.527024310508726,-0.3738059379799406,-0.12448298401628188,0.08960408107519724,-0.09715929975628183,-0.12430863677093591,-0.2327079463393865,-0.36624462331864,0.1579278705789949,0.28770358212581554,-0.4971569702339796,0.5330392373992654,0.27038428890662247,-0.20891786067565934,-0.18832579751446626,0.1063170774988893,-0.20162074271455452,-0.22411019901340637,-0.3983261941976905,-0.12622734696704627,-0.018489301384736864,0.1717761965074733,-0.2632939973416813,0.33271392317687043,-0.14248842410525578,0.10326710036352779,0.2653080797799073,-0.14864254698225804,-0.25898658861415624,-0.16564938187212824,-0.03603552900889663,-0.2091990837519008,-0.044384645316268394,-0.13610537882411541,0.4935785546376449,0.1006840098707602,-0.16415992145034183,0.25045595654433916,-0.09094160465040146,-0.2759238242474674,-0.21834859577639423,-0.26447181045748425,-0.39071409270401253,0.19551953621706908,-0.6103336001479989,-0.12416136206276546,-0.06509432197544085,-0.1146890278665186,-0.06603484291117932,0.5073447645409014,-0.16802725574915958,-0.07610904921695089,-0.1458834805955792,-0.19438361145780436,0.058400177918239995,0.28493610293590965,0.17639790440530198,0.010391981560760703,0.18654003948155765,-0.16989309831065177,0.6866430712002883,-0.17461441829798993,0.07577030905018288,0.42406806580959816,-0.22302329096919288,0.2340691230388646,-0.14329679550578156,-0.19206383345133646,-0.009655935949234064,0.21163692654517377,-0.042183699748650015,0.02716794350923655,-0.24516893976262513,0.08002693471751099,-0.0952428088971718,-0.04272602300154714,-0.05378420978121794,0.032542777989353004,-0.41572312074287665,-0.6213622178452823,-0.03433594438037092,-0.18189759774222114,-0.4952813697559936,0.06843740469785294,-0.056488971489870164,-0.10810459878332822,0.09993226726796851,-0.06159905164763993,-0.09314811967684222,-0.20542959224450497,-0.08000115904929402,0.040670124063959985,-0.10371674385174863,0.057303033232660734,0.03243147332137028,-0.25392006676837164,0.5028704613551412,0.009096275916740311,0.1434061263585889,0.1399749671780596,-0.007848460547259843,0.45696512699730335,0.057703830225619215,-0.1850099161785169,-0.4371359469818822,0.19200449195630315,0.08975153994819203,-0.36594685382842257,0.03180609160171996,-0.28861670131386485,-0.037529268988834616,-0.20558062282902256,-0.2434760380047036,0.42516951164950634,-0.7716635897226672,-0.2712180126970443,0.1952435263383681,-0.10010246950962436,-0.13734004968659538,-0.25948845941015797,0.21406050265431192,0.18449105011911154,-0.5096461746414643,-0.5770713632233195,-0.07529134692349941,0.13228970343313093],[-0.09823525276562688,0.15894714641864402,-0.036345990647397096,0.3520537175672202,0.06596719286885264,0.0884043948430321,-0.631093901079672,-0.2546552635025446,0.12129594594621525,-0.19878451981357254,-0.0031254034505890727,0.3225660326041721,-0.412767013817968,-0.5112834893247128,0.007631242277266546,0.3643019824143887,0.4075967042237302,-0.02188666175120947,0.1523453695789193,-0.07307629003084662,0.31769397171981895,-0.08681834482627063,-0.20355514709578443,-0.08216408779841838,-0.24695282050524348,-0.07043816253111213,-0.2269471541421509,0.2341793776180083,0.17447735121217967,0.03255358372573214,-0.30071449557988733,-0.08452496650684557,-0.0659209728597347,-0.18257793696248048,0.22172435862988374,0.10140115204973628,0.2961827841110212,-0.3596102892490204,-0.1390178787601416,-0.38741026633357234,0.13769923683874705,0.209763677959715,-0.08427988169094987,-0.15582875751585804,0.5521377021103773,-0.09843486773805156,0.4433375804624591,-0.027590465724949446,0.19232547215798487,0.1059288396990697,0.2359521257615556,0.15306633810889936,0.05407355045588246,-0.17200541177836065,-0.07668740533324181,-0.12317781336054237,0.18171448581513777,0.1865211809880018,0.20391968823281276,-0.12377302191893219,-0.12704890045508815,-0.26615377576171034,-0.1622406881488966,-0.01847771410350045,-0.08198850045801408,-0.18623861958849547,-0.07058813302250372,0.03689103784444761,-0.16776221078021897,0.14237686182343204,0.35108293582465094,-0.05902199004173994,-0.12296112686519882,-0.1200280003303303,0.0017540586978749822,0.22858954388060526,0.04138484985988708,-0.13534712686374592,0.27779775022305153,-0.1431966441525056,-0.21482092299484834,-0.197995148104223,0.05259997510024386,-0.1152151032517937,-0.1356975797423247,0.04155519371767469,0.13226432037698369,-0.13067514608001476,0.01808712246928304,-0.11740093204741764,-0.5064164486895233,-0.04541892656968022,-0.021407622967654766,0.012164058575981783,0.1148194971330216,0.4452600272873566,-0.19106617773427736,0.21972076902765578,0.2091521942049131,0.44260143466761076,-0.11717631308160396,0.08016788783550464,0.28500479575144766,0.17515856875967015,-0.032966442821530356,-0.22589315240699215,-0.057606291760102145,-0.09958426995752029,-0.06116079633294967,-0.12916915769299908,0.004506739166961926,0.06414421826705258,0.25987745462430867,0.2218056096175225,-0.11672049849869238,0.4347034589651415,-0.28547923732330943,-0.1396733576774289,-0.22400166232193144,-0.13759122869639315,-0.11756490095285395,-0.437383477272686,-0.35123849488621944,0.02007781138119229,0.2374800901701734,-0.07850763920002923,-0.1463309642848315,-0.10455397052737393],[0.20549358477588647,-0.10459592376646315,-0.022487292442450346,0.04770287743000367,0.056429514014203916,0.07092659172658985,-0.20433901411696923,-0.014327948045597092,-0.13450578850550693,-0.17088874734886658,-0.22078833565635592,-0.2652141534354206,-0.17345872724498115,-0.13590519034192075,0.12222011639683565,0.2853805646336492,0.036006565347448845,-0.1445312102104749,0.060745172101486104,-0.19351147558331008,-0.028626681802068267,-0.11800960715110478,-0.1548931487797952,-0.0735816781676613,0.15905607818143802,0.32005974513914437,-0.12327975192631191,0.05692306764149974,-0.2651100336661633,-0.18685878223059735,-0.13702235839945995,0.09445164567816892,0.1617249386987543,-0.1939373105822799,-0.19048804282289977,0.003003027344018618,0.10725909401347718,0.2572386150423591,-0.12183119988871563,-0.1943481708371412,-0.015222296803648729,0.06428729715081656,-0.09623390718088365,0.07112209876270552,0.07369698402104824,0.060344443446677165,0.3556670869279972,0.0917717739028003,-0.2145325675331476,-0.052909172804680014,-0.04126546564444549,-0.08533083751595594,0.13146035052594282,-0.17106879741767514,0.05844208631422644,-0.03804218648485631,0.15272985627914232,0.05409759450402056,-0.14032445214618713,-0.11796319183647844,0.05370933940387568,-0.006991540791493659,0.10915098138191374,0.0796356109002408,-0.05851755603346017,0.10111416622809667,0.05767663324440329,0.08129801160828223,0.011313008719878608,-0.14500013214768126,-0.07742083094004852,0.06887267592108244,-0.28038590414957865,-0.1907795555549508,-0.07956989415226741,0.07772866700274503,0.17678306724602127,-0.0030384644548391865,-0.03993964715561533,-0.025612149214346628,-0.0031076490057362995,-0.021080954080546496,0.0022353707041417757,0.08979583095983479,0.02079005272281919,0.00007576901258489179,0.253645718953712,0.08261355491379913,0.1184749886465349,-0.1760989449684417,-0.08924687598258135,0.143090212977119,-0.03357810854426626,-0.011933272657455973,0.12210743585717121,-0.009379119167812233,-0.1878157055850854,-0.019034096382035723,-0.09608203008075313,-0.05267786067327422,0.06473262046882167,-0.17789239205020507,-0.14180026979206206,0.08419408270022287,0.05788908068011974,0.037400512393099716,-0.2197621005900448,0.19646128146085898,-0.10082698498658264,-0.06470880409708896,0.13154715947163376,-0.07240388824252185,-0.023837263490898878,0.5046194924473744,-0.05832488691392398,0.2895504091335406,-0.3158929398715084,-0.06172991743774014,-0.17694124031885908,-0.214283656601281,0.3804240963703009,0.16678194762137347,-0.18426022729727035,-0.1291057693036135,-0.14594410722257126,0.05385012757935432,0.0737637043046348,-0.29000353571018656],[-0.24606260624220616,0.061149686002737354,0.2798014717721868,0.5722545477573362,-0.39621553152674416,-0.04629023684494527,0.2336288715303348,0.2507823043544908,0.09415676777935802,-0.11130439263131574,-0.04488733212066011,-0.12158328103038998,-0.3505413414584177,-0.4198649068263845,-0.43612779577276883,0.02100011505172706,-0.08738713338510215,0.21391195458265988,0.17115854846013417,0.19561393796651175,-0.3288753031183261,0.011150333111199293,0.162424046880121,0.35091327958974067,-0.02742587347480394,0.3412642267314509,-0.016146207434367323,0.2441487705363023,-0.042006574157538126,0.025434286501216718,0.15891363235442466,-0.39948911908422685,0.24406402969214888,-0.45327322291486194,0.2847137163676844,-0.35691752217545286,-0.34863844883308776,-0.5971332184878196,-0.17496922630481548,0.045709107698140086,-0.14124916216244388,-0.15396835605080347,-0.051121826455353396,-0.30436472619111105,-0.4283226371689865,-0.014703963221750735,-0.7058321998161605,-0.026665086207777352,0.21210011182848357,-0.19171781270740915,0.7170292637622588,-0.18822084781345344,-0.15459728976919965,0.12883610110824834,0.08188110453892765,0.3039224469004779,0.050739660563600214,-0.3405291949750875,-0.24819945205731583,0.1201195951823001,0.050484112059200226,0.1303531351602519,-0.24241137870441906,0.03900083126466598,-0.08126701051926645,-0.18000512420714293,-0.2963805924221922,0.29758870391216596,0.026221256539963038,0.29239690944821134,-0.16526619408413615,-0.5257623207516612,0.04580043234544681,-0.14740457465193674,0.3793865973767268,0.27601866608499426,-0.26906835560498527,-0.048854404629800896,0.34069557771756703,-0.5865761875730784,0.1769050696223835,0.0329967912368691,0.0007282887192599154,0.0571665022537821,0.05573784250611141,-0.08098985109580271,0.4664669373697903,0.12194623705043733,-0.04082057738553479,-0.03297513652351427,-0.2042864935029329,-0.24510539600296605,-0.08925739570091319,-0.0530090859760808,0.2571942240243372,-0.4490500792312986,0.16872763897830131,0.5765638767528583,0.20999806654051406,-0.4323084624962316,0.8854152139509216,0.2885517832097675,-0.27171631179230493,-0.14801839621251936,-0.04298056877472163,0.16397280470604889,0.2664918110388732,-0.14948486210704992,-1.016553708759364,-0.003561548389899479,0.4765034703836739,-0.32649008037257304,0.17666781328208378,-0.16444748323946504,0.41239493191400256,0.6662029091355014,-0.30251742839060874,-0.17436292891910227,-0.05311656727102814,-0.3566153997698503,0.23972761529077005,0.27907555512944576,0.06716238737550319,0.5958044029494118,-0.38339934494289163,0.45424880512166627,-0.33429224997693124,-0.5257685573873407],[-0.976447475268527,-0.11064984004695726,-0.029185644862511108,-0.09114072341054606,-0.3589852354224176,-0.041975758664205116,0.22638918023023852,-0.4015356195268513,-0.16292406967458192,0.01012753113827221,0.0008066681635579376,0.6391102536376123,-0.655707318642872,-0.34596862259849676,-0.09865452192549574,-0.1853230509097728,-0.10893869133063121,0.15397189321481122,-0.2448456937601301,0.0027625083878868944,-0.34002689020761107,0.02423192223012461,0.2839825659364981,0.3913752608252829,0.5508604975498542,0.26311506796899625,-0.4961642226924002,-0.16676248601305851,0.1297531218829919,-0.6334189721485931,-0.20381732019638513,0.36036627363771523,0.5995172561864746,0.09740534098497315,0.13320200017359518,0.041649393335962404,0.04128548962436538,-0.38924087038416877,0.105131883363528,-0.43995069303950385,-0.7355042992008631,-0.03781768543880796,0.1553079003703273,-0.260235641558338,-0.8254001627676701,-0.1333751350132528,-0.15116772408630194,-0.16589441131746757,0.05032343728710424,-0.17755998851080668,0.33254576154587395,0.17797680816765046,-0.11202618014535366,-0.5319687816608152,-0.6708155360352522,-0.18258826401898076,0.1753169691624753,-0.18545063350703395,0.7698893306083234,0.1957112970235192,-0.008635325179353911,0.2235411022424721,-1.019959116052376,0.13375790605489873,0.19428608784335122,-0.2128468203680456,-0.03568352110336284,-0.18846808666270584,-0.2977218411731649,-0.8262387236297968,0.15625169517215762,0.02791198115835138,-0.12316657216273841,-0.23140748353891671,-0.266074785874056,-0.5258496012215776,-0.566614254081878,0.12029465068726983,-0.920740978973663,0.6128721315033516,-0.23661009366782162,0.30194929809427185,-0.03563848079133129,0.0019746820329842097,-0.057822141627842716,-0.24062040776214946,0.6189097510720488,-0.049944451608295075,0.3476004949936141,0.04772367077911703,-0.44169167073064886,-0.2517702428342919,-0.7013786293296446,-0.1486541789069465,-0.12379054096028383,-0.8646415799378844,-0.2898527420660224,0.3837569621861024,-0.008527808170334621,0.4582632386454555,-0.26487450941883783,-0.18073208691001438,-0.30855936481499274,-0.9001209183502912,-0.40373549150000043,0.2572335269072214,0.23696097023002574,0.36405391684292837,0.4445260900139425,0.1796821756190745,0.3247485079396694,-0.5167395406734998,-0.35456660700461856,-0.5743811805862385,-0.36531824306744876,-0.5439866430512192,-0.8012552515222225,-0.2103023885265588,-0.15631110568749776,0.102923084205239,0.26911741268349715,-0.38558097028587235,-0.07997066233829804,0.48524533815775156,-0.14837958807763454,-0.21971182503057168,0.18202855759097278,0.005091060276986043],[-0.14041740903098304,-0.0547093497127074,-0.02752659162755578,-0.010186376795270437,-0.01508976343547563,-0.00625438925484486,-0.004202667076223749,0.06681805627692379,-0.043008244923321816,0.14122457039973493,-0.07302427741155873,0.0931354305021404,-0.10386749126783154,-0.11561430421481816,0.05252358556924787,-0.045831389583071626,0.11125837396611504,0.10432547545018404,-0.11604571448181832,-0.11071837962568994,-0.0696228567394868,-0.041904372152448646,0.01409793552609223,-0.031480460441315916,-0.09096240593430435,-0.06795281328616218,-0.09137653416854716,-0.017930020348142457,-0.02656245513021672,0.13507737741554288,0.02791618073383947,0.13476994071215798,0.15034020233320552,-0.13008062838321638,-0.10781244362890553,-0.1475743913674227,0.12134436078676807,-0.1055635391230468,0.08256216516302976,0.024236996957334115,-0.14165841251736172,0.040899606653356756,0.01587976793366634,0.019944563660873698,0.07816466904770808,0.09811481422122918,-0.10043713963256212,-0.04756800443862271,0.041590196622484914,-0.027408734960205943,0.13782888525081732,0.021492701204368046,-0.07198103590244259,0.06287785221993547,0.051493497066952616,0.11330250443058174,0.1395736453088136,-0.10846499671925086,0.03361108060022881,0.03613226983603154,0.0739062590201709,0.0975803014926998,0.01860315176902091,0.04112622364325963,-0.000026416610069954406,-0.13102011076253048,-0.10326284988121945,-0.012559825053627184,-0.03152165596100466,0.1439277941923832,0.011082772395979176,-0.05631361580594178,0.0055026378692562055,0.04778301813475258,-0.08689210412062613,0.06570125384603619,0.047865668160654615,0.059345397185241615,0.10505011754704838,-0.1494942004265653,0.10769877399892198,-0.013700494150460561,0.08011363632388052,0.06255873050019004,0.13423901887236703,0.09807449354277582,0.07086309403253896,-0.07445311008063979,0.09754333926249686,0.05415108895505295,-0.14413722820410504,-0.14701209086245587,-0.10044046221222099,-0.01933921268078248,0.055702197618668514,-0.13769426326397946,-0.14238071143956488,-0.005231329196551547,0.05881667895711922,0.09736450111774687,0.08357301747791011,0.03219757783156432,0.06693891491005187,0.05664534360897814,-0.07084581724660778,-0.12787828568243048,0.08989206771856692,-0.1203811918367805,0.13045756646413137,0.028265196635721,0.0967708919687201,0.0673047587458022,0.037785649380484065,0.01546926430234573,0.10734976459875942,0.01245987498351726,-0.060052192670965614,0.04304284401498432,-0.030844851126219316,0.11965243465455727,-0.0024461133818932993,0.027411367021110376,0.05484509049934318,-0.03708316139409332,0.059346494345012164,-0.04745410728681712,-0.034656944490802075,-0.002642836289054275],[-0.48381688365735986,-0.20908591187343906,-0.07969481055641256,-0.10422186447247463,-0.031762697776350185,-0.24871194809996228,0.02174113146833356,0.31444213477403504,0.12806957735459942,0.1559846368192353,0.12166404263715848,0.2694259864938036,-0.09708004249260445,-0.1496697680455458,-0.0916913262512111,-0.11572346111914654,-0.26423281126733034,0.3711436647699144,0.12648495635300738,-0.018201995679868587,-0.2182132997509498,0.18921549740294652,0.034561618444215216,-0.12660339408584634,-0.07893263274680741,0.05078355009441529,0.35574786498359784,-0.06434135266581327,0.32048342166684207,0.02643790983384922,0.0652572162002675,-0.004303341522760976,-0.14159462342890158,-0.18404853345265407,-0.007291213295307232,-0.1222179096214178,-0.0816948764924283,0.22051688604132405,0.0075955093369094295,-0.06461071040167327,0.003991152569172909,-0.030349315944576395,0.02639165323741997,-0.012030417840029912,0.15237200863034495,0.14303378230071012,0.05601882203227897,-0.016886584999770103,0.36644288699441624,-0.25853284397777365,0.5513555701848155,-0.2003298556813713,-0.16699615884730545,0.029434879794888312,0.026714993078608886,0.24338365994179945,-0.029510671248005983,-0.11613825891088571,0.14592037160777158,0.07720412770000643,0.07269473478164086,0.0054049853335512614,-0.010720692828620924,0.03878770310207877,0.06979857186307635,-0.14304690008270743,-0.1653382019922858,-0.07637073112110852,-0.1344298506378653,0.041450900159560156,-0.006557816855522554,-0.04045216604376515,-0.058878508106687454,0.1586491675212898,0.05340616194555578,-0.24367033852423026,-0.13220525076125164,-0.16138331758667612,-0.3423050048236999,-0.029469939730878886,-0.08556020546446183,0.07030023822289705,0.08180640919893327,-0.1053140150662171,-0.21433398029705708,0.17145945356201936,-0.2527471646747693,-0.08007742840692277,-0.09068387994731612,0.05106768961717992,0.18175892497359786,-0.20486473883174752,0.023412721336677236,-0.06810393405969996,-0.053353377609848554,0.04865691628762392,-0.0779034882237592,-0.052637716594709456,0.07199773653680905,0.16719103829739468,-0.37406762097752927,-0.008739172332224866,0.16769076837404395,-0.07012419410529559,-0.13226280950985445,0.2775409197601799,0.1480322241134704,-0.03667770307445062,-0.29704738219300986,-0.07329482700792696,0.10787377404169408,-0.07307395561038019,-0.2129511477626144,0.04728114124745696,-0.21395748006238013,-0.4294075615019624,-0.0033722129298749013,-0.1477461617543019,0.14683277976920125,0.0025955328078470863,0.10056711667047188,0.22186413300486071,0.2985856252530484,-0.1457432696667559,-0.1350059276010832,-0.13234207980912008,0.11654838406846883,0.18877712137365482],[-0.7787031144755883,-0.1147094154741428,0.049329966403470475,0.19479670788501569,0.2736265663761923,0.2095938818538005,0.238307892469206,0.3047141138825456,-0.2957468514225635,-0.04500226153799094,-0.16968162907709275,-0.0752766185799559,-0.01521808801177644,0.15726819496146555,0.20398608394276602,-0.0031745771310777793,-0.06485336238297479,-0.10354664972865431,-0.1011907468942581,-0.0299820243055382,0.25796127169282373,0.06607434981883076,-0.08017091526233627,-0.03442555982009906,0.1560334383368991,-0.16904627821809803,0.5812060685085549,-0.15317575329388458,-0.3268524557359738,-0.3055591434007188,0.0791327677443456,-0.008966742583612937,-0.30954609217319506,0.25463421638924894,0.1290516128134115,-0.2943674861091655,-0.3390269338952633,0.5892231838910085,0.13342760762087014,0.32304419823730224,-0.2895396828890412,-0.15869976491326782,0.05581089306844889,0.2233261906356019,0.25340588027984623,-0.0647300893032698,0.4896208620114302,-0.08150200176710494,-0.21487734080997617,-0.18446093458900795,-0.2863042987090368,0.030158710456829132,0.17236906181599684,-0.007393240556943145,-0.08392835340288203,-0.05259903117208276,0.24253191058121293,-0.36172118889078475,0.25583040809007007,0.2742309766387257,-0.09645878206120106,0.08808975546274422,-0.08749601700671131,0.09317626337045366,0.13223801069274174,-0.2556730956066097,0.3225249989962232,0.14662520582681166,0.15078163286129292,0.08300986217460729,-0.044839032877608605,-0.22707539579762004,0.04756536554629987,0.5568350618092496,-0.1640709872121442,-0.7608960332477229,0.9513291506016703,0.0924111536381856,0.11780677858151045,0.061993534440235025,0.07819822312807634,0.18955028696472598,-0.2905058154069113,-0.12644035361627864,-0.1842699762658927,0.16991477132508856,0.1635950654128394,-0.09084791703387027,0.33581561092156137,-0.16603230069321398,-0.3315159479180419,0.4324338398797083,-0.009562859189642262,0.05290954309659547,-0.15217229615496783,0.17595803538836952,-0.0383469255478697,-0.08181754473144176,-0.1435426784557034,0.2900105754615667,0.36354227333621464,0.027206032933721938,-0.3775918412700595,0.1493158814333223,0.07507224389076493,0.09454629690393584,-0.5151147228940848,-0.18527318028241255,0.46082696122792727,-0.06343622056321531,0.2718305544584124,-0.41668643963902974,0.13157240899300185,0.7697550404649045,0.33720436640734003,-0.12653349562720684,0.0287117037372417,-0.1364945375079817,-0.09723258164760007,0.2942240871809246,0.11013716010198242,0.3222452950140728,0.05381710345709237,-0.13391844158182795,-0.25247710710422877,0.2983193362742528,-0.21158235651912802,-0.21005134739850778],[-0.37784698818839946,-0.15766569227900534,0.11309729382845284,-0.2700993962188881,-0.016674115492206033,0.12717176875895092,0.061757824195001115,-0.00870008110805705,-0.17898735886091907,0.039889268470887064,0.3562087105325763,-0.06325617781286835,-0.22659331456134668,0.0700821098134057,-0.05935055228597571,-0.17906008705989548,-0.130479350666939,0.5557455495130285,-0.03128540293764672,0.04119130311319502,0.05223284476251199,-0.07838188995755516,0.10367087758808224,-0.16791362061410217,0.1269143399431414,-0.18283290154171872,0.11743964323098204,-0.2862374484576864,0.09651405157105804,-0.13579878328895867,-0.05635765858639304,0.0771508268321369,0.13494903368515102,-0.30571765800152506,-0.058504303984476154,-0.0757959235455838,-0.23338751247318673,0.03927061253673329,-0.09292401689657138,-0.11124951113674467,-0.22152073737495545,-0.0761791225385986,-0.05159517017602735,-0.04718074167719741,0.13623258871886776,0.0690615782809798,-0.2213130081283745,-0.10572981212422185,0.2804414710773471,-0.0832452117040952,0.04895606170528743,0.07451759652153069,0.016920732686582125,-0.20161818622961838,-0.10720904520252544,0.06618193816973421,0.11238867025755245,0.21191868686900822,0.016205518144502946,-0.031030731275598834,-0.12278328456109486,-0.09500929654620457,0.11810591888614304,0.053528938142617694,0.2286263088425523,-0.10211404228738649,0.039193478730733325,-0.24757922083721737,-0.18628503494794935,-0.15613410141521614,0.016764021841376483,0.11608261983596724,-0.12788954941249825,-0.1857427244306863,0.09484574160455794,-0.2060770954660771,-0.2169421564111808,0.06912402573647478,-0.28752420093375125,-0.01559890948873601,-0.1118818136699579,-0.06626865740027361,0.19549499133048012,-0.10744891707975975,-0.03759413777895276,-0.05778435561431587,0.027137022351275294,0.00015307655731357548,-0.051063159690630966,-0.08997480485648518,-0.21617381560352467,-0.24608814374789711,-0.050215793117140375,0.03500424213583775,-0.3240023538510293,0.11601487456534224,-0.07220938581206177,0.15977898372208418,-0.14935695766419896,0.1846524461880789,0.10959007585932988,0.0029878696369186847,-0.08433925534780093,-0.1916577343253511,0.15485448957674022,0.00591909749761156,0.25065633533665777,-0.06638695068355357,0.12521171216258067,0.08024254691832702,0.04610024490211883,-0.24123854809644713,-0.22535986532434776,0.09761487551659905,0.04219118991547467,-0.13097163914044557,-0.19887428281837943,-0.12336203769616669,-0.0968976837097899,-0.1696318444896422,-0.06601349867420778,0.15303344261156404,-0.019882850369220093,0.12340492883763961,-0.36156999543464896,-0.07737683662986906,-0.07857048166987365,0.08939555881948857],[-0.3148285042448276,-0.13122646129719026,-0.14366396228126832,-0.048487919924964665,-0.198067208265608,-0.09414784494426756,0.23228148896905798,0.4713024461019632,-0.18793618332329945,0.11057125727671588,0.18276717214434438,-0.047881230573758995,-0.564864985614077,-0.13501894900215244,-0.2321283440413654,0.25567827489773975,-0.29597193349094086,0.40528953627165526,0.020436986361269623,0.11147845036125795,-0.34925704143673286,0.06915775728006937,0.092689860267272,0.17178269543674382,-0.14009225481276635,-0.229036428231341,0.23915157062012893,-0.3160612095033257,0.16685161785591784,-0.05377207239390429,0.22512596777960792,-0.0909702909875732,0.16306159978488674,0.49959537121776276,-0.4058312800362196,-0.20895188440899692,-0.2614207679991683,0.23282895564109635,0.018887285754528176,-0.3219882119622859,0.1570151114603187,0.05941200043540034,-0.00009758695093505642,0.16353976344080806,-0.31394779962807634,0.08292333291235503,-0.18739604939764798,-0.08192020664676657,-0.13949079722412247,0.043795133290283686,-0.501649223024414,-0.1319567794669717,-0.22597403304090188,0.15643439950360644,0.1597390507823962,-0.13423802291165246,0.11545238630268417,-0.6909092305064103,-0.2917983664139256,-0.05621310311108853,-0.18563350274818433,0.3468293912281527,-0.32032594415473287,-0.30340191139116857,0.1279308054791281,-0.20300996249548134,-0.22257507692018585,-0.23234960436771052,-0.17778081205937168,0.682070649821085,-0.07273180403262577,-0.21674756595849515,0.07417298100981343,0.20075488037639014,-0.26898996260650876,-0.29415926994922353,-0.06673929522989887,-0.3232457901512049,-0.7061275959622886,0.7322063068157099,0.04074361141469156,-0.04281593538342259,0.14542998681212824,0.0053747807130763514,0.2955902551780179,-0.2545875949895061,-0.22028517275119258,-0.2831197963150941,-0.020110441890184648,-0.14283622079737576,0.03195243238359528,0.019659394252511737,-0.572356908410829,-0.1253033854579519,0.1800360655255926,-0.12819293323305916,-0.28914656752170786,0.2326726626083253,-0.16019393987240743,-0.07223843521093413,-0.20156326016858478,0.1402115809708884,0.061099629743155984,-0.21341599274068712,-0.43073611287501024,0.46306101079032114,0.050081886936921526,-0.21099563902229074,-0.08490786569005648,-0.060136476273181645,0.8643290523193153,-0.22384333616268248,-0.006309634739804411,-0.25199276422548067,0.13752157673754342,-0.011088908976550037,-0.2842038927355365,0.154406807761172,0.006546161155097432,-0.3212514635443391,0.08041824985054358,0.09534164079263202,0.48423604328044534,-0.06824345539079556,-0.20731846289534936,-0.05371196805451949,-0.12666648109778383,-0.10028330088816427],[0.25826917302607383,-0.040687136651121815,0.017116643926543225,-0.16829483266342649,0.2717291795338941,-0.43111109481915405,0.030370341451986603,-0.1787614731733183,0.14096424967347843,-0.012291316600853527,0.03892984834563941,-0.08663508715347143,-0.2858127066641039,0.011389888923827095,0.5099692095973029,-0.2497785881629857,-0.15017703884671912,0.3825133381016549,0.06391619617296239,-0.06626489616341756,-0.1220216796408913,-0.08051937279359718,0.020531445847952974,-0.07803098919470013,-0.31429670654106145,-0.1292562512434501,-0.2746732852222491,-0.12746278078518009,-0.10141562884961372,-0.06359864399559974,-0.21998476428783806,-0.003776677875520084,-0.1250403077532686,-0.17739247578969078,-0.0380646529852758,-0.10939956073032428,0.3583212505111533,-0.15984144024880398,0.0820792471556757,0.24521818538704404,-0.001582289665239934,0.023911416924940844,-0.21148946724176373,-0.05847207816751605,0.42698109896441905,0.17114907090628914,0.01262802407240218,-0.026631083483880075,0.06257162488307827,0.15415996214706096,-0.11574310181518449,-0.16523025734318467,-0.416524259337458,0.21819849128208618,0.31600424648197123,0.13702543165315909,-0.21797747913316348,-0.12061370271713477,-0.005500614195008693,-0.11428107080442075,-0.2023423549281081,0.12149121246653241,-0.07935094401847927,-0.03946377258238189,-0.052083858261276775,-0.5589674705310198,-0.525645017177491,-0.10995953008873197,0.2099521284984323,-0.29260517933321156,0.46136577204612145,0.28353584063194454,-0.04504266630991773,0.11198875208223913,0.3182704868629767,0.4572504137238352,-0.038785593871131833,0.08707696151437669,0.08595824294244415,0.21172816223804905,-0.27429519440345157,0.20493978758677295,-0.03444868564362474,0.21896050230844125,-0.27337566390298723,0.20587652165092257,-0.6643562446827334,-0.1181920444625223,-0.2184795979210724,-0.17931952856294361,0.3690433591519389,0.1371090499204615,0.43889407384421786,-0.04785034307567031,0.20564415603396932,0.07894511361497776,-0.05956184240226442,0.035507026922118774,0.4903286845566207,-0.5934135083634707,-0.257829492162316,0.029402448129174794,0.19636437624944464,0.00998811831840863,-0.2726454477740911,0.11735100047417993,-0.2751158653047174,0.11557200819130051,-0.6829265135639662,-0.2289080558834572,0.19842077995862759,-0.2927813058240604,-0.24225237060183574,0.2657898168729752,0.17177676772433303,-0.7444855582357388,0.26864626319021645,0.10776173496035193,0.10522076017498938,0.029392035807034173,-0.06677269314725191,-0.31343580208827204,0.02912642048010846,0.283399041258902,0.09150357954202365,-0.08128336122113869,-0.30419807225374096,-0.18944862991591155],[0.2950978971120444,-0.1057363450090613,0.17640802414416476,0.4547115652327498,0.019640276456688914,0.10488963263975952,-0.11995895582456308,-0.07464247782848096,-0.29988951454908136,-0.078740126242404,-0.10806182345670967,-0.5468237968208534,0.33339355649654084,-0.14590516180262209,0.1486710086835675,0.20859400905758618,0.3260566114535616,0.09514659737167737,0.21856221664871167,0.06778107094952923,0.4124968134647308,0.11471921094730868,-0.0017658162978591596,0.10102945724140089,-0.14277183273674043,-0.08512317399897483,-0.163449405618485,0.1075389769390586,-0.06413874392064185,0.039801283451927454,0.33375250522302535,0.11629558337551042,-0.006235199182810276,-0.18016911485135584,-0.18345879752034783,-0.08053982620045026,0.1415974087435296,0.08402500137245343,-0.029719482237269855,0.010237517263909849,0.5224533652734779,-0.11511216019403388,-0.07979251434690694,0.014117993836065799,0.6182612330481586,0.08571096242043583,0.300521253281261,-0.15001551574130123,-0.5313018453283721,0.2243718010972277,0.046375545755263134,0.12224164866298873,-0.2768070874999738,0.42358642065724966,0.45387880342254305,-0.09543331958926608,-0.12131696777866517,0.049907079935683774,-0.12994569311809423,-0.14465014857263533,0.08269752954937037,-0.4406431156077655,0.04239173930211094,-0.01289737223060101,-0.3856406561675817,-0.2247539930175657,0.4620672946440881,-0.020856978745664556,-0.06933405311628973,-0.36757653546364083,0.36661984162205374,-0.14080743268777396,0.07086578917207163,0.17303775566743848,0.0940106692324266,0.2844703605157331,-0.270825951980866,0.01574331585895664,-0.1033148740580744,-0.46484676560225213,-0.2774894077625236,-0.18842682793352575,-0.08776833721279041,0.21041773865627547,-0.0008015586256476456,0.2149141283530891,-0.2650850925986478,-0.13574518802263877,-0.0522640985203746,0.15291892644955804,-0.29483252813260163,-0.20339607100443552,-0.005609042450679242,0.055603507014580944,0.10335269108278362,-0.01737589979269085,0.011202068227125309,0.25940901905415326,0.0432030669081024,0.07745245649483415,-0.04847863796370895,0.17622609494033872,0.15872590556616584,0.01530009790966381,-0.21477774237431502,-0.06851599956026759,-0.030119455676567434,-0.24908439773786797,0.6959205553648143,-0.27091064459779607,0.055836820815349145,0.40609114387679435,-0.00993003024698906,0.3311437884362455,-0.09988134775578987,0.5671780946997624,0.21838560118040534,0.08642738357709183,-0.19863022296324576,0.14221773664047646,0.19611444753490248,-0.3885460008363292,-0.268279736304929,-0.19062450266895564,0.40387351270037586,-0.024505233086855954,-0.1818599552982125,0.3132719952445205],[-0.05833272548334863,0.12960884180247934,-0.030309391535823637,0.49634444806899386,-0.026935799972509677,0.3251112805727053,-0.3429356291486415,-0.5977386959476116,-0.15455567110472807,-0.44826777799962997,-0.32475625197366476,0.11821215455380893,-0.14461613074869353,0.1646703341620539,-0.12279286301733386,0.4924911884467835,0.2398103871147158,-0.3463108735657315,0.029899997325182583,-0.2946396005607178,0.3901488621258688,-0.08327725079864119,-0.30193858683030533,-0.31397284028868616,0.4094005395688116,-0.4352798799755076,-0.07162530307353357,0.5391797587670271,-0.3685761818014859,0.21713248481471367,0.23738810593741716,0.40528447945691054,-0.0975895949006918,0.14616666409121104,-0.46867347497902795,-0.10224130461063277,-0.012332893281131041,0.2667571455656073,0.16976969818599838,0.16914134541342926,0.1380860090244201,-0.014314441061212348,0.07428257007760923,-0.16138593366641205,-0.2565753516525365,-0.22589690785439975,-0.02500752072100118,0.18353572251428074,0.2374254097484464,-0.03253085112024292,-0.03363825388718312,0.13950567410528952,-0.2810649779320356,0.026090562352282874,-0.4428931978207266,-0.11882251933200104,0.08246995717765206,-0.077225745826565,-0.136907807938342,-0.030339501835246408,-0.15488705114329063,0.09686652556335683,-0.048105029515143456,-0.15712630653329296,0.014323903502065567,-0.3753003880375184,0.5837616816089525,0.1496189682027743,-0.14165628808827757,0.246827622501998,0.25959894751852647,-0.2272936940906594,0.010501135161209067,-0.39710702319281177,-0.09837797807376497,0.2740933299034607,0.01562041809527249,0.34616407355058165,-0.29221197208438965,0.18677098000344902,-0.009852553411374134,-0.2813242980823038,-0.26655899670321476,-0.07187369839446606,0.18139844334767022,0.6729095218214804,0.34187914644338513,-0.09190788115720051,-0.22365741744800577,-0.11476388216446703,-0.23852101700916578,0.12151311645739737,0.150842349145881,0.18636696213689238,-0.24077084210472596,0.11779759180992937,0.20115494336406411,-0.3091263658632146,-0.22457685924621432,0.08420825236350338,-0.013790165612222514,0.2829247618939819,-0.3869539756658217,-0.07401164950660263,-0.15843162403761388,-0.14381295558898624,-0.10543432693933832,0.38878365288443983,0.20239821034678027,0.06608820240736474,-0.1832007755325239,-0.14055537211781402,0.49908808316390374,-0.028034381536687417,-0.01891685545509906,0.45952203266599684,-0.4040158143374619,0.44491920903961985,-0.45058817238476206,-0.22403763924312212,0.08219868394706348,0.31613840555408607,-0.5557815006596062,-0.27659448137955717,0.385911371441286,0.10916949098569284,-0.18405540760174527,-0.10252030267841498],[-0.21784177374918287,0.29510307020059534,0.20464246655023033,-0.43128287669765347,-0.36229684404712176,0.5603239690525128,-0.007080313089927249,-0.191868126313652,0.2782403534218436,-0.08966585331732164,-0.1079074820184819,-0.17179714569845198,0.36949497333892317,0.4349855625036542,0.49039450472995366,0.3448136456620109,-0.009381980961279986,-0.09153908828377534,-0.10018494292560699,-0.17102390455761257,0.11983623853373193,0.22530404503560802,0.15410104824185783,-0.08984819667394263,0.3988453872711245,-0.08219214806538547,0.12793818046988012,0.08564936301004952,-0.09733307469095023,-0.24675646735263795,0.030550363025175515,0.5826259487810767,-0.16157156713090254,0.32953350400745235,-0.06166500646887615,-0.0015245767484401815,-0.31075945847325004,0.004228996248614312,0.23729382988809053,-0.1611851458483125,0.21593375389491667,0.47764673316740464,-0.19075741328035575,-0.05419358407876259,-0.15471899489476812,0.040458564850507035,-0.7594940388382694,0.0952834100005686,-0.10373727733290715,-0.052067865282617004,0.1814728266994726,0.37273727120092837,-0.021115545339856174,0.2759421269201112,0.04024244880393239,-0.2017553850883633,-0.1983550072363911,-0.10667429351999211,-0.06681189139150992,-0.10915313447216082,-0.19712735421197072,0.23298512347986244,-0.13828190633823076,-0.290097141417192,0.05497249627788602,0.185798163145562,0.03623971932739334,-0.013274402835387247,-0.1539738433070978,0.009976114287067517,-0.11024453760829728,-0.39921867897432045,0.03706383034449019,0.5989761349040911,-0.025334260281393503,-0.09842002637549861,-0.3218701215492888,-0.3861489814277955,-0.1807088788750624,0.3518221004621048,0.1877425062078174,0.33016162794867954,0.15235659209578323,-0.09250564673187249,0.29771259199263994,0.117866389112197,0.4690233727149405,-0.16170012040572146,-0.2923031701398898,-0.03380133821780339,0.2790006033141933,0.10491249929397463,-0.07576478246346795,-0.025098464314149242,-0.20177602609924478,-0.11714006310379647,-0.21850539524976284,-0.09547085200485463,-0.3137870966917282,0.5073864738586674,0.03238013312492225,-0.14670329247857755,-0.20135519341146985,0.12903041265125,0.04887272792509679,-0.2498115687591606,-0.6241716974734302,0.22758692307609268,0.7768074536615291,-0.23325959553521636,-0.37871593508742896,0.08019655626857905,-0.01886309772522568,-0.49761054778764335,0.002210765939677748,0.1445235327018466,0.4013405834958594,-0.1768443436384061,0.27310083820715453,0.475843060957403,0.10347399491627145,-0.27992582384475106,-0.25606838324991527,-0.16462636171735998,-0.013829771353621994,-0.12031586291187674,-0.363752969243175,0.6909421496198855],[-0.28697836832762813,0.27773391433678907,-0.21808518169560265,0.029571586418866036,0.2747222328024471,-0.3679059320526445,0.2823137223875463,0.07989253501403813,-0.04082001263019525,-0.2841271627677094,0.2293711323244911,0.05056999423093446,-0.01362608422962299,-0.103601258320097,-0.34395877167635475,0.17894149378313462,-0.011270567389537077,0.08535305746305756,-0.07777946800931894,0.08759836952786047,0.3574849453153516,0.5316495145934429,0.06847507648105454,-0.06900529502619074,-0.7695164599889635,-0.897459961523633,-0.5885199555816072,-0.44913588344674493,0.29933674150444,-0.05472103815704179,-0.12874106059989254,0.13921296153132834,0.07324443178163115,0.5741356768973701,0.05724801895098413,0.17965244796531993,-0.32622060187158985,0.44563736743903387,0.177336784290137,0.45277188611687547,-0.23567568344107287,0.2783066672746725,-0.39661165072006577,0.022227592093045853,-0.1209094229865828,-0.04937914708935605,0.36550065054372555,0.041136866884013044,0.036467380673182705,0.4745835833470681,-0.47588106955144877,0.06309031601989329,0.09562504523011929,-0.08866236611195738,0.09970618387210047,-0.2760516231560662,0.20632657107583946,-0.4668165599686609,0.1109520125881546,0.18383279848512013,-0.23485212342398082,-0.0044680418683084346,-0.25097188858540775,-0.3464572163911169,-0.0024451116585347088,-0.13509850358597736,-0.14708540698570108,-0.08775379930664967,0.3003238602281853,-0.4484986762172497,-0.06004496433857672,-0.2573120425033982,0.4790999677471281,-0.6076633483886544,-0.46674604812302634,-0.361170767337534,0.24592697617030318,-0.047361287963403435,-0.08541777081160935,0.3928560180206045,-0.035088557896916256,-0.403385724346457,0.2536417284898761,-0.05652740398124694,-0.12277180534799637,0.037050609901004554,-0.6972358940403623,-0.17220155994411768,-0.08718370308130105,-0.2828626935056416,-0.018247588245219385,0.01323528689209975,-0.30068236345630106,-0.060016518639133515,0.18815657496579744,0.0830703076877422,0.07929361769832019,0.008567873720466777,-0.14383178167534683,-0.12865824545334256,-0.09758998351759282,-0.19167762084280984,0.09393288726276265,0.36699148928432473,-0.3002608897289699,-0.2360705669995547,-0.5224636436120593,-0.5373003421872398,-0.21059692949241737,0.03825530494465217,-0.2695165746365199,-0.0900641950213524,0.31541264488977194,0.327368746662196,-0.012926800505481817,0.010061961226799965,-0.23462756528313614,0.05121922461985503,0.11520834815856087,-0.24980154089701026,-0.537266092516234,0.1785132321854353,0.18302796998903653,0.03715197340896798,-0.16989187369390507,-0.16215516175593594,0.11172369916986223,0.4292751939946352],[-0.6883590914763212,-0.1382854631428109,-0.33002661563558927,-0.05948280671525519,0.1254842770958807,-0.04819069190975428,0.09785320046444013,0.07185580902039389,-0.20618178146325128,0.11970657856870331,-0.1800521087619337,0.14915264388426608,-0.2899752713564299,-0.22843188438563147,0.10334637010772843,-0.09348491999309888,-0.18447938587169363,-0.31100867257456705,0.09052098172856694,-0.14492302242336078,-0.08551841987858967,-0.31698746383665843,-0.4632981580874766,0.0406801061231758,0.312347569275673,-0.39479768547742383,0.06536495532327453,0.2630443262724104,-0.1065680387346397,-0.12757014126811145,-0.40074200957254624,-0.1263931103376958,0.3091059299714174,-0.487817529185193,-0.13673348305820085,-0.1093865646147006,-0.028788388226580405,-0.2761901875731929,0.06939391650479952,-0.2586579772820244,-0.33153904091982306,0.10247635401195301,0.21837098815742306,0.40160617254373454,0.015509079116130085,-0.04634296835234371,0.12434097810696856,0.07112334733660647,-0.1713962029250622,-0.0019350362436532465,-0.3035022943635018,0.034587578373907024,0.09902598515583273,0.18439657950975674,0.3217898820234683,0.058852397639620864,-0.0937854646137317,0.0789658862258103,-0.15871420546131534,-0.14886621421668755,0.20139229585740182,-0.1767271965481298,-0.22102649644584527,0.05331173205715024,0.05581968144254028,0.05343974016694455,0.7603891307281317,-0.10488044661511348,-0.081835100145482,-0.23742080746366617,-0.26079561270651186,0.20049526991892913,0.08525552714441671,0.09134599645194112,0.00315992450917444,-0.01971373103099117,0.1364110002644578,-0.008743116091270691,-0.3837157881483619,0.5835650102727091,-0.22399347881447962,0.20688498810310954,0.07303333590021262,-0.00196341061171434,0.370536970731289,-0.00695981783626647,0.5949187474505636,-0.19180153959183532,-0.023419922853690472,-0.026527179472624247,0.044466621721969295,-0.4552348640472787,-0.312816274558124,0.15682784895373456,-0.005376075816464727,0.4275769851538767,-0.18869373300574793,-0.31245573302788016,-0.5407245525987987,-0.05868881048032507,-0.02954611516265126,-0.09871153015139607,-0.12982912337677258,-0.12883680475753279,0.005389292122651824,-0.12902955224024007,0.17049293194271783,-0.23977808823807453,0.7588943189748301,0.05439071542258944,-0.18062285124153715,0.3968696068582814,-0.0953562021598878,0.10609128392812034,-0.1286008272311429,-0.42854006032068587,-0.16885073730169306,-0.019000928657531856,-0.18712269160794257,0.1138755411395883,-0.12059906531530427,0.00022924338704386241,0.09341879538997894,0.07946582398400522,0.27940857288102744,-0.11911221080922801,-0.06248682637379462,-0.03101148337519157],[0.1605143940552818,-0.1528484496714032,0.030945184240733503,-0.1494646759977423,0.05304740255284521,-0.13564730592061294,0.06940807793028062,0.03995525321083453,-0.15903536594436513,0.05555541085889077,-0.07157160171132708,-0.08482267104196667,0.04669041438173196,-0.28468903725319483,0.04665242915301232,0.17886162448368384,0.21979272103309708,-0.4176682341006759,0.0066789456972992205,0.012831730397615345,-0.08127985931475257,-0.21112031947088844,0.05649369825843468,-0.12338763451890397,0.24489395526383098,-0.3502264361333782,0.15836613365564958,0.48093524163839335,-0.038443212824675256,0.34924374252751134,0.20202780298700485,-0.22190257508843714,0.2312913086995215,-0.20983117218479022,-0.3973068974142332,-0.0010875174771915758,0.14326569746479473,-0.04667446569598129,-0.06833882600629435,0.04278933542286048,0.2168563980720375,-0.1546742296515221,-0.37224715150692395,0.2001057796479177,-0.07005054115980357,-0.22214135699787604,-0.7910551646900902,0.1322704759106787,-0.22627067708576853,-0.12421959626343096,0.26013141221520863,-0.16865405549092902,-0.25977250397868956,-0.1373658127965574,-0.2798359897128852,-0.002554826802326422,-0.3344969267657311,-0.5202507764890455,0.04026987433002309,0.14232071679130914,-0.2826138344662653,0.0806076405771546,-0.32156627506236196,-0.2938198407860436,-0.11607802339026718,-0.14908058380199113,0.13332026646871423,0.2720607734688287,-0.042900550333975766,-0.18495980770841686,0.28082837030778496,0.04145980431580665,0.08983429494393042,-0.03868487376125221,-0.09799645425940326,0.016539314938573267,-0.5448793186534409,-0.11483426954745383,0.8183329051515726,-0.1438855433111754,0.2916326061189199,0.38180411975022854,-0.14465232143278178,-0.047853567377066475,0.12628381853240564,-0.09505053485288523,0.21126737926859948,-0.10518261108535268,-0.26723559455183216,-0.1228085008667194,-0.5210020399180652,0.24825160703413102,-0.24518945767483763,0.02391553457433988,-0.26812323032341234,-0.4501649144723907,-0.07405999058058972,0.04299256890322646,-0.5477883019969078,-0.28415197768022193,-0.041293428150452074,-0.12551997166769016,-0.24857641871732844,-0.3294830098438775,0.1265853986470294,-0.13661479430086984,-0.29432317305726535,0.3756478192793245,0.2688982967838561,-0.2071745903897126,-0.26534332934809907,-0.040428947279473465,0.22085064102105667,-0.5160922225352605,0.03793360521808399,0.22553628875360976,0.38508570340029386,-0.020915640332259195,-0.18856463369515192,-0.1739305026047032,-0.02925143519318959,-0.3042679168731439,0.014730221756693085,-0.28084888166466926,0.021887889735604855,-0.2925078304509583,-0.22713317247891227,-0.057403987511943574],[-0.3805438450905957,0.031223292702872683,-0.06901139944844166,0.039416863845016484,-0.0703651735107113,-0.0382179621398993,-0.5032144856638577,-0.09108449368473813,-0.3293406041991697,0.011414449075217216,0.16080457322935404,0.4109451565494542,-0.2952130807391492,0.23124801518066052,0.02798542907896125,0.2773058300568483,0.06858603676391259,0.039262746327841276,-0.11616259943801381,-0.010513358498894117,0.09096848183006312,0.13138961502485835,-0.19078600811538363,-0.035363430073193654,-0.08337773014156472,-0.17672964659546345,-0.16955519282730772,0.10482066616800478,-0.3888315949305326,-0.20846229488097412,-0.17482033963358193,-0.09152428763901838,-0.36410797219826263,-0.031768734712744634,-0.12091026684213682,0.014539280768614684,-0.23793959151626934,-0.20209220189955315,-0.0310523485822511,-0.21082191347407916,0.3235070706609126,0.022907578932881305,-0.25927089909339557,-0.1437225421819021,-0.13068537477886025,-0.21379109148573117,0.5004786200170539,-0.08995899002455923,0.3744221415333362,-0.08070465679679084,0.0874395593114949,-0.09101914505655953,-0.030449776365105815,0.17555885059665088,-0.2595454503285659,-0.19994532574544674,0.041898005347370745,-0.19085408102474477,0.0064225367937946285,-0.21684498823725892,-0.11065459957947965,-0.22562006655656391,-0.01563068894977455,0.09507698342672283,-0.06242660867240255,-0.15938832190034968,0.42936379137401887,0.08110357223460313,0.050710689864206834,0.13698822246263126,-0.1751911587289267,-0.09248476149591359,-0.3524928116693593,-0.09860884669536543,-0.3634363859201717,-0.4132509112337904,-0.30583165964823467,-0.2346371307431024,-0.32200323455232904,-0.06752077979304795,-0.39878758592052305,-0.142858804902894,0.09320407089351236,-0.02919040764270513,-0.19998066421505525,0.17192413622355088,-0.2866373867738503,0.059480254810050856,-0.02189213585286124,-0.1622168202708353,0.15352208167393724,-0.2571808751991166,-0.03611423486099548,-0.14187915236369,0.1540638618070438,-0.026403082804751638,0.1524632571936244,-0.15063646981657045,0.14026399980882462,0.04301207904878076,0.11066459672622217,0.03639895894156443,-0.38280721705211657,-0.21458699148332666,-0.14203604933378555,0.09363806102491884,-0.11177168912488941,0.019194039051443984,0.3776746284285278,0.049267694224739464,-0.2721105324107057,0.04735651820798275,-0.07479725222606397,0.005077768092587303,0.04731158056216577,0.6123905990625431,-0.15682222190760256,-0.19153441244980468,-0.3069726605998725,0.01588096542773913,-0.08697424489457815,-0.03976996503916084,-0.4423614612854545,-0.1901304742311182,-0.05983431147332962,-0.20237910478395216,-0.2262017497988713,-0.15002594247415246],[0.10081466468803632,0.086495398693654,-0.12491603574145986,0.22112825264440897,0.4108148974079643,0.3683486412876257,-0.0504942271034173,-0.3556523647928419,0.051367885098241875,-0.0800937967188774,-0.6000268685931816,0.0941362835419235,0.06357870775866514,-0.07083008555114953,0.35250563918242594,0.22166677356969378,0.07592977901378707,-0.11072325199049955,-0.1325646596536836,-0.16389453646563162,0.2107391150502173,-0.2235387192352135,0.037906777928113755,-0.31504088441049105,-0.04168597249143707,-0.2942893541360016,0.16833174659743855,-0.14976240351497652,0.22115002877206374,-0.17754991269994078,0.5398455299853799,0.194872618692473,0.1261424651094008,-0.027123489023460866,-0.193731069372549,-0.07051489193080987,-0.1007389408815261,-0.14482066292976364,-0.05539570427595868,-0.20564263962384555,0.4338449168814621,-0.04833004818036832,-0.08244211952625569,0.08232644572335149,-0.3066946944666437,-0.16399117078874506,-0.3361510816489065,-0.08026949442031872,-0.23753912225529966,0.21480575755902964,0.03755220775355248,0.15487047385321487,0.0016275898594329831,0.3068131093894653,-0.11022470435163652,-0.07553601368805907,0.017070504844029458,-0.18229654918813018,-0.2260748839793128,-0.23297023632947458,-0.37712127922469935,0.010430758545113428,-0.040005146063979105,-0.03446474209873483,-0.04414516122130057,0.10360254626038735,0.10410424564225819,0.10632225998442439,0.04823483586671121,0.16036241540453633,0.36128499035138695,-0.43129947831957777,0.13048345347776255,0.35155552042098437,-0.16956952518207866,0.2927354748523259,-0.07833079301382925,0.02491847415911746,0.4759512321298355,0.012277777370269945,-0.060035131375009966,0.3386224358428463,-0.16189403097661428,-0.07540156920996101,0.25052174682861694,-0.1396089939752465,0.2828460751973873,0.0951991132194501,0.21238217769737122,0.03096905054168973,-0.10562010719214504,-0.13035894019027314,-0.22199764616700174,-0.1058178533093358,-0.06919423788235803,-0.19340481364292753,-0.314575172638242,-0.02344528544786242,-0.14089052979429967,0.25528342355593775,-0.14257866975238315,0.0999333928420373,-0.09386186313923969,-0.05346409551236985,-0.07422936902989073,-0.22500193147110942,-0.03435344804150326,0.24674031469302649,0.7544172314015806,0.11364179399417156,-0.24650010412997925,0.2378085000694347,0.11301955521977794,-0.6504157840429975,0.006596024573230858,0.3353572719462261,-0.019545886874166175,-0.09463397441918248,-0.2511182651474415,0.22951175133760926,0.22174871420757997,0.05793921432690354,-0.16959922506206868,-0.14798057730002034,0.11012409277248368,0.03572807057695806,-0.18532437009813751,0.5438825721036462],[-0.10042969355700025,-0.05485034880327773,-0.12322631553853064,0.10927428659735006,-0.18290656436998803,-0.18448906006337698,-0.1567853467450923,-0.15110675161110695,0.05531095999453777,0.04570690359007234,-0.25431855873497855,0.01958433116093809,0.07689199947817245,0.3542460261046779,-0.14956017157556914,0.37620166264128707,0.1290325330997004,-0.05853537182208411,0.11941038920221536,0.05019737413625598,0.04262065636874167,0.09895528595691963,0.26009436804731884,-0.3020657758367175,0.19028772072600167,-0.055615716876465646,0.2484835457731625,-0.1214069840446379,-0.11472638480282984,0.10219886559498632,0.5455436720429756,-0.11972373178789197,-0.09679067835921773,0.3628935722216371,0.14013001603192285,0.0717302486153416,-0.1737772122657798,0.1658076143502456,0.11764954608668181,0.1750733436119455,0.07600724375001347,-0.19808503764726001,0.04528053287899897,-0.14919152741069708,-0.35094626158687714,0.03272968473516789,0.048536163977268725,-0.0899091656449683,-0.1652210716270932,-0.212369075502013,0.15194998472465743,0.03913092852383289,-0.13550257574396463,-0.16707427430121857,-0.31519053023535815,-0.01972972152937145,-0.15435651216527388,0.02944185865325342,0.01061804410704529,0.11714852762473799,0.05188437850054325,-0.0986421130255339,0.18494972367497695,-0.05323074802530079,-0.20123043090769674,0.019493606639431296,0.05354682620426988,0.18186242379085402,0.1733139960320866,-0.055866147585810114,0.19725783306410344,-0.11416320631169266,0.047208100007132915,0.08756670288630845,-0.030753083981543236,-0.04364151758399796,-0.19905391709139394,-0.19194656589599407,0.2727286339148352,-0.15963380748756467,0.5113255725675263,0.009173650519118172,-0.17751393241827948,-0.028431559499238358,0.018479243742751627,0.1257866426548863,0.05160778668498287,-0.056604177494094264,-0.05254343752725519,-0.17748673825686562,0.04684963913693375,0.40890491331178896,0.017375374445632374,0.004783981074386561,-0.0779912754428615,-0.2688519542924528,0.20377099203778193,-0.08832438112453458,0.12354298923529418,-0.25403292504818775,-0.01917114152441569,-0.1487106283172518,-0.26357805851607496,-0.08917241953099095,-0.08034784624007286,-0.08675361388421743,-0.05256901513672117,-0.03149651961256575,-0.23826980350103982,-0.22316050447474625,0.22509565905906667,-0.03531204633637797,0.008608234870130117,-0.15246586151110283,0.1923193691550672,0.6140395311069253,-0.2874838157637758,0.27172738783498435,0.12747620504373364,-0.3445541272650041,-0.2802372575334939,0.07205067250572515,-0.06193736805086052,-0.023145707247570625,0.1619705148669865,-0.20127716161062392,-0.1873161942611136,-0.00023656797010709464],[-0.1891999138427261,-0.09099032908743442,0.03652138941327352,0.06500699111354556,-0.26690636196710615,0.27537758620351716,-0.22643417897223786,0.3772157958991183,0.04844059672356264,-0.01577862640177889,0.1029748342753672,0.41991470739628367,-0.5094117729971785,-0.15872262130691756,-0.569217349513312,0.47349466414810065,0.08837146368596044,-0.1372560682517076,-0.36722591264115817,0.03495295263713143,-0.3961717525717033,-0.22553008420493423,0.068690491947811,0.00209019829034948,0.06790210622849549,-0.08624899519275789,0.30721376885074786,0.04659829443662232,-0.2590653904159454,-0.28203635579297825,-0.08669746290616319,-0.22421308352001504,-0.10628040583650421,0.5520151752471026,0.18981789600335897,0.08619575220194098,-0.28569158207606554,0.15516896937667776,0.13487147471155697,-0.33741476494761324,0.22157063180515574,0.02197657420866633,-0.24038461337548975,-0.07958260239520937,0.06784224177721059,-0.1930095436190438,-0.270612015534028,-0.00666042618115788,0.2912069999745606,0.012412771132483229,0.013373260666999839,0.17238594768695054,-0.3330603108873384,-0.13419209103874483,-0.6576198319695763,0.12045860944661159,-0.2855873087183056,-0.49253870285223517,-0.22661296715161583,-0.23427418371014683,-0.39662438019336105,0.14163207290252128,-0.3606536623039902,-0.16026010395983148,0.30199372369900623,-0.050001218142363316,-0.4113240815557633,0.336851482513603,0.04263279593658752,0.06389729955285392,0.5594272917956175,-0.44405550591295173,0.0761782848951166,0.09462214033210027,-0.07426570058459134,0.055519093231809674,-0.2712525197045729,-0.06588648115790185,0.24250804682756513,0.216854237756141,0.15747464361641628,-0.021193003885857303,0.7031216483900591,-0.21550964117402793,0.004182663288231116,0.1863444766988475,-0.219410788874672,-0.19056796682988145,-0.16491113567956223,