{"layers":[14,128,128,4],"weights":[[[-0.1345866468510502,-0.08429798466453028,0.09273728507779042,0.09265893744620768,0.0414108473607205,-0.12437900891620197,0.8204810152605031,0.1863620023377012,-0.33442156296828507,-0.4113910798139152,0.1200395894635767,0.3670074413539996,-0.9288045890802691,-0.288888250652072,0.011166441537721429,-0.5821313556333821,-0.07103894099472596,-0.432401821722322,-0.35222283008630667,-0.18545017755572152,0.08402414308538993,-0.413500732455992,0.10597419271353413,-0.2749792215085161,-0.20504367189880074,-0.17137243939137523,-0.20895911549615984,-0.07399056794004602,0.0328814520186081,-0.4085174321638744,0.7558212449095506,0.4583905850508795,1.6911701312898306,0.21861445982692335,-0.05385374450799279,0.044066882108071095,0.1290128402514913,0.66199326595845,0.1320918245257822,-0.03170196412447526,0.43051077495826584,-0.1926396822815473,-0.008096889905854285,0.8598490746712006,0.5783791258369171,-0.22092337042389135,0.16822146094403836,-0.028785238016291424,0.04913652330500171,0.30402076303677716,0.3182795183066251,-0.5075926225200006,0.3344649160054566,0.970470498942665,0.6461709188517465,0.5988993995509387,0.11298204960541576,-0.0659131242997517,0.1793026725736468,0.20178032087072215,-0.15440127434514736,-0.0595050113178355,-0.15575897351000212,-0.13645522068289187,-0.06896290225076102,0.06018789081648877,-0.15256387448855474,0.8541762215444466,-0.00868213240196764,0.34079976099487613,0.715948892075164,0.5297551909943958,0.5638788649117451,0.8530980185752559,0.46301243350464927,-0.9478323404933444,0.4859444256918894,0.06337566254608563,-0.32123900086058127,0.30444489986373535,-0.015448740312679487,0.6379339533689801,1.03935291985001,0.030497748711022704,0.2318857415277638,0.755200225991058,1.2260536533331103,-0.047844599485532685,0.7783432073632078,-0.1516001102019843,0.34150600705384165,0.10771487696851696,-0.024581331464419404,-0.18433886849330403,0.019857666657122533,0.5944395865770085,-0.20659992100599858,-0.31888141514716717,0.679672067406841,-0.1431206678766355,-0.5011017738392681,-0.2622521107138499,-0.18686647167091472,0.5982750547626023,0.04903523505297479,-0.22759014959985818,0.18109676509110434,0.05916396022059936,-0.26048384223659377,0.6579012697482998,-0.49232506695252964,1.7426071078172138,-0.19829584929046934,-0.024920067776962557,-0.21896400149804848,-0.046082158495321726,-0.03865810259779446,-0.18782542746308128,-0.0943176537658514,-0.03519970867380796,-0.2778111731618158,-0.03350543223271762,-0.2816377944861588,0.39137612043485476,-0.6860138832793402,0.27862703247909293,-0.13449642795036842,0.12209982695357585],[-0.2918157402435604,0.011133459597003886,0.03740779447776364,0.035199066470530886,-0.17415915672311255,-0.30056067682029647,0.3310581237476435,-0.45128286264668804,0.05110297563415802,0.1483411301575562,0.2728236523858563,0.15389997133718186,-0.5932270817579155,0.0861303319940714,-0.16920472234465908,-0.286856400860683,0.26285261559129486,0.4194542480822261,-0.2089613449233002,0.09508570852225834,-0.9225377190056472,-0.4870798441484875,0.8263901218266906,0.5550460530791725,0.42970505997921615,-0.08633777729854454,-0.10368651558736126,-0.268312940313282,-0.2942358391109889,0.47501330333556757,0.26295032671200946,0.3328228100682234,0.6806487022850471,0.21330994877207762,-0.21623360131616814,0.2837602742955093,-0.4293300504172834,-0.10269795548560195,-0.1784957243957373,0.09824784147776847,-0.5064910203323421,0.7525256503285824,-0.05947721077952509,-0.4212787932441081,-0.28368909814611704,-0.37179017273488985,0.862097145500858,0.30571923017062114,0.5197634630628132,-0.7569197551386233,0.04241717002860949,0.8013297547875008,0.021387992835056834,0.096821588398011,0.9663908903918437,-0.08853317390862342,0.38873418825451145,0.0029212158128443765,-0.2860301335898949,0.09248151562238963,0.040897015259674596,-0.3327623659169198,0.4374018245906339,-0.15855363083292323,0.02844340081140537,0.2880902745463622,-0.023493092482112465,0.22385339536795085,0.3362087512679527,-0.03972982680275481,0.1892925847646644,0.31539941777529196,-0.561383342381845,0.4537956272713045,-0.020839218102904192,-0.11507284850970331,-0.36928332183306506,-0.5079000584474578,-0.10025293193417088,0.28742632129087986,0.09138048872393979,-0.19809890420126733,1.2563310385640474,0.20958197033743667,-0.28063030474369044,0.3165379594793763,0.05773044529322301,-0.37943148788518627,-0.037438007865052914,0.7119429651212393,-0.46387222576146,-0.11594426210367492,0.8421943924419082,0.07507289032118934,-0.03867459935471208,-0.40642891858992186,0.06372387806270553,-0.4207660793873187,-0.04309916337044289,0.07672485228797045,0.4753599128163588,-0.056955646715761823,-0.12615187218186466,-0.04113734115390369,0.5992566762244433,-0.0741962498688752,-0.1127000617029331,-0.39190841500911094,-0.3585480441907619,-0.008842534564749463,0.1633018389423615,0.01716331289505485,-0.21571441201246133,-0.20374346644533223,0.4947274038641157,0.34878482993090704,-0.05847713631982469,0.011692089603832796,0.6813214047127867,-0.38586531121505324,0.16702013218714518,-0.49689263721878923,0.08163821150676999,0.6254751869783584,0.7098174734217677,-0.060660501922456464,-0.19660040651132113,-0.48179182161024875],[0.5594719002283491,0.1450900873433503,0.09655246007307357,-0.00892762445879179,0.06170492634056636,-0.41568618693692005,0.2892815067990802,0.48740173453294816,-0.023710815694515712,-0.13276564553359915,-0.42361471872425827,0.08783350878148237,-0.2805165722540652,-1.1412335255980048,-0.1421531303440017,-0.08316160501245935,-0.024029961632865273,0.07381651608794033,-0.21646114040934333,-0.3359837827051548,0.7565607994629047,-0.3004643699880624,-0.3700109700274079,0.04656939686365099,-0.9432084589698505,0.1332833632360743,-0.0018217290598032932,-0.08985979051471553,-0.8310862599952856,0.7147523531957215,-0.3524347419165057,-0.4815621314510806,-0.5129013458234793,0.08986281658703793,-0.33960523634420486,0.9692940449185246,-0.1056220624902233,0.16124550164133034,0.39385906872269655,0.8183561633324618,-0.29574480191245545,1.0556929049917123,0.5537670417671055,-0.8237854126923476,-0.2767599831478825,0.25933864822021346,-0.3497938639525132,0.08317708778226927,0.7628737448548236,-0.8005801374084671,0.06474641957062499,0.7321575413025238,0.9703646259520481,-0.7256522178636616,-0.0588819484424867,0.27953928114517956,0.024968116169586673,-0.2742303910020285,-0.5775053642792549,0.04033308472440336,-0.054011155940277965,-0.34104161567357805,0.3420162025347731,-0.42618003302889945,0.15131328731592086,0.18848901098268375,-0.10684967143169381,0.19006436363488843,0.04347683691416366,0.2339553354495058,-0.16736355485621712,-0.051675274965518166,0.5903590429663498,-0.46897319822389844,-0.16247067106613686,0.1396653011530997,-0.38575819587392957,0.6941615767991951,-0.28437946895588834,0.17965704498858323,-0.2408084528583969,-0.1980066101893223,0.43846320494997615,0.43077893199947465,-0.06989191124748362,0.04447756194159082,0.11205850118452958,-0.39680872443971466,0.08466313980852641,-0.37769712909255004,-0.12135226430756918,0.019465706017501264,-0.6152810691613981,-0.36845800552950414,0.7873943744853709,0.4383468362110638,-0.16487571770265178,0.02769195666803601,-0.025672461111568432,-0.47020635719414966,1.5814708450364832,0.14739274841523772,-0.2369332106584047,0.3897349379451874,0.8045935466128322,0.5152469745144582,-0.18798835038778025,-0.1274687869029293,-0.1974360056228752,0.12706087368889551,-0.2059012889151899,-0.1949943092014135,-0.10402333813708867,-0.06804378280069874,0.45264729678242227,0.5919151147593397,-0.18630099019706128,-0.10984100526395355,0.012395386572647006,-0.16668517789773127,-0.3105564768381258,0.9680440425877456,-0.3605293939534699,0.6946286798494976,0.9629457923917467,-0.525262855323333,-0.010068620923665717,-0.6572922474294859],[0.3887055918839634,-0.41914487152250857,-0.09305467054136166,-0.2322424249120834,-0.09092799466686965,-0.4053837981571441,-0.45927506400855156,-0.15927177417754107,0.7494590906713645,0.6528313221151409,-0.037488513417456924,-0.15531400149883565,0.11615530781101478,0.5054160559874994,-0.2859366928913246,-0.4945559609465771,-0.12324226514829219,-0.5032722727935177,0.7549401717770614,-0.06610808821378103,-0.4872490440911574,0.5316126270473155,-0.1043018588909209,0.1497034071082211,-0.2548449280563155,-0.3056216370681219,0.18731064209389234,-0.38373934734277376,-0.43771421031145347,-0.14243021889100127,-0.0846079265670297,0.13938304449487324,-0.31818424097661174,0.29685860962969507,-0.71592777267745,-0.7351047395238862,-0.6841140909721201,-0.33069777936976075,-0.08798340848274809,-0.25513830336526566,-0.16193568515156814,0.2949170203949062,0.10783262762852475,-0.312251573992485,-0.14932769940072338,-0.4033332911210159,0.05124957511453759,-0.5401333250613397,-0.23343893807412697,0.015705244217494876,0.3533022454274532,-0.22705725524046871,-0.40324018962738434,-0.29842471605583115,0.03742050705103739,-0.11571850844475212,0.09808479379211317,-0.16500562832540216,-0.0860251449422078,-0.2479993133636305,0.10646588900576494,0.5205179375208182,-0.26818356476004807,-1.1660210461553635,1.1076576553328876,0.01818915641335766,-0.13416640497403073,-0.018699183367512483,-0.16516963917102864,0.048747656389603974,-0.0665793804858356,0.30047545081108346,-0.014900495248119261,-0.028337055233696357,0.02134081427024371,-0.16776015662670418,0.050340657659225296,-0.3539994356784886,-0.32696122582983633,-0.05180561032643864,-0.06783486656477464,0.06002164715533025,0.3758532556570873,-0.4050651128965771,0.3544187514296627,-0.009944401309515282,-0.028721641631043997,-0.29542187601089387,-0.10862747988802682,-0.10170372918327134,0.20886226236548736,-0.11414250920739147,-0.27579152793673894,0.1250026997934299,-0.5221594472543444,0.006359348491328312,-0.47007824187658903,0.16060728288618517,-0.22062881512463436,-0.3660227928427347,-0.13914078022196044,0.1955134089945437,0.09051951430888773,0.021743094079865324,0.24629076275178438,0.21697552722274194,-0.18689871076641273,0.05320070479597153,-0.12820532457703784,-0.41438287321494177,-0.02641938772587933,-0.26217391556989655,-0.11953223525816095,0.26267546909648765,-0.0849698177445411,-0.3909840726947771,-0.225396357819046,-0.21448096398488123,-0.4685203467471967,0.4332215246000548,-0.03550099843596911,0.051865754176327085,-0.10214430450673784,0.07289252608573424,-0.05025968752897016,-0.5106341383024078,-0.1003282591254549,0.4386435350113083],[0.1045502683007779,1.1666517101795086,-0.2653500037822765,0.8674559247841506,-0.019426803684829824,0.08416509037504906,-0.5549051396168816,-0.35874360095890434,-1.0562820615376924,-0.3515000028311301,-0.28164279009260434,-0.012103723194487612,0.12312075097373634,0.04115279415141658,-0.04715813055083608,-0.9677273676262318,-0.06711955649196427,-0.6521666313032701,0.016291312256739812,-0.24482710599436902,-0.48314584177993747,0.027983497279015487,-0.6006733996383906,0.04257707012187876,-1.3451621375070948,0.27583590729072666,-0.2949528820281402,0.3376723764850355,0.2459060717865511,-0.14543945137513592,-0.30876244353287374,-0.04209297021763376,-0.11017315088320953,0.47024717713220165,0.28355443212191034,-0.1363592228146666,-0.2135190365976947,-0.29657832096944103,-0.03594481963381623,-0.04963766775593696,-0.21741136451200158,-0.45989685571434186,-0.19343659820197123,-0.3969543927823837,-0.23038073392435304,0.47808266438494973,0.051556856673625896,-0.4983896207505199,0.19584542779698882,0.32244474133675055,-0.29384250826364955,0.12818951934525644,-0.2562394895405034,0.4087275126551927,0.13169157671891013,-0.3784451830954534,-0.09752401846169194,-0.7554685920901052,0.9468809074745054,-0.35750737213072803,-1.3168714205155272,-0.02614335589755686,-0.28266001774920746,-0.40696992073571975,-0.33433331369088554,-0.08087279284559293,-0.18221034404649164,-0.054252305928811334,0.0006276905484226285,0.2804384629725213,-0.330701953769795,-0.15656186681370643,-0.4381076129136122,-0.5639300389341267,0.0962190783924743,0.09436615303990793,-0.05289600737155421,-0.5711354710739006,-0.08057478535610844,0.0493973603798188,-0.4405873863575049,0.2880641207378904,0.12481103688952376,-0.06739312809817423,-0.29833640023618163,0.16175516681548338,0.23796511070965676,0.04648476283797686,0.1491400334309771,-0.021092663657464067,-0.06381503862532349,-0.2432984029394841,-0.12383198963357109,-0.023827261764564373,-0.6239251264101173,0.0910691397662381,0.5344088966584025,0.2891138971447027,-0.09232968085136688,-0.139995806700057,-0.03135491217582016,-0.1374038632262907,-0.25323591932476175,-0.09344242244536692,-0.04006474424127457,-0.5059034213562009,0.06626420439568419,-0.26414433041662744,0.6002418439456867,-0.3023402955672156,-0.3728725194219304,-0.7957007849791327,-0.14519595559409948,-0.05584151854441769,0.28567241398185145,-0.548738292979838,0.3025934018373275,-0.025390794612687666,-0.4077798064571889,0.120784176772485,-0.5022962609353112,-0.23158659135545673,0.3957648671065636,-0.17191149610868087,-0.006182482636680695,0.20096690492025968,0.05347643312890004,-0.8557799164944725],[-0.19465801500827196,-0.021348254963410834,-0.1679403163885546,-0.2691985589616825,-0.06298576282468554,-0.3523109469194678,-0.21716300712587142,-0.3505359298193782,-1.0572677052855226,-0.43894218422103354,-0.2141848744621155,-0.2451267434297442,-0.33396794464940954,-0.19497864450689723,0.28239368022722483,-0.1062384812530229,0.18763627797129412,0.07893706025169397,-0.8202799653735906,0.1139995012341279,0.03366631783739752,-0.5751382254893029,0.10356946717876707,0.11741636169416704,-0.17873226666661876,-0.029380795122616724,0.15213165154783173,0.1198171002702558,-0.21885617462667875,-0.0925518066480507,0.04684827071314655,0.08972766759660776,-0.5526357159685877,-0.6187865738882988,-0.25205827893657134,-0.09355515585148814,1.0226257774241077,0.07395567819622374,0.11086261283255294,-0.19026391756249184,-0.1257016265950537,-0.22805080393436925,0.034712942758366665,0.013460447082741281,-0.21108194361582733,0.733907196310604,-0.3407321302934757,0.45707394284951214,-0.2711257039695485,-0.577940131840358,0.07684043871489403,-0.2822092277344371,0.06156349801028276,-0.17086742394233664,-0.23145467729082994,-0.03789294614566836,-0.37554665839237056,-0.2388945329520765,-0.39569092149121377,-0.47009685444401905,-0.8960623889839955,0.04006289871392549,-0.3464993463893546,0.4208657468747622,-1.0909612483802473,-0.2692612792668277,-0.022443329021744743,0.023596469184313407,-0.40294985299263814,-0.06466399872046479,-0.08032591388551413,0.13912001105109958,0.29430130521310655,0.07159187608876526,-0.3646266677910696,0.5831043892080365,-0.4736112526227857,-0.10873898618716282,-0.05394729790124452,-0.05219846607155292,0.033014493065488676,-0.10290050748637383,-0.7522283333954971,0.24929524897368596,-0.27916924440047525,0.2667045946371122,-0.02354524729610735,-0.2717133674271077,0.12586788992593728,-0.07026667157425455,0.029427425256906597,0.0883726091339155,0.21138699158202928,-0.038422140667878316,0.1783522042392161,0.008449041688330028,-0.4907922215291682,0.1312159039118402,0.061163446841954135,-0.018966838514266726,-0.047530438836683536,-0.34965583814060075,0.05939805147835823,-0.4422296583657578,0.1796587452656404,0.3093354269939176,-0.061563431952902134,-0.02355554969312875,-0.09139349164928004,0.011709545182621265,0.36512435432688445,-0.0529140038389588,-0.20139270018095393,-0.21250992505493987,-0.03779623399494739,0.19039758300191229,0.02054129064369832,-0.08963185915520691,-0.03358122965237921,0.2620005666537241,0.014961484319029415,-0.049166219192535776,-0.15464638361897537,-0.23803408060196715,-0.6980017306373446,-0.04739799720869331,-0.17923896287187815,-0.053539007540465165],[-0.038648305196356814,-1.0445016998480199,0.3706970314452277,-0.5572045698818653,-0.07561598133381345,0.08559070559581211,-0.05283322166824338,-0.010371054064166099,-0.20353508437554696,-0.5464279980414266,0.2076051829359518,-0.047050936511101316,0.09228035100487027,0.29322218947005696,0.0716007791935285,0.6090360056616717,-0.09909755951371263,-0.33979529567916616,0.12078214614282708,0.06058652154989916,0.11963882543539589,0.07357846616731285,0.1806140732188381,-0.09726646683460924,0.48989586714340355,0.02946838454491019,0.051788667598206974,-0.09031573729468868,-0.36525143607720273,-0.8247385811357424,-0.23169800548168656,-0.6727673182310369,-0.6738726188544665,-0.570535546198755,-0.3319460450419715,0.13747881421887162,-0.20438908907135495,-0.0958589767462547,-0.14712855955450005,0.039789433707166616,-0.2585875303052487,-0.3852151122689281,-0.14496804457400086,0.009074087465194308,-0.0928209493377353,-0.49504035789502443,-0.20993719251571044,-0.11352641621593498,-0.0907229314294186,-0.154366694573473,-0.42126603221606523,-0.25463685807648817,-0.13675711952302327,-0.14291571091422334,0.20056183973692765,0.3351808977460645,0.372644245958865,0.5939157936111518,-0.8458464486344973,0.09135059800495154,0.46998824834756203,-0.4136595094618902,-0.026087627349092913,-0.2784724585047293,-0.10278760580796531,-0.37751289431972224,-0.05923316557369142,-0.3880537924145255,-0.327090290732216,-0.4327367894607879,-0.04071505574427126,0.44551131069009653,-0.5733220485472904,-0.11839025430603195,0.11156444786843828,-0.8947416913622748,0.15049459738627413,-0.20514837526281604,-0.08378515411284328,-0.23917489625361882,0.3734477309990409,-0.12174477260252564,0.016944188247263525,-0.1528317982393456,0.05574201808670198,-0.5475772969452624,0.040430971747113464,-0.14628927309106238,-0.11551770971415853,-0.3826250245423054,0.010493048506536883,-0.19933715082733103,-0.38599518433130053,0.07156063780424095,-0.24602765359451426,-0.2536120604993817,-0.36672455052215686,0.2711746941374475,0.19693444262206014,0.4890575628118509,-0.136074990775288,0.03237118577028994,0.1783820095653054,0.2756300687206297,-0.4020807651119201,0.16497770343012946,-0.24677494339606706,0.194424901680616,-1.2597716414297617,0.23094327307249884,-0.8116607633808222,-0.13880526864659357,0.2510510111823444,0.04680031535712929,0.10356635835930139,-0.1456242821806051,-0.051570957371829096,-0.1016211716938776,0.17034035127000727,-0.19504195526763227,-0.845640444414216,-0.39164732839864597,-0.386417956772669,0.11420283229797633,0.0897372510106765,-0.4449051130681438,0.10115813738787117,-0.1983335576580178],[0.39428195236019015,-0.25205755628129944,-0.13105183055332387,-0.011654018260668036,-0.09522247995796536,0.021891956139281927,0.26085429622151196,-0.07897350646960553,0.46486047870571096,0.2747248461541312,0.2744487643900736,0.07604429074160148,-0.5382873478957925,0.3388424589529637,-0.23108044132117944,-0.11988501811307753,0.04949637633445517,0.42778964108598777,0.26631274535480254,0.07572333127432898,-0.7153441008600488,0.10664148048902927,-0.8332070321271574,-0.13830757320439557,0.6306570113683079,-0.07062033871902336,-0.27954360989148114,-0.032487732932262196,-0.16936656529400812,0.29756423358335193,0.36176848286802626,-0.43950705626534775,0.3946656593854261,-0.05358188270401807,0.07792581883115082,0.32318842917949314,-0.28117514635806523,0.2224106991458221,-0.19695909654091234,0.0022389595601223036,-0.3298661253384431,-0.6843319265290203,0.23378230903834715,0.649404758159921,-0.34706284374479235,0.04274004216574389,-0.6215620349526745,0.21917477392493764,0.25529753061339394,-0.46176574506928325,-0.03883110410290209,-0.5047358900231056,0.20659456700732037,0.5254440005242668,-0.8702396676810491,0.12015795959707973,-0.4082890910235586,-0.17450171971384393,0.31538327275059735,0.26489981793227124,0.07472681501854037,0.28796440495155967,0.20173172265529868,0.4358803388921345,-0.16076790486253384,-0.07772261329278507,0.08152464150481921,0.381447974920693,-0.2189902202896493,0.012090013588465145,0.010929130612256376,-0.12073673949737822,0.16150488287358666,0.19776111904823065,-0.10169249501121036,0.3448761136907892,0.04983093472730016,-0.4536361986103095,-0.15726496197117507,0.21325615527686287,-0.1767237761988497,0.020219939518893438,-0.022033290830521895,0.007597644919789217,0.14466258841438986,-0.10274090018580007,-0.05644092023053907,0.0037880948560742676,-0.22663763416532604,-0.14793322592101527,0.0863980396841935,0.07459031589235118,-0.32380501620312585,-0.05151142155358582,-0.24921831291798363,-0.5635013205032509,0.25831570251112396,-0.3533073532279335,-0.32986546628111574,0.2685595808202214,0.8679308181039863,0.15179681925796806,0.08546244036360917,0.29409329858513195,0.36275897770797355,0.16392202754075172,-0.19333915999570894,-0.11574186368132415,-0.16412563622196466,0.3762905136957954,-0.2062409149769895,-0.9838477054613167,0.11379658702760027,0.05458649759398007,0.05289664955577406,-0.02068839336097871,-0.08533180748834826,-0.016287608831830797,0.44999309236530927,-0.13461582947362521,0.2324938372621036,0.7779563985225169,0.2917862851978359,-0.43067633819376877,-0.9705128577293205,0.32731146605756767,0.01692849891117325,-0.4371823136498982],[-0.021581917383800702,0.14600514058843383,-0.20621333362140648,0.2558677045228136,-0.1844098654134098,0.11607127634965621,0.17928699293386263,0.7606737392267389,-0.23241542203262394,0.07620667262977002,0.26588094046226496,0.1693262491413692,0.2918132607747632,0.3322033952510103,-0.06402378936579191,-0.05411981490972369,-0.20206221982268624,-0.03660398517799589,-0.3481945102166905,0.07591222152056702,-0.3935621774267118,0.16697698685094098,-0.09909472165795838,0.149103771318944,-0.18041222673691346,0.10049191264860854,-0.0550140311385545,0.19696798245795732,-0.3333248948088469,0.19232752043866946,0.17124601974340609,0.14640933058821595,-0.08512385383660274,-0.3554160037620383,0.30267718635497604,-0.5220134289241295,0.09514563167664142,0.11166955355746148,0.2685309036830215,0.20416455739839262,0.436320801939189,0.7064441615173975,-0.31584552550878997,-0.5457903030806311,0.5445871661040219,0.5024879768135612,0.2941344815525295,-0.05758066108454741,-0.4628960586123571,0.19334921281913273,0.24696615650659728,0.6615770259108729,-0.48294212883014814,-0.09945411234282343,-0.17973682220496218,-0.16584269553076397,-0.0753765458047233,-0.13835324248348776,0.05898338174461909,-0.009492933551667289,-0.13123519584770757,-0.31225297934586665,-0.2527213009639452,0.10428679759667399,0.04240414171873403,0.03359783054297113,-0.09500596379133497,-0.4441846832264544,0.16387577564432868,-0.08004895234982934,-0.006906910291721297,-0.1562086828680812,-0.01249644574285316,0.5140564042511062,0.22063966024669912,0.42254245388872136,-0.06787403854556454,0.007027367610268784,0.2622567912678871,-0.14904916493329287,-0.19362980109611524,0.037900460555815835,-0.27317987682933104,-0.09712011485451365,0.07868280452853914,-0.1687873827824987,-0.16246426178946435,-0.36806435084711037,0.016718385693762196,-0.18989570073581508,-0.2828178563241139,-0.2075234095039309,-0.4715513370139914,0.1938563881675906,-0.005419812138751234,-0.3032373901747045,0.05716986522963779,-0.17935416156954692,0.23378695460511983,-0.0013619349599953549,-0.18862758124588674,-0.15201993516381054,-0.27076557826819836,0.0007596070019504662,-0.6704503995787134,0.31171427094218196,-0.14978257938427475,-0.16191575726047125,0.06537537743220377,-0.4466432894441679,0.03341375902882098,1.116147310948872,0.22577880087361232,-0.22234605391125042,0.28014015874563114,0.18902491073505343,0.3861279248439105,-0.19495937861005502,-0.3030745670756625,0.42360526513791996,-0.016582032072190556,-0.6244099054178077,-0.0025480649087982724,0.04144570438737869,0.7991861388011731,-0.24293348579599058,-0.12341929349884768,0.7319006712733449],[-0.5485239064285841,0.028429043389079135,-0.10298057096908345,0.018342981613678727,-0.08675485823693894,0.3340430663155433,-0.4953972409664187,-0.17967242119503993,0.04061711146150849,-0.3144521148474695,-0.012081535100043164,-0.08879044762466172,0.0442435095413751,-0.41828161505190464,0.10139788651081386,0.08477652241509509,-0.2030797172307362,-0.09954013127981953,-0.15373940941732228,0.0551280972021803,0.7076551278548884,0.02130443043952489,0.03966847848244192,-0.4404996101379089,-0.20431797020436893,-0.20440183318219363,0.17355518684843435,-0.3115110882026673,-0.2668075732501368,0.1905100850167621,0.21244010041152983,-0.3064752230603519,0.2016050648157001,-0.4390485034187467,-0.08568876853760017,-0.11758946517268326,0.25861613003573275,-0.10356830065527461,-0.16983056349584208,0.2082340817626353,-0.25493770088810697,-0.9212601340240163,0.02249628142758395,-0.12475266281446035,-0.4179252074796745,-0.6989733475360568,0.3388083700191614,0.23878791245303854,0.22431983052446022,-0.1480412487423074,-0.023375105275293632,-0.6884911701559265,0.29046954070717274,0.10598729770270973,0.28442511733155773,-0.1991027598294395,0.23664712696381968,0.18633840944991237,0.3933248851162361,0.20833257787417958,0.1507587234024644,-0.1054870148460108,0.11423144664236452,0.021540849307081777,-0.22821847085216937,0.006495284643938624,0.07434783079730527,0.14016266608713637,0.3862003785540918,-0.02101044642901055,-0.33112995038426857,-0.08887668267342598,-0.6563544966357544,-0.3020640526803574,0.022185353109107044,0.0703997234532404,0.17888974153026468,0.7985446506347289,0.280307849034879,-0.1013746633244056,0.09071035164206448,-0.03266608968125141,-0.18269223747916552,0.26622693840827005,0.40008948312860676,-0.355634571281509,-0.27492353662041197,-0.05662837278477184,-0.05000861473969162,0.7088085851709971,0.2867270511466686,-0.20290568715928298,0.9603032382015365,0.05937797157903925,0.6745394143306124,0.09510670613672453,0.13372276365833013,0.3225609267208242,-0.22159305495049622,0.3107532671841701,0.7592088071631349,-0.2926981067706446,0.33847785429365074,-0.4569500107224113,0.06603067577011254,0.30022114663977717,0.26041871553620755,0.2756961422508959,0.16713194340216023,0.1448934720147971,0.018470299265271797,-1.2111282153725773,-0.18168928645384613,-0.02610902009593548,-0.7230137353562374,-0.41191624156242174,-0.19159392099900122,-0.05432532931355903,-0.2694363183638053,-0.4097385960428416,-0.01487779255423221,-0.31176726618380934,0.26557751496897986,0.12212587878410587,-0.4115128400465416,0.26769857671125247,-0.044772289152440435,-0.5980664803886091],[-0.4341368427659053,-0.21365129363953891,0.34993488745578016,-0.146073965740765,-0.1645379429600111,0.27511919382199673,-0.4391456559540977,-0.31694144874663815,-0.1030215267269989,-0.29620061888090415,-0.389415565582996,0.10296794739271824,0.1397410949144139,-0.1548826375323721,-0.10083900506331782,-0.03875473794919615,0.057852242063788216,-0.04793636171357222,0.016348213435061383,0.009100831704435746,0.1469924464024749,0.21254316782397165,0.11753243315955893,-0.1249063930135404,0.3278155210623953,0.053038299993530325,0.1782113726539584,0.06526603262263404,0.7445586741342758,-0.6103555366977885,-0.5877087809373263,0.49397272050612223,-0.8956944864521786,0.1931104548551829,0.38503784999087404,-0.343911790737922,-0.1008052552744119,-0.021988963045958404,-0.1378330465375098,-0.7601990115265469,0.3055818828478838,0.29753953660611215,0.31961932976273677,-0.49507499563373686,0.2877540657224474,-0.10963391509287425,-0.5910533697844054,-0.31785181762334713,-0.14608148765854775,0.6086116951021803,-0.11490893369897585,0.44434002249179877,0.025903613181560245,-0.7961107262791851,0.48331790192648594,-0.21941950210298844,0.16583145359081772,0.05952671076911291,-0.42255495503081514,-0.2842048260774732,0.08590930057424497,0.10597474056733572,-0.24520330529395076,0.2921319975512819,-0.08908589032259488,-0.3146153511724242,-0.1553488238416652,-0.5115771193422906,-0.16277659283823157,0.12314614012866214,-0.12699105305484476,0.1358207742738738,0.4705867737278032,-0.39641448482107083,-0.08272075397978185,-0.4353305075160066,-0.45933017383065433,-0.16735806408787327,0.029615402227480356,0.10896895350808579,0.4590723885420521,-0.21946625178188592,-0.43916541477712334,-0.33313092895147733,-0.3361837187820981,0.4195614327662031,0.07154508960356679,0.3650488818982225,0.06470754891683797,-0.6603931950463156,-0.29237615164714303,-0.2474225916448891,-0.44716543639713735,-0.1276724010308013,-0.23068617384339057,0.10795278179065528,-0.20788023829766344,0.01915433460587506,-0.1732156673911108,-0.156987941335219,-1.1606434909148835,-0.19242700168510626,-0.18416856853041125,-0.3828062489672812,0.12361127064913355,-0.5465228831096215,-0.01785154022032275,-0.06675127796059625,0.01055430324374525,-0.3184948759273828,0.38091159593665425,0.6016130726626391,-0.23049648551438331,-0.07335293516303958,0.3065347024323342,-0.06331877590468896,-0.06507370487593257,0.17921109792890116,0.026326132689322452,-0.08870326954473583,0.2633563509425923,-0.14636051709674092,-0.5011616957911428,0.058806091095940295,0.5410002807434808,-0.2608862734412502,-0.04105055874379647,0.1701104655060177],[-0.15135144016740185,-2.2580249394174183,0.6820184881418854,-1.44686713318633,0.05789787342899042,-0.1486995947075828,0.48520487871006956,0.14813077900806293,0.5988182805900256,0.28196247682340436,-0.2120967210154535,-0.1398512260621207,0.28988604288133146,-0.174437790926738,0.058935117038585415,1.5181488147715847,0.30433552847172274,0.7318060312053206,-0.6080246057436898,-0.5340127516897774,0.626803960178852,0.03747747832291783,0.9789507959166183,-0.13164717336367238,1.9406188147330636,0.703282280561358,0.4195581993093694,0.43275915185227054,-0.7310136394237714,-0.30977212991230985,0.16923520520443203,0.05214961880568528,0.719157934465889,0.4774974816020593,-0.2100920613268673,-0.25345142566891216,0.43736811683712956,0.1475281272096244,-0.2079789674640638,0.05258086575741462,0.3786037219985785,-0.3647274819957882,-0.0745231111125295,0.35133507187877927,0.1847981644228215,-0.28788777034654056,-0.20845769036614006,0.009520817497074768,-0.3329571019414673,-0.4172160597284137,-0.2903410732177375,-0.21652026045847322,-0.12385956807405103,-0.14595366390261508,-0.21022263250384354,-2.246538116583626,0.04272945686443229,1.2690851283890563,-1.7083969101220124,0.012515690608078035,2.3884717663373682,0.2308306307792667,-0.048063540464025216,0.46244896813210207,-0.03293941580382242,0.010507228790558631,-0.06566261655234389,0.2707111828166264,0.12504810807177152,1.0632621575565824,0.059130069396294345,-0.9116219724476899,-0.5778754608025294,0.3205261632261587,-0.2692131596997903,-0.7502634287186478,0.6863102666443444,0.6542368629142672,-0.45547726758318946,0.35703538751614455,0.6488768071990353,1.682991432502093,0.023604477186862306,0.6389167074046747,0.3145224946131643,0.2553164589418987,0.7688335712148875,0.5815100332702785,0.1970686836462216,0.021351088720855234,-0.180663486906967,0.024196998394567494,-0.18008696266729562,-0.5928282277052447,0.2863474441610859,0.33377306882142144,-0.6408363703654025,0.5011429749321958,-0.6443498054751206,0.5347341068981746,-0.34840201554671235,-0.3241519340025587,-0.4862085396239174,0.5458923012464952,-0.23477636288531745,0.41577311391317645,0.002544696744886602,0.6825122510303393,-1.6580194195821234,0.1972386414351134,-0.04489389945991369,0.4556997504817718,0.24335040335778213,-0.053309667865653276,-0.6549942818215808,-0.14568490580012722,-0.7141764008589203,0.16405763485990937,0.7668272689474185,0.44477309790332487,-0.31153775393571564,-0.23022690336977525,-0.3910921231028284,0.1792376157145029,0.26541274226261463,-0.569444639026081,0.029373846489057054,0.5181150850100079],[0.6072844521233407,-0.4636272568035335,0.1811713469419914,0.3819891922322804,-0.11720749129167997,-0.4139586408635898,0.8269494396431122,0.3187075414479545,2.242967876648381,0.9995135272485084,-0.3038405878289148,0.11336047183763812,0.2379554915150922,0.7470203087151565,-0.6187463477660403,-0.6106928762901191,-0.1900567407295433,-0.16646934368410182,1.2547934602802358,0.25672013252623915,-0.2749234256415587,1.352495944957858,-0.19456191459051592,-0.06677470736792857,-0.04564368669285429,0.7704041360965996,-0.01514454589374848,-0.518843395672871,-0.1855932981175833,0.5046524964356257,0.1412990790543776,-0.4246010232947699,0.04122390661481553,-0.4940141405238979,0.14776813706259787,0.3087683833301555,-1.4248404583022545,1.2402256995650824,-0.00035696996626858354,-0.04253169303833392,-0.37217241472537166,0.42238839521797783,-0.15564002212426978,-0.6162653820639159,0.03208225763394704,-0.4894664065877278,0.1462103656101903,-1.1685231752581253,0.15506625845921096,0.2739203301602156,0.5968481546599266,-0.04893769652421743,0.46473639564190455,-0.41708685726415307,-0.4356959208297705,-0.17123159062141657,0.4380982561151318,-0.43124585054173264,0.24122960190042173,0.13905748891219935,1.4853442907607644,0.2507708778074544,0.2663849857500198,-1.276336215726749,2.1670541051598238,-0.13502084842357184,-0.05508342450123754,0.2370819291222752,-0.19913166967723042,-0.6072601634970102,0.6091883379135243,0.15873633178837307,-0.31360696528193754,0.21621103937354966,0.6856538040215598,0.1336985795538938,-0.08895441289498228,-0.6780659997226124,-0.2551210637870066,0.5475694683288231,0.16814276937046424,-0.24404767644882408,-1.1956663679096826,-0.6041331011659895,0.5790599095087356,0.5403381896706347,1.0432404895001708,0.33307987724445803,0.7320285704168857,-0.6589816669067879,-0.1305701826653745,-0.08740616407940938,-0.6296396059525513,-0.016140428221379486,-0.6867570646524579,0.45066477134813,-0.313146954833933,0.2671131914786183,0.16826847153980085,-0.5964021342149808,0.03450078127935882,-0.13403258040100927,-0.5893933607360697,-0.3638776323328349,0.15296727368886573,-0.606284295285309,0.2122070937603714,0.35813694759648607,-0.85628746641898,-0.19029733606129864,-0.6448766752179018,-0.23213138475526437,-0.03530882961765796,-0.44041969731765973,-0.00688614074093465,-0.8493385303007944,0.10940907443592032,0.12973198295022406,-0.5963251044999098,0.2617537377191714,1.1393885724277617,0.1907019883690504,-0.11854144625240011,0.14415725295475235,0.25163159221325204,0.19201935623985047,0.010851157141800596,0.8545383521588296],[-0.13425176768429506,-0.14427867196017094,0.050861023839372285,-0.2726650053214332,-0.07767993060360406,-0.233612739865174,0.026474385701769625,0.13021983131666887,-0.3227489619575113,-0.30102299491938644,0.028356147972976156,-0.08787096656903118,-0.06730834597162957,-0.15893505251082773,-0.1173783761902266,-0.4336546413002319,-0.20361916095270244,0.024616465434161714,-0.14723529285120446,0.22722840737846253,-0.3570304246725661,-0.31006608401050256,-0.20616216211818877,-0.05782856600132831,-0.39387596182517015,-0.07879945112149508,-0.011204788758319015,-0.10999865466686651,-0.10468630592606265,-0.07362716192980448,0.0988845621445701,-0.16416469652328464,-0.11621537646694027,0.28811410776706226,0.034548329288712994,0.24045338616788633,-0.42463080708781015,0.29855704018022494,-0.17593227890117757,0.09604017740917162,-0.16794920948135786,0.16377501985212395,-0.14862591131854563,-0.007577386415565705,0.028784111333267314,-0.22098888440056727,-0.052885081514493636,-0.2943634599684532,-0.16493537890910512,-0.21461728937366273,0.1555362333298781,-0.009643318146014289,-0.05212996984737883,-0.18611481173325814,-0.11505898928756131,0.47609091380507323,-0.07837461032410284,-0.22059560523334268,-0.039427567050520966,-0.0014564108365435647,-0.2839922186852506,0.02514232998832221,0.11546187480886014,-0.1033930922114726,-0.46874809141569374,-0.11739489672565681,-0.1522950690901047,0.14893290690247496,-0.11078802322440523,0.12658211671250916,0.13374973668891627,0.22416210397170064,-0.1180592190590566,-0.060484073287463,-0.04064267306558064,-0.27749779368426075,0.03562035319989039,0.05985915657958112,-0.3174798152844386,0.2224300020519937,-0.24434025811258292,0.25340347383408374,0.18866231142360287,-0.04847009572130075,-0.29681640380378094,-0.06079409077006179,0.20541017872130904,-0.014872738394511772,0.24570587716715991,0.03086566368623227,0.033754920337036524,-0.13059805243676378,-0.057191576567776854,0.1407792228464178,-0.17644029371129394,0.19465841277439205,-0.1646592957314121,-0.001476087508537033,-0.01801697662932211,-0.255155678407418,0.2339512017862376,0.22485720641628626,0.06834913985628865,0.23535642150395295,0.28786819566727484,0.05578022054565419,0.15848239924528573,-0.04187543433691454,-0.2799663012805708,0.09804170465447572,0.016607921372092688,-0.0336053098194654,-0.003221531312546954,0.1409287339700856,-0.19539304324842416,-0.03437146890562908,-0.03250898531028348,0.13001120482804207,-0.2657818293285298,-0.1931727346946034,-0.06495827181889785,0.11585191413949236,-0.19223486226927672,0.2425444464587382,0.19319056897893488,-0.23595808722075168,-0.10736775703643872,-0.2755254779818261]],[[0.04996955079421073,0.07322518575440516,-0.008536997782531832,-0.02474748007195709,0.010016305404234318,0.15456033937768798,-0.15252453013559117,0.05495582343095002,-0.042276623912625606,0.04668934335969888,-0.1670169404365061,-0.07464859677498557,0.13690577735548953,0.07451132885021729,0.15999648475528838,0.05757734230659066,-0.3805417768961287,-0.004360913772712626,-0.06226418307068016,-0.021438739910557947,-0.13478230350106346,0.09334870990498037,-0.008034693283387833,-0.04143029793000739,-0.11814801915954082,0.14744588318852053,-0.010999132297004085,-0.07635719542294588,-0.03265159059045937,-0.0052401215371441255,0.014325478934807912,-0.10786790207961319,0.1560336597485718,-0.004296702082789548,0.2894233920193743,0.0788387753860877,-0.017492680903066493,-0.03429007569824209,-0.02582777090233698,-0.14589499826085162,-0.007927164345013511,-0.13409204488340676,0.031558446102890186,-0.1393548530238005,-0.027822552397589528,0.004850272124466644,-0.22964691351990008,0.1094297902614839,0.06832900917068266,0.12752131704458358,0.09433955020203653,0.0036179889931398567,-0.02042754369634547,-0.1368926995671768,0.15284531036479804,0.06902111900639382,-0.15852298390127828,-0.23498333862111814,0.29884172517726676,0.050835196862728436,0.050914641902542156,-0.09192929865188532,-0.05733067686719124,0.08775323313017364,0.031424354496847794,0.17123025684927673,-0.037496568920094245,0.03587439702846808,-0.045595122821366726,-0.2683941363554914,-0.09684209872494928,0.054356204864302475,0.15542445113288866,-0.0613727847104902,-0.08301590683365298,0.23739015320605275,0.09253412191408525,-0.046003662894603836,0.16024035543687332,-0.03345073055286468,-0.002908872131959648,0.12065086607197581,-0.12878049731565605,-0.07285937864732316,-0.049132325068348,0.08226346590469187,0.05072011468480943,0.05482922582433966,-0.10744222312669624,-0.035840914708876605,-0.09838445401234325,-0.17233957276937786,0.24454292955086415,-0.09716220935911715,-0.09652544168089235,-0.10616687998571903,0.10704453019119554,0.021152468286225027,-0.12285330173562022,-0.02989437782988582,-0.1473008016751957,0.03752892582680875,-0.06683642440915771,0.05290889762281983,-0.1373529106303728,-0.2292486178898075,0.11812138850017828,-0.10422501809482151,0.013212564962457386,-0.03708368332089501,-0.08548418792926893,0.08785456571252485,0.09959172079231776,-0.053901353329704624,0.11506971579735491,0.13339229297732455,-0.005953107829875594,-0.017271140432107174,0.10335143156497847,0.07859341891408708,-0.12898671011643525,-0.04349539657348069,0.06557555344767839,0.11131352760395011,0.30935768062222047,-0.058785801265558754,0.29699018276731476,-0.041573500699604096],[-0.1269351706821046,0.5086368548232775,0.2929933491607718,0.1921042305263187,0.054775437236052084,0.26514159451835384,-0.14686667795838662,-0.2632921553802007,0.20220457137903006,0.2554064419947486,0.06879536607253925,0.012420245224446718,0.006919472146089711,-0.02975227793138694,0.26262937891974725,-0.020151690164059006,-0.04600347044135522,0.0720608564473244,0.27858505356083585,0.4147681419802415,0.060872423357294723,-0.1915246301541233,-0.011650379809997221,0.17100845032737172,-0.05067017161045466,-0.01122659601172138,-0.022806722657982902,-0.010094278144291523,0.10748698445723469,0.1400469905517024,-0.28089812758036553,-0.10972683568513666,0.1904889341178449,0.034606846519147465,0.06474037700589134,0.34183749837207306,-0.12110607768879574,-0.0005802767597908773,0.10858578132245146,0.0900462423404048,-0.0716430529673361,-0.14680638196842663,-0.0324088550245369,-0.1181234830339161,-0.07504073550891056,-0.05488400332684021,-0.04058742557879541,-0.24930951033642498,-0.12235999320173724,0.10340728236138333,-0.11361192024103924,-0.2237323105421175,-0.04564914575908187,-0.029726807722217575,-0.017698983298550693,0.08947596447122294,0.0994786743258681,-0.023476447221880553,0.06414486139976994,-0.02649156999105077,0.13380283686952904,0.0715375995639472,-0.02614451275941658,0.05188333797769817,0.07664723210147001,-0.20852003515328973,0.14048655101264318,-0.08214291582313044,0.018806234344985295,0.08527209859360399,-0.08064571625455046,0.19655056219918446,0.10030636897774266,-0.21045291213873518,-0.05116897758923996,0.20278801626698134,0.13893147612098275,-0.12708752750165322,0.11986611058399746,0.05487719040675904,-0.08802150561882435,0.13061293155082468,0.07541314805188482,0.1823355895830187,0.012976354694125978,0.019080117039222147,-0.14992691334903896,-0.14417631695050265,-0.11125812938635672,0.2556300111068879,-0.029927947694907246,0.015398219486135043,0.02305427140305421,0.03846939131812536,-0.03309237699121014,0.3738449702587696,-0.06564598516236862,0.1543531565048497,-0.1973923441665163,0.06349281421900477,-0.028853248864913264,-0.12546807699884746,0.18529320405010796,0.0626328366929647,0.13843631522242236,0.139086443440205,0.13080535520301442,0.042124736770197596,-0.22188285122908502,0.28724223932474924,0.2271159324327016,0.16292098810438282,0.13325102123361235,-0.0775454464719295,0.1660839430543845,0.06047996510168854,0.2100273758955119,0.3307068320962545,0.046179415039388105,0.11194852714970353,-0.06932762502328065,0.12412486609003115,0.04615579718778328,-0.051127505492940414,0.0061169927025543835,-0.17944981005411687,0.1311943544986429,0.5841829296472507],[0.006211589914477538,0.043572437496720656,-0.2181801206163592,-0.14567554707796407,-0.11338999690063283,0.17070520854567311,-0.09641746417033341,0.057268035040808365,-0.016405935904876996,-0.04130526520327997,0.15303384332661352,-0.0803227963103215,0.008716150666926143,0.03425545531664312,-0.18722652744823615,0.07493496141491705,0.0328917773420224,-0.07740851137175261,0.15163214968498592,-0.051422028531910566,-0.04477254017048345,-0.24586105017561133,0.027987296660544128,-0.04079305776960827,0.10100825584606542,-0.035722844574331815,0.1463406072935264,0.10426076096900071,0.21735945869681259,-0.10259537613919757,-0.02798249623619594,0.1619375718038388,-0.22082076823770627,0.1510604813352353,-0.19473591578221236,0.13081181116016485,-0.017067348962259362,0.09519177039516911,0.1270954053067774,0.00030007670481403383,-0.13772831611153388,-0.10603056362035558,-0.03503946723967515,-0.15576301865462577,-0.008718819210593571,-0.08809118406660327,-0.13169324061089804,-0.01717462864896921,-0.021323496751209745,-0.10810116486450204,-0.030277112066434585,-0.11587785321195862,0.14558108177930898,-0.19989897422039898,-0.05128052074413959,0.08273527208661925,0.03997157536107537,-0.11328686873739736,0.10133570155562342,0.10266846859564016,0.0905679925536993,-0.2381059866125195,-0.006911028300546218,-0.005323818827973766,0.07760732745404618,0.014943255557924083,-0.17000474237268887,0.08829035225129306,-0.1014705208448599,0.0662792567980311,0.046481712816654495,0.052230003425627475,-0.18294354633614138,-0.08276547551088428,-0.08531446222230264,-0.14257630133106,-0.1750544140410865,0.05106599738144761,-0.07116857657800757,0.10320808565939603,0.07799522041155615,0.05736947357026822,-0.13339065970916292,0.09552675249798565,-0.14332950897286958,-0.0583827231207948,-0.1537189418559756,-0.07742725876539104,-0.14020403783706178,0.01930756145202997,0.04413810022275366,0.1038895744883879,-0.046529704987114305,0.0571048436115607,-0.0644901368295117,0.12144830204275894,0.0881889768618657,0.07758281101809904,-0.05477405438483843,0.027892825236361732,0.01096099007364119,-0.0870100715977377,0.08757881707120792,0.05409249106273667,0.10561719479514191,-0.22262552239517588,0.06800835346920561,-0.11769474398571568,0.17427837607445665,-0.16129088052645457,0.11495059563739549,0.10689943565121994,0.12100176947368856,0.07817515184929417,0.12887653119770623,0.004154261261923111,0.06242774199829221,0.1350273754109783,-0.04214876074860102,0.03968283916198821,-0.06024215595476132,-0.14816189352581735,-0.07786435310793834,0.07578221634322965,0.05630334161254224,-0.019143622513542322,0.006003044903737094,-0.07177308801715197],[0.004203211907663935,0.4512458356314907,0.19770820465547387,0.09417971815532164,0.02982193421989686,0.26742622046294895,0.08679304853634118,0.0038496647794883532,0.06974008800968207,-0.014002769147951892,-0.13329016074013406,-0.061059515560340116,-0.10952130513292964,0.12830149932333168,0.18590616350479683,0.028490301070259377,0.09301081585778657,-0.0720419370122686,0.2533664429170147,0.1402662601326109,-0.19045429544319536,0.08493952215212382,0.213391329417526,0.13806603339231716,0.2517820922866861,-0.03757002277604827,0.02576059151042863,-0.12672261241571803,0.16890760012843592,0.11012987239985962,-0.05061422583055165,-0.12311898755992369,0.23933735249881236,-0.03499712454098309,0.23807610861938155,0.23396333979546197,0.09254817692018669,-0.004287087636396139,0.19399250745525065,-0.11622366757639202,-0.03357948790102154,-0.057686429402197224,-0.14935344829041627,-0.15008971369109222,-0.15257936931296628,0.08774478393675589,-0.19094995269862058,-0.24715379056804382,0.014697029213357669,-0.054916616109751404,-0.0966646249273063,-0.2106392105605286,-0.10810487830270445,-0.15512638755962885,-0.08499429123107631,0.07366673723933283,-0.14272215699317026,0.1267525590845042,0.10115335684802226,-0.06486037986104387,-0.07993671006999718,-0.015478665039354406,-0.12243172048824377,-0.10060451934315154,0.135381700861017,0.07946802366585826,0.11359686502539856,0.04249831492531891,-0.04437792626350758,0.08812188756105853,0.1359523580580004,0.11724654046137505,-0.04112625504092888,-0.013975885896036794,-0.15552178356283236,0.009373043373312474,0.19015076198635938,-0.21601177355201626,-0.08885669170052014,0.12829399999654947,-0.02668072799960212,-0.035440632099889915,-0.05141698237980805,0.09562722167627809,0.0738763067122303,-0.13902838150977456,-0.10615535594088045,-0.14004054908363497,0.029415672993238846,0.20201318822158973,-0.010709116217147359,-0.04214845237413671,0.23737666909380872,0.061667898306081805,0.05902348706898288,0.28524566503684073,0.05531646776099351,0.08251475685772175,-0.12882579256431037,0.03995540029259042,0.10822773315153877,0.12258167382490516,0.1503226320125872,-0.14904407159517832,-0.13685611748002668,0.05705441385805478,-0.10570077274836369,0.08688227309710292,-0.09744331308766023,0.0751897318002672,0.18176959855374006,0.000008307383823688646,0.04810081586281353,-0.0648669885542515,0.20849933684944952,0.06139704482403263,0.07686785564492461,-0.0158695255421757,0.03196068453290148,-0.016305033877715883,0.051003872262168466,0.12456634281664397,-0.10552854980180572,-0.15765922605036187,-0.08650290520800112,0.08876851756592215,0.07743836550996915,0.2570922087416299],[0.148108855733814,0.0054663112086080915,0.111358450584484,-0.14788139106652018,-0.09306946880128138,0.031709262184471745,-0.12322267643171021,-0.10472129923799178,-0.15031025712352658,-0.007567750685143014,0.06406883170049738,0.1344775233107931,-0.06723754653471646,0.10841294268968683,-0.05183052307438088,-0.08727459565544493,0.050152937008078886,-0.08311021044918628,0.10131852898343897,0.023377925260772887,0.0900796501510872,0.11319858909041272,-0.006719727313868371,0.049840389207948914,-0.1396413989784018,-0.06721066474612877,0.010126425669939031,0.15198557204463203,0.018538686821056246,0.0934000325614579,0.10853570321167764,0.0029446870217427587,-0.09121561943508606,0.026166360268676126,-0.13284992712219018,-0.1325547552298767,-0.08000801384778256,-0.009223651494882754,0.1014804737684963,-0.0752277037919016,-0.12275671708941992,0.08002870556497046,0.13854943998731298,-0.10531485942223724,-0.04652180903777609,0.12672793517412653,0.05843697884526986,-0.07461448880867692,-0.05758945568442424,0.040674073022071065,0.0759082442243723,0.03418872006030412,0.10514242070905436,-0.11736991141486172,0.10322712757979588,0.023635761485363484,-0.1372160138309411,-0.12272147568747668,-0.03540336222265762,-0.05923233344036731,-0.1406894711295799,0.026649550882984294,0.09682162530319834,-0.10706103987790373,0.10855447761960133,0.048232763275325594,-0.019318793330748867,0.056975676196160806,-0.05233940143475511,0.14983876548128727,-0.14669979782387133,-0.042190722352737985,0.025349001178880216,0.060373839998460195,-0.13751114932462874,-0.09186118672661757,-0.0310013722470881,-0.08020859257391336,-0.02012483924577441,0.12223446687463768,-0.04162810311424389,-0.01723352598795954,0.0597452862596923,0.030334294297589864,0.12683387279345845,0.02050491445878915,-0.04625383972211659,0.09631399813216977,-0.13801268701029987,0.1493590817694953,0.12214161777123633,-0.05058711434524251,-0.09102789968097626,-0.146607231179145,-0.056302417774770366,-0.03100400185242168,-0.09560083564343913,-0.0980550063273888,-0.025351352889372566,0.13590564209096345,-0.022280167841901847,0.02388506420420292,-0.0008166765222800609,0.12595516316993788,-0.027585841601256947,0.045102523572298506,0.10163141200052506,-0.12451753370073396,-0.06660446402038336,-0.007759738470509277,-0.021614558581281498,-0.07118659694738079,0.09762957912765274,-0.08018970197594413,-0.011687725565797592,0.06067638631133914,0.007495981547558484,0.1145110715294989,-0.03751119756389976,-0.0008344961681097488,0.08762400723403611,-0.06284452371757213,0.1363849114982393,0.018634319388198893,-0.09813079236910352,-0.02619009854672051,-0.03193249760468465,0.12545907503280415],[-0.1483335364418676,0.1689450744016293,0.12235429560610164,0.04078070115843625,0.007766455783419905,0.1715867725016042,0.06433774995679918,-0.10858858678949597,0.05849565269981965,0.05687580198908797,-0.16831680846722807,-0.03998320817335268,-0.12354454426288677,0.06677366838412786,-0.16933061843275563,-0.0065019124773571715,-0.10522777184984405,-0.03686515206052001,0.1610323656516341,0.1046628763089566,0.03806008756990061,-0.2088854973939749,-0.06622874151074629,0.12366127065756331,0.20917777776835492,-0.06285654340690575,-0.2640238928912304,0.03781066236148274,0.1325759335042162,0.08708687190722239,0.030734878757738938,0.13321475230664798,-0.1113369867675179,-0.06592601456358352,-0.06167851577055667,0.08208493626268175,0.03296757339207075,-0.08253559996114329,-0.02220083570434364,0.13935524825190837,-0.12648862684184328,0.0963984018987162,0.05659346611264689,-0.06528853286715065,-0.08942878599951859,-0.05576691136061432,0.03797444980891746,-0.03553374546864488,-0.20179262444667714,-0.12681415296231235,-0.09565949332041757,0.03897456081460582,-0.2828377291421309,-0.19384898889629615,-0.058104195961499724,0.12411723299534201,-0.17200280232351006,-0.10893781957102636,-0.04318193856378942,-0.19858148095988448,0.16460564388175605,-0.14071576951362577,-0.08307020512096173,0.08799128524847503,-0.06730005204532111,-0.17634849378551026,-0.04564790715458336,-0.22686157390829978,-0.08872175458905271,-0.0681486900271835,0.10612423479169882,0.0766122510672582,-0.15903218253784038,-0.13300578515772385,-0.03755499369845007,0.1492700156193,0.11175763908273922,-0.07139281738925245,0.05131262908461323,0.06757251187102388,0.00029091124670648535,-0.1507670028189851,0.07169582864623131,0.08132991593924346,-0.11282907996693402,0.027260225464381102,-0.045350697028057094,0.05949695251206399,-0.11537711747436279,0.07817090198325384,-0.1273246666607279,0.03253759150415418,-0.07812277084196541,-0.07104369853582158,-0.10096470481285241,-0.010126066859587297,-0.058815129576863884,0.05475834770502733,0.030503010611832696,0.15449731334856354,-0.10686246134809495,0.08682874942659337,-0.0019895427342921544,0.21251307580388024,0.20223512085367074,-0.005794524096558583,0.0837198946877738,-0.11298693821105045,-0.030191301812570865,0.15793381608199783,-0.06818714471579979,-0.007620869142402525,-0.15439619707563285,-0.062776497906726,0.005268698390135034,0.07132008860296399,0.05592638859488672,0.03073623265111287,-0.12016987425752433,0.020229664822803008,-0.031713388314080486,-0.15581921671486887,0.0789003509447304,0.12172070019417809,-0.16679861292524567,-0.06184523698234474,-0.1676995011933398,-0.050755334501082085],[0.06458040428257997,-0.09239086165204002,0.01567725690931565,0.2920492328555361,0.1878947854698179,-0.18173605920429844,0.14349517638553796,-0.1266905201173876,0.2555313598684484,-0.040466858552686995,-0.025357158345691005,0.26827554744888954,0.10647281612659544,-0.06643008711991587,0.06756491579895461,0.0178831787193699,0.13372763143697636,0.07513129750324078,-0.06690749602790715,-0.08691119247723773,0.0032325495124029624,0.08899124956920398,-0.023463305470180554,-0.08539706189252522,-0.16966337057037167,-0.0341298186727599,0.17635740681976553,-0.030620750952039626,-0.052034880515126856,0.2574371617531562,0.21807147615933034,0.09593100800884712,-0.13243235818431603,0.02702662271222056,-0.07950312217228339,-0.06336243961748043,-0.09310090619011269,-0.07021198379362772,0.053122799654055704,0.010337370930250582,-0.020742706858151317,0.15245500150379293,-0.04253926926668584,0.03499600238406737,0.14961849733798652,0.0441838738954851,0.13515141207693585,0.33800051878409576,0.26102245999656654,-0.09729635619587869,0.041474506973505354,0.022289623717730092,-0.03299506179257538,0.1420960014276477,0.14635541976607155,0.013662270932722617,0.1751427071970713,0.20375883761116137,0.22558618663041266,0.00946457149377008,-0.06856218501540856,0.16747809063607838,0.055888023536183586,-0.057505683559078834,-0.10093209591489176,-0.06135500007557713,0.1443179469010761,0.12785894105628817,-0.11127295593630823,-0.006261193053949963,-0.09945691353424409,-0.05384500274611114,0.19559858119449697,0.11024267380804312,0.2003430079739191,-0.20165031594398797,0.35066153895972846,0.04700015707628684,-0.11989615893566907,0.04090739278269126,0.07431686805845039,0.02370389431109571,-0.03898611883678842,-0.22440788256199592,-0.031264307010399256,0.1268162359454239,0.23099464422471674,-0.032096130331024326,-0.14695216177209106,-0.12715289994398835,0.04785975052220385,-0.026451811901419445,0.10330219003761022,0.10391687828896695,-0.035080349481762405,-0.002328442592867009,-0.1691633402202931,-0.21689094650553328,0.25563002775196403,-0.18109905835851112,0.2407446813961135,-0.02654126255087897,-0.037848944344222965,0.29290999000114487,0.035823548630399736,0.06741422466402726,-0.04969058184883085,0.09232350883842588,-0.1923205492565084,-0.04196429954656821,-0.11011165545937891,-0.22799541037674725,-0.015617709332621485,-0.10580859632931418,0.018650628757611032,0.11460486772475274,-0.06999822831237551,-0.16158636969153445,-0.13303880254305722,-0.14371037580730253,-0.0705542888853864,-0.03907008529726674,0.02633627594121871,0.03868542734871366,-0.08064249403594156,0.05751724156058143,-0.18385810832860844,-0.01449116147979946],[0.14381445680655802,0.0251779827784476,0.030275708413536898,0.2241630589236512,0.17781940704587706,0.07294417468970263,0.05513912558565953,0.07482323914507787,0.22816496675714823,-0.03482562186076661,0.04481784412956634,-0.19618733260677765,0.029084883973538027,-0.034241643553906055,0.10934016058849616,0.13285519323512118,-0.15259525137560562,-0.026560909784230327,-0.020693170000707098,-0.04574659137441063,0.11613899576428456,-0.12136197113352445,0.10751048319339099,0.11155876541435418,-0.005652018538505564,0.15596998320200722,0.1907335213529872,0.1444727666735907,-0.07533671126281029,0.059818722056436846,-0.051226086468538684,0.13995818921072914,-0.008369979654417804,-0.07062874487161133,0.22059952119589077,0.07062063271839168,-0.03302850841185404,-0.08038705309884751,0.060695293280122506,0.0813325649769633,0.08925528537853343,-0.06539872849700537,-0.04881490921756116,-0.12628066556706113,0.046523626273556516,-0.07525593378298095,-0.06215715499465265,-0.04060539551496265,0.10812930197994321,0.24013454329438094,-0.031238797510662622,0.0003048161673273492,-0.25715563478073195,-0.019363024114245564,0.12405300883609467,0.20243989589538952,0.026638806250472966,0.10236519941643159,-0.018144016752993656,0.020716196356660613,-0.11253911253996465,0.061369410820297364,-0.06564025348192276,0.07935092576432022,-0.08837409948787071,0.17849605024284454,0.17216813861925248,0.22809973531366817,0.07349286395610985,0.01734591379814185,0.0490609083049129,-0.04919027993362887,0.030246369629907215,-0.16471638056634078,-0.0604028405582679,0.09367301659917694,0.057908772654628946,-0.10199370888338087,0.2346670489624971,-0.002203168036547554,-0.1487862882740557,0.004818569111294764,-0.09442730789470982,-0.15705201695906043,-0.09504432685136648,0.20665580817557347,-0.0017253494216917897,0.15677888049975816,0.025087637475392416,-0.19732781672205735,0.027042564708097742,0.17862064184982196,0.08803064644865793,-0.14142047874919123,-0.08610319596002189,-0.014511377851149612,-0.10242542350223201,-0.20099644161818622,-0.0993195631978194,-0.015919716201128902,-0.1947762000812179,-0.07066466963279285,-0.1852269520545034,0.23011167098289997,0.07112703005208768,-0.06635010474287835,0.03741305195101854,0.011205780817633907,-0.05715041151061898,0.3104775414112498,0.1098704522451897,0.17589779784396778,0.28209481229470124,-0.057874267896245134,-0.021542754793188217,-0.0769367144472694,-0.017558980379068764,0.01829617093433778,-0.0796737377292272,-0.0468149696263594,0.07649224815070409,0.09513513853320427,0.21015884854605046,-0.24720662643227292,-0.06201973572987067,-0.1477793939101621,-0.026328802561539782,0.12203784544566504],[0.13477771067995065,0.30874527119524886,0.14873710367431697,-0.1903688912138474,0.04367397745551176,-0.018472817891354087,-0.1672696491428635,-0.10795400014893247,0.2189036565705089,0.14007614438064217,-0.12625122588561605,-0.11334905717455487,-0.13170809656314358,-0.14299285403139544,0.03653604591410274,0.021158541944564697,0.010398872916787306,0.2597073457903227,0.21578613189632695,0.22313854165075186,0.061871374618811516,-0.1475097596864865,0.15373066575803593,-0.09257940889405254,0.21853217419750548,-0.053273002123784594,-0.23069661436438604,0.008140258850722991,0.30452052243452005,-0.31226451297572866,-0.02690647481610189,-0.22723502877337018,0.10203860609497528,-0.05722654173701184,-0.06528928539981388,0.06419593700142531,-0.07793134532236247,-0.09312333823527587,-0.20360889513940503,0.03905386328321586,0.11255557238785664,0.0945600020734446,0.013599851407094412,-0.0009392674129071362,-0.22454211974585456,0.0008724145630444315,-0.03688955188575882,-0.15343372991241144,0.1428161727789875,-0.18048686934152416,0.02203086377583688,-0.16964081434060418,-0.06935920290813728,0.0860997846260036,-0.04973787167067493,0.14638718028196956,-0.0796109611251924,-0.12117717700380205,-0.19133415035731516,-0.03687072715454721,-0.08831864062713776,-0.09983472168757315,0.08654854623460943,0.12506028896867594,0.01284796986729241,-0.1737123363398838,0.317654586816214,-0.096331358471189,-0.1800224179331085,-0.03484113245698226,-0.1057614621809538,0.05148391366306847,-0.08737633498089763,-0.08130117395985643,0.11179025561957162,0.04766838041186131,-0.26998419390114825,0.08144572953112074,0.0997102544113209,-0.04123768376873746,-0.017209353973816493,0.03174911538068574,0.0814629676454083,0.18744662561046443,0.15012708706283087,0.06498388338036307,-0.1690011414551027,-0.019659239132418106,0.0002516176170348294,0.19411215120791603,-0.25186505113207364,-0.10024825411673116,-0.10242788871643937,-0.09885116162828943,0.13322822652766161,0.39314009622824686,0.2703864884993751,0.14829713892636062,-0.17563873191861645,0.10407906433127065,0.14977378978308517,0.2214135937358381,-0.2859691701550137,-0.39244229902563377,-0.18542475708894238,0.014301116923297325,0.07104614184401342,0.11613048920002585,-0.03617224149645073,-0.050183550520523326,0.18958996069980466,0.19355608996400278,-0.19795466224741004,0.10132077945324731,0.047040948561482415,0.12306029073267603,0.25378592941274386,-0.0050663353495112775,-0.12795757838717314,-0.08158975792991378,0.05979131048224688,0.08246251950779458,-0.2295583822034445,0.011908799741331907,-0.274685541767532,-0.11892949678727362,-0.011376973333195744,0.3005651702422416],[-0.024232018809041144,0.2765990510630297,0.043570180171104436,0.1293505430025621,0.0655049822481553,0.07107446640143214,-0.1544525681851125,-0.29120150524978333,0.11053926008524623,0.1473212196382774,0.02206773944027712,-0.11251242467029335,0.2146395652505906,-0.007017296372235669,-0.0038196890055662513,-0.010628681669428838,-0.11128126096452408,-0.21138646536729136,0.15920143127555444,0.046868429366945796,0.0028045976813425564,0.04579769705579123,-0.02084251550122799,0.10791198699072485,-0.1755579237468287,0.005972955984482626,-0.08248760080325045,0.09470676499270209,0.1251707726754114,0.09099142691614297,-0.1374136887568157,0.06649158865851874,0.4126273389521837,0.08440660771366286,0.2817832723534628,0.053898818693869234,0.005211168946735099,-0.14921004743829774,-0.07881666307940748,-0.10335989176545154,-0.10832662162998037,-0.13736970542755353,-0.08778737310781246,-0.13666071408423738,-0.1118858055349594,-0.02941514303440639,-0.058562487094231334,0.18488155898168,0.07545617133324904,0.02518289919978484,-0.10881518294530287,-0.08455186133424977,-0.23454043724860543,0.05039033434363513,-0.11787538984809595,0.020764676369155383,-0.024954130628642136,0.14655655709638804,-0.029579429183192663,0.14696923682082938,-0.11192467800859189,0.024114970530735674,-0.022773215842034435,-0.18058269736549032,-0.1353626542942898,-0.14088416513136484,0.12482609324025332,0.1073760315136907,0.09035086901273892,-0.09258531785425524,-0.14537105826239727,-0.036570382060034844,-0.007144954739023303,-0.24913823565117163,-0.1155467304597628,0.019910736298250967,-0.021931580363672112,-0.16632529146780317,0.18828303465345175,0.06865414536154252,-0.11392724303958363,-0.10204190752433241,-0.04933618708646948,-0.09211810625142368,0.030604865930538325,0.05915235292383091,-0.19442409900408167,0.03685914711929331,0.08844912623837442,-0.28664290539360054,-0.20207426159130348,-0.08089635855607856,-0.1902591738268838,-0.07589320374486067,0.06354308997506757,0.11457644021958242,0.0500343434135186,-0.08809319977419303,0.018024703352021762,0.0662684443030232,0.03375977072282896,-0.07701588245941408,-0.04912724321182073,-0.13885765546322026,-0.08503607206723335,-0.1478747368509463,-0.01670212704841362,0.01525773506821256,-0.07479032765335275,0.14018231978701481,-0.07006278736669067,0.02253800382964778,-0.11082684816927828,0.03819865508333531,-0.16131450243377896,0.16021942288898422,0.10492898983883238,0.021990831331829414,-0.12949681846579,-0.06396316377994636,-0.08765466987186737,0.19630082946157554,-0.13864476311375962,-0.014875132724023497,0.10995092245274309,-0.1488882590322645,0.12230882529912913,0.30364225363679936],[0.03146134803316086,-0.14704801875165488,-0.1718522891660379,-0.057188554278983735,0.06433075941551591,-0.015524314606418732,-0.12969876546628112,-0.10732642401369794,0.19496859752703025,-0.08365079911785611,-0.008371289903219128,0.2048076620168103,0.05272774998027147,0.14597881841259427,0.03495914863543944,-0.0654799863703399,-0.03925931150274849,0.22610512318549578,-0.014855764533273327,-0.2042875304423645,0.1324051454877258,-0.11875809515128107,-0.055744538226464684,-0.12347166945521129,-0.030562349096101192,-0.11414140128282982,-0.114144804975149,-0.001160301893554118,-0.07871762124673261,0.06663467697822964,0.14266838988707617,-0.11811081822395893,-0.0015414786684747432,0.010704313550563026,-0.05947849445159424,-0.265361404496177,0.06245721699790751,0.005823541303189948,-0.04547155179634972,-0.003396285989899829,-0.038281807981640395,0.049474819264281183,0.07599580274319298,0.009812687893318177,-0.00045929933403958547,0.14171880510843743,0.11640603160315974,0.17437067432313172,-0.013865399005968667,-0.01629195019999049,-0.013103472380117026,0.003725940717496847,0.07396784506366738,0.08814580155512144,-0.074917648087888,-0.0656038276696877,-0.1455530943115484,-0.07342118531774751,-0.10850347672819935,-0.11402163017027801,-0.08566828014212774,0.09621028320163927,-0.10843227660442051,0.1471156959397353,-0.0162465820892352,-0.10357133683267641,-0.2811298152004016,-0.06408671589454532,0.14023278533029568,0.07219223467588784,-0.07762156282262224,0.005932538021746805,0.03894687911341605,-0.08375222774028176,0.17509424307103233,0.11928437704390979,-0.1415719084315421,-0.03442775221344019,-0.01133859001004579,-0.12893632089927815,0.14932904669986402,0.0886084856582719,0.05904532698738567,0.11195925213349313,-0.13122801599535092,-0.1468699496863688,0.061922809445728,-0.06166057540337861,0.06539945636970712,0.18938114890679222,0.15609889627789722,-0.03466934334135213,-0.18868872690450514,-0.10529041657160612,0.04945021946302433,0.20753661062171017,-0.07820379506505809,-0.04153705327251073,0.0120262066240242,-0.10067402293024777,0.04909315077206985,0.156289921149344,0.02561849314508825,-0.2564394458776193,-0.2147238643762891,-0.04660170964156965,-0.12010589427443771,0.07718260434939131,-0.10407816139239999,0.020262657760845057,0.09130281821369385,-0.05493607718240008,-0.20462315682580023,-0.04855758020749474,-0.13506201904869516,0.0844802933639961,0.053284959395783656,0.07831391526795276,-0.11614827045870187,0.0968656600505031,0.11727550411215747,-0.10370192590031412,-0.15247881633601493,0.09380781566774436,0.13458514950609898,-0.07826588974302322,0.07140479056613655,-0.17359506189817156],[-0.06917973635319259,-0.07983817522651854,0.01659676629069625,-0.010696883788209653,-0.08535261094953708,0.08167439616613195,-0.10859764713538146,0.047542548356398845,-0.04043617143309177,-0.09514050437614102,0.13790587176682573,0.2693315966466545,-0.01801888747382458,0.13004700355462626,-0.0650963495424027,0.04191725851086413,-0.04555221675082206,0.08668833303162005,-0.02998275825317051,0.06801258706268906,-0.07104643188949208,0.14653866472920973,0.014667611701210951,0.02787331023477136,0.12101991629622927,-0.11477502996614178,0.23160655157255236,0.014024804304820124,0.05377826796009391,0.08681427192472417,0.09586397186399152,0.13507037137739455,-0.11664797935935632,0.18706656959323428,0.0022762503504574565,-0.006167778138615766,-0.10786480407538819,0.02642028017185074,0.08046403130331549,-0.09565783026564634,0.14485214617601797,-0.08203551228106114,0.04265427371595201,-0.12027746761649666,-0.06870061542188872,-0.0101903316379642,0.0887339559184134,0.24746154499502568,0.0974902699860397,-0.07551182962102308,-0.03908851587223366,0.1343974605303298,0.18864004592412575,0.11689572872492694,-0.09964357612978156,-0.09768004574268116,0.0955752078264741,0.08934693753794465,-0.08218795819025297,-0.06709530881924722,0.09042585253291863,-0.036348829810963705,-0.01843659487764535,0.14507287239014363,-0.021675240111447145,0.12587320123816004,0.05481707861616061,0.275513645072499,0.08221380839300976,-0.09689281589772136,-0.02004023153187302,0.06443296876979279,0.1639651003545897,0.2054023526636889,-0.026595537701121715,-0.1295644088728296,0.20723193905062254,0.043994327904479644,0.14398859908410164,0.04057651209127142,0.0801803783783998,-0.09486694564527152,0.024804319628553832,0.03588930369446598,-0.06263410010803377,0.04259930384457084,0.14094834902517286,-0.09134234837949322,-0.15355862873588685,0.10459157185239289,-0.0021332685638243767,0.031577395513064516,0.21092384105424386,-0.09040625350398311,-0.10183766495397184,0.15055529151657826,0.13558115279026486,0.1226763363322075,0.05070105747846897,0.15446218720892832,0.022083656607406642,0.03791129757602202,-0.07441769680753123,0.13672349886508953,0.11658267807801494,-0.09611042126741859,-0.0016612736039577916,0.18141840643359936,-0.17012536296691452,0.03292052429710447,-0.11166739859898071,-0.10156584351394712,0.08184867100789131,-0.04692102532874539,-0.050426160138372624,0.10386478641649048,0.13168193035971132,0.0697477456987712,-0.11987660744390868,-0.08040174429279105,-0.05833944935983993,0.018337912942626277,0.2309598860603668,-0.05230997222769773,-0.03848409433096862,0.10174081659711579,-0.03732194749431808,0.06874752213230191],[0.09323338880973826,0.12174574029643427,0.04091821097248856,0.1473591836014375,0.010093379163655079,0.1584268626587784,0.07750874193873053,-0.11653741687004737,-0.051967619844469515,-0.3532116481421007,-0.12270799411615442,-0.03469100028478315,-0.04384934595954809,-0.055651945139099816,0.04556479385761313,-0.06320510712025214,-0.14412703202410157,-0.05337286893776806,0.13139910383082065,0.23597035386290957,0.14735108787916218,-0.23059472000105077,0.053739510555120315,0.03747049486494769,0.03703834059671468,-0.07752590223435753,-0.4760865561072568,-0.1250666556907743,0.1930137727966111,-0.09917378696444379,-0.05623775747947152,-0.25455285024324287,-0.12061887896666625,-0.12505901292252772,-0.2652851072143507,0.02305229142105026,0.15629340735497127,-0.04591005749586343,-0.24281372987267696,-0.12932958850299334,-0.03157126119566644,-0.004328452918209087,-0.0990883542400904,-0.2177659092571176,-0.2683162445818196,-0.012346690533836874,0.13500892276461535,0.026516552991825648,-0.15667413239212769,-0.168073862688654,-0.1547656256121941,-0.16676284221498194,-0.16240670917049393,-0.27533869377454306,-0.10000743179043267,-0.01611443405285088,0.03443980749126696,-0.13248824495008082,-0.020400239056401967,-0.11797085335761891,-0.12707013889143565,-0.01637364705297022,0.035647765190636914,-0.24748458181866007,-0.07301473259508327,-0.020789383149841308,-0.16059264536629894,-0.07906716363426838,-0.0320133222663855,-0.18576465974146525,-0.04686097896314169,0.166217823887731,-0.13969886996243447,0.012838592041281342,-0.1384383705162151,-0.0015915073435322491,0.015120482596265918,-0.009349958882896713,0.0651108777759058,-0.0013916450849079636,0.04296137301331657,-0.22840789897092556,-0.05449381681814519,-0.2248219081939099,0.07756366582880107,-0.10568756651172852,0.04632853987872889,-0.013169963237206308,-0.2141905511604064,0.050288112356616815,-0.01037826149705104,0.11115828502411557,-0.1602806305319665,-0.11612025745038511,0.033844548482326466,0.12265455624877178,0.16467954009078456,-0.03219951761968444,-0.14766432532436563,-0.061659541482097964,-0.1085267690199323,-0.015056501608515873,-0.29094061370754953,-0.191796154476026,-0.10018372984994803,-0.1719455354890219,-0.07366313287487843,0.05979260131488965,-0.016786142285602042,-0.04477751374746628,0.13475626566612298,-0.1462966089979438,-0.28012114420285916,-0.1397486017275398,0.14380823877680218,-0.06624460640879083,0.19783857216761339,0.1081656270635248,-0.0051156544900250135,-0.019779761209472148,-0.12862197932776206,-0.028300182192983168,-0.23215014709963977,-0.02838095263824637,-0.17862507536762037,-0.14043317998956487,-0.2721129169768226,0.11210386335642675],[-0.08840988045605082,0.27924175859518313,0.07008560497856894,-0.167348688888617,-0.1390176162586779,-0.1342868944993423,0.035399072584044254,-0.19779423044014346,-0.10622188127659608,-0.34779461879742773,-0.03167079225997415,0.050778998094112356,-0.15019280295932116,0.033408731290428796,0.0673163044773881,-0.011647603174091843,-0.07517065103843795,0.1298157032584974,-0.021403785777482042,-0.008109354621047072,0.08517973340605807,-0.1301700107008312,-0.02348752205597754,-0.21798705367810958,0.01500522578309706,-0.08750628011491392,-0.24632633821213365,-0.048186728705323825,0.060374692176792456,-0.07421713451768705,0.08821304412836588,-0.13554841039306761,0.13430340847785524,0.06403391689957663,-0.236840448632142,-0.26933916442213374,-0.09654125794340336,-0.015552804577952505,-0.16465568743147108,0.1199467854512374,0.02119588651215004,-0.04725129318088027,-0.018047136629044058,0.013653838672112808,-0.18066587547379306,-0.04780797399927365,-0.02938316255934611,-0.05053809613604379,0.16786542331703333,-0.13927139654711207,-0.08432828551668663,-0.14500712285592224,0.13422866149872942,0.023256537925339455,-0.04443665825103104,-0.015148038559961345,-0.08893124485431365,-0.08414663268412598,-0.19811332665430545,-0.00551827642472441,0.09335359263398,0.03684489878037186,0.12835603798461612,-0.06457219710367594,0.05785004830955592,0.006849966660692912,-0.05279554048523168,-0.2629135353359687,-0.08275013435767767,0.05177322902538503,-0.036925027556773016,0.07203204364991167,-0.2606427862949308,-0.08359709771045926,-0.06389447092875285,0.07736758257937758,-0.4110956760364658,-0.01035615035194765,0.06646684362665262,-0.1853443290350771,-0.07035183635853547,-0.07493849385506482,0.1054091536899737,-0.09898399602255392,-0.12871857142006407,-0.13163227175837397,-0.14325063500321414,-0.16104741227682803,0.06839940220919646,-0.06632584679218374,0.1712751085268301,-0.10693110249751123,-0.2680989718517242,-0.06061026036286159,0.013594088940776643,0.29142309111803877,0.06319731631407977,-0.17475319311277637,0.07077871539456601,0.09918752290584773,-0.0880180920114121,0.2846941208842297,-0.07672971489688289,-0.39305891231513657,-0.0002773023955133782,0.05357134669620353,0.15330964082956497,0.013028863757394106,-0.2272829286706118,0.05250050567450765,0.04903184272225751,0.038880582659063,-0.42468005981984813,-0.1462924635718299,-0.05424459556431423,0.09959036642744003,0.132420389764409,0.2465214575545821,0.05432440474240096,-0.24464671324018245,0.10942758266242224,-0.10521866354377545,-0.43344284071114814,0.027226948773170376,-0.3090629414051024,0.06887293364790173,0.06866224832699287,0.20156554953812625],[0.13827883263188165,0.11126709452179087,0.1699803106337778,-0.07782471876620761,-0.18428606075895085,0.11473462303128845,-0.16181006503556403,-0.05289576232213387,-0.16080816568381529,0.13652227824133653,-0.1329292584458423,-0.014100427595043874,0.09329747347171709,-0.0918276656744975,-0.18044429853322858,0.027163901354093398,0.11635156673805956,-0.1613807346455774,0.07010089125388302,0.15662702917018628,0.0081709083199183,0.04838148666190265,-0.1261745987064418,-0.13168058474075567,-0.09193882027108079,0.11216710425394207,0.03515300568378679,0.04087214384117576,0.08521733426683954,0.0007917946273354635,-0.11472959188671578,-0.05590625112310771,-0.04437227487266987,-0.02235832950863352,0.10776514895839472,-0.12078256386943531,-0.11789635868289529,-0.029553935508035145,-0.08655905649646087,-0.11612321760349459,-0.05718944532055768,0.07415889546069848,-0.17255599317075782,0.03399800525678195,0.04267385495373676,-0.12326004351563044,0.15695750191686936,0.06036594551434025,-0.17516036175061545,0.1027687626232398,-0.04885927037281583,0.05795026851408028,0.06927991349125692,0.020462832974287228,-0.07639498619090136,-0.07784827816350465,0.12499134238518977,0.15332948320365603,-0.09590441346800392,0.007705470456984627,0.20069417390134917,-0.007908383689303947,-0.09863100349150258,0.10491559227076017,-0.06276640695746684,-0.07305555015078169,-0.058244572468832495,0.085414898126227,-0.06803892822971584,0.10237442778526486,-0.11529307159437345,0.13130151634855297,0.13241290558914817,-0.03769997961802682,-0.1498354263977487,-0.04483584141196787,-0.16593535269635384,-0.05829436778857931,-0.05764557563743208,0.1025487807135943,-0.1309658578973665,0.05875899245426933,-0.01609691898801764,0.09456355812292978,0.03903999448096666,-0.09941052641604804,-0.13855515760448767,0.05110983923824205,0.11635042749883194,0.11226188006923642,-0.1411960297150767,0.038112844772986425,-0.14995510427283612,-0.10328160937431101,-0.11706916948135009,-0.05343712941892686,0.1413179231078845,-0.09102338021003031,-0.10374024027983911,-0.050197974778019835,-0.05711105466112564,-0.010049031583713102,-0.11051069678289058,-0.00384557270596248,0.07354784907815645,0.12126499530983377,0.009420915932117812,-0.10284134089463176,-0.15054337576326154,-0.06666083414965966,-0.07744290205664087,0.13836734064033912,-0.033821048052494244,-0.1169403389553612,-0.048630477104320835,-0.20452358943649837,0.15718138442931293,0.17334841815586782,-0.03440941615354914,-0.06830158849859932,0.0819854721211057,0.0035540600217064946,-0.03382823515736392,0.1767330131613764,-0.19396009662894045,-0.0032098709345290918,0.16175780786143007,0.18367774169871148],[0.0020837604565368565,0.25617669973767265,0.06484726903898369,0.11995590820425207,-0.1264665450146458,0.03552770382088041,-0.21136926218051952,-0.15895116832466574,-0.012678079458617285,-0.17188220336228027,-0.19319281194087806,-0.23067764677181707,0.037454590708723666,-0.15132520932355073,-0.1896156881511906,-0.14152292710266884,0.06796023724260143,-0.2025954653069089,0.2488512341820219,0.2025188433875134,-0.055612955197418254,-0.21538392922850197,0.24705518735762166,-0.20198320060485125,0.13415877235853127,0.04974855936932602,-0.08167938719806131,-0.17249884166830476,0.1398476235522272,0.2814982996643382,-0.25854058503856275,-0.20350983796598404,0.29571001200489944,0.004987538890757544,-0.11825924502984732,0.22537634088945233,-0.06273323678993502,0.16549676953263853,-0.18293110387439318,-0.062378187683001664,0.07254621811719766,-0.07318141975133294,-0.1436399929261344,0.14520443169647582,-0.10936990230245178,0.062293568444675214,-0.019127619220157994,0.006075640396189238,-0.1780352198469741,-0.03745600233394289,0.07734421963330729,0.3466085728399748,0.05947114656687865,0.02125895121973724,0.09983673289251908,0.034622122046141894,0.011434913709028468,-0.0672895456477199,0.053604081495280446,-0.13390437801180663,0.0752071784683303,-0.16187333287688693,-0.08853962919158319,0.06949143581939356,0.027135890191828976,0.12590396739674853,0.3348860901113685,0.04975256200593811,-0.017131127820404532,-0.14552595791307713,-0.038322108997819106,0.15637237245992866,-0.11908552234811426,-0.22969990646898056,0.14008634686623608,0.06586405776794325,0.24081944137225314,0.2169334432402882,0.10518385417002328,0.04918544204503172,-0.00010048983059602263,0.08322862509696378,-0.033005393601341276,0.045461240460178264,0.04562398142590837,0.10425981397275795,0.10466414318414086,-0.14072908128604913,0.18084627806698994,0.14766634483950725,0.009564049859074655,-0.052557344960262875,0.19556168096557525,-0.13374314818640556,0.00020671401349817996,0.27903876092182656,-0.06303805311091569,0.11160886076003279,0.014594103238324175,0.10253720351593242,0.0522417795545271,0.09755456491554894,-0.1394265114168868,-0.2792133484048349,-0.2144113967372264,0.07068402562877066,-0.06108395832893315,0.06451004193810979,-0.08016975615206334,0.2930826693641347,0.06684510268903149,-0.017694946044097465,0.2602260244221533,0.02905229699415058,0.05944688992566438,-0.01612018734980453,0.3017449249020195,0.16597251478481312,-0.10552188151098207,0.0945627863891721,0.20367041900457075,0.08936123349539582,0.09058326717624612,0.09277900699961786,0.05642630242698594,-0.15282974935791543,-0.09040936684776356,0.38418672867284137],[-0.0023315091035912413,0.016049019500087944,0.03950940600475398,-0.0279084113396323,0.0002376730914871735,-0.09889963194340834,-0.15684930451924797,-0.08394248007243263,0.11218234179303238,-0.010481799926052582,-0.11786058732916677,-0.07401802769669298,0.018427131845873822,-0.12476107994725531,-0.11054627926703732,-0.09349539665096115,0.06438492654956236,0.11166165325735239,0.14029300426211877,0.04367190808291948,-0.033278272123118666,0.11163064101842896,-0.019352295358743804,0.008629522719452266,0.033598822218893896,0.03050801516207271,-0.07165827164141188,0.1389431193824976,0.013519702862616178,0.019267118271994673,-0.1116478158331994,-0.10080428561640517,-0.07810443827470837,-0.020867087926467336,-0.06793655875095768,0.04239946587312987,-0.0294114559182906,-0.12504310108009006,0.09036623676554208,-0.02081471805658714,0.07102740437699029,-0.09197252553550406,0.009686996196384485,-0.021455695206950835,-0.09752118864414747,-0.05206072242485957,-0.1628096261949041,-0.045183621172690536,-0.07373318943618033,-0.10320703287301497,-0.007571979209056356,0.005464587881284087,-0.017897284281461544,0.06270239772985607,-0.13008531424411446,0.007582474921314249,0.08383699102272547,0.1083139259426209,0.09919531265407011,0.013705234642163847,-0.015699195603707045,-0.07736330680030229,-0.07595437348986721,0.131554271575033,0.06418569049146497,0.07146509222973028,-0.09691962743768945,-0.07434297660107082,0.011310480452077708,0.06890697322517285,0.07597964431564375,0.08261715255079691,0.058776086546090296,-0.14111155565407876,0.04095584908941545,0.15272904742751897,-0.08144140970624716,0.055073875196874005,0.06675709898307616,0.013870107852839207,0.00004490286311820821,0.09044945527179322,0.0820449067312658,0.04096864516581846,0.13446485816091794,0.1487332647646654,0.01885214001958705,0.12618334721383256,0.03960736738950745,-0.09760997127893993,-0.07243323278103561,0.008637140516094136,0.1369877238165017,-0.1349794880192455,0.13937254976550095,0.14374765336310283,0.03226884663023891,0.13066713814237435,0.009655994457058198,0.05541706091971401,0.15795456558718216,0.06798836968941407,-0.11407603061672038,-0.03422781104268667,0.14423392459910422,-0.01630778599661622,0.011481013166147455,-0.12169124526304564,-0.1608546065096744,0.017410550319151116,-0.08354413609118702,-0.03617676032734728,0.10624774701123772,0.13581881169103557,-0.11513100149836955,-0.012748055299812764,0.005306622926425815,0.134841436031237,0.024486864508397422,0.12719488330486797,0.012137956467948081,0.0813094855930842,0.1456235560968746,0.14407412190930394,-0.03308068844384803,-0.06726642473942121,-0.10228984735632364,0.1654943282867559],[0.01424794360739812,0.012385245921154676,-0.194434080946144,0.04663857809807456,0.0700131370815006,0.06305395835171199,0.09725533602971381,0.12057653896627764,0.11509329855571937,-0.1899455200728563,-0.06069194634095928,-0.053616227938339735,0.11232316295638325,0.12742955298887623,-0.2268494984353056,0.1878774885490377,0.0503476980928616,-0.21691402301804968,0.1386857927768006,0.028762213120647043,-0.1710414970359715,-0.1601345197503157,-0.037551187100850314,0.053183593700043656,0.045943499212540824,-0.15936514764671172,0.04036249593525714,-0.10091319174277587,-0.0650452723749154,-0.03545635063252206,0.05952430781770122,-0.16937349151342937,0.28692617225277217,0.10645167290324425,-0.016740809608418634,-0.01729864060310846,-0.04651045499697262,0.03461521484893456,-0.06089757052487126,-0.07157665421313256,-0.003625792263570643,-0.06030993138374671,-0.05790410197690537,0.019894647864845894,-0.06624725334271872,-0.07982758654944014,0.025801265545684734,-0.19723291994409264,-0.048155536286962966,0.06373319172993773,-0.056453901894628164,-0.1214094034304044,-0.13112769702884128,0.020521973608575928,0.14798103717227148,0.08551224589783632,-0.1132519370584894,0.02911552195743907,0.025280247471127355,0.21667983318382492,0.0024681825496284983,-0.11360673265499088,-0.10707447223423414,0.10244084545956288,-0.17506326959523824,0.06238818771107008,0.08268033149540803,0.10201712714302837,-0.1664165161870927,0.05197548701020166,0.0962465438678292,-0.07383277871785422,-0.15054060784281306,0.11605067150274886,0.06977459589624901,0.023591521739735215,0.013574215613086872,-0.08634097311577657,-0.04985803019762687,-0.09074632601676565,-0.05680549165893286,0.1198543059392752,0.09858357577620874,-0.023369426873998865,0.0432744023341086,0.3398601246849699,-0.11530024257402886,-0.08302546913045096,0.09644612181898099,-0.1884897813674863,0.13278408599669622,0.1382712443619032,-0.015806924769224247,0.05192093515391204,0.08070627531135947,0.14535438180962587,-0.13702416350740662,-0.1906147097963771,-0.07524960625352911,-0.0866124888650038,0.11543511108345227,0.10567743039814681,0.03845790777375187,-0.0763826326345901,-0.14155268547568617,0.021044951663233682,-0.15085804008098935,-0.1187582571204078,-0.051983065766035584,0.17159861738450935,0.20151446690216665,-0.10250476855643947,0.20394837287735335,0.028132277213275762,-0.05688343278007517,0.025439157629834157,0.18846208804031728,-0.08461699606404019,0.04332446738665626,-0.17345201692321377,-0.14913343619979458,-0.10334669887974945,-0.1458509046647945,-0.13617770619034267,0.09569794875351544,-0.06508297502272274,0.08908107461847314,0.16997281932224834],[0.022532148841284683,0.2879138676543799,0.08053083369337487,-0.23206785088502155,0.07254786943108339,-0.05877416186214041,-0.2128509829226427,0.11541668301759954,-0.15652647654843713,-0.1657412985126082,-0.1513914061693399,-0.04313919644245442,0.027917509898392548,-0.12430834145145639,0.2516019855498838,0.0595965901929081,-0.19587522031522173,-0.22207434436431012,-0.08237107622206377,0.18140513791917084,-0.09045377855732692,-0.09150239132901006,-0.0028700014534123706,-0.1966385979529778,-0.06251542748495349,0.26518548698351607,-0.2192966715140029,-0.1259146442018239,-0.11321985983892557,0.18719489701486117,-0.14826599524134498,-0.16259763731284102,0.3768506822317849,-0.14433823367575788,0.2744260792161486,-0.12298447365376666,0.07978507893123304,-0.20469145675716907,-0.06979192731295085,-0.1057367416233251,-0.01891427630053721,-0.01750591064336662,-0.13373864696440002,0.05160211719092189,0.04862407490896605,-0.038869150525313347,-0.2331791343443104,-0.023538268983422983,0.12020187790421777,-0.11129346421851948,0.1841955995433872,0.022831953330718635,-0.19340331685812795,-0.27380813386225306,0.1137165054243922,-0.09413404583256503,0.01686038840641284,-0.11073233577641713,0.028140208540938988,-0.16436231727283415,0.05130422140238971,-0.2574780643414788,0.007590265464180939,0.046973325088118745,-0.012514154138496039,-0.11899593811598863,0.15771151981921047,-0.21961373248181668,0.07021524377137543,-0.26455938127479445,0.059381425574242835,0.03235653763618636,-0.2847903881953707,-0.4904790932725185,-0.15112674267986564,0.16613730309096722,-0.2067182595883882,-0.06277731899771227,0.10143168742692271,-0.19154977593902836,-0.09564951264484577,-0.05745518203140649,0.04761055967491088,0.03219879908208829,-0.06166816058238547,-0.011107037420670169,-0.17378132486453846,-0.05373857346098059,0.210925892604731,-0.10314300698250162,-0.13998107515221203,-0.2214881052486859,-0.08073902893053661,0.016869038400214205,-0.09903686481691294,0.1313819027098176,0.16694645288038323,-0.21520117498221816,-0.38865714707154875,0.16903206124751785,-0.12937662241724093,0.014673683171407974,-0.0037123815645964025,-0.11284607609980093,-0.0018986005786777226,-0.2592586943231932,0.18578609147987218,-0.07645130280948971,0.01682228312061158,0.20502583478565553,0.10409131172669328,-0.07773352444734744,-0.3068428353434269,-0.07676878829991775,-0.07662895526636279,0.275987143591596,0.07377683366723481,-0.05570334713566881,0.05545705345937453,0.13888378614328306,0.08439418450151862,-0.053633054991893955,-0.06865101829457894,0.0998781766189057,0.027000032527989746,-0.10245962626961459,0.09084398574638469,0.3873442819964892],[-0.05852072555752829,-0.04897327206822775,0.019727544702180088,-0.010081108745074965,-0.02388481560987452,-0.10682522039980923,-0.046362293597359876,0.023249550818273988,-0.2575874485064028,-0.06414249639566115,0.05956493198474626,-0.017590273845469656,-0.024234723328941124,0.018233901741752642,-0.12667881434142983,0.1255370993197106,0.042876269598345916,-0.030822345328114755,-0.04170385830323811,0.09826067108858806,0.15995024334416277,-0.1316674899203944,-0.15610984440615078,-0.13763994997794538,-0.15985710346316284,-0.08174787321163807,-0.08689630403082015,0.012001934885983487,-0.05528474642885772,-0.039847328489404324,0.03990666644622916,0.07460093921670095,-0.022457844248812062,-0.09228051974073283,-0.1991428797658497,-0.010451255412187718,0.0676275783046321,-0.04308578783499828,0.04814131938854272,-0.13006656610629908,-0.00785361925831513,0.07568489631915523,0.08160515578161047,-0.10133128098993414,-0.029124749982781847,-0.006239066426182378,0.11093906824874326,0.11701414354082938,0.027121101007810806,0.11829455653990663,-0.026955667570481255,-0.02858865113098261,-0.033728951915861276,-0.16702321876650028,-0.034285652827566376,0.004970992203355484,0.0335102681391262,0.04507995159666674,-0.16252964004499473,-0.05866513408174198,-0.13329739355918305,0.01759325165358738,-0.12780044218466144,-0.021102299342845264,0.06472022287527396,-0.0825930290692356,-0.24966285090976909,0.02407296959398307,-0.10763274266084974,0.0473218381690167,-0.14783597974966614,-0.060608979698615756,-0.02356542911974134,-0.04199769206678908,0.08324645184035344,-0.09412773865424552,-0.016530552595973736,-0.07172193155204361,-0.06994697969512975,-0.19249238952664985,-0.05542558923508287,-0.010356823537290914,0.07239496236895791,-0.0272428324153519,0.08878163504689807,-0.10408417357348565,-0.0026855290709744024,-0.09467736772198443,0.006616220322148635,-0.1413440156435159,0.09355864616021117,-0.16667804812008502,-0.15668666974809548,-0.08609998009260804,0.11591538277424475,0.018619152819697136,-0.05629603964025394,0.031182068596115147,-0.028181643792703038,0.11621591157147415,-0.2593744466083622,-0.11161042033850109,-0.03038844627268786,-0.14194117741753337,0.041484368956398385,-0.06868786854373447,0.03392666075545597,0.09140424691308327,-0.19002293397832717,-0.14985871813361992,-0.14231614313399585,0.06333389802142197,-0.07942739689796426,0.04115870072447909,0.08498360468551837,-0.06159541174453962,-0.09310550390262591,0.15461981088933138,-0.09779183189067572,0.10319950250514091,-0.1834130328300494,-0.14738347388175063,0.0005986399519515511,-0.0794356100248872,-0.08711293227171166,-0.019006735009919107,0.018856757481757084,-0.05619227662474393],[-0.08686646103963153,-0.028725214659936,-0.0899979868848405,0.10284250618426335,-0.15437353607723592,-0.14925290952054698,-0.09403978273415553,-0.158602023271374,0.06579209896676251,-0.13235806843156,-0.0543766719049348,0.02684005157799882,-0.3307265245975448,-0.06613098519876247,0.005296506504433859,-0.21467939178742806,0.12838883288718336,0.1302795928454409,0.07900832897162362,-0.04171607081901512,0.05962782943572114,-0.15442076796177098,0.028939910277326956,0.1096855221084904,-0.12275905957723642,0.03424040455497149,-0.25302324643267615,0.09123858569147554,-0.03008696274025756,-0.06978986627622871,0.043109316182902965,0.09827656960170912,0.001856715774625102,0.06666912455186269,-0.3787990439899257,-0.020902145571620147,0.08312085067865012,0.13016733671272868,-0.16055108741626042,-0.036003854717010036,-0.14650601050357356,0.05439245190890652,0.04145510059232885,-0.06645965362645008,-0.22423279331869417,-0.031662362196294105,0.05024475659267738,0.00894745726333456,-0.22405539404395536,-0.20221287492211576,0.05108723590367398,-0.20051584424058716,0.37564506154493993,0.07522038534449388,0.11755753652837111,0.03342360756394817,0.17928277947383953,0.3181785891780487,-0.17701279898986833,-0.016722836091514863,-0.11588921131965631,0.4073253883492989,-0.0002387761806074807,-0.07317292649889366,0.1108857407941463,-0.0687888296675339,0.08059808220105141,-0.056162454909855164,-0.13977548851197055,0.060441741310562666,-0.12364660712520387,0.1254303519921228,0.27240610408531457,0.1284615436368342,0.2935314412273193,-0.15596901790495876,-0.03501421825408553,-0.08960156006761151,-0.09714663320570172,0.0448560373750356,0.2346366869584578,0.21326559437128353,-0.08190198500559379,0.21540702947591586,0.0769585660258011,0.25655271304943694,0.027010489042142923,-0.02697163070859912,-0.011383805375337015,0.11869050547256405,-0.044504700441120856,-0.167542538105276,0.020121946390302764,0.05814227046488063,-0.07867472717059171,0.3290908542769026,-0.04652483318108575,0.131972070172922,0.007904556901137153,-0.04588046570031203,0.480077568650594,-0.07865992649247945,-0.17285111751797072,-0.25363034505916515,0.03589616112520937,0.37949078520673374,0.006255880474723969,0.22207259801767085,-0.12337641361183677,-0.11893010425091653,0.08502270027235805,0.2260610423358056,-0.03554289409724578,-0.06450807845579865,-0.22118755135956916,-0.16054832697272775,0.02020768305307256,-0.029881227244289762,-0.024802831815360117,-0.17971866756419483,-0.034990695204725544,0.10745237335581444,-0.32403940515929425,0.015620707461810596,-0.6367451057679745,0.2691347536140025,0.19030849937930672,0.05764927302354738],[0.07170508697132522,0.20139107689081442,0.10117899771811237,-0.111556585315448,-0.12047782331875498,0.14104303045487124,-0.24372268459851187,-0.0013649157309230519,0.050386887831937545,-0.16983006945798096,-0.054634531524193945,0.13515454938686858,-0.09105380797324084,-0.1710965226611165,0.049405512540592,0.1460949898012702,-0.0688568485957762,-0.05944451791644886,0.13282201054133927,0.1634090716449799,0.11228637467798908,-0.005138701772191937,0.2283453861975738,0.05921812006441484,0.053909936993114346,-0.0824074182700776,-0.12602786348432793,-0.0990924583031349,0.21815917335894813,-0.17364511926046616,-0.009051496945971451,0.09649399602275897,0.02553695763285722,-0.08446918909092543,0.0066957870843447195,-0.1197226167608959,0.09330145173556782,0.04648700260304688,-0.3255591192110967,-0.11597712563073416,0.13989540792880636,-0.021215785807191533,-0.04671468975154949,-0.18674529028651432,-0.16332355623465464,0.022634487364118307,0.012921348453388243,-0.22814179853308772,0.15776334114133536,0.08163407058277215,0.0633670976949867,-0.1922868414636325,-0.22720645140386603,0.10181592353663717,-0.0786556244962115,0.021106780213901225,-0.16898747086261176,-0.12700051485747604,-0.12004215643304403,-0.08399097329742906,0.010668626376514138,-0.14643840336219,-0.08711204925691982,-0.15711591550532575,0.016805518373507022,0.10890706415205137,-0.05516747019239823,-0.12409939003181446,-0.0834567128694422,-0.11683446264306864,-0.05665576234860072,0.04348043544424099,-0.1822634848847068,0.020329711863350735,-0.17195391961270232,0.11172957108045642,-0.1928207018772332,-0.09112415984692504,-0.024927202093894357,0.050675275740227246,0.08447494352763751,-0.020830591215052926,0.09513900453445075,0.0946799446874963,0.12727993574796242,-0.1515865500988845,-0.21811968816221636,-0.04608976090395033,0.06410631558959769,-0.13534146517262374,0.022382663305628037,-0.033496034420378275,-0.2199050976075591,0.1115049794919665,0.04529391376034091,0.05717035065823047,-0.025239004520733875,-0.05584245121908422,-0.17548024887014202,0.00428859558755582,-0.12721912416681846,0.12937278336829244,-0.15890884778745892,-0.20003797215879648,-0.09187097185468655,-0.16546907919743897,-0.1370689862552122,-0.043992788546670436,0.019258120141940598,-0.02503865819843161,0.030464100445546715,0.23713438761685052,-0.3900631920186092,0.06444505731957509,0.03055206250485788,0.07898812319983146,0.03624416399468727,0.13472031152080347,0.059111584276518574,0.004781202819573858,0.16167985765813983,-0.2558115356542684,-0.022275165010670377,-0.06894959920792529,-0.3608090228730133,-0.13169184741694284,0.18385251636083424,0.27871030845763456],[-0.15773991335394175,0.15008418506270343,-0.1159935340354385,-0.010891359224777295,0.055037977938172285,0.18673487609966166,0.1931191191809187,0.20074796764899408,0.00041186839735658727,0.3064472401527565,0.09196570188362142,-0.28293263718309275,0.004815394501064274,-0.0029868128592156467,-0.11242153580630099,0.04802893746642308,-0.01760557663732035,-0.12010589607129936,0.076340694998753,0.19183790865534764,-0.19041963591461578,-0.044320888607003256,0.11791818385964765,0.010554117162980757,0.17420949097004337,-0.05287362632533549,0.21968705851946088,0.03302617950994473,0.1271779609697192,0.22390485367226987,-0.024006354384282638,0.020951931534245596,0.00927607893286677,-0.06630268054780765,-0.12631638316943014,0.31983708642647013,0.15127233912201582,0.1626700174996842,-0.0293202946640643,0.015634039335292716,0.012746505354293416,-0.012155431724436885,-0.012288558339600245,0.11075398217586888,0.08407457977955736,0.023267319666548377,-0.15376400048803912,-0.026716303844347145,-0.10610866707181443,0.19243542042899672,0.2846218495470162,0.32726403529314274,-0.05360191279389769,-0.042553608580329846,0.009525765262486283,0.14088026285686678,-0.061429477818038765,-0.05343274842755254,0.05717486464981637,0.14979524897817167,0.06422018974552465,0.046071735973285934,-0.22157527190536144,-0.04294143870750044,0.08518662241715232,0.28870346765901467,0.22014837599549678,0.04149947426234866,0.09573055248827304,-0.20996313574090616,0.016472529230908833,0.21380295627383636,-0.07092217317867495,-0.04263134871767916,-0.021537516001593378,-0.06660580775850951,0.17868144641723183,0.07746809336452395,-0.007104122882558484,-0.05282968558545362,0.08969575489079086,-0.11962889332264331,0.05062957169988676,-0.06320560669026497,0.08595669586777473,-0.12807398318934943,0.25041479282647783,0.12649332322689724,0.3125535142541563,-0.12836380982885323,-0.1269272452082448,-0.1057907210438288,0.02208942506535871,-0.027690388696376043,-0.10194727127612468,0.0648830620864561,0.0598745294471726,0.04039969462611792,-0.040226475406504016,0.03169857464996127,-0.13295609933849453,-0.056703027008272934,-0.05127080272990169,0.25631171243520157,0.16632224953576707,-0.037328338813124175,-0.13002551428293652,-0.07338826208220077,0.1855261115771264,0.20549750962706348,0.07830790600337029,-0.14504086206671893,0.2597259758756249,-0.029199711984884958,-0.001431538115181918,0.019240950947431466,-0.10268979775322382,-0.048154513242992907,-0.11566601196478477,-0.0167367547379379,-0.0949720093457519,-0.11370992246944145,0.20456278402580894,-0.20763823016520666,0.2997732339538919,0.15737147679668215,-0.06296207513710414,0.0401381676331053],[-0.16952355140102957,0.14175722185036654,-0.07041059050442608,-0.042731363758209295,0.14907072517599654,-0.15783589419349542,0.05868311708231211,0.15204102331025973,0.03028628868987619,-0.15888906102331707,0.11575398757430272,0.08062558152368161,0.029984100475273397,-0.08416339884540998,-0.14526955713553558,0.09564711132387911,-0.13726482146852767,0.20185365783369116,0.0046305494309766245,0.1152732534622319,-0.1934421964498017,0.03433479070505701,-0.006409921875217281,0.07340555679809732,-0.1413700086005606,0.13098413845764115,0.11550080941665478,-0.1821075778068701,-0.10361506850052267,-0.06387507611877116,0.08521906007871038,0.033576987544040746,0.18095058857017715,0.03352514438375616,-0.07176618807704722,-0.017067307255344756,-0.06298033983198159,-0.009151331579127436,0.022023479983019366,-0.010572276566716205,-0.028309846239496776,-0.09575562318146559,-0.09562469743011728,0.13582730738182341,-0.109043803492307,0.11185177567921543,0.07641815081872548,0.047478402342483794,0.1379164937735075,-0.05737867078347366,0.26233434691188756,0.21250839550342124,0.14866622680696304,0.08322277092789819,0.03526189867820727,0.14866239625959862,-0.1290535278158768,0.06585212400646986,-0.20499609595238386,-0.10145566069747809,0.013454706142200179,0.17724392299907185,0.14849080650566832,0.023796310025290642,0.022858453789140334,0.04027703499521858,0.1833215760980178,-0.04946355884341015,-0.08160898005494564,0.2104673390771795,0.08724827306024811,0.004059093291266149,-0.026246543929004364,-0.026625941003471876,-0.021360700160554604,0.025201619446137524,-0.08154829106983519,-0.08691131001688442,0.06900790604887634,-0.12647709989023898,0.09284385550506177,-0.0444962553816749,0.1284702467607987,0.0369151092020946,-0.10535753252680041,-0.1879959230516975,0.14271348993873395,0.14900584608239753,0.2671268698729575,0.25262812658217304,0.24882664900084064,-0.025495698610772756,0.10053407037671984,-0.12013040587346256,-0.038576660962342364,-0.018296343285290926,-0.0828542508191812,0.1998427395387122,0.20057406761258478,-0.13452728697755714,-0.07528389864244779,0.06686576641905005,0.0923711274872897,-0.23513251623609668,-0.09906952844220777,-0.09391483396172155,0.11849416714625655,0.1176951894560581,0.07041258665532406,-0.025515176944133185,0.012059886753046617,0.1345566122246554,0.10796273011027023,0.19489271636055658,-0.04224415044922277,0.2532665526612502,0.06313064863788999,-0.09327296801281627,-0.09808108844731626,-0.12380895388910247,0.15336555400068644,-0.12674663168755804,0.14816992776288723,0.02022273897493289,-0.1818907371974695,0.21094770539735688,0.09306881209063435,-0.20405485566535286],[0.04525582719471868,0.3106358240347548,-0.010515553170380547,-0.07102123060081121,0.13365659874245792,0.11993510527419876,-0.04627092987745288,-0.15591119003193937,0.36104408435301516,0.16722436701935484,0.022468469407163193,-0.23269133764879227,-0.21172861381491637,-0.2919774538512895,-0.3066120820962446,0.02294776927173448,0.12288212679958299,-0.12258565523319391,-0.1559545800009587,-0.03435466732425084,-0.12608437991195556,-0.3830169242710517,0.14092764432262136,-0.12194572473018753,0.0459447056750357,-0.024596296274075512,0.16924262111260727,0.08801250035218744,