{"layers":[14,128,128,4],"weights":[[[-0.37921101430226917,0.3614624482519776,-0.06511834906331411,-0.6059534803081102,-0.607244316597366,0.3957408191942095,-0.08450671802707817,0.8848967484039598,0.24339815169217546,-0.013394754274437632,0.90385194128957,-0.19685206316256681,-1.4024582376685097,-0.11500864585374046,0.8814765196069653,-0.41727830031475216,0.01563232962762408,-0.9567738818670565,-0.7149119356585584,-0.1656807001647816,1.6571247784070806,-0.04897066533863461,-0.3091710196103687,-0.43779281634649736,-0.26876686311832887,-0.20527697548605342,-0.3386649410529966,-0.36756256876483484,0.1319626598730546,0.01753973903066936,-0.8210326117686086,0.8548524613925352,-0.21671533165029258,0.02375345075151513,0.16331877825359928,-0.35347330844399866,-0.05375192465673866,-0.22762423097782017,0.16014189862961895,0.49507421376148725,0.38480771764902355,-0.6900449524219752,-0.4333250258528232,-0.31872646215621875,0.4568464494802964,0.16982622027224425,-0.17869962659407979,0.3692651963863344,0.5239912120686666,-0.5489485768726625,-0.018500928766405092,0.297509021855965,-0.24362815952986994,0.9550264557140704,0.06035491111032295,0.5637446083211125,0.21362847883826933,-0.03615503584143175,-0.25259101797096495,0.5714649023513968,-0.352496055022214,0.6713709007501865,1.0726005772867129,1.091896948372572,0.39551763603891793,-0.048034241535287424,-0.3179763890564143,0.3302714249303507,-0.32811954015226924,0.5393765310831762,-0.8076471405959279,0.6640552506314242,-0.03424648778158644,-0.28917230039222946,0.1432719420561383,0.3195050490349193,-0.24371836623800874,0.09334071565616966,-0.059253258745374564,-0.18926575050745542,-0.4430873167187478,-0.16571878137590906,1.0571831842045507,-0.46052503245149573,0.33364206758872517,-0.24623917380026947,0.0774989058879858,-0.00925799608979535,-0.3460262107486663,0.11470550799833945,-0.5016060820734451,-0.15509856112204792,-0.1565593757183933,-0.36401139617325035,-0.7930178282115404,-0.17868590965727316,-0.011353597253520779,1.3046251394501387,0.2515546877052376,-0.10570492224828232,-0.5601625850824599,-0.5236927034232278,0.6065926863184493,-0.1163848019734613,-0.0034130496998631384,-0.19361633189212424,-0.36295109542494397,-0.06660487947688239,0.9879648592888557,-0.3180545437415688,-0.42168865547293266,-0.15923333966585612,0.38943497850744724,-0.4274241639113902,0.35303111260698966,-0.10164862720009753,0.35290611431065516,0.8863505524538469,-0.7880387487988632,0.007646061095708995,0.2529737412154294,-0.023221333533677686,-0.2075481244602622,1.3300124830156228,0.2530796910751007,0.8667860685381694,-0.6400341267945926,0.43400029621530367],[0.29629249449706724,0.5981347108636829,0.3593612038146035,-0.18267654299363748,-0.09600471406494905,-0.03875307804610518,-0.17154537657624636,0.40725278383224406,0.6767705530323045,0.4561101465783835,0.9578918903029849,0.43415105713154345,-1.094131280561619,-0.3616006044310535,-0.5800689658589566,-0.633962488127006,0.763047858089215,-0.4599072649132935,0.06482526245472098,-0.6885223807293187,-0.1969501701788095,0.91425899465126,0.3326964209335825,0.1634545655440408,-0.5565605668086692,0.8304311542552925,0.013789265047398346,0.23955380925701478,-0.054677982706664296,0.6022227240941225,0.4037752711383994,-0.03621650821559192,-0.5822488771806613,-0.337332291166827,-0.29861464879202393,-0.276230795537375,-0.4913539029878784,0.5774578135735338,0.09554107702692602,0.3810060280157439,-0.5605186808887862,-0.09097019408661924,-0.20061921914626182,0.11490282113257556,0.5983254627591105,0.444750693534024,-0.07522507917976823,0.4600697434243921,0.033308722170273725,1.2651551818846751,-0.3152863695171729,0.24213634124906966,-0.26988045173812514,0.4218162660403947,0.044186299038910824,0.6329524020466657,0.1616581905070542,0.7716623457865947,0.13777062814900706,0.18355578763797986,0.3668059494355762,-0.21345200698054329,0.26814792561900375,-0.046128395598118606,0.25661936820003156,0.1765829946657646,0.2458776288219129,-0.0024563903931552958,0.08580388073142328,0.07613428949819742,0.11178564936833849,-0.11536143557217511,0.6893405964941695,-0.33588292586353935,-0.3707680945057219,1.385676277052622,-0.15906687045019016,0.4686344797223128,0.10606616963879692,-0.8560024346096395,-0.5272114576262015,-0.1589527977370491,0.056339835491136366,0.3811203551140737,0.6434267547451349,-0.5959981916639828,0.2802875637819646,-0.22081457626020506,0.466651573830466,-0.23917902305088035,-0.5336069806695017,-0.4866212835364755,-0.22197487310558733,-0.8793026605181601,0.9106254400130299,-0.14182237750660348,0.7909963401556793,0.5271776308637197,-0.9228441929448075,-0.7286151224462382,0.04746471985642194,0.4354257773027141,0.4455874964214902,-0.09162714234597798,0.34955225057813577,0.3764359070370622,0.16479894305687026,-0.14206272024315994,0.37503453472750453,0.20981031935500583,-0.07147126779145964,0.6432677524627827,-0.4366001120105992,-0.5416502693687753,-0.4744473661977703,-0.16324526930147173,-0.43030880842891456,0.6181547558733221,0.8218453944758315,-0.041447310135852275,0.07112591719633428,0.3327852098610273,-0.005790268556784496,-0.3521226064668921,1.084079093394916,-0.29863269989757724,-0.30618163283165123,-0.5433204482573842],[0.5361002993150047,-0.19162141791196663,-0.1465775246278408,0.37471072617494255,0.28313888054365016,-0.4748993488804232,0.4022295169588673,0.2757066075943376,-0.7829762774765019,-0.5679053705226371,0.20039829745379242,-0.3260689292910962,-0.0636087333731583,-0.45914849911391087,-0.46026801001579376,0.3458279984875377,-0.1657153356509596,-0.36648239051637693,0.00588952721537421,-0.11100030333316924,-0.14395938081404003,-0.2651555579975321,-0.024161361192425304,0.3757504835186264,0.23567306930962356,-0.004756819326960878,-0.3026872426606293,-0.5882354866645328,0.4183568154934839,-0.006463405234657187,0.5329501837223808,0.25399698858861175,0.1601933161093802,-0.19082660978442478,0.5756538966488388,0.25564033819945187,-0.3765137606128369,1.4096680006979336,-0.2871004487191855,-0.34543376428254824,-0.5640460865122673,0.3970743501252812,-0.5539189832169295,0.09078146324675478,-0.6451946584405721,-0.355553488644476,-0.5654101061976577,0.10992905736486287,-0.256436484188996,-0.2963023121442681,0.5130596598706955,0.15102479392478743,-0.5985294088781393,-0.508835750905592,-0.5869791986498647,-0.306494460052446,-1.0398499843208293,-0.32464831622565343,0.9569330273850923,-0.19494185109674114,0.12690564280400307,0.4959102006550537,-0.25684342201140126,0.503989851266562,-0.3338499649221505,-0.1887543719886966,-0.5384187802997497,0.024637834373442115,-0.6932229104421866,0.29767217036876137,0.47929622533100963,0.14441014562386886,-0.24710045527664856,-0.09558952459943697,0.48740494858987105,-0.38577604906822244,0.2857230119496814,-0.1620252776527989,-0.17522643926669132,-0.31087956251479143,-1.2393118030930006,-0.5462125510346293,0.6456897307233703,0.522188110392102,-0.1437415565033482,0.2958198130580251,-0.011564729012674494,-0.5205099145869543,0.37112763682543903,-0.570218297066137,-0.2998568243653296,0.9338712244521492,0.23477374282738556,0.5682951013816799,0.5931687215364898,-0.021072197152659726,-0.07714313896222671,0.40341395009145115,-0.783749115900829,0.3627284423274252,0.49916636387111296,-0.34907129805613946,0.06628721577711985,0.3362183373946008,-0.3073973054092076,-0.46067498426948167,0.24894849815342932,0.7756845646515703,0.6854320148184984,0.7786190115314328,-0.3429745636820123,0.20253218396841788,1.0330524809867576,0.19113482609390706,0.4509462695511045,0.4050484384534999,-0.11464390921465656,0.12220903633917027,0.19364629160439067,0.2990285161002875,-0.7027889254361079,-0.11751374151246342,0.48462114112585664,0.989969727015396,-0.8353017567210013,-0.2256372661218049,-0.8914960025294925,0.06443554374681573],[-0.28541183367157563,-0.1459307784412367,0.5779333933595695,-0.07182791641785204,-0.02127742572116633,0.20091758018129818,0.32723443584503487,0.08186654064576875,0.06538182469168896,0.3167687182371717,-0.3574041040576806,0.16835322200590416,0.42998479145664625,-0.39702848764393217,-0.1528579511243586,0.12087856991089072,0.06047822232118671,0.01954554141416662,0.0626497483321155,-0.1259298444102976,0.03253592242704089,0.03831874940678736,0.0893368181411083,0.014995991424995098,0.3519461596622678,-0.10373595147926346,-0.7218185533051807,0.16006482522376506,-0.10285002535506582,-0.44446615265529177,-0.28407089223043486,-0.07897168282077603,-0.14071791020379276,-0.5593641946197452,-0.2058882997743285,-0.023437606951655848,-0.1984220649542015,0.47272888836737753,0.6195025290535286,0.13919848758832812,-0.5928487646442139,-0.14689988571890628,0.17081130716177953,-0.2356826275870304,0.11183049680884145,-0.5546857451671465,0.10957683152940664,0.1112288371053138,-0.21593797354710542,0.2277970254241501,-0.3587727414313904,-0.5062664007177248,0.5317772006760431,0.2580696935863833,0.44488021991846544,0.21084858929028832,-0.11526482667630072,0.1820763341299705,0.6251396790678475,0.1224534739382042,-0.23000477644735975,0.04208330242035867,-0.3676977046247048,-0.0876838854482884,0.09619591223228574,-0.22068167017129792,-1.3967082723895283,-0.059156029800635196,-0.3917492801896064,-0.11204716098425549,0.4075548356188618,0.15162725973755142,-0.3572352661228582,0.5996702275856465,0.15529685891467282,0.26645264990686157,-0.2155411453154499,-0.4793369481249706,-0.1674098806752623,1.228479306759497,0.325831445055979,-1.2988450668882208,0.09801540113403596,-0.05211872362105894,-0.5436080027023084,-0.4064435146644783,0.052348952070424636,-0.6400216764543546,-0.04192435589589088,0.17689971422307996,0.004093674796844567,-0.05514055634756734,0.0032522186957862896,0.21422063874033673,-0.1229327576419919,-0.3965281244775238,-0.0889327022934341,0.33664932918031826,-0.06066730870153386,-0.032752427056899264,0.1342975486684628,-0.5324417353772554,0.15239917629718933,0.1882802307070585,-0.31081483633204576,0.6320627751523284,-0.34537099882861483,-1.127640386710452,0.22605533324446742,-0.06149028609595745,-0.1493882573872761,-0.06462576455795141,-0.05892071267972306,-0.746777422810226,0.4626929459992521,-1.4422087061118574,0.4641712485436915,-0.4617701799074784,0.005835068494659192,0.036381031574337586,-0.22646731215134386,0.23422935124003186,0.007291866478334876,-0.5690372977247079,-0.38137955844537685,0.2608675698570332,-0.34402923050884,-0.025453590783717072],[0.23320335958419314,-0.13484433805913526,-0.3491976695784105,0.625158467049846,0.4155755487515108,0.0978453034161345,0.16419542204322848,0.01377639545930044,0.09560769458539388,-0.06139052143490831,0.19164125998360193,-0.11200044931332917,-1.8500463465404118,0.29659575747352973,-0.08980311380011562,-0.3138360332369873,-0.37289102074863134,0.3855605190223703,-0.10714244258317838,0.7304347827694679,-0.4155459065508202,-0.26922548743090347,0.23611873030039518,-0.23065825652556624,-0.4265668860231337,-0.15302320688922713,-0.7079340528817815,-0.3172182500731694,-0.1585689987860826,-0.31481290102706233,-0.2364640737364958,0.005197686348709977,-0.11569664025721643,-0.04740103335630742,0.01751952226917535,-0.11181286382711055,0.9151494740909945,-0.190380206316335,0.19910731504992502,-0.6451450288696751,0.06847600476498801,0.24900702977116118,0.3312998342639981,-0.15788258064794078,0.16204859975543748,-0.3162674343782776,-0.3210641152785694,-0.2971020333227594,0.12853714045343917,0.3205468387075174,-0.31675353476504475,0.6601472841762592,-0.18075206231123764,-0.26466741995072635,0.12069070266268507,-0.27091179788829695,-1.3836334479598296,0.020526637561190414,-0.9463418447147676,-0.1892739050059877,-0.20523142958560553,0.4444665889762858,0.10342564726017603,-0.158438388631609,0.10271890110711268,0.01101908503090227,0.9200708045737125,-0.00044228384564657774,-0.8970940267522884,-0.039146197039673925,-0.7316826908326873,0.31710958419358304,-0.5007644191917173,-0.17395522958571374,-0.03175360437257875,0.2808833427906193,0.29493097361754816,-0.16004719971423245,-0.08619246661201216,-0.2175309098194364,-0.14193788708887103,-0.18802059581200684,-0.14060019784386243,-0.04066372093326529,0.08634876361516933,-0.8887204065842157,-0.16306703256559782,0.45643563053791447,-0.02271005247675798,-0.10204697798403968,-0.5466939961936625,0.20609502417090733,-0.033142678024399595,-0.411365939363066,-0.04914081799885192,0.07663271456404082,0.302752536916595,-0.13110636272482998,0.16658197252838533,-0.5702767539243868,-0.9363888205675962,0.2697921000100601,0.33976991175751214,-0.13709463406442635,-0.10022411698570526,-0.14428320421871488,0.24171809282166945,-1.8958909389785332,-0.12412860635829599,0.05799059641538514,0.5435302509172657,-0.08763867481152147,0.10999538914064116,-0.7494641335083753,-0.3020003920437682,-0.305714691018803,0.039790041088662145,-0.14703956952953975,0.31545299776540103,-0.7960154480703466,-0.8002698072167441,-0.17939081599733261,-0.05063783468627532,-0.07093239207282123,-0.35894050661649624,0.17337597846720057,2.1075160160622763,0.019100318667560925],[-0.2998724677519787,0.06584261845073698,-0.3846041598479707,-0.11721049519467742,-0.27360376366752137,0.17496270751741122,-0.3352944865682214,-0.19981959611059832,-0.05328944970853784,-0.21196375683198918,0.3929290239776265,-0.34228357493611733,-0.21162847743577476,0.14085569011340954,-0.2850522003772161,0.2956939119498498,0.11522585573880209,-0.2556107166676763,-0.6463101689138976,-0.5905728507096865,-0.21455424168781578,-0.2794739491572184,-0.3785769464544916,0.005611012372045005,0.441438286471211,-0.09213369605064546,-0.17387692003603344,0.019380362752648494,-0.1582746378280357,0.3966468614235463,0.05573167917003476,0.1988005532158187,-0.37695324093308513,0.1701422957552681,-0.27773427123954436,-0.2629413610411402,-0.371199599671337,0.16563671011207637,-0.40183240311668555,-0.06370869085838085,0.690627113049006,0.08632367045270796,-0.15038354877298604,0.10906630433906397,-0.20070120798743332,-0.0622262197983871,0.38686995621635295,0.05294942850277916,-0.09407140726514913,-0.24512376412841064,-0.4312617116481634,-0.352603786388566,-0.03896333439713154,-0.5348872778144637,-0.3511917675253783,-0.2805385681577593,-0.0025049027880243587,-0.15519897319349993,-0.8341461139717111,-0.19479060499352693,0.13085061864205458,-0.03620427941728982,0.6299190654829437,0.06422907970551589,-0.21804275909104018,0.09300837157083364,0.04021474531105689,-0.14794586847006347,-0.31758151571832094,0.2008502926087519,0.15158609948086654,0.42542159780031985,0.29886798285261723,-0.26610418202785147,0.09826285389114486,-0.4048860280822767,-0.526214082152203,0.6357643435382281,-0.09758691126681282,-0.7746767750670809,-0.2626251991291567,1.4873722367150073,0.34674334716576655,-0.06098667583514827,-0.25947704710188685,-0.04852257720867646,0.05994688638742554,-0.0330980833173384,-0.13636733668423884,0.4264425299944837,0.5418111788304857,0.44915894222494335,-0.09942625177395512,-0.08113643989579107,-0.02889282378612915,0.033556037850279774,-0.21215398480799566,0.10389894561543085,-0.5166667364956484,-0.665873555443584,0.013201235317778469,-0.04318577594903219,-0.2412633572917986,0.008868142649095707,-0.24033825033405604,-0.6278735867712979,0.018864496323959975,0.8623971239557512,-0.1210267637629777,0.10634362951313459,-0.46051178936046056,-0.2076754048593226,-0.15174021955072658,-1.1670845783536643,-0.9629480429196742,0.38656758589878576,-0.7740804993901826,-0.19169039934288384,-0.5385951861865164,0.16458751009694483,-0.07997735479679983,-0.0436234209854562,-0.23364703842197654,0.6517772402323452,0.09122080100839725,-0.5125974142592546,-0.3273308487581985,0.11839692303955313],[-0.09092890706076133,0.18364798580522068,-0.2145395289401294,-0.4841195923470596,-0.28309622409998353,-0.004514081371359555,-0.1279109290582381,0.17911812392292603,0.024875805475565275,-0.62842557714007,-0.09577634070017302,-0.06604689235510537,0.9919295672830372,-0.45011345182045376,0.11402119380946801,0.09167027239880028,0.25816832806315243,-0.2744079404859269,-0.33915350881063866,-0.3723736067752278,-0.41375409176278743,-0.02161376600579965,-0.5614851189380548,-0.12567956289469437,0.15242159748049566,-0.18835234127162714,0.5375298968870109,-0.8434955407031369,0.03192218300339998,-0.38809536739963935,-0.08381644069682889,-0.0553458447586792,0.3503768184015544,0.3028567095684918,0.11537773015926166,0.059539208981470276,-0.656232941996131,0.30208561741036566,-0.7720149495136348,0.1838393667042413,-0.3494099999235988,-0.3384843413264227,-0.1002522060209684,0.015052420219472602,-0.17641488194235777,0.14308673571159078,-0.3319762975722906,-0.2388714033433143,-0.341224511926174,-0.29489812542837646,0.2805109205082203,-0.33198178222509817,-0.26824507955502724,0.012191524068729738,-0.18752175907713972,0.34814294846287797,0.5666105596287707,-0.4283591704288039,-0.015312463907036063,-0.08424880771901488,0.035807213842830934,0.03858723943111062,-0.0020254004221957472,0.25303532352155605,-0.40104974305143404,-0.43055576634217824,-0.9529803692556598,-0.10862521630540015,0.6339407349886828,-0.005221700521409928,-0.430115240976539,0.010429991163400924,-0.505969160989344,-0.38500208902204186,-0.20430881180646746,-0.06500469057106166,-0.24738741764240252,-0.2905644375908353,0.01011937096014688,-0.5632881844138633,-0.7257713421767312,-0.1292108031873466,-0.23058003886808473,-0.003142526750887268,-0.008688104001083486,0.38307660103892227,-0.03608061057319266,0.08586152809287137,-0.1848172097394133,-0.361669817338587,-0.32686175425117375,-0.3047701403582044,-0.15715803337291795,-0.06172260730428981,-0.2821123548650155,-0.7202460193516363,-0.39767313616901867,0.21685792525736514,-0.2807653638428427,-0.23870190103989106,0.06444691915951703,-0.2442867976839683,-0.15139820601088994,-0.0899951151198536,-0.11716131537490766,0.11988694081832822,-0.33117413861273015,-0.06310163329001153,-0.023350993954021716,-0.06380771725755306,-0.5503934849976625,-0.16289357119676298,0.028421953426560054,0.34450172017605624,-0.7725071658453566,-0.2882585629740535,-0.3800342700778108,-0.06859760495883847,-0.2895530842586614,-0.4133332535269159,0.3999380040648581,-0.24972688117785954,-0.06034482369610508,-0.048902446047256895,-0.5400873951340882,0.10641383138254497,-1.4477152166329785,0.31340707089449305],[0.10956265802789424,0.371926327591642,-0.29477431306342494,-0.03153023682078003,-0.3641633360726143,-0.06844072744093868,-0.36451593803799576,0.3564126878285875,-0.7186916495331053,-0.001793222474799182,-0.4197666460735229,0.37721306306034363,-0.6099347160477341,-0.14273681476471306,0.5882324589541472,-0.02896098409641185,-0.7595466868606421,0.16613971088478308,-0.0828932367116349,0.15308402662027584,-1.1476083256890426,0.49501203318603326,-0.3125034939014608,0.5404424792715272,-0.015344478187080826,-0.19746420133905554,0.5008298528989314,-0.33036608055965255,-0.23456373054050575,-0.580011819312267,0.07895102043071067,-0.4232452298088811,0.08011617026960714,0.30622073716525017,-0.4235464313174627,0.36804354098636816,0.11492424696667278,-1.5276287157342678,0.24978578205353033,0.010833697178222502,0.19187392544236245,-0.12654216142801109,0.404397501175723,-0.13872652658924478,0.0278949266046856,-0.3295654568231299,0.09932962253040017,0.15300546859292094,-0.07943640045418832,0.1196421061609445,0.09209966963811059,0.2075831204961642,0.26647910886763837,-0.11975310672513875,-0.40096201377238094,-0.20215331091023714,0.24003447365966515,0.18039270297624005,0.3657280670107973,-0.05707828762089196,-0.1981932301982255,0.20053497083135885,-0.03533533386981674,-0.08224770678514717,0.004608022260387575,-0.13902115425532563,-0.587615872017301,-0.12141093486878207,0.4583764002048466,-0.3431785968741531,0.36813320667393556,-0.37440580529048395,-0.45594358581761313,-0.37082030131976823,0.23794009046358724,0.09518352561344162,-0.12449577715186341,-0.4468411962672292,-0.0885977584458192,0.08979158165578316,-0.4792030117410476,0.07211088938675145,0.5526882847087997,-0.5093275104503674,0.3409459760762939,-0.28400345913597014,-0.11623925395167761,-0.11085409229712428,-0.3083512455032559,-0.15048922966653286,-0.022634833064507524,0.5277034576722757,0.20136205550196234,-0.19640572749224752,0.6526936461094456,0.022017834324236842,-0.07567386700258269,-0.09537402967282103,0.14869437918290526,0.7878405779276095,0.4362761202406582,0.4340160036086197,0.06348281417636223,0.15353913161155577,-0.1307577523612568,-0.13655857676594121,-0.05944515146657412,-0.07208666604208462,-0.4067578541213502,-0.4745595792673228,0.033685335751503925,0.41701255413538274,-0.8976766051988192,-0.43991172579473153,0.6151301123587208,0.14439120418965123,0.000028703038803272796,-0.3550710025318574,0.09967946008897906,0.3510833800386638,0.463249379383391,-0.2906578145497424,-0.26549610845673527,0.9340034486755382,-1.0216745905247893,-0.4962309886601264,-0.17105902199956294,-0.1684732842276917],[-0.10796666497444238,-0.23963147272747373,-0.02531507668554523,0.20039860038994695,0.14504856551590034,0.30181300064974625,0.010472203832750129,-0.4194060326169556,-0.10536702080435499,-0.2162375865078803,-0.7112077624568768,-0.20957329463466834,-0.3372689148821155,0.01715964125138729,-0.45839783342283547,-0.3356424972618851,0.26454270589235,0.19753440565043945,0.4666811608757616,-0.4228061717660315,0.9302461786261756,-0.6128064222214705,-0.17202481393895747,-0.3426158350855367,-0.3917512436296354,0.26707906763577227,-0.46030604879398124,0.5112369558494412,-0.12722283252063374,0.16531810683769427,-0.3666521725164464,-0.28651938632291546,0.2688733512237867,-0.2532242664015431,-0.11575203412425289,-0.27263055839269934,-0.5095222774719559,-0.3251188118845707,-0.47372365286575907,-0.018879715939597447,-0.5567530865613817,0.23358255762684302,-0.12197752174205174,-0.35130642924119987,-0.7800600890766332,-0.2678014592025079,-0.13238257391853353,-0.36876422615299875,0.20340158395415406,0.5731918559309942,-0.28875374143659766,-0.16919269717747512,0.11934658130351629,-0.22447756601165123,-0.2626326595141845,-0.34137200995951084,-0.11127622356399687,-0.7769717712951344,0.065950137922941,-0.5032139511980774,-0.3783987326569349,-0.2426649934401381,0.21317323308875835,0.011162731351296,0.36715903135583017,0.19844447757125097,0.07259187979731695,0.10935049964254291,-0.6635878592859853,-0.025771687456433743,-0.27582085074952434,-0.4106656216334004,-0.36333766232188797,0.09595255490880276,-0.1920143763993777,0.21864570176765705,0.09004936194157792,0.07975147961740414,0.13728545865051053,0.08213723347183213,0.5547961117778506,0.10052226342753703,-0.6192499400616226,0.23464067187684282,0.32897724168374004,0.4359041600273397,-0.028499518865554293,-0.20211670636581258,0.3941699228332864,0.3187911722424983,0.18612286501185024,0.4669388412507676,-0.24251536029764803,-0.31835085915276146,-0.7030392576862012,0.21841731403452197,-0.7781207826900024,0.30381168347290066,-0.2351109581455237,-0.10903756092592715,0.24537470031245567,-0.03613594463443638,-0.3261395336980626,-0.2436486887345863,-0.20378042786550585,0.24467242863544533,-0.48183876343035753,0.002407160471343465,-0.34793997569000684,0.22207187402594378,0.24911184432451475,-0.31135663596332197,0.1218470487885001,0.5994615758283118,-0.2843644234590573,0.4772417066133457,0.3744267863913363,-0.076009410502769,0.3610527518735059,0.2121323422265946,-0.31819774015817165,0.08270728774293959,0.19953971264613632,-1.4725155902278309,0.033261567150472356,0.005317025944568517,0.04664931023954248,0.2905501634448389],[-0.7699394055645357,-0.5380846221404509,0.09203076191770906,-0.28362770413264754,-0.025611122468977034,-0.48598223531589957,0.1917448617667586,0.03833530886954649,0.8047058505317001,-0.30216379765566664,0.29111271955296564,-0.3802488766402536,0.15860578682494642,-0.04438259166486298,0.35987321555963997,0.2387181609324286,0.07693973264028661,0.05142071122680841,-0.3824319391079269,-0.19492538401235257,-0.7851449799677346,-0.6496637261509366,-0.03706146055272125,0.10912936956332105,-0.3801262179134057,0.05893773577084992,-0.27426031691430314,0.31038697776909996,0.2678387916647834,0.10874718578645719,0.5353628961694931,-0.21663795174119577,0.29154130052569527,0.04268075151722938,0.09625810321912158,0.022587596321358292,-0.16309403412714435,0.5047072091595296,0.441739723294797,-0.059045456599145445,0.02074216147687503,-0.5065005307567035,0.11370619172394753,0.24301409759192355,0.4598917216944576,0.5009901967664198,-0.09234003696940736,0.1135494219929287,-0.23384941672707912,-0.7956545995444204,0.20389217603249501,-0.3627808744183301,0.30970592370580996,0.664229485408699,-0.18222787071611726,-0.16704592169695842,-0.08540035234275742,-0.41659599276831744,-0.2592888238537415,0.21286287920624072,0.1989567677095694,-0.24840635869118505,-0.3051916350075021,-0.3923990759259788,0.0411728590796187,-0.045845324577514335,0.09072593622943645,0.005393201598494368,0.09048597409095009,-0.11140944204922067,0.3346383649032236,-0.14958153935771146,0.0378379832612363,0.002454078040020516,-0.506806751246546,-0.28134914526838734,0.13152364041526798,0.053199542436477225,-0.007424835094586584,-0.13612115180412462,0.4768978293439527,0.028290755646907327,-0.18859701142971247,-0.33023311075031403,-0.6686780692767924,0.19679312403418966,0.12373923349720711,0.13611901799795037,-0.03287273491317641,-0.168728386443998,-0.028446455185466835,-0.7259998989904761,-0.16613642552618152,0.728968470144249,0.1411438324201666,-0.20033885296668408,0.3619419686376301,-0.35261262835652635,0.8742637931157353,0.281794656825878,0.22266027111849857,-0.3960813355332649,0.11241047575947505,-0.16879522338017589,-0.24412730156906184,0.1320289652561082,0.3851955194021511,0.2741989015685548,0.3776307959943552,-0.1690073302271835,0.0317304760586818,-0.12690100998368536,0.2287960164827167,0.09425272811931398,-0.4463760720836576,0.36968843730521267,-0.21484262784617605,-0.3558831095156724,-0.5843226578218316,-0.24879038687501034,-0.18237328970458674,-0.2637978930275256,-0.10211377991131339,-0.135507734462997,0.7652911534784979,-0.13568605460789385,0.09575472754651093,0.051773330786202054],[0.03492339448616157,0.3026126276671853,-0.002099831400849071,-0.16680381570854777,0.04945400247543659,0.17094766064908407,-0.05839458631493778,-0.1601087253111123,-0.6314393556106849,0.5474881664408127,0.43700468054330155,0.22466306200843023,0.7033594620005285,0.320848009661464,-0.47092156713154265,0.023036240152298028,-0.5242932685656642,-0.06333313477207766,0.16128526299303264,0.3039542173409583,0.4638684421070147,0.535153367674263,0.1940047317448236,-0.2068401256391298,0.009700138457562664,-0.5232801738076573,0.45494680910685625,0.1393737849447159,-0.18924093902316746,0.23236291841825635,-0.45996169271462406,0.39929924302170594,-0.4274089544741654,0.1961856672857174,-0.056966900757999275,0.0958372708624024,0.05024023125312134,0.29596221246000176,-0.0823867064818917,-0.06307318619688829,0.034572806319498,0.24825108627431153,0.2337298366517617,-0.0788040303552397,-0.13378498819767357,0.3852992828613538,0.18488659073073313,-0.41911325799963994,0.4203981049731265,-0.00651450325423051,0.07827178263439395,0.21330811472106614,-0.18707647465719768,-0.1785902612371736,0.25435326509694267,-0.10304820053320216,-0.029173109245203315,0.5128642846327792,-0.054616178148217835,-0.07584198567571937,-0.3067014539789046,0.1742045630277338,-0.46743089844815977,-0.09006019977911432,-0.19362478308191838,-0.0588654775086799,0.1031473814993038,0.09523729934770213,0.1406198411412392,-0.06051932267100166,-0.06408527522960938,0.17372375810371948,0.2868555957896574,0.30368004277209354,0.2752734310622235,-0.4897034854814416,-0.2877292342978925,0.12120991602211183,-0.11771404808726946,0.2220242147497732,0.09623254655439865,-0.08348539380256668,-0.059614936663220874,0.23103193511220452,-0.13120476699445618,0.08211585682742872,-0.18261628177886008,0.20115441800696643,0.17843554963216698,0.056182169515774975,-0.15829600897908197,-0.04057316638079655,0.15445009716744412,-0.2763568960518495,-0.5256770884764407,-0.26949622549649394,0.20585261618229098,-0.463246526491177,-0.6355653995963962,-0.337232718008319,-0.16213788025289655,0.18049935125038882,0.06044765617995025,0.040110379280764275,0.3756913669132688,-0.04686712616752865,-0.10898542014191297,0.03266707793531198,0.1602218699037253,0.043507910613558104,-0.29457395037654355,0.048147723534499316,0.310975084241279,0.22258011514396217,0.01549577136732503,-0.7472558459755203,0.14150628019331818,0.33098406834075195,-0.3774749143757065,-0.2180879840792911,-0.0608088898030051,-0.15060526942824792,0.1572414009489641,-0.1023244708909706,0.10024286883560823,0.2202019566386188,-0.2579274684217609,-0.39604039016722314],[0.9693772025650786,-0.14093535679267913,0.3007536063233551,-0.9279173984369233,-0.33484404259954476,0.48697188381060413,0.25919502367965147,1.0364571858897589,-0.06863159068830033,-0.9519231957181145,-0.342827134140308,-0.05738289404234695,2.9544815173178454,-0.3537935819448183,-0.18535282030754358,-0.3064645264394919,-0.46486163484644777,-0.8010242987510265,-0.6871384971415113,-0.8864063346066606,0.25905434242529496,0.5763735188036282,-0.9840966256671473,-0.1628074801207973,-0.6823238395434263,0.04607784302155348,1.5012369473924556,-0.6454128355699098,0.25022222353640117,0.4145569257667821,-0.5716797258923448,0.9339601460320878,0.8043939249538586,0.49231601370571015,1.235871067770854,0.0455916989145991,-1.3484221942585137,0.05666342004367931,0.19004214761307694,-1.080107092368601,-0.22576731235659314,-0.7063861695761064,-0.16880605944089264,-0.2884679737740594,-0.20512846426157547,0.40920107323205834,0.527925468056404,-0.053527968224010396,-0.21196635651159268,-0.1011481214855904,1.5972586789322922,-0.9748913704241553,-0.3987199134374067,-0.09885949352510712,-0.4198321477541002,-0.2483051539494755,1.8137581527181885,-0.5065409657681406,0.643510669441777,-0.10556623625362688,-0.037677079161187454,-0.6153339572204664,1.008549187586416,0.2459379619897775,0.14847123236430165,-0.3074324389515124,-2.015520693133631,-0.11950510446246337,1.4426514207203733,-0.21708766051968212,-0.3763765487590945,1.189324508250238,0.13566764721122523,0.25341178770087747,-0.19686334259005273,0.23363762827750198,-0.07855381244736316,-0.0570827923030618,0.04756782395269344,-0.8702662827163999,-0.37213476400873796,-0.2732412015175969,-0.43281131753516167,0.3195713560976738,-0.09574395574862687,0.9997041768889539,0.19347905921633582,-0.45353537858707654,-0.08764232864882503,0.3341591846451755,0.732967002536284,0.1994247654359217,-0.22336162008678437,0.5218625025668416,0.1215519050549542,-2.326354316873338,-0.16413154439283298,-1.1133458523890591,-1.2956730913575218,0.25987877000541443,0.907090697949481,-0.49932071364684016,0.7419029170451368,0.2515991349971414,-0.0363137206785005,-0.13758923342290993,-0.7816293724326795,1.8866753194597412,0.21436767941342652,-0.13943662696971476,-1.0146890976658767,0.0414259282785927,-0.15345928062630165,1.0095381969424635,-0.0013361719741709684,-0.09723540033528923,0.03858807731014501,-0.2711365171864457,-0.48469100398975457,0.21329419699896784,1.558756755270999,0.42717175767144616,0.11600550289914627,-0.21065423418730064,-0.17825732309994505,0.5690432948395998,-3.5024759032986785,0.2965265193867332],[0.21565684599288748,-0.29624708304685315,0.8406044419217856,-0.18545567174721886,0.4513838592771269,0.051150141721104825,-0.0220366424688995,-0.299945361165399,0.4507228769747086,-0.41565915568658646,0.6958333007634225,0.17076994378078908,0.8904667411362034,-0.45548269976291705,-0.06765124937117498,0.6476331166454534,0.47514459570376094,-0.8617409040552491,-0.03054371913463096,0.43732681426541414,0.045614269321428536,-0.23849761466350122,0.772067818711816,0.44777861808281244,-0.028439591747970946,0.19974970438661105,-0.2772430406678756,1.3480866193083376,0.1373428288616166,-0.22010169800342264,-0.6082634976652839,0.36424423909728415,-0.1684665520204153,-0.5911499382516945,0.20803286889498177,0.3186871353347869,-0.06050445055214384,0.7057720102815007,0.7969266832698791,-0.36498272816714084,-1.7332598716147012,-0.3672248595524278,0.3801061829425643,-0.20478038977200191,0.17626100587844803,-0.28838145036442925,-0.610894081157149,0.3869883993081528,0.029047636283616236,-0.2272410331986035,0.09852018824032187,-0.5548156573006328,0.7782374778754588,0.29344171461488333,-0.5145712132016559,0.4278254774640985,0.06780392780146872,-0.5816271530497316,1.3432270288061836,-0.08664215152082683,-0.17493026922515803,-0.18144581316293976,0.14568908097177205,0.19944965195200545,-0.23498152969581737,0.15368770730527365,-1.1785053195678743,-0.015305022148163473,0.12196208456673906,0.1517453038254143,0.21138968269649344,0.5299308167022253,-0.7569937882226578,0.8350538724729405,0.2321873055838044,-0.6970621245973907,0.3378800700600862,-1.446749411490435,0.12014495237272296,1.9570285605130273,0.02551724967007186,-2.7643607563557846,0.3222116536898771,-0.10237916761684811,-0.19916472324604773,-0.2737540553274362,0.021083313323913486,-0.6945263030293484,0.26191689081121194,0.5489917432487131,-1.1628732469734724,-0.5439037076380202,0.25015291899382675,0.07290711181758032,0.10399759986232633,-0.3461699799328251,-0.07029039820110802,-0.32391683949919636,0.41462756296936626,0.4048061297132013,0.10905142112243485,-0.265289884222189,-1.038062846335855,-0.05298644814856805,-0.07339278034292548,1.0968637389429194,0.043863492292281904,-1.992588137154487,-0.35174042470473305,0.056499228753746605,1.0601213509329448,-0.04858877311252352,0.05996159219037717,0.4516513720444573,1.3925328013569547,-1.8296265327520642,1.141255807296693,0.26508453541080257,0.11335860158413637,0.4139205253885035,0.05308999847792359,0.07673945727804224,-0.107878092428496,-0.3906978942607257,-1.0438800255398155,-0.9973662498945929,-0.08032624000996173,-0.4704064520526239],[0.2449683704173203,-0.07787500711805938,-0.045217028382216154,-0.14064602143554536,-0.13846737752153293,0.18859041764656131,0.08998720917120036,0.22392386706188303,0.23210257488662156,-0.2204666307196176,0.3746279889344998,-0.3168336682257162,-1.227044601200472,-0.000541372843506139,-0.2524596623277306,0.013858672574619604,0.2577577053486753,-0.5053269069502986,-0.3587606346066344,-0.28713905695596165,-0.2700291212239095,-0.044902043308680875,-0.0813081380185067,-0.007467251327601126,0.0927262849119286,-0.2637750831087712,-0.6697996093879116,-0.7322999184856133,0.04128913552993341,-0.339541524330839,-0.05220948422112549,0.09989594525365747,-0.07034294287794286,-0.3335126914810589,0.14988747806389055,-0.1165488611790933,-0.2834283517797451,0.18399101812560573,-0.18563230736616287,0.3612214250649421,-0.6018627323382576,-0.28023246545503083,-0.47466544325836696,0.06547175873219989,0.18504820135487263,-0.21642033172674144,-0.12417053757112115,-0.0381890187904515,-0.1040509380916923,-0.24782710202847066,-0.36718619014824533,-0.42948204363504855,-0.6179563253864196,0.030639674209405856,0.04987511766321846,0.3244926449505147,-0.5379163374208885,-0.14574623389817923,-0.2582236880474913,-0.08116116300520097,0.13420674321565196,-0.10607250896919798,0.16407663891507607,0.15211197008516394,0.025529187743945515,0.004115441579706104,-0.5235347963000345,0.017839261957477627,-0.42942318637000904,0.07575987021630393,-0.3788298101448526,0.5062872453095905,-0.061956257531795,-0.08431606218031078,-0.056873583790842806,0.235216404045188,-0.021305677350946836,-0.3558885735035683,-0.13508717454057403,-0.4846094610459985,-0.8422007990282603,-1.0397018491517975,-0.010495224711994868,-0.112873505972118,-0.2410925663392065,-0.21621833817098302,0.06260198148535438,-0.1784904383250224,0.03322655786850746,0.05069652713383714,-0.3242622577666661,0.2156863422514439,-0.21368554508246732,-0.016747471719947605,-0.10740954441742803,-0.27597698247162966,0.02296494037295254,0.2048164606265316,-0.28323836254098994,-0.6572394454047984,-0.41452154746148023,-0.3546439083766315,0.23956645684819594,-0.0001648132400923109,-0.19503710443734934,-0.20830313626808825,-0.10038924159767511,-0.6330880434562189,0.04591258494796553,0.07529821451944213,-0.6277637802475607,-0.13900938640499244,-0.11006497339192398,-0.5960034708994596,-0.4019210255501724,-0.688734823541319,-0.5417337734253803,0.28540013635330735,-0.1749167020337664,-0.27229083945955584,-0.4625514973588152,-0.2272013748371259,0.16870911422492077,0.18127840527294795,-0.09401538360707763,0.15825855455984625,-1.323400568587073,0.11773752770856273]],[[0.13554079940904218,0.05744583768773672,-0.006210912950936692,-0.1687926869499952,-0.0069488478684177225,-0.21683084182417953,0.019924310401582317,0.17151199950581109,-0.02627532853683573,0.03998774566838923,-0.1590406360900727,-0.11024576929962603,-0.19639844847076396,0.08073736846979497,-0.20729513550492934,-0.014341941123375978,0.1655129764241929,0.07291079768079185,-0.0216168041857603,-0.0066361761753484,0.28644224978211597,-0.06689292412770118,0.18397147906585182,-0.07403348003590858,0.21111775641067973,-0.196456436310587,-0.018226365587227525,-0.23245690555770512,0.1856531155252497,0.07169750124121359,-0.17197228374022364,-0.148218252513476,0.0011607938103001315,-0.17444788317041665,-0.09711912774846466,-0.07659681977722133,0.208867349332612,0.07841614423651311,0.012771775067812758,-0.025333342292829793,0.15320281180817388,-0.0978661719561355,-0.38234480092229334,-0.0221290795218475,-0.09189452095022244,0.17958731655309346,-0.06343394722689523,-0.2993286583291502,0.05537416926048927,-0.09510860476268052,-0.1346405289722052,0.05112048001896121,0.31163948198098007,0.038817249575682895,-0.25300749472567885,-0.11646860952931673,-0.00896626767918278,0.09010584215503688,-0.06274522153269174,-0.09680140184621536,0.25471688868543624,-0.12683224147699862,-0.07277267343001535,-0.061893312852288836,-0.0691188897544582,-0.019628970215058033,0.01174228330444521,-0.06979896735878298,-0.08377701875652444,0.05439559716404818,0.06067663743930733,-0.15701795759746573,0.18318974137336994,-0.07469563237853545,0.17644295850024241,0.15318596847425525,0.010253794010073584,0.03357795417989369,0.0237791953265817,0.11670152054089848,-0.12006073101170933,-0.244422024898666,0.09960642274392977,-0.16530114660806997,-0.1268467671029823,-0.15194829512399088,-0.07046856731714764,-0.14676039545768704,0.14347246528885507,-0.23832742024329756,-0.10724487364728465,-0.07033812363787412,-0.02649961177756345,-0.02067679896262942,-0.021481941454819995,0.008870565124011217,0.0408149595121308,0.10781269732176037,-0.029129438302701247,0.07372026627154203,-0.18483903957846654,0.06621157638378806,-0.08651996373229014,-0.1938994765349833,-0.048820104229266234,-0.14218728024048585,-0.007266802428273578,0.10110515041257848,-0.2545579496612872,0.024858810902644496,-0.022810848277213573,-0.007094345820334706,-0.11969160184001441,0.01585702459434579,-0.07707190969543451,-0.027163319290331715,-0.17113948857892416,-0.07729685724414675,0.15195618621140672,-0.2049576054888787,0.19568778445993254,0.20236929445359111,-0.23968214069731356,0.08790601504117877,0.19953119757776916,-0.16017071652836656,0.27860321863681614,-0.005853507806735562],[-0.06566841598526987,-0.1577312962706307,0.13808861975703673,-0.016021637204348033,-0.0055913320284816425,0.1658951128581564,-0.13005798986961298,-0.06298995083380285,-0.134953807404153,0.1559577659993377,-0.2058365725868032,0.4220346217207477,0.014807316977881024,0.04836454472444171,-0.09503634391286706,-0.04211416298500413,-0.06586110277863641,0.1571976053923259,0.12562763155772086,-0.16582481323360912,0.07634561737663492,0.013553839328506376,0.025117306639832335,-0.12634905608146005,-0.157063023642491,-0.12762501689005504,0.029920117407004548,0.0058520141958164785,0.0577077521761667,0.17710785760578157,0.03622270883053922,0.1220880529229296,-0.094396115317558,0.07670435478832938,-0.21068378806282495,0.12952848136564762,-0.12468460889282311,-0.056027590936629776,-0.1601912599045156,0.10585268590725631,-0.216379353846341,0.15493810615517153,-0.18712076508052133,-0.02546778653532051,-0.006272113671422426,-0.07232036545869784,0.08516934214713597,0.012309735011688477,-0.10073863445778657,0.05942711516839165,-0.022637476123072393,0.07741926731260604,0.04388293217593113,0.22244368773911566,0.28595642976018604,-0.17448116529986427,0.20934332821156137,-0.09079522090573941,0.12999048518630527,0.14158754927621145,-0.2676311861984725,0.03152047212267758,0.042874750776469885,0.136925190119442,0.01599974573846756,0.04959698986468123,-0.04785201404015073,0.008403854958441025,-0.2581925435858802,-0.02006995709355391,-0.10446175844524583,-0.09336785607962436,-0.1308941589647126,0.0709070100877509,0.24609872879095154,0.01483053181745927,0.164312821225789,0.008206901492896322,-0.056118687842692,-0.14740110335754195,-0.1262795740518576,0.19001110135457783,0.001163148509711539,0.15926070393997913,-0.08254967053356714,-0.23154172798909362,0.020597324837300895,0.17065346502536716,-0.03210649353364931,0.2671283256230412,-0.06504585334651622,0.1549753207031729,0.023750328910776157,0.10171086690967346,0.22439762217125775,0.05767420925587936,-0.10382309729093742,-0.05716733053174109,-0.15643927663151577,0.034632754112792964,-0.17287006248803158,0.0244136939758239,-0.008511623719390331,0.07427947812169988,0.12911413277484207,0.026426969064335212,-0.06033962503604593,0.08785620272920958,-0.10799515155461921,-0.027325181335495878,-0.13588581419378445,-0.10629851266158019,-0.310470547505574,-0.06665642936050242,-0.049971464679244154,0.08980490731304334,0.06114375963464949,0.20801019135310636,-0.1698771912113402,-0.19854591682504785,-0.12936128750991954,-0.05368211918310164,0.05783144782434672,0.20228078726757656,-0.13230026222431254,0.06026849030278758,0.1979880768035826,-0.10004575559892642],[0.018515314382640674,0.09434873754164698,-0.13693274175632902,0.1626437543759271,-0.05196409104094787,-0.07049525891581547,-0.04919772249388036,0.2681752996979188,-0.01475781646200023,0.08271822578891862,-0.07475200748072079,0.030293124180059826,-0.08784686002182698,-0.02488889496158474,-0.038322117651319966,-0.04116247205241313,-0.0251879428190157,0.06496746500835884,0.0755203516083511,0.11200507875150578,-0.07673535888105736,0.25504135273122863,0.0034634196063639874,0.08449179003982123,0.12370754568762414,-0.0722955158131832,0.07591820118051384,-0.08520453727444119,0.058477335027288864,-0.15563371437075937,-0.1410285848965506,0.21983686335927027,0.08280319775302454,0.154192610438832,0.03732136142615215,-0.16368587957791278,-0.01701580904300215,-0.05399426160608171,0.03411977369651508,0.1376532231322398,-0.06735177461364683,0.10147935945447216,0.028538010107935878,0.0541047313645752,-0.18812181834798794,0.054282766343579626,0.11850937463481824,-0.13732844804118777,-0.056611322808297844,-0.022876051858263993,0.047061708661030224,0.030813698732767916,0.19252614148336256,0.028517565129907593,-0.11617424026956892,-0.10880424980396454,0.10496306924265342,-0.1103285156619386,-0.12008873437437514,-0.1409978898895726,-0.01325326022677064,-0.05159246097022626,0.0209619460423981,0.14910758695156795,0.023412973409998317,0.046456180473903146,-0.02880027914183989,-0.1474005329813957,0.09902026796620207,-0.10299145769176804,0.048277572466595794,0.034387745980367555,-0.09338323329289894,-0.041343237535780966,0.07664850779234544,0.21507849324406778,0.11051426121002839,0.05054513521605667,-0.09150345007154587,0.06495531598267917,0.14382480984661747,0.1909646358278878,-0.001968449692115079,-0.20726697945141814,0.19083325594753342,0.19532673185474245,-0.08337296246482981,-0.17232969828707598,0.2194853713268167,-0.15831358103929782,-0.10995478685547481,0.0021815085181656176,0.10252789362815636,-0.20034916133569497,-0.11337735238193566,0.22758301124884545,0.17808732526811907,0.10081750477144033,-0.060215062973277694,-0.1085484576887735,-0.05822841163751228,0.09323491723094124,0.121949660340328,-0.0363160813004931,0.07365697303064876,0.06278985444749245,0.16816387131930266,0.20933478105372863,0.10623286666148644,-0.0038330518096450525,0.2740900349895674,-0.0037399947544865903,0.009155707314190395,-0.10527417509785073,-0.0928499410837921,0.14776080950405732,-0.09055107822658176,0.048854109883306254,0.02825647747421941,0.1514882812028533,-0.027022386629412823,-0.038047581554373,0.01406097144460213,0.034934303145316474,0.1641441802588763,-0.05285789454408413,0.26330196711818477,0.04519041165948426],[-0.019061849588159718,0.08315011837086023,-0.0005557620395586178,-0.10465703587318712,0.22184693182490792,0.21725937480832666,-0.02085010387832933,-0.07502733550881902,-0.11279916363007572,0.1298956160923863,0.21017132996251883,-0.036745957039339694,-0.05707779793876813,0.052307703380817396,0.02928292951670565,-0.10408252855190296,-0.12042390332650958,-0.12739696817055346,-0.10055567902300953,-0.040521185087287706,0.19052795646236553,0.04378513295237951,0.11371997829544839,0.012166915929641727,0.2978122008071579,0.010594797594234467,0.0180296954848599,-0.0962049729880384,-0.0177655103193421,-0.13474124996438477,0.016621097789116888,-0.08714721604781585,0.05993712415519273,0.08589686661943284,-0.22433094724613287,0.029191569700372386,0.06946092637143464,-0.008315992638550459,0.13194973499302529,0.060078057108072194,0.03832634930662513,0.23617842549537543,-0.05053578786476045,-0.1148496262966925,-0.18710584675960634,0.08509606501482649,0.22340781661043604,0.11938944719507368,-0.08660268487651525,-0.1288886551485784,0.06737984316785225,0.271731817898434,-0.06551889953620131,0.18412599556630818,-0.0056354471268516915,-0.04105340339464183,0.1972520079479921,-0.18217345799957896,-0.10021225391658405,0.01638792525954709,0.01768756459634535,0.07706783687566904,-0.09439459514154509,0.19887427374364683,-0.10872396907774422,0.05185801707814727,-0.17250625068329473,-0.20352670677005333,-0.1942781294494429,0.04517250831792448,0.13476006674496083,-0.1238647700937156,-0.024303253875509707,0.13576072056711455,0.24515640363860697,0.1604063504601279,-0.10004485555707553,-0.044381483009438345,0.05843476557115958,-0.1425543372592593,0.17605361465542485,-0.21339931537551637,-0.11214981495602352,-0.08079811535093759,-0.0038180070439065303,-0.03705770939186979,-0.07459418296615293,-0.11505401194208295,0.10730169011504644,0.06446444147847794,0.008861853800293295,0.025563726533890666,0.037598762366871694,0.041149491263478354,-0.06626798991202873,0.1642342124712919,0.05323223866151098,-0.05878388747884335,0.01927573808973278,-0.10969169777000083,-0.048695282741319304,-0.083329493344871,-0.06412027913515035,0.042223439394258225,-0.02600098192261388,-0.00013790640583263424,0.157520191070704,-0.11125710416774139,-0.22518454662462214,0.08549297228486505,0.25422549457591,-0.1318056773151329,-0.2970562157047776,-0.1064303671662466,0.02415548629603401,0.25858305011888594,0.14362699229588013,0.03945513835377632,-0.03131877562043846,0.24048622755574886,0.112567692847623,0.1863687721603209,-0.07138316807403197,-0.005252037280302788,0.34740398255597055,-0.0889151063903782,0.03443179653967723,-0.09106509570316676],[0.05998503462211446,-0.14528286005385685,-0.057340585669609825,-0.15724938487966617,0.11547155772905311,-0.04163604867960419,-0.0857387945307866,-0.12301003712860442,0.12047611636653535,-0.11040589537693257,0.1171830700535515,-0.1893204813229183,0.04644683007037544,-0.028409041123552185,-0.14712544682993497,-0.026437026607693506,-0.06803478751750301,0.07124283062510586,0.08234694003942462,-0.07264494108295876,0.13327889831016124,0.04341980958348966,0.18727646643179566,0.10282110357508915,0.1693359273102028,-0.02635118620834224,-0.12954576221538386,-0.11544115364047997,0.18164534475720132,-0.017286949679650016,-0.1381415774376286,-0.384190841552222,-0.12719331582626464,0.04849103515732331,-0.06686690127931544,-0.3345848502144812,-0.009090123195889935,-0.040539592593778415,-0.15632315425071489,0.02371751674197173,0.0011761788654169115,0.1941780211894809,-0.01593000369542913,-0.163043093879129,-0.003200512036006917,0.11286169674868489,-0.08186480939954172,-0.023248816497630328,-0.11744929011397204,0.09075839806093024,-0.08821692703053854,0.2961911898633663,0.15133344864984677,0.12089034133178633,-0.20710400955979089,0.06557893275038905,0.11170535168140959,0.08996785680742272,-0.02029029074064665,-0.00196199412698269,-0.15271454979151688,0.01290033794461472,0.05165890282989099,0.1466254564704239,0.03453655141557453,0.0764504854144035,-0.04036303822015784,-0.0909475310380301,0.06965811349002823,-0.05321071259774433,0.05041694749528305,0.06047670592318331,0.004305795248635003,0.003079773307825752,-0.08136932277397742,0.33504064938696076,0.04559639605513818,-0.005382484918972779,-0.1573537294514053,0.028312375910517364,-0.002451770524072357,-0.03402567839093706,0.06747198496610116,-0.04825729932786638,0.13464385616419752,0.004992999402356649,0.11109124395956585,0.149679260903997,0.27446538864890324,-0.07703919571440732,0.08374873070313439,-0.16379456226769917,0.060146525313797015,-0.10961760770817294,-0.2140260394272877,0.08939707863529875,0.14346134848098457,-0.15893903277362278,-0.14197466287382166,-0.06466408719891523,0.10321798881775461,0.005799602437699264,0.21385095102517138,0.030223763349950458,0.12239847929185693,0.12386620610356197,0.18371649187635658,0.04135585131659372,-0.07537702523511476,-0.04924677619985823,0.08173755446844476,-0.07675175159481328,0.0187880961339842,0.11314095354084285,-0.0891861165281703,0.2682052962489407,0.01062266250742708,0.035851777182792324,0.05480394705024581,0.20245543814393827,-0.012844081730847275,0.13754225187903768,-0.15567612979996642,0.058502463807434735,0.05545132600433509,-0.21474344749840904,-0.036073255761562534,0.08581487989246318],[-0.003105223666860393,-0.10305306682085448,0.13686002986561663,0.12706441067385135,0.004705195775417024,-0.09375922199335804,-0.1038583521181675,-0.06977950259182857,0.12438753103829368,-0.0017256518269184481,0.07811631511401528,0.05502196317477644,0.01821620700165458,-0.12912737848454336,-0.008254609217489696,0.08215930432989232,-0.12648287623733623,-0.13627685192482433,0.08995898816436815,0.09329387040500127,-0.06815728021079494,-0.016273309260893157,0.09929790365263762,0.11291850353709318,-0.11511129422253873,-0.1529583399881063,-0.03049072963760145,0.11039327450058688,-0.036156050531409585,0.07263547627127401,0.13706026296437693,-0.053760756022838516,-0.08169072295016218,0.10613812875129314,0.12245855858431187,-0.0519893779817973,0.06700138225935764,-0.002489747101823264,-0.15277214358830526,0.12370903578161169,-0.01817647200366786,-0.05278841782737636,-0.011498079721534115,0.028459044829298962,-0.07423652611976267,0.03288366812966495,-0.06041884250512317,-0.19914295488387138,0.03149459367503422,-0.025584797787130752,0.13199826964518252,-0.3147079836429862,0.038949075623074134,-0.17355697486362584,-0.053329783969364206,0.013492780972824456,-0.28994525843627994,0.05984444916198368,-0.12919437180973564,-0.06514080357011694,-0.11708268974487512,0.04291780960488678,0.04304871727304653,-0.16194181129287472,0.12524774186755525,-0.09240799461461453,-0.010556999546668338,0.06917100248929328,-0.025346905281993033,-0.03737890755930412,0.05521302237408178,-0.16668493354615296,-0.0797716151988256,0.13987946036652618,-0.2439889713392486,-0.22694715473419017,-0.15719346482511762,-0.10261564089561151,-0.08931950218410928,0.08439203271552352,0.04030081377454444,0.11322566411996468,0.16549364940638128,-0.11443660567028387,0.1189371379962191,0.0775810975282688,-0.02851215090385437,0.01851212787148884,-0.08723421874839332,-0.09339590947833225,0.06051438451786319,0.14852530717596732,0.10619780164061533,-0.11980339212114263,-0.10054545773343619,-0.1757186266190828,0.17630467819603213,-0.1614597434535919,-0.07246604038386935,-0.1589576205547325,-0.06937920678538893,-0.1535818101713887,0.007102747747531236,0.006756077199308085,-0.06278030405843524,-0.10594791403162916,0.0431211415034025,0.15869934735980526,-0.04885388710989404,0.0952750918373832,-0.10170003138963889,0.14620320239658752,0.06157385755356875,-0.08191360607307659,0.14309213092058362,-0.24849194321977972,0.03944123552097127,-0.008385139909225495,0.00047854801648284187,-0.11663526940782677,0.03262589209734486,-0.32723799815607535,0.1966593846287805,-0.055501952860663874,0.011710006122773921,0.020214138125279044,-0.10496045395938702,-0.025765240526588056],[-0.10666998636110779,-0.05844284215102115,0.0643306224334997,-0.021749879712685567,-0.03725170912782663,-0.06280040283066655,0.07393743371281924,0.05104059400730897,-0.12408924933735267,0.1853735658806361,0.016324812065933735,0.0035027760140467607,0.13112283286905377,-0.006988642753060664,0.011574295866245903,0.028495697100649208,-0.11169536866131302,-0.16748265173855925,-0.13492249324322617,-0.053382950782178785,0.04947832626267489,0.03505092551004336,0.07614765269055085,-0.16514735225153632,-0.07322402547862839,0.00926213411345662,-0.029439228833994583,0.14727206113989377,-0.035175557734976604,0.13994716752869518,-0.09321897032153612,-0.17875607688140133,0.14002762826348367,0.11880115505298429,-0.13285023686268255,-0.01098175548112743,0.13883779982153988,0.013619061678109754,0.056163155860136975,0.14238769875968924,-0.10903956819026527,-0.03459046893329977,0.016791551188672135,-0.04154771464502761,0.01857016821276682,-0.02068339416363153,0.2665661317399819,-0.07564173551004624,-0.10649802907091645,0.13488533192738222,-0.0985954186393331,-0.001645125636015554,0.04489656598992156,0.004256168607317494,-0.13687086603020093,0.0017225198947757206,-0.14553546063913458,0.06288592863877465,-0.020599829660778862,-0.0854991560274573,0.18192914898105522,-0.06050749613547149,-0.04944636647624951,0.040235099788530175,-0.08964978500269075,0.025365548070846688,-0.01916145635538188,-0.003145160256586847,-0.07275069780002212,-0.13465643087683715,-0.1488129088813223,-0.029038189327839765,0.016674958385569247,-0.17905314447412163,-0.14818683706276714,0.13083682299843408,0.013142754571203926,0.03409864493515929,-0.1639075657090402,0.05099121156255764,0.06325877625655836,-0.11186421262894136,-0.12853257563750808,0.11592070265407903,-0.08367236447912563,-0.13756973900470854,-0.05184440111321209,0.05516847149789804,0.006835927968408819,0.03869293020037815,-0.06072901086612863,-0.006588562492483114,-0.007199854452313712,-0.11840841788518493,0.08009096809449699,-0.029269849052408495,0.1361415293200345,-0.12277173096923141,-0.15277074910080468,0.03192485580256517,-0.16100480553006985,0.07253624568585657,0.23246868850698774,-0.010999912083837996,0.03171926330298929,-0.12135628015525186,-0.09348730582258111,-0.051041617144428744,0.04381227680514666,0.03920436506815732,0.007615912841907002,0.15042185297220168,-0.26236149394073194,-0.012229994007702714,-0.17383761623587207,-0.16672551938759675,-0.07225379475487002,0.11597390839398866,-0.15791806159660135,0.07071345182318681,-0.05537236942227255,0.08495572153103374,-0.15440076148595125,0.1794289089411456,0.06895230636826614,0.03126843546982594,0.1152502013094422,-0.11560046816770557],[-0.08845250413036476,-0.015097948988185686,0.0118987496607921,-0.12151907218568343,-0.13287524221735625,-0.023539577040018304,0.039105019691927055,-0.037071736818030616,0.27341769784250114,-0.056734909268571006,0.3883887214939777,0.11603921421055953,0.13273205135899926,-0.1733652339484675,-0.07300710323928981,-0.12668955406667343,-0.011484568065868131,0.10715389079867772,-0.03482807122138285,-0.017028178188975885,0.023015864538527577,0.22272017958888235,-0.1735117937757017,-0.08967146734392589,0.00946206844548676,-0.11127997707790516,-0.04487761199944476,0.09036330744014276,-0.022839704280079077,0.08195195613125274,0.060012218361981354,-0.08179007308324307,0.14215350021844136,-0.08954977265865215,-0.033061848321942526,-0.0710444302832787,0.23716911490402193,-0.06609546104387297,0.004336066187572595,0.09193349179095837,0.18950558861917774,0.22446606456962914,-0.16047948958716376,0.18009702339599898,-0.008886437626012928,0.003912785632232275,-0.0007871098625745611,-0.09005516709366425,0.05644277232071456,-0.025760164638659978,-0.038563843076161716,-0.12994582350711553,-0.04465328526806284,0.1868767042678015,-0.06996073896801587,0.12351307799119886,-0.3072034499195923,-0.07458084255409277,-0.1432529292666357,0.10339669720164298,-0.05637945765708668,-0.23815596203810768,0.2449158990325112,-0.07092939691678701,0.18305827693786444,0.08755457313508908,0.08354630925192685,0.1271051414102659,-0.02866626356701431,0.06966965306432758,0.22531705297122534,-0.1898944738430831,0.26527727082967223,-0.12396034660311314,0.03311782253003249,0.020618299735389457,-0.22148534874131895,0.12477256569654978,0.13521453399311073,-0.034230543728666726,0.14014853330427166,0.004128314732712805,0.22945895083233134,0.16391002361321835,-0.025785356631754183,-0.12125519472529993,-0.01841464045072769,0.29737552851422644,-0.02747513446414438,0.07546530344988175,-0.15345309026617845,0.05568266921936055,-0.0939282844859715,-0.013312025375975176,0.11912282304163128,0.023289706074011447,0.1423071707713612,0.026366584628103512,-0.1228597244915626,0.14309382068003637,0.3628884825597385,0.03561425333732612,0.15478805311752267,0.004969522399081276,-0.0590349223192093,-0.01235714884274672,-0.07199637194439824,-0.05770905602682202,-0.17747217488168981,0.07744356663489789,-0.09932995988686726,0.18471376157852018,-0.010660970179187497,0.18107626535764468,0.1260465325369684,-0.15330374601657087,-0.07697010953490797,0.032339015651276955,0.04686733929166617,-0.041562606825344316,0.04555173154593039,-0.138887564536884,-0.06518683380076074,0.08627160016064364,-0.21519486269474222,0.09462381515967512,-0.0684010604916718,-0.08725489386785275],[0.1199151907946162,-0.10058861666747988,0.0750572394169644,-0.0454465850368639,-0.18831507658872465,0.225841451073653,0.19359105615731978,-0.019461703242667674,0.22946739196524268,-0.04324652017269749,0.29112881400074786,-0.4280190821844187,-0.014751766477857666,-0.05445881727157242,-0.129756205972792,0.04433229105102835,0.17049378325579165,-0.1655664457767787,-0.11152428162271741,-0.09096229588853394,0.05213642562377606,-0.16873665353347397,-0.09583033289599409,-0.06990898885997485,0.4103320726537521,0.4162505930375165,-0.12819498722414238,-0.03415570500471358,-0.08128280796200592,-0.18533899829253483,-0.1988047722791222,-0.10948619133843895,-0.1690375175006457,0.06731742367994055,0.15518885158616896,-0.0794409523196783,-0.0508848754840818,-0.12355752003046266,0.08844339154475554,-0.10275821197517136,0.010580224895504527,0.20319701332312648,-0.23656813288177053,-0.007407200232962311,0.03970225906264235,0.08338087925418382,0.16227539994130685,-0.1120495483125254,0.04304560048018992,0.09865531042235252,-0.11575926795417214,0.1564840359220319,0.05517698035235096,0.33523697730564084,-0.09405180428889187,0.11101111441019627,-0.0019165485894431194,0.09674897014023849,-0.1509518653402951,0.11257737487214038,0.08350931874698994,0.04285063083932976,0.0424089049454814,0.02589745499029167,-0.08240172468511205,0.07588406996783852,0.22807384802779754,-0.18081896023086186,0.22897312642872045,-0.011041636647703983,0.03320814369474584,-0.10014132460905616,-0.09962725495073833,-0.2567101150247999,-0.19221412118692943,0.08184855408705849,-0.028521990138359946,0.042661042751809965,-0.28574348039159636,-0.054745576531244275,-0.09974015502521488,-0.09221552324448981,0.032439964020365405,-0.2014533499619692,-0.04944621164819738,-0.01384170296453137,-0.08377779802481865,0.14030835345957315,-0.2154948866788401,0.1295874814746038,-0.02082789054339702,-0.024119707546773863,-0.0860208794278539,-0.3154900007140997,0.0520886906891685,0.0908077048244987,0.03312411599215732,0.10417274464216678,0.1384864487775558,0.40359625331712234,0.5069685118463867,-0.04049140798045326,-0.08591002639516404,-0.2330027109541027,-0.41104968683358367,0.05703408041490123,-0.10656988425326865,0.07149218377161015,-0.004254201670506586,-0.214226145539847,0.2101275219302923,0.07798889160544595,0.10249517889275656,-0.008816700650063746,0.00990856453503685,-0.008799127418931012,-0.18634853785727024,0.1086433030147385,0.2157516262126651,0.10807095442682246,-0.2172040181196978,0.34987259181963243,-0.08210409451682607,-0.09282745062413665,-0.30017956457600076,0.003401576259447624,-0.46739266377952926,-0.12871165937839082],[0.11947152334488297,0.14327765960212374,-0.01654587227115202,-0.01750165728637445,-0.08285318925094141,-0.3001321221098046,0.03257558823187797,-0.15269751708196344,-0.27134675067717645,0.11645742571349106,-0.06105438439813222,0.20178017839099505,-0.08086781448092178,-0.15856241054053438,-0.13006286664333644,-0.06039107502804128,-0.02110635120636561,-0.04724413049375655,0.09156747712007837,-0.1984184469123103,-0.04343667375812283,-0.05851547935667058,-0.24602638927465958,0.14762925223160459,-0.010059517725800524,0.012358471264769301,0.10288594019253465,0.0111992572059742,-0.1823633640640757,-0.12915046951940704,0.09125675449418487,-0.08496982457287688,-0.057598166170178725,-0.033913000651716735,0.04217781690643372,0.32423210996906915,-0.12331852462972423,-0.016601747682384337,-0.11904400188842508,-0.11910143017790853,-0.18232480227185932,0.059745412065455514,0.17724612056185665,-0.012457495390420528,-0.17491314680403125,0.05380023856406895,0.177696018770141,0.0777441949777507,-0.12816302326954818,0.12734788230606223,0.07923737213985069,-0.07591405507534896,-0.19249704285780278,-0.21159346612984758,0.13151625019314755,0.05440577292948097,-0.13666978573850108,-0.1221511818604703,-0.1314616979968375,-0.12828212059704827,0.028225268416825426,0.15438172863874886,-0.1145799114606805,0.03436833253367221,0.008751887834700484,-0.14978781605791067,-0.19843382228327558,0.08790688241208133,-0.13016898371507674,-0.0705218204660524,-0.21715318447426743,0.21783606482111206,-0.11134814439186252,-0.07773161275847097,0.08741870916398162,-0.15449475582049726,0.06447620542923076,0.10706602734814845,0.2358607016077877,-0.043773997863166915,-0.0465440908390606,-0.015103109647873193,-0.18564428218212,0.08575656606050024,-0.09732843535231692,-0.023062976667347378,0.11173973688990849,-0.14249191812115525,-0.12865375777551602,0.3870617117656534,-0.06153737837443763,-0.16176890193108626,-0.1403568662668331,0.06279673683120708,-0.10976842618166792,-0.12610308067819503,0.05423582450406277,0.07149121392248634,0.05824439632746364,-0.21111500228128519,-0.28766409549721167,0.023036336413264843,-0.02164870302979434,-0.12478838888539645,-0.20809350549344272,-0.1351731544102564,-0.0027244014158557665,0.028826878720356112,0.1947224443273164,0.038777733054993345,-0.2892962396861914,-0.12216706572154076,-0.03894263803930002,0.11820707454691334,-0.150804638056848,-0.15586471660874504,-0.026124988530214766,0.09001141223988354,-0.09453806311463796,-0.05299571231621329,0.060011174504448414,-0.26851018530137094,0.011206133155447127,0.039714391366458,-0.07402463477480366,-0.2184356195418852,-0.12069899663468167,-0.13788500327581704],[0.04614914473903623,-0.05406056208149467,-0.04876696090723116,0.03278576577048231,-0.4625643132693022,0.1366479433841538,0.044052609370334186,-0.34833435100344234,0.11897100423423325,0.021144492289657285,0.10821887232656141,0.30386880287063767,-0.08901979812383869,0.06969032449182731,0.22099484043107787,-0.028439035572406342,-0.033825967458436204,-0.0860428791098668,0.030304542402235634,-0.20160194435049694,0.2630675744001263,-0.28392126949058466,0.005567957479919456,-0.01955766563124837,0.1486860572237451,0.2467098490174341,-0.09054909061206844,0.10904660212548949,-0.2703362067278592,-0.05300691840633505,0.012962956895714561,0.1254973410424049,-0.20064751960489272,-0.09339635479382861,-0.17912478988678493,0.2289173920623123,-0.1699030096019235,-0.1765205323085187,0.1328883990490343,0.0875199025059413,0.032700085473442705,0.29378534382253424,-0.15552901080891124,0.10721527915401496,0.08911794958408832,-0.22121839667875362,0.2085719248560652,-0.055985894268300654,-0.025760583740786797,0.06391103230387317,-0.07103250160327429,0.5471163748040861,-0.08540430147844884,0.2656954120599293,0.025894611441477162,-0.0664822523766837,-0.2540091275332659,-0.18164307546567576,0.09754174829485386,-0.15747100201350364,-0.2316727098110838,-0.08549979591907307,0.015409553915160289,-0.06484421979931465,0.1837430215913801,0.009470890407092841,0.02861321877908596,0.3071651783413831,0.11350273758741414,0.04221079889538437,0.173585654089023,0.29249296309356204,0.1322349532935781,-0.22293780967057025,-0.27357300234499893,0.047231885238125985,-0.09722467681193561,0.1920515122323319,0.010760101141173957,0.08479239367681624,-0.1503970998643358,0.13455776793639235,0.06813062632156683,0.17107738322692936,0.06277082327474404,-0.1633662554388913,0.22009413264075633,0.2858079873442231,0.08055209016859986,0.44900323648410456,0.023627877335576055,-0.00553551670822248,0.14084109151929186,-0.11903545939116619,0.3507904824896867,-0.24489023048480982,-0.01678005676622185,0.12149005818070929,-0.11715798705065253,0.06761358796880672,0.1652785464762595,0.06757154048349658,0.19697572395899332,-0.07097691779167367,-0.010570094763010166,0.07868881270826755,-0.19755048204698583,-0.05027313475581353,0.09185531725326217,0.19649004939664724,-0.34204447311821573,-0.1506197590632425,0.04178651302873862,0.06855237271196199,-0.15951119756369983,-0.10377496560759779,0.1500207645389234,0.18358203636382683,0.10088554790290402,-0.026583604982877672,-0.022183664076630315,-0.05449452705771385,0.2456372679931786,-0.04875311938643306,-0.23858862256771604,0.06730117159052369,-0.33240523451554543,0.04657161676149423],[-0.03830931356304028,-0.050622448768069025,0.12434974218594234,0.020259581927042365,-0.04663404024420075,0.1042473344422774,0.13354648947389408,-0.0073316097845026835,-0.11756532952485772,-0.031036119415945595,-0.2334783894557525,0.31886146651766956,0.03557258016757401,0.1977976865005078,0.017744014540077308,0.033899733400086444,-0.15293523529021952,0.017639850354032944,-0.04864198205089272,0.043900641282554116,0.0072192299441021564,-0.04617270567961406,-0.2041707635054308,-0.11572091383035195,-0.15246422026899076,-0.09676805849595414,0.027053874780643406,0.06189990381224034,0.014092790515543175,0.17261597002235285,-0.06507961584726783,0.1728820305272195,0.0694589491981767,0.10164847619638483,0.06199984954172552,0.031032463913738605,0.1932499689153271,-0.21996891568148563,0.05564683450361912,0.11201106737109766,-0.13846780068972256,-0.06202072451485249,-0.01008439611428953,0.11155261325031812,0.09779320062902491,-0.0012904093618220233,0.26096627857621957,0.030250216277520215,0.08051333876070282,0.030910600866280207,0.08697628939159034,0.06762764576924321,-0.23002571243953931,-0.1274943657705976,-0.06367756585344977,0.14023167661700495,-0.06501890477861821,-0.08266130911306643,0.1519994664768733,0.005438052416488318,-0.2034847262749583,0.09212061941550498,-0.006850812216874953,0.06327921864574362,0.03873391147285239,-0.08905532709360996,0.04129016535243246,0.03225814697089827,0.08033059876853692,-0.09660655433760744,-0.13298749987263228,0.10781351639053491,0.0869632711482171,0.00637234079026138,0.04898701826387816,0.0603317347350422,0.05416637575680968,0.12773205027823895,0.08744508685664663,-0.1357940673643499,0.02785881123408532,-0.09984881822561789,-0.12870232928872224,0.1672002621200785,0.020849820913748495,-0.007140853089481354,0.025156064527505725,-0.005958324607559864,0.13630026831471115,-0.027768099897782686,-0.036869034313781746,0.08553184682760204,0.12419125093384671,-0.26974047316634503,-0.06232957911589609,-0.04068530114098466,-0.10421600686938169,0.03592543140090654,0.0923247477880733,0.045232078229397926,-0.27891120229987554,0.02822000380415037,0.025404430645773374,-0.1281766286303952,0.1529026978864697,-0.12630667638239418,0.04979211297887089,-0.028860678983743723,-0.12401638723823169,0.027638909585071928,-0.13918936824611491,-0.06436579071169464,-0.1410354571806047,-0.1577080608052833,0.0701831189200494,-0.14610973245417558,0.12792154133401157,0.04478029266406565,-0.1038074884308555,0.05733323703587254,0.18591410364488312,-0.07101065049847162,0.09224187787752543,0.12498808033502042,-0.10685155042925476,0.04151716030621504,0.143715035675474,0.03712886921061156],[-0.05811573691741655,-0.06849856598546156,-0.24372195116923714,-0.23348366007496246,0.13102281195793297,0.005079166438989783,0.0012864285757693042,-0.02303460214742504,0.41446261454711836,0.21398022444899698,-0.05282613973654355,-0.3774645489706769,-0.24321283196440543,-0.018973916273916768,-0.22991601862111277,-0.1291687218804972,-0.03028394172737353,-0.1332731724909269,-0.14971721364669627,0.025187791800431587,-0.22799736393793224,0.26838664592580586,-0.08498536278479495,-0.07067171735396367,-0.3402864801056148,-0.39439061584966173,-0.09012494097116751,-0.24127361159673993,0.1584598515735904,-0.31656313035897904,0.022374710826184935,0.38184160151241353,0.21347819249788638,0.29729683586249833,0.09002064602165975,-0.25870590598519067,-0.29779799620863745,-0.11863424260798935,-0.06492594416171883,-0.18581148887197996,0.00018512218979420078,-0.23886604972530162,0.2153725700512288,0.0027624570230851404,-0.21996967981188753,0.07176660306695563,-0.19541119334490187,0.2603408821808054,0.23734109233813583,-0.23299156713439936,0.19651041204636338,-0.08092114889930692,0.31789042842578663,-0.28459490817789607,-0.08089936129394336,0.12815600735795685,0.028585493790310442,-0.04436749080591467,0.09730040116153024,-0.030435835373854133,-0.06052902130685777,0.14944208620883498,-0.17229452264637177,-0.07730524051677722,0.0013029216913649736,-0.05792413401560746,-0.23281867758522196,-0.12427017279556407,0.01963195126111094,0.050074889149823956,-0.15666159562118062,0.012062534440822777,-0.06390329249205541,0.27592508184090436,0.0414885754230547,-0.2108564544652265,-0.08998343050961136,0.1203720068898612,0.08886466339877566,0.1486201945804263,0.13799023314975528,-0.2454115575479208,-0.21123203292882742,-0.25044941998305853,0.21031442690852142,0.3074917387938847,-0.11963114388094588,-0.11243781430715309,0.07732435998282994,-0.26016806167662804,-0.2967317900800319,-0.18480236014910775,-0.07189065933388178,-0.07649621223151672,0.09188776281379481,0.4708932879532272,0.11549349956533464,0.31706335113384043,0.3998704267480062,-0.10542855270317399,-0.21185569730601647,-0.06590181012841606,-0.30032912778066084,-0.20894849866769663,0.16335267501053116,-0.09014237489936329,0.2746297293841497,-0.020140049833383494,-0.04230709233728198,0.170692308719981,0.4714224524318955,0.2266604086114571,0.20609951007186994,0.11148120314286268,0.11281214645770557,-0.11692442380998404,-0.42396969334625395,0.0004943781099879932,-0.21281503904255872,0.05165266150387259,0.03579275153404986,0.2764127017744376,-0.12078530936100726,-0.28220031562796677,-0.18365132523302066,-0.1504474700553838,-0.18724961937925363,-0.14834537186470442],[0.02139484397011354,-0.059576055214561136,-0.12766043772191069,-0.1271839969096477,-0.12001348633748611,-0.086885051885007,-0.04729576746911704,-0.26603533063255924,-0.046360126302749174,0.05627299686747713,0.07903839305095187,-0.1715637089344155,-0.17158685724794281,-0.13353942514047568,0.08712146989401079,0.13652182862219034,-0.1516641720096669,0.025393063813960285,0.12354390344294157,-0.041733347758157804,-0.045179607417420456,0.040281370925380075,-0.0074497114461577665,-0.15739511474494447,-0.13386559129647993,-0.1967296598806421,0.0051239928812178825,-0.054981231410571874,-0.04456549477565937,-0.16023697289584712,-0.08198378504164534,0.17807754815280116,0.042485421172842666,-0.020399949490190302,-0.10595270932911502,-0.008319753644931168,-0.20538753948898633,0.02818074728670102,-0.1344444894397212,-0.12588862981568633,0.010681618729098457,-0.0208620775353396,0.1771808367127811,0.1557552410829903,-0.0883456656903506,-0.12398198360238424,-0.0714277367430257,-0.0024594671496267523,-0.10866856384219868,0.05654005330324546,-0.1124034794730875,0.13445878560129823,-0.13069791190228572,0.06499514880650978,0.032755387632106385,-0.1454904797746202,-0.12673308442306738,0.07055873800258777,0.07880888595414215,0.10771491673580781,0.045615688455141155,0.14428821378295933,0.11647437017559656,0.07474554288976988,-0.14981063713454268,-0.03149752859104329,-0.04093331072655008,-0.16645557026319796,-0.15948737201484453,-0.0695527213372136,0.0321666935073868,0.15443014057847362,-0.19576317365738313,0.0785457980262179,-0.08760410612861072,-0.17405301600521844,-0.00955399927920527,-0.11670960099358153,0.15738261673912438,0.08867438353538207,-0.03482699863352329,-0.036679823998503544,-0.08834747149597505,-0.17789525398069575,0.01770221041877245,-0.12844584223534358,-0.14312205513451623,0.018997540191755986,-0.0033148030609990073,-0.0031319334049974413,-0.030535939076615774,-0.09798018797894549,-0.15167166284565334,0.05412448132301434,-0.1937361892655934,-0.022586499681094822,0.08124021690432189,0.03527737066732964,0.09713225594411379,-0.10443531312521426,-0.19075130659311823,0.09742076285431236,-0.16697455537673775,-0.05134983722338536,0.14933703150972627,0.020990818566234644,-0.1305116144904902,-0.09151928658335955,0.044525982145823484,0.12590618460526007,-0.07394685127180996,0.12344689086506828,0.07955570953366907,-0.09791032877527293,0.13974751386539186,0.12096665861844633,0.15318649329489753,0.02580402588841189,-0.05898678207443571,0.052145994727297584,0.04006875572733877,-0.059888147769919665,-0.005046084157392722,-0.2603666167851892,-0.07432376120519178,-0.149395950324999,-0.08438850987274407,-0.009201154908552337],[0.05994469604531645,-0.08736605781982254,0.10227019986208599,-0.08382066733879287,0.045266474209383456,0.22565323948487712,-0.037272570046838704,0.22361194925925534,-0.07478812883098362,-0.13020062856392337,-0.02283561882848969,0.15918080377474536,-0.18422339696016204,0.12009048478060302,-0.08229171843364058,-0.11113665985529196,0.14246335168773774,-0.05583880206176524,0.10687025623150237,0.22114218687184836,0.24127780031383148,-0.24525650045434128,-0.130614865315856,0.08486317023656054,-0.021065919653748145,0.06217795391062313,-0.03881317872669377,0.1006313688282047,0.16223472422289062,-0.17601379477285517,-0.16734165194854506,0.09437071977298755,-0.17877910129412997,0.1635628322622903,-0.10247309114745867,0.008236264370189554,0.07551528802293467,0.002374727686371709,-0.03125046680987345,-0.026200482100604376,0.15346694829445512,0.06379943029018868,0.030891607426012744,0.08073897640599513,-0.10388020660020192,-0.024881532799838173,0.2235093049031033,-0.06909850617399733,-0.013579480149219732,-0.24114740839507956,-0.11075538331383937,0.3367365124290627,0.1939660436245147,0.2539397462816749,-0.06263582926309466,0.08059795400294233,-0.08175097048452502,0.1426301574913787,-0.01900639556307298,0.00570529494318559,-0.09390569738172858,-0.14745091615162842,-0.16431117225552677,0.05103014809217334,-0.2062627853135613,-0.1581058654458482,0.12597197097405383,-0.15123804922258824,-0.18182398418168338,-0.0008346241635392712,-0.213135968494879,-0.018141359402886907,0.15097536505408224,0.00814736659840551,0.13837380163014962,0.33090155357080586,0.10551250495831833,-0.10937348706018038,-0.2877482806473877,0.1373001731785262,-0.09695610635173069,-0.2350733120560371,-0.006434620646667902,-0.19620930333989317,0.03563722327216577,-0.18338494677006847,0.17964765180450576,-0.04359657125392896,-0.26433386676848775,-0.11092304573184639,-0.07092754382859093,-0.23755730652178395,0.10106755098088757,-0.08299350628425813,-0.18153445264672377,0.20732530445985026,0.06027584761340571,0.054409499110941444,-0.06958718678877682,-0.13087502268760348,-0.05341485499511878,-0.15288752933541933,0.21910095855705983,0.01220637340910352,-0.052091348651336244,0.0802688754798237,0.018180498048204444,0.09056941834061735,-0.22233940921273457,-0.12457010568163894,-0.04306203095161816,-0.03257152691617753,-0.3048528278593981,0.17730655901741332,0.05963020629073199,0.2292596389941339,-0.1362067232494976,0.1556315527230726,0.23205576260141628,-0.012446541597353242,-0.00319013158022573,0.18473257256448633,-0.1964092386599798,0.28373195228612585,-0.09551901401081163,-0.2576885368514007,0.10048289670318633,0.15080186813268615],[0.0299230583397773,-0.10319960409740678,-0.11923441359769038,0.13383299774511462,-0.0669684220932754,-0.04972253308457133,-0.1693690538745348,0.08882018478823718,0.10610964528020873,0.06741009297829087,0.05441781413574037,0.30222449423044745,-0.06377972272173647,-0.08777970144973982,0.10057606998364149,0.0002724793621386297,0.05466255214135669,-0.15651085627564165,0.057509797024727936,-0.11979532868010036,-0.22257906585295364,0.06467205615109807,-0.07663935557043705,0.03775094980930369,-0.20583992197855794,0.14639558813069603,0.12534524062305274,0.10818511638243637,-0.009820493255227051,0.0005571674753050724,-0.13979148166328959,-0.1537348370914931,-0.16210372221447014,0.09366242368351424,0.041153209844895705,-0.022142011536238185,0.267606943602865,-0.13342075009045595,-0.08717238674585395,-0.1628522029560784,-0.06559526638929934,-0.016472388172082127,0.18024533568778478,0.057016658615355154,-0.0039962611949924025,-0.06048141509351508,0.022333982751772025,-0.07005957113523774,0.0010244573665419577,-0.07512717548237811,-0.000016343844110522,0.09033921850223207,-0.08903364573610927,-0.1882379738942516,0.08270249463956966,0.08427250722142898,0.10575806862464827,0.22898114558208002,-0.03534122533854517,0.07282754956771396,0.07159757127488271,0.24086698345930138,-0.030591613531723714,-0.1302898650696586,0.05251346009606332,0.12584459150844052,0.009145301036399801,0.09039376239570125,0.1255975722434622,0.13574828176616197,-0.029086227542400516,-0.15947008043007188,-0.1217384862713869,-0.20903708858175568,-0.1637556014727118,-0.004916162585513408,-0.07166777059683489,-0.03470216639627887,-0.10970464552567552,-0.09427085435728455,-0.1265855296452177,0.09095451823988454,-0.004535891566401624,0.25319520766016723,-0.11330003265464571,-0.12791913161845267,-0.025165235411073475,-0.13705530747990788,-0.03953547975492248,-0.2668192955263784,0.00047764391434983536,0.04747409631080269,-0.002794549178756049,-0.2322813253188152,0.19030409828875883,-0.08184861644190564,-0.08397095323628068,0.013109225968694248,-0.09521139222838894,-0.005334640938964354,-0.25074577710385637,0.07215375049872491,-0.12379479952666399,0.17163629759803062,-0.2640829207531922,-0.046629714547935304,-0.21114631858293004,-0.02591480297133252,-0.07583182168008286,-0.23592041891164092,-0.01308654054384239,0.024624598216411688,-0.07046503790766333,-0.1515603364215884,0.014700727185774469,-0.02548577504239454,0.14339208782674953,0.21282840017905558,-0.0010973796202051666,0.15470687520436308,-0.02035613449980394,-0.18415508403910277,-0.08999549316733238,0.19657485408572026,-0.0792472482548374,-0.10664289884209457,-0.2401011861466852,-0.09228971003343447],[0.01949226663531529,-0.09381444429679904,0.0699581500241134,-0.11674400302469419,0.03603433867137461,-0.1107567274996114,-0.1009916933653541,-0.17304035510490012,-0.02619066442021934,0.0005093440783645843,0.240428656003404,-0.0984611570107368,0.12865312440421992,0.0200072686993567,-0.023417906042209027,0.06814138487189929,-0.051171421958047164,-0.08825042908474695,-0.04380638648829696,-0.045871254104774564,0.15210224432880995,0.025697195788922857,0.1200004020854551,-0.13011767781619193,0.04007903946216433,0.06640056444820616,0.04001000602987482,0.020240958529092794,0.0028187563753945466,0.09471677272832593,-0.1340475944010032,-0.2692880194195207,0.02383744580944019,-0.2943935179218399,0.10347100237364269,-0.09503553901538615,-0.10316143792705632,-0.07818881776751291,-0.09017744564321653,0.05075027914310933,-0.14176768112758042,0.21211659133384192,-0.16829587363222867,-0.04552026247021137,-0.11396610895458942,-0.03728846570792083,-0.026288349107516405,-0.17416737766444795,-0.09745715301232377,0.20744613462367278,-0.10119156308452813,0.04775784407305936,0.09446115236384932,0.05345893465955397,0.11261618240713975,-0.08245303474255175,0.10659992487375283,-0.14043962194217252,-0.02506998249218145,0.042028414816391184,-0.18460778103628528,-0.08052499419489506,-0.07307673200672733,-0.039878046354559694,0.0906461266773121,-0.0932630295570075,-0.13115746589409416,-0.1735405638550518,0.029095653212966872,-0.011211442083243168,0.20584999786329528,-0.19689309792066365,0.0027599569421952884,-0.09228094637160916,-0.15018086322772375,-0.1767269872053053,-0.044629487861302455,0.12374991966969336,-0.21015641967941864,0.1337215208031155,-0.13957171106706845,0.016844800146526843,0.08500208102095508,0.1356383214731748,-0.13990792774975747,0.011817125279860256,0.11270128129893572,0.11928159972031209,0.05616150390911975,0.028365338952641615,-0.03883523337521063,-0.19117618266729922,-0.027731250956661888,-0.09523177224571264,0.03586847700432141,-0.14218912272098255,0.0754618921359322,-0.017061035976421324,-0.0658069392604949,0.18008404905631606,0.21826139934189026,0.0602180137849418,-0.004007698533254033,0.03943458401122704,-0.29875498417005425,0.1195031037111809,-0.15165943419050146,0.10399399302223247,0.054815460145517345,-0.18689216129384795,-0.158888757670247,0.06838114608336499,-0.20898996675677786,-0.004695438566392116,-0.031779056022448196,0.05668237051128073,-0.25280130742331597,0.1492480931094484,0.03699478467597471,0.14023429469397442,0.08191724705793024,0.1885110167911677,-0.04807607198647912,0.06367489070542173,-0.11196069551155532,0.13260338491495643,-0.25854659601190433,-0.015156125305416953],[-0.22102213622140277,-0.072801468993909,0.1062187350452597,-0.14921119399557342,0.33525571579415175,-0.26762450587186015,0.16108163273100257,-0.30855288195748237,-0.15840686189304748,-0.027994415846021702,-0.2760006713630076,-0.5356237115350447,-0.12115061371505838,-0.029589380826521048,-0.2937219486775851,-0.13683444384371082,-0.12726508226886457,0.16250791229010095,-0.12913627434153985,-0.08786440078435055,-0.1308485242885408,-0.09017207606115993,-0.12341236006869549,0.13369226896281208,-0.012374723039532324,-0.14112124523429187,-0.09423740629149391,-0.18650348408556727,0.0897044191942917,-0.316107382927531,-0.1689176881863365,-0.14540258798595862,-0.012029616295263109,-0.08827020527376118,-0.1524457418004026,0.047644766167823344,-0.30871880280042985,0.08945982824913014,-0.15356613322168475,-0.22557240403415504,0.012262771325037747,-0.12179616900216968,0.12071150566306672,0.035189470766664954,-0.2592837157940455,-0.06193970486942489,-0.04212007365486684,0.04545592447867067,-0.07445278972870523,-0.19120037918455834,0.22059626039959587,-0.2639994579292764,-0.27325062725532806,-0.04278389884846631,-0.2250343279593592,0.051614838723320705,-0.11125573348869558,-0.14296984211584926,0.11358594392000085,0.17493545886768505,0.03809611618611986,0.06654159360624044,-0.07104131349071666,-0.18364147086719207,-0.12219866851169174,0.016762422366358925,0.03178142255264443,-0.15397725206368695,-0.2868906374618962,0.0340048520490501,-0.27809438445288415,0.21775324475302338,-0.32672789088992427,0.04069592761281948,-0.035822855216760444,-0.1212333423974143,-0.20714495787425877,-0.19582291512205433,-0.2619277352907141,-0.11523130790518617,-0.13054171500359146,-0.34288687537137097,-0.1050075377805401,-0.5280379528344988,0.08190705195190685,-0.11546804388272788,0.028650707297898145,0.18011160754115363,-0.4499417412301601,-0.11401666278603656,0.14766857200148173,-0.09512667555386126,0.22427976090004798,0.3176917292468975,0.039178850795606096,0.22662908092230274,-0.047716297325779686,-0.3122815614533318,0.09264071739987159,0.02696403093431553,-0.248370045354832,-0.08739566462614919,0.03265923190055075,-0.1267930773661749,-0.19364926436300706,0.08019127995973299,0.1471038979755205,0.1307406219569063,-0.08560236434652584,-0.17612372779057853,0.07418965515415986,0.129214107234191,0.15918192742700824,-0.042054400436628565,-0.02250738027572216,0.03784258878048775,0.11363985008517394,-0.18639539814964567,0.08665352734588712,0.346573348021044,-0.11480516479680611,-0.15478587188838308,-0.08605930228694013,-0.1378481264103722,0.1610127682852025,-0.0953526736182896,-0.423655267042651,-0.010305348398716477],[-0.0541037607013333,-0.1319076164634773,-0.014383403505571773,0.048985513252411045,0.11571223220917023,0.05783263892728577,0.04823971632042325,-0.04829166700693136,-0.02717058306515245,-0.03811527582012123,-0.1464503875079957,-0.34730570041327374,-0.13276027683549152,0.2461902663378851,-0.4938788835779061,0.1112987295607853,-0.12252548801768132,0.17240125434897727,-0.022897141940158895,0.06410888900957516,0.19884540975699522,0.019308445626078037,-0.026096745983326203,0.13077411611393136,-0.19806509755534651,-0.06779775511823367,-0.14308391750592594,-0.14907663076979147,-0.11280141157097091,0.13042787311369144,0.07903246033738234,0.06908692643081774,-0.17867296524179088,0.0816550595115436,0.03602874663016045,-0.1142839264650076,-0.18482793078115675,0.02867781911317622,-0.14470364511062156,-0.05141611450201144,-0.3167326768948818,0.11467498669199049,0.23248972818483385,0.027675664900827523,-0.38052159794138773,-0.20558501640106872,0.26379097065564855,0.14934086878451022,0.0701123204540953,-0.07657656342711537,0.12396111007525522,0.0838603228244121,0.030206839692541333,-0.0784168484557899,-0.008696543996617888,-0.004361011753161495,0.10115987320453791,-0.016189972155753428,-0.1041819465987803,-0.0914137759015006,0.05787657323417371,0.08729477533916812,-0.21134534767368762,0.1233233825359647,-0.09773263898802931,-0.17307824151520435,-0.2111791000790528,0.17555832493447768,-0.1388780001515906,-0.021700518612905315,-0.31208297391167733,0.12320591045584506,-0.059604358154064944,0.24485496426337716,-0.11590616328326181,0.04046394417043298,0.029393934695266438,-0.03714768521681137,0.09702688197035514,0.07594511073535935,-0.030452629475343187,-0.1110007842808725,-0.061845489157618984,0.18957482015866176,0.13101249343882443,-0.012355208224382332,0.06465896178119655,-0.04179003773859877,-0.07405604241617268,-0.007134345959004929,0.04985044700450961,-0.24989540132021168,-0.11791035342628825,-0.0027060202313975907,-0.1963340200614275,0.1480931149242999,-0.10305094577050827,-0.24206982230635854,0.002703343891962445,-0.15591477662272407,-0.3066095243698019,-0.04676808297627972,0.17070606422716766,-0.18428575071392214,-0.04687889518961529,-0.14738111449188981,-0.06194486893373324,-0.17056807487989153,0.07664733358595863,-0.057715508892014496,0.16079311643860916,-0.13629935515696387,0.15483486273704908,-0.05732677969899394,-0.24799288151760426,0.09338007322537911,-0.18114091293053772,0.05244255172690175,-0.10353884663713776,-0.03848896958535912,-0.16577547919976637,0.018292224134754134,-0.01243874287000902,0.003864722344707735,0.09148202773320319,-0.27008825543927517,-0.16542411343297508,-0.057958045018069324],[0.01955321757805924,-0.08795802135376608,0.17217983489440034,0.03342651376944137,0.0771272641664736,0.0285085054692364,0.059015890531803866,-0.40310399147342635,-0.1989917962223755,-0.15960570996521278,0.05618098548196358,-0.25541387159276485,-0.04396441801596385,0.09139537035035121,-0.23692290784086686,-0.09980917980243106,0.05624307906725791,-0.08505185335883046,-0.002804445289746568,-0.12119304989828891,0.010487499414149079,-0.19871223281799025,0.014748393707956926,-0.16773198120890798,-0.06090461613759982,-0.15138118008640192,-0.050052634064897475,-0.09009055750916467,0.05677250168923333,-0.14491300642037658,0.14018251597411688,-0.48540587554872117,-0.10231895482965145,0.02774823993088617,-0.033143577188278754,-0.3771737691110054,-0.004057537458116986,-0.015613374550630879,-0.07995168089630456,0.07522054606802142,-0.14917091243898928,0.004623914512631004,0.24096569332912054,-0.11389333602293158,-0.1498531295876777,-0.16532940528824086,-0.03079542851428908,0.2043399007075006,0.09292502467751282,-0.14646357329663817,0.14666362059328425,0.008091532453836156,0.03357254188798291,-0.09965940971490529,0.023685015610569488,0.06280711321898617,0.12232340235832123,-0.11289478658921774,0.014121199395588846,0.05987016602935611,-0.2701544993383684,0.04062071564435105,0.0627328076108045,-0.11670128229282109,-0.1884532257718178,0.003863838548470142,0.0671538623837213,0.08654994741324075,-0.11769638323803684,-0.09114388303508088,-0.042842392247356254,0.20562730771757112,-0.25367717656828925,-0.0924985876023353,0.12912740446382862,0.06589697299187156,0.1252926827196495,-0.03162022468136735,0.018290578141151984,-0.0037524150367128878,0.040384711038590974,-0.025717367858672426,-0.036680697363354206,-0.0668642217160441,0.21307704093754695,-0.012730140073201925,-0.015240263237093902,0.23685250090100102,0.0026712796386881917,-0.23319919972335595,0.06441513203184179,-0.19526849151305065,-0.10351451930222623,-0.16221493320857255,-0.16672236047143388,0.10194907372917268,0.14395357291489863,-0.13221638752815504,0.09425810226706294,0.17141478386846573,-0.10034035807481106,-0.017328169493442475,-0.08455043983005403,0.0016697424063018985,0.015428414522211055,0.010266062431599448,0.0577275286521703,-0.06865437919922815,0.13259089063869609,0.03537588899347788,0.18331268177075247,0.013543980375737159,0.24854624662535077,0.1816803205605272,0.0411208816992101,0.056884028106136346,0.03468512658852351,0.014093183342937275,0.052406125732343864,0.015838962676278236,-0.1783914847137623,0.13944856610976325,-0.10842750805451028,-0.3260990833122102,0.1133611714743619,0.007805843365556608,-0.315624834359882,-0.08408731424647647],[0.057284937858069984,0.054013985248870154,0.18666753463422806,0.06255569127820673,-0.03233159331806961,-0.056177234477735635,-0.14090732550423746,-0.22155742809716442,0.013564917879672062,0.035006645099425596,0.22375239974914576,-0.06247807204446519,0.5257619912665801,-0.05813569236757965,0.4021736209694165,-0.1366499583761482,-0.2897451666617281,-0.11767752643283912,-0.16080641584993663,-0.21373277610226907,-0.3741749083212611,0.16233815458473055,0.04581215531852489,0.1341757172157907,-0.24595962212540656,0.05759069703142476,0.03393893605784542,0.09939643935486316,-0.09167096605673934,0.2210910681777692,0.24147567478099308,-0.10937465711021144,0.00956426100471463,-0.1514787086158304,0.19777870340983986,0.16099391789496237,-0.0348750411864169,-0.18274222492881526,0.11224046864829514,0.41945135209226286,-0.15420729934123822,0.056204192813795094,0.18084206431590974,0.07816977833105318,0.26567062405303293,-0.20951310201800616,-0.4109712186205489,0.11900261162541698,-0.10585272992874432,0.014004545808591284,0.224156931669445,-0.5230552451640545,-0.2773896616898379,-0.49687178981680336,0.19970457960835528,-0.15541541247453516,-0.016265006164734388,0.07629033873627271,0.08667544516909476,-0.10488352591524969,-0.042831849176249596,-0.07177963116165018,0.2519254347933668,0.15840906297181664,-0.015810870096823637,0.0633447484254305,-0.10150134648743375,0.06319211828445602,0.16459646895261215,-0.12787175176173782,0.020257116418041142,0.3483250991826288,-0.14331366376309987,0.03140865076196926,-0.2503141044181173,-0.407509164789827,0.023986365696105603,0.2200260582710134,0.20270292448373056,-0.05221771153690901,0.11391035199987741,0.48148412652203604,0.03816628252923262,-0.07617293634476748,0.1257656841036939,0.2168089446669426,0.037316686073828494,0.4287971303959706,-0.1783090986997809,0.22785782906829524,-0.12961614006935798,0.4873240458844734,0.025720125912056885,0.4016473632553504,0.2193099849375784,-0.3223316373858793,-0.06995987846545984,-0.12989685968599898,0.051222604085284965,-0.040590880277897305,-0.015989067949098396,-0.11076144682958493,-0.0665515878989062,0.24885527317102604,0.17671385899365055,0.062062485907312545,-0.12541365480663616,-0.12527856900222079,0.1537657372761764,0.32270289753699943,-0.41774508240405184,-0.05859206733027881,0.1944586417376993,-0.2681751563146908,0.0677675130326487,-0.34378047018559826,0.25437940230339734,-0.1424661568100734,-0.26440410772888767,-0.10786310410793125,0.1186674039674347,-0.4237762934073038,0.4883082174572889,-0.26174281425812546,0.05807752985049233,0.2166467561071777,-0.31069203185864186,0.02368512457893183],[-0.03659226076345296,-0.16377868017568573,0.07532088761441369,-0.15760460229553622,-0.07430198172244472,0.0200677834551039,0.01601593032069822,0.27495347222307975,0.10704065718799756,-0.030997190586113277,-0.45391431195490833,0.5135075590359659,-0.07122675183691725,0.2260190852784752,-0.15638518571399898,0.158551751723184,-0.16306063973614685,-0.09141780022979899,-0.08535162068301434,-0.024491459886336803,0.11984640714775284,0.022106041723878495,-0.049826074477172216,-0.13535659548350948,-0.15374331871078192,-0.00928610992231218,-0.06294757649913064,-0.13807439014902154,0.14383366179914167,-0.053707121840783405,-0.061843141383834344,0.1519989713438026,0.0025544024645248894,-0.006370105694340592,-0.369578698106167,0.1184585491422507,-0.050993348363554056,-0.12649871883295039,0.12300988262394193,0.01329830603832668,0.09965557843093663,-0.02290513025959383,-0.00432107119441511,-0.013188223881181361,0.11473253784813235,0.18061958239385176,0.27956953843402665,-0.025300821663763563,-0.022004200183923732,0.19561315387962738,0.004840585868110907,0.17927513286347163,-0.06344274454961474,-0.19896436601703935,0.14002876334841521,-0.15258359910413574,0.06590262878180717,0.10527595461309669,0.08978319130270078,-0.10442367540933004,-0.11224128451898882,-0.14336215982933465,0.02423297480081286,0.1812159837700797,-0.0009664953097793848,0.05069897359824502,-0.008664551807713623,-0.0410393455622939,-0.31355301475265357,-0.059718456413910465,-0.25144546116689503,0.003772192366228136,0.18362331073644,0.10540910185701899,-0.02889122371593947,-0.03646190299927879,-0.07506105791094865,-0.06280051728148563,0.2539218007624367,-0.1571358798022786,0.1251401985891163,-0.32964881076812247,0.17985614982546433,0.34532539165866344,0.03478683860275494,-0.22929701480844014,0.15615466552672966,0.1293312527145381,0.18780690900727157,0.144467297842112,-0.19601902719269107,-0.08097555432940255,0.1017312095221395,-0.03404500036750598,-0.10487319814815704,-0.15529306700692777,0.060002492212375684,0.12438451487873335,-0.09101921727154764,0.0684736504492471,-0.45864211379383124,-0.1295482444874996,0.21327124882316126,-0.021615286602221107,0.2368836735285817,0.14041180560353786,0.0983819893494972,-0.09454570366839712,-0.07147122920506377,0.030601855765230345,0.10628045840107388,0.09030190723515298,0.006428832090111214,-0.06871402886887201,-0.058747096003333214,-0.1934592366781098,0.1828848696463204,0.2348296206895067,-0.043760719031460095,-0.22492465929635366,0.1059750624732523,-0.04352645318246109,-0.034864605136242295,0.16441679455535702,-0.11514927307858197,-0.13315044408377763,0.4065827885725516,0.05085381217589848],[0.0671333788685735,-0.000046150252606094466,-0.07422369813226666,-0.07194140388046096,-0.017603638959945614,0.18493602733002984,0.06817616278668653,-0.0582988670668732,-0.07203143913505969,-0.02664391554446598,-0.029387469661804222,0.17970344294033072,-0.2197339100828871,-0.11728097201883383,0.14985464120188846,-0.05181002148676581,-0.12086283352344877,0.07587686881886485,0.03695466924183688,-0.016435384133525528,-0.13251304423532942,-0.08926434367716712,0.018219805474636752,-0.048627247312919626,-0.09391120270810344,0.10735427453286259,0.121508959190554,0.04385324280823732,0.08722876574695532,-0.13665676589619136,0.15790967916865065,-0.1551233437112681,0.17922224568901376,0.20491771474335757,0.07721302426954406,-0.17850838367709193,-0.08587003599356668,-0.19359072626995974,0.1343070378116268,0.020185318822829458,0.025316369259221247,0.12498739637209251,0.2734266448736656,0.12881854756608352,0.010101526816645166,-0.02815331993095193,0.02688974697911992,0.27744003656656385,0.0939948905036748,0.2123560835615918,0.06328984218772939,-0.1271919856209378,0.023915352596617322,-0.028415619752139243,0.10546012317079582,0.037145600647671924,0.19203647114200106,-0.1498766552273696,-0.0053526553360981124,0.0016494378150867105,-0.20805034958276863,0.03637953150910021,-0.018209202741067673,0.12454804777559846,0.052573968601764366,0.1164217030819822,-0.04777428605908333,-0.0701367650955713,-0.12865606125437173,-0.1429213790217989,0.059087341422037,0.0827827837444017,0.14599672638490957,0.07372918907639384,-0.15237420185221645,0.04975461957011234,0.13270349144185412,-0.02119167797559105,0.07873153340353678,-0.08431001330674172,0.09955072554751289,-0.20661769516545542,0.013189514684224317,0.03111473469552467,0.22268081208262197,0.06108950224348546,0.0026071206808517635,0.17436678146864357,0.11679586620741104,0.002647597639405155,0.08623929270603607,0.10129761468237743,0.05312810463434885,0.023104592015395685,-0.0654930121219982,-0.037701695676546305,0.07385340131087477,0.04510462802568457,0.2435282459426038,0.04135439305931922,0.2242454218060358,0.18530953937611636,0.11560097663138673,-0.0742385793845621,0.20578008568132444,-0.05241382300338703,0.0898391799721506,0.14214659268120297,-0.05923641219786587,0.15497600226878364,0.13605987677370132,0.08860667942865051,0.24651356906429683,0.0643865685897125,0.19315841707405576,-0.04860172960857387,0.010125854027110795,-0.12363360349322029,-0.07369769146602041,-0.10796004798893728,0.16112569095029003,-0.021214058471948953,-0.08899394721592675,-0.2587930757008032,0.027927675525240687,0.03575782806936036,-0.13886995160901783,0.004456694345999309],[-0.07079138748773607,0.026015630415947892,-0.09922011928515838,-0.08455888971786019,-0.07789374363834792,0.03803951275846286,-0.07475493424205452,-0.010583816172240766,-0.046690340659792426,-0.031718159046488135,-0.08595747938966225,0.29997857906337116,-0.08906275724413319,-0.07159123285452561,-0.0660595169654228,-0.103946233238606,-0.01646194189344784,0.12153766305352483,0.08442039508623732,0.04415382119552533,0.042716317617393904,-0.20540281996571955,-0.07187444368992373,-0.07524486177937958,-0.1823577320875107,-0.009234650154637425,0.0956052555063524,-0.16565744128370252,-0.2506216807309984,-0.09650694255029457,0.23289837638509317,0.04184682300324905,0.1540895389855012,-0.1845997995439073,-0.03326466733351268,-0.21237339038077402,0.17860972598043295,-0.0943151144856665,-0.11958543280485515,-0.22347783280252487,0.20699326257586456,0.0028660729415720546,0.009948142147880878,0.05050293935600584,0.034190348870420335,0.07047491923143503,-0.2928949181090753,0.010823608691077374,0.08843779341437379,0.06575499734388268,0.12537536016324002,-0.12855974453580687,0.10606757206589354,-0.18178388271757823,0.025273549114232,-0.13744188203017224,0.013635097605277374,0.10543251222202368,0.07522550999739376,0.03644355228702219,-0.061512385783124277,0.10861984261061225,0.06520752569445622,-0.1693404474101983,-0.09394629763838379,0.015784081941995664,0.16959944645642658,0.11405782566658174,-0.11622113288518464,-0.11673204478113378,0.12350047223773289,0.1619294118968323,-0.08958726088911713,-0.1658206374658466,-0.008485538914271338,-0.22230891762936084,0.003464060417992009,0.025673975628909617,0.07275766637994471,-0.06901089344590491,0.07173204135606255,-0.0659934218971019,0.1395060302414452,-0.008142327494535926,-0.020027371405434806,-0.22581449108239512,-0.09213662162147504,0.10380264490138527,-0.19080158832890706,-0.12654962712437723,-0.09367055697491965,-0.17426986553032664,-0.13893178797239553,-0.1815441864580365,-0.14445118905603813,-0.008652403266071121,-0.051786938068448446,-0.09335383209850437,0.1469190618579429,0.2971633564494623,-0.05426539490093266,-0.12881183643985572,0.03538216691070738,0.0649046068026544,-0.043431569878278314,0.1312039374264069,-0.2905522419469674,0.0487781549631738,0.07164082316921874,0.12291477687897566,-0.06923311821934078,0.05895514642617184,0.11971851973721177,-0.00595106079936208,0.19825343078222737,-0.09123726773375276,0.07016539826808586,-0.007884758799263638,0.004189305309398018,0.016236180629634292,0.034792215256352226,0.14565641408783306,0.014810017230973612,0.053430291283533125,-0.23298670013067496,0.06651822029640492,0.054261689313565425,0.16085092549138832],[-0.05096852840444174,-0.147123407773927,-0.010324702464629177,0.17917934533683189,0.10373295494773528,-0.10984770529376561,0.00431958632372921,0.024798867034792085,-0.0124323043924485,0.10353350258421919,0.039133069168066865,0.027366434229067586,-0.06781977836785263,0.07444102669300098,0.16229558923706125,-0.003941372050374226,0.1414192678240988,0.05948336386601851,0.01460161505373925,-0.16403336146394842,0.07022638055992687,-0.2931462431395287,-0.02657064955321354,0.057764317650395115,-0.08839704402107343,0.21510661068856565,0.01007039756431203,0.15762034931920077,-0.23552881646075044,0.07878688299360233,0.15792058744937676,-0.13373180783951003,0.06624989153144502,0.048276347460888,-0.12121447209850604,-0.37064093082635835,-0.13973057616445075,