{"layers":[28,256,256,128,4],"weights":[[[0.18253855156762194,-0.1264824872454423,0.20319623226192884,-0.018296614727401114,-0.09975996863615956,0.06298608504384046,-0.055315886749647825,-0.07104892618533336,-0.24369756728625044,0.11122731990085477,-0.05818042062865814,0.06700078220993852,0.32709117202696963,0.10675401503586666,0.09954196097310954,0.023466082868203453,0.06429572906362072,0.004638970052645287,-0.053020046695398,0.2563389978250423,-0.03392249223742811,-0.1734740695297095,0.053962014408383704,0.06564325552631811,-0.03503112662533916,-0.2197666041405912,-0.03624653838624811,-0.0612569844854622,0.1366221418903493,-0.05564521490344422,-0.05509351282693462,-0.0881820533369048,-0.2656522510597332,-0.09630164018998781,0.13126820183217275,-0.09627118257894882,-0.07835227676498997,-0.07775474084135404,-0.13583196725541288,-0.11673398594642244,0.2069070566965641,-0.052164535074779486,0.05065034923136485,0.028986244207564075,0.08691950790030792,0.02417006571785776,-0.21814491676778267,-0.10206327411435552,0.018519899357410007,0.07507561303155058,0.13081926806533645,0.07079225448682418,-0.2902954905519976,-0.143477135024429,0.005682698610562206,-0.1998339557702094,0.28178995298353465,0.19110073778638983,-0.10229602464159827,-0.023784893315087003,0.31949019561613284,-0.2514182106319977,0.003043387348107314,0.01793555122496145,0.1031973558919758,-0.08320623521225806,-0.123128303219381,0.569234026425548,-0.011111232122385814,0.14092901256105503,0.4474642039092159,-0.016878333476270626,0.042142344562472324,-0.0915103681185153,-0.13449496890926818,0.05064616739316774,-0.12506166615503964,-0.17198281640197682,-0.33901803352619253,-0.08103181497885292,0.27902826297117456,0.016657060181326202,-0.014936436520778178,0.2577124221392413,0.017955105270280398,0.051121752189523806,0.28360822454566265,-0.14154150988631903,0.19597681463457628,0.11508775001202252,0.27361124988208246,0.11864265096901973,0.1560772271592388,0.01826404689660059,0.17260455487942505,0.3241276882728714,0.025794407433633516,-0.11533073890694091,-0.3020134720952543,-0.10009567442452215,0.4064810386938161,0.16749885274330167,-0.12229437900767803,0.0005795484741457368,-0.1018715807335135,0.0759077032162698,0.21222993831302386,0.09566703447851538,-0.3301316377896035,0.03218436660690518,0.1017745746310254,-0.0047989568470386025,0.11625194197674929,0.08624055341145283,-0.13305962642680677,-0.05629259959665872,0.11851544295639378,-0.23338032576877535,-0.07903731590523236,-0.21547235638448745,-0.19103274230009873,-0.05579817833177934,0.04552672364655783,0.17633531560081908,0.11851654177561168,0.26493709344616656,0.12219476893893036,0.34305313143809363,-0.07563291945072385,0.17410728798396757,0.3435646929114516,0.1432507082902476,-0.16913865333711994,0.09055202610668865,0.024289436071135782,-0.12887468964751594,-0.029008261670101385,-0.24703758336704784,-0.10539413012599418,0.14904992624505078,0.14759434167395996,0.01011566844236566,0.08770115844757118,-0.055906435905685295,0.1588129300807643,0.0065046522767530255,-0.036398963995377266,0.136906369843179,-0.021298341811192608,-0.025241266233849882,0.12879265605224738,-0.08095050133480783,-0.38787420518032406,-0.05435897135699297,-0.04830387307347219,0.03899095460913079,-0.0440591050730039,0.184528939036398,0.2049309828468336,0.24599971001499826,-0.18925125505587417,-0.15235523566425557,-0.021210406690239336,0.08511258866358451,0.318741281048423,0.05360620916221304,0.20780001236481632,0.16372764240144522,-0.014031454444851198,0.11389251378135853,0.11663241771844417,0.0850223489325061,-0.017996981512959434,-0.1362902694166365,-0.04742824374054069,0.07416882189732833,-0.15198082463884383,0.054759500839395674,-0.033734751822469565,-0.1404035404970972,-0.09099550808447904,-0.24052545198910033,-0.22707968594451514,0.0414874400131997,0.005542246635118125,0.08858087730843936,0.1652160971525477,-0.04596364892271309,-0.07253824053529771,0.06254303894957287,-0.008078312899309553,-0.11830408685579387,-0.006310644196975784,0.08075849296211866,-0.08321582919059202,-0.08501781939680837,-0.23053120297923446,0.23100670485527022,0.04551543564482887,0.14098511655211404,-0.09183791771643418,-0.011210202881923963,0.07266133936821825,-0.07467478113364655,0.04588205594762073,0.07704046234840718,0.12098968417164012,-0.06059854242053165,0.25539796124640757,0.09119435271069515,0.13915092578013416,-0.04898848292501652,0.2551031667370196,-0.16161597099048866,-0.09274362010955661,-0.29352652174102656,-0.04254006096777124,0.09674394203337705,-0.09207767263923033,0.028166728122118578,0.02869628006029915,-0.019725482382958195,0.10800334720191578,0.07747737981923641,-0.10929739166349553,0.2639687030413564,0.13002872777262853,-0.05491172069987003,-0.08441614390410454,0.40582451112238055,0.07711323134470029,0.005796830031735693,-0.11757415467966638,-0.06710911348667117,-0.09008017104150541,-0.16617945640492954,-0.09600540137737422,0.07827729077870384,-0.03825293876579522,0.12010670614497747,0.06040045849801846,-0.053992300881733526,0.023845552791868577,0.07870884803793674,0.026660845790808848,-0.2039554917734043,-0.027791003506662443,0.07736180576236289,-0.24674615228658697,-0.05756855990712468,0.12425734132721758,0.023766055432352065,0.16381402227760045,0.15109867920383616,-0.1477835920080249,0.07019390191272831],[0.13054881693720138,-0.0335921476674848,-0.03990013578871237,0.15571729558457711,0.11212264771577155,0.09488285426818598,0.11192954778163858,0.12981797458477795,0.0038233692651945105,-0.13642680599936044,-0.07727726288504864,-0.01850824615157301,-0.1388985276121487,0.14993215712853242,0.11967452045412644,0.14084071918708985,0.037235315277544805,-0.10930337983588406,0.04792312482840182,0.15014960172825761,0.076004435218369,-0.00951774749054383,-0.053906699843591054,-0.11868765186648361,-0.11532522470079416,-0.022815500266392647,0.0843892908534362,-0.11733635906159243,-0.058423102938893946,0.07010348960055905,0.08658512557153236,-0.044436063729580345,0.12944500371804712,-0.13862907664853957,0.09735195023897017,0.13019703961605206,0.005327392607624105,-0.11196029761551898,-0.11324699841442638,0.046103141786324256,0.08748767295004463,0.13587195567854934,-0.04260739442290941,0.0019854266139382676,0.04971093766879321,0.006320725552974653,-0.05177904898723738,-0.02994044175979054,0.08792830903827255,-0.04332283776194136,-0.08501507780627085,0.0956213910351913,-0.1007891106692075,-0.09066023041880929,0.017879897642002568,-0.09674632485926675,0.08014194485484566,0.005940917392440219,-0.08704059480215257,0.0767005081129724,-0.030025897959490403,-0.17443807483093793,0.06892911811120574,0.06905640695990402,-0.1353714151980956,0.10069577826815261,-0.15723434300863456,0.06452247917663108,-0.01774914990631282,0.04750875533532308,0.2930046055956506,-0.11108475686555352,-0.032747295632687135,0.15836125152693362,-0.10822445741708353,-0.09691372944252616,0.06810852793514834,-0.18380188522643875,0.10513197089062165,0.10975310326530499,0.12692618109557385,-0.03157913840894544,0.027079758966347223,0.10937084021903062,0.014879291791168377,-0.15904900741804878,0.11139545449420254,0.11347133105044992,-0.14967941591475556,0.09889273950785901,-0.04109947006468744,-0.1009261467782381,-0.07689486197662164,0.1775759076374975,0.0907673833643742,0.02457235352607813,-0.182805915502003,-0.0013848079886080388,-0.16627227245590664,0.03284955023270809,-0.13637541201418393,-0.14499800274829674,-0.21051133718711537,0.09147416705243996,0.0036987821284777,-0.06946002688952191,-0.1060839959476071,-0.10846707077402387,-0.187533598176371,0.10042343005151443,-0.03186636841024664,0.09135042912693164,0.13931824348633465,0.041061832656308576,-0.10567067869394958,-0.14688440068993547,0.04949926151127076,-0.0280381193727277,0.07620669438762591,-0.12857357977893635,-0.14850693700369827,-0.015293133943459757,-0.07408277420689728,-0.15592290506046408,-0.14828927843803724,0.27493216765439227,0.010712416900321306,0.01174888498089879,0.11990939464914649,-0.11446321245170059,0.07819313550913527,-0.0035096312029342536,-0.10235346109178672,-0.19365751993760458,0.09117432071474786,0.028741149202758255,0.14257634137451403,0.14920940641570454,0.12114502573211275,0.05531357015213807,0.06500516956914239,0.10397252909805883,0.01872108091159039,-0.06714387568541713,0.08432819947842597,-0.13714519265079986,0.10841266888102247,-0.12289301666248956,-0.014885130954341413,0.03382964825085401,0.12420871532211893,-0.14530778616289983,0.12442335594893855,-0.09468156145724736,-0.12308446208283966,-0.018279613190063833,0.0400500306887844,0.12004424730541129,0.17258963517033193,-0.06783214164705337,-0.06497396292171659,0.008323512781756841,-0.01750175519215975,0.18322780904591904,-0.020670602604220743,0.14699236956458606,0.09312298995273836,0.03755510285815811,0.06253941037431081,-0.12407520364162375,0.031398620589800696,-0.07056062984146698,0.017638570489412104,-0.13555294062369824,0.038900748563577114,0.0012219441610755125,-0.024708265210648114,-0.05444091074482661,0.044820054877030446,-0.001434075570740924,-0.15197566527452047,0.0000871263127974197,0.12911622478706597,0.03247430406859947,0.21874131742422845,-0.12782727374189656,0.09599328573077157,0.16299178444559784,0.08597378164447465,-0.07447075203832222,0.07865135802039937,0.057052131850644075,0.1692348976042042,-0.12316889952124353,0.09957303796641977,0.10228175213155816,0.01607314508537147,0.01780120027567969,-0.02736251660756599,-0.0008592676025701533,0.10768273332125075,0.23295925847705073,-0.030805647772538008,0.06844613201096082,-0.03923891189380536,0.07860751291129722,0.11530602339166622,-0.00866506931044851,0.08781052975918675,0.07207383342082288,0.25553963741824165,0.054013281960245706,-0.0669114781285597,0.09776750891795935,0.10078662575988957,-0.045329025402912844,-0.12308332227800875,0.0030604682057520705,0.032001806746674584,-0.03139248032574872,-0.09450661005578377,0.10998517144697828,0.030599379209809482,0.02789507845765206,-0.004339156013816993,0.002151766801306598,0.0632210413821363,-0.09149590455951391,-0.03359211978314322,0.25022253141093515,-0.07565755786338464,-0.038430120932523584,0.06096798813688552,0.1698141960791641,0.22828890779777866,0.035870443227342924,-0.11193600677064983,0.0047099153541094105,-0.1525133567238213,0.04039322958856228,-0.14761094994261162,-0.19983262282915984,-0.09003026116296713,-0.056160773868453015,0.03278100677374671,-0.008356292989257965,0.11395006538688565,-0.0839214160664243,0.16714203859610102,0.1630254007965318,-0.05289152089303181,-0.04684482986044664,0.055381981283025856,0.13940296763583565,-0.20453829649355662,-0.0774878772795476],[0.01923353544610559,-0.13447473378084698,0.02208147319722763,-0.14590651955446618,0.12932375683944727,-0.09106832132928928,-0.12158918919068411,0.08770468472762762,0.13260856663506576,0.26710128882270895,0.09031795070973814,-0.038268001914595055,0.18703771144376138,0.02516340792410855,0.061461434882783876,-0.07364712867156153,-0.11141075949477716,-0.01691675066058065,0.14971535019901813,-0.1762834471781972,-0.10616305193553503,0.15330053470060245,0.15420241431065093,-0.004521267086096847,-0.21051404062035806,-0.08455797747077431,0.10079626842094185,0.18457687463169836,-0.11892966161534975,-0.05762761978302128,0.010583801123202598,-0.07196556145713799,-0.16144624758607454,-0.00948270414626517,0.13594434578715772,-0.057239630472575874,0.04509534689979943,0.1980235329962639,-0.016767635796817792,-0.08253311330580977,0.1635475442302091,-0.0239038434350261,-0.17809543671634107,0.14385154933942557,0.03059306964874905,0.09120391690928109,-0.08821667541096785,0.13669002381165757,0.13127178062079164,-0.04770419425828936,0.10161733810424772,-0.06000941898346434,0.043697516934667155,0.06438989153997435,0.10653033997833088,0.036332181708468865,0.17837006315241058,-0.12189878041944152,0.06362972816635377,0.1029423105604894,-0.10134924549998964,-0.0046906484963278655,-0.07375541240631385,-0.05804450199363443,0.08313474429095927,0.0687282358506839,-0.01111338305914394,0.24829909261066965,0.010321150174294125,0.06998770541471268,-0.08511268999856458,0.08858188214163139,-0.017163210372458666,0.10694121882126534,0.16251700501991198,0.09693400842336515,0.009418575644370025,-0.2438802497539592,0.08969937371272456,0.09677211003906343,0.029390714472791356,0.09010441825640095,0.1566561707201612,0.16842154315057833,0.07561932850331228,0.06116773438101444,-0.09958795252803435,-0.11686584485974635,0.10471255042236954,0.06374106202145446,0.012809021083113197,-0.026218159621552196,-0.14509660210616726,-0.12420786130838467,-0.03907620837037331,0.10600508074387405,-0.01743833569460281,0.15981872830092508,0.12819914037053662,0.18117561441006538,-0.09199616904102324,-0.06666647023528198,0.1034639635159539,-0.001653813433861028,-0.06343588430998537,-0.1538534135151873,-0.027689228898333768,0.06409650675238378,-0.1375185577131696,0.12194712342741494,-0.08126827200267966,0.12218609273311389,-0.22588764911491374,-0.09392105645704348,0.23816857425268004,0.08176575811914542,-0.12489017104085505,-0.03918606072620922,0.13684632878588548,0.018334859873872716,-0.1831535622011603,0.0411653499757525,-0.0027633410842222354,0.015658231163250817,-0.045195085647748226,-0.06681672144362193,-0.08953346512612428,0.17737266032660773,-0.16254648200035962,0.18372887477978647,-0.0889916966029423,-0.10972929002313621,-0.08969708855668608,-0.07765739098894923,0.09132112981545393,0.1154469447461769,-0.08287176199663553,-0.09491437385478953,-0.009630564002911233,0.13025926170894167,-0.12359816697466353,-0.013837808450654913,-0.001436638260876786,-0.005586615638193383,0.10179090793605085,-0.17287307689942855,0.08843619560353606,-0.05806934207152472,0.1416005667312352,-0.12673629614528623,-0.1390532454410657,0.1272862579502352,-0.15830300816667806,0.011965909704112942,-0.0707930786294299,0.0755207730810115,-0.11480343370207038,-0.11742826320657908,-0.06430389543741079,-0.20174393895274678,0.11186436225300109,0.01899344262502231,0.17776836461852905,-0.12123549616985374,-0.09522789867133934,-0.11365579111821013,-0.014572981401686912,0.2180389725788468,0.047574012990714426,-0.08398657428400852,0.03536565652005343,0.041149773998283776,0.07380837596271007,-0.006691586613732202,-0.0574671399887227,-0.07711795604560163,0.02371196031851317,-0.01956603205023768,-0.11220149122628267,0.09349819292041833,-0.22029916374959368,-0.09755002685425852,0.06876958723388173,-0.13397015276072088,-0.12951113757597213,-0.0404835011242293,-0.14356692948702449,-0.14191667517508813,0.12784269941613532,-0.11599570877746467,0.06615306681447472,-0.03140283302956707,0.02940648083717913,0.0641352861124969,0.07394029002800322,0.0903497983100656,0.13920364832882207,0.09930676734495848,0.1295463921639301,0.09249209212051772,-0.09138676321643062,0.20462544537520327,0.12127399250709414,-0.05508632764414716,-0.04048774119377534,0.08128949814952732,-0.08365160241355456,-0.06899753510383062,-0.035537908085992914,0.12301394593104724,0.17520101628494925,0.08117747305672957,-0.098783901846809,0.15423977117957632,-0.06746665541040801,-0.2977370115820019,-0.004401230465691702,0.05554698886985757,0.018697174482049047,0.057281303480160514,0.11110724014472143,0.03806940174552978,-0.0869925568795474,0.05515278635914089,0.10739413182702742,0.15464634796236956,0.044866161314216994,0.025863724415325473,-0.001902282484539453,0.11203692174901456,0.13818736896403375,-0.048464372115455207,0.1470324448457517,-0.09483967001458615,0.17987165532270327,-0.022489679878663994,0.07497801699541155,0.038303604613840324,-0.13499544083590986,-0.13141170708711042,0.13628613930408878,0.03793163558588819,-0.1249047847096345,-0.042188189139097755,-0.17516086403790648,-0.015683268621569043,-0.1632798121732852,-0.018296413597058105,-0.010934533101674377,0.008329703786295911,0.16331464524378336,-0.03861128611818737,0.03503056252495121,-0.038118728591034684,-0.10724529850160303,-0.029877989083844092],[-0.07561755530782183,-0.14175590628926912,-0.046037281778555886,0.014139801973991863,0.19642333649001634,-0.1113568542250303,-0.09798209062564367,0.26599607513441786,-0.2608416632090958,0.14900985456775712,0.24928618458616308,0.0885508814887512,-0.13686295962559922,0.002784830287165199,-0.15393899066040445,0.2289524905254513,0.05411211640744031,-0.11309054099769056,0.12429966004956716,-0.03207163322211519,0.09032773253006382,0.109737054322721,0.05693109744630268,0.057426681943933036,0.07780927394570666,-0.009711474248919529,-0.10707133128664353,0.04989844293007921,0.1848736415280186,-0.13273572572970382,-0.06269369860588685,0.008527524624677393,-0.03647007418918075,-0.12012710271417228,0.015123938413627247,-0.11431389751331482,-0.021962301709493204,0.10138787257791283,-0.019427646677083767,-0.06342343146143013,0.0543955694629614,-0.033110635687924724,-0.07766837711544376,-0.055966105655021886,0.023292540843109177,0.10125431324208417,-0.05360459698107739,0.11511480160315407,-0.011354257895525617,-0.03390114040315055,-0.11533191728239651,0.101657842830651,-0.044235884109287193,0.04635422120037672,-0.025925641161810377,0.06317687900492287,0.10767339416277831,-0.061452838671983166,-0.15957656858775826,0.1000965583573068,0.13436011996900227,-0.09626449248828117,0.1085369760222652,0.20402667596762006,0.11613557970002249,0.008626815358421152,-0.04068430098314557,-0.03180625866184512,0.00603852721417808,-0.2791321044811804,-0.16366743476703602,-0.014251872434874973,0.040008827975463866,0.12449584864800876,0.2723320484652072,-0.07917580730584649,-0.029710025703045127,0.03172498545722002,-0.10495290202862102,-0.07563546798482726,-0.19977418640556066,-0.08489864327157132,-0.009011001518825957,0.12427375411151624,0.1061242373314013,-0.06375623707505534,0.020368837200915733,-0.1314159350956246,-0.2179077087666831,-0.011469769569734296,0.09450731687796884,0.08274261211073053,-0.16017566368760033,0.14428091117937059,0.11862908356731257,0.05443552261515804,-0.1763918272948632,-0.0020920520930564346,0.15990546780861012,-0.10908204840430431,-0.25509702307111565,-0.13620332298766435,0.0867794598946418,-0.12796445218018196,0.006956791228703306,0.09474534722025113,-0.10667025871245545,0.10698346637733232,-0.12788345804603057,0.12212784266671034,0.10629530832978852,-0.02622542711448261,0.06223579995657037,-0.017563197553334454,-0.03646423075774384,0.05541872673778784,0.0033955134663713684,-0.07694066739009746,-0.032669545574221734,-0.2648671627315154,0.17832314428859838,0.11912994456314206,0.059148216176808516,-0.19300966163789107,-0.018754323472476832,0.041379498001257724,-0.035500969859404985,0.21662819844649545,-0.10008330741432162,0.2918871840005468,0.11884501230939505,-0.09481817221158158,-0.0284908746114532,0.10768290616157256,-0.19757441492139075,0.0021492620900479802,-0.0698088969105912,-0.10640595702198771,0.09578196656116893,0.1393315089894478,0.12023175933466995,0.22220654486530023,-0.08140539824474781,0.013094986939998979,-0.09719421700966682,0.01622804398358651,0.02686682239129757,-0.08032637862276638,0.16427134320132755,0.1964531130895649,-0.031065103915560194,-0.11926197264992555,-0.11994582869254235,-0.050363991575431054,0.1313192531146844,0.048608722669690616,-0.028112611225729268,-0.1282200190675809,0.06806289230743036,-0.18506963187277273,0.029489182562717164,-0.16475374936395532,0.012127826034578402,0.044046840598509135,-0.031981781430900885,-0.015590301419037104,0.054818723238564314,-0.05159193048617267,-0.1045325590097327,0.03875367808506191,-0.03954898638920242,0.13306993594711722,-0.11229145857653271,-0.1296356270534578,0.1865591926473997,-0.05760263680390807,-0.14575999190888017,0.08295003641697675,0.03450819087275954,0.006865744819300705,-0.18697134823134104,-0.05685627729619257,0.03427291249712776,0.0013161766200601938,0.04976426296282895,0.14338842465458565,0.0960699156599598,0.05883022622819448,-0.08830105076839463,-0.08497707309312219,0.06300784585855461,-0.20939979824374547,-0.05935623122568491,-0.08215354460220248,-0.13538111732780056,-0.02196206234022539,0.18480196357489756,0.12285084855646641,0.02594921486730879,-0.12449240879293064,-0.039911003161346666,0.004430717052790619,-0.11484753469912572,0.06208514563915743,0.07522183732289756,-0.05010443476347876,0.06169956168745572,-0.04732180945139886,0.05527236225222301,-0.016272742931338118,0.23726366195715431,-0.09700539192313502,-0.051673132452068435,0.019313246001347976,-0.0751514599836681,-0.07517116340871854,-0.03828912516435484,-0.039452144330271256,0.12136938003677757,0.004448840208887883,0.006763937928886621,0.08591123021768378,-0.09388495446342049,0.06030229143431364,-0.0071903460083025715,0.007887863813948872,-0.23307992575928926,-0.0463068949727384,-0.16159318649381083,0.0355517675969419,-0.16171541048133029,0.14888584627717086,0.09413947256824902,-0.04606878532891229,-0.12705414518281632,0.061852178159983784,-0.012164756841467762,0.20413764453713734,-0.06675424919888923,-0.010697454630088424,0.16738932980457996,-0.1404400394229244,-0.08793371168880672,0.0815312552751127,0.10179382803648132,-0.05272359015969737,-0.10502846847087119,-0.04924811471483787,0.09873462341413988,0.08253912213014779,0.050935069116234584,0.05529201891087342,-0.18492869251764435,-0.20325616609036895,0.08658282918216102,-0.14465535627122633],[0.05491078996446751,0.06536543099073401,0.010787448018588417,-0.0023627846770469373,0.049785013622015005,-0.042248149469742,-0.09423880275355198,0.03436966266405431,-0.05565883979253547,0.024821691482158275,-0.03658452751160064,0.1025678534294248,0.19708206914076498,-0.11461915055742422,-0.0532878264191209,0.0022187154670207346,0.07848835299473107,-0.11550034605282429,0.11253004526925652,-0.18078761269547053,0.035491380880249536,-0.05606562178248527,-0.04847187056023677,-0.024016660328265507,0.03342111641503621,-0.24649306976247934,0.05349006326911782,0.0042243640880991655,-0.15806116461411926,0.10740434042379318,0.04879964335068813,0.01692595875288687,0.016235414447653237,-0.06214664059988933,0.21985312839494323,-0.032474154141163974,-0.12566355860969206,0.009705494860037222,0.05404696366786514,0.06955357442930492,-0.022254395513341414,0.014139118474561058,0.16024360361835552,-0.09991166631631361,-0.05901385376176383,-0.11999358915878024,-0.11375790999393369,-0.1176640150610662,-0.0650498322403353,0.2644100588404352,0.11315277933398872,0.11452382647478777,0.18944779506514714,0.06525309637334623,0.011654323700488592,-0.10326773108196138,-0.024331584251968633,0.08127214511022335,-0.036561089090347214,-0.08229532632522824,-0.0882635400043709,-0.10886382806566837,-0.01773867630291934,-0.027480431736314374,-0.05842926967274878,-0.13372330107148944,0.008535811370913565,0.022911961683714,-0.12813810376243662,-0.03430321847305874,-0.0918638745943963,-0.07789201779323368,0.04553123679354283,-0.12658757483412303,0.011032747513423905,0.06760298562579889,0.06098434650544943,0.015221819125590176,-0.0043329809380956725,-0.031024702333084776,-0.18661409357195835,-0.13168646307408463,0.0691367601447404,0.10725686432434177,0.0968180926726801,-0.039118728107710936,-0.05202658944247221,0.06016114872868293,0.06553019378125696,0.011167374281577418,0.11468806071462623,-0.1991849235524838,0.034256980940214156,0.10267892441179978,-0.1497371943064823,0.2034954788485448,0.2526165536407431,0.11839408700968115,-0.15855355530135137,-0.07095653667641097,0.0403575640317824,-0.15826340579372314,-0.10889181915856243,0.10470077943713837,-0.16101548969417265,0.05386127080418434,0.025128546840210902,-0.14218781648414966,0.03309174186982881,0.043504808972511966,-0.10071558403747055,-0.04552211634119071,-0.19120295774044097,-0.14331051334386763,-0.12468938123046135,0.028065109147973333,0.10742930402489569,-0.03350483731440676,-0.10243071709183127,0.2915221926177562,-0.22498789475189565,0.014274567415781515,-0.13508400262258752,-0.10286328745045634,-0.11756445891417831,0.05468219303193393,0.009999100439887044,-0.05065606381626646,0.16573756041541693,-0.029970282787478583,-0.0412488804805572,-0.07697420614122716,0.08256338527370002,0.016511610643621194,0.12353708295635245,0.05021358561978523,0.0053931741536328804,0.011061716935695002,0.05992264205868006,0.26156176054782293,-0.028644934683431607,0.03128518630858776,-0.09796238784315674,0.10275411709920437,-0.08609627864862457,0.09387281435188465,0.038697541522474115,0.038456156279867454,-0.04085376086111786,-0.25744677241805813,-0.10730153718356263,0.04202625409650116,-0.02384520289270089,-0.023096891074705583,0.0879299464773375,-0.15387832046083244,-0.14852510830626536,0.10420472088022387,0.24810724231949777,0.037862930780992,-0.04292220905219406,-0.12647571052581005,0.09374658525078926,0.12133245538304475,-0.17468708637591812,0.036308259692016995,-0.07884825891376514,-0.12020942924225178,-0.11295159133024751,-0.01750025115829783,-0.10259339819110548,0.06805089807597525,0.1694128091839619,0.06053847873930786,-0.3915786613853215,0.07027885444188421,0.20363524236458289,0.21187791925149607,-0.1191165951449001,0.1241714676357101,-0.0838002628904983,0.0709835060989781,0.09593381337026312,-0.03361244652970908,0.031153132359429316,0.0434507236408556,0.03229457124521577,-0.0446283069881115,-0.10762040974901607,0.0589011764877676,0.04143474059305705,0.14794341896357024,0.1676607971730877,0.08221671596656087,0.10732081483525152,0.0836401860377606,0.21361813900040738,0.2089634116617133,-0.04667140068499354,0.06165354197643347,0.08918211351541946,0.06376690861094184,0.1643375900864186,-0.1504440539793739,0.06443766437519452,-0.04877019623174618,0.17093233087103268,0.1311580214300466,0.024584276297765245,-0.13027931755926472,-0.2338067387127169,-0.0470381700361297,-0.24410453989669137,-0.0481572221682403,0.1247229713137969,0.10461432654380615,0.09317084556860573,0.18053499121752065,-0.09722596242489144,0.14562908860644397,-0.0666284331231119,0.06704094587897434,-0.10148256196814237,-0.0695076288416215,0.08359567386693795,-0.030672836323683964,0.17697058225797122,-0.09677960595422365,0.11356192201846281,0.1005930993114765,0.12293193133240587,-0.11527739478015217,-0.09888017402544119,-0.012290743814613267,0.2189208360839209,0.13843340433072568,-0.08781008276335933,0.06378652585830571,0.04972695884544795,0.08308575075446714,-0.5270726160962708,-0.05486400423634596,0.07377348223122199,-0.14339823140515282,-0.0568603139662764,0.03486034187372883,-0.0027576046553872023,0.03486918479866802,-0.088892662080302,0.1420351695605317,-0.15472533779813633,0.13597801983261443,-0.06097280009489375,0.025150153475612662,0.20523877185073172,-0.10784750595983103],[-0.033922550304318504,-0.009107012787868721,0.11445294733753014,-0.07859302280435501,-0.1263914513007683,0.07213662027302319,-0.05539781471948152,0.04476810819607923,0.3323569414586807,0.1795340861520759,0.1344685862794344,0.025420963672694873,0.16698758214139856,0.0885676247268954,-0.05588667866738156,-0.022402558627843242,-0.23352176445768175,0.1739829655902663,0.0059392933199720575,0.161268553846577,0.025050861180973355,-0.011237906804956656,0.1694776833165704,-0.0800295044144599,0.07614364370809594,-0.05674055957088592,0.10301504974473029,0.13971775685472343,0.07495506049050103,0.03274584148977395,-0.10058896280008604,-0.13170507156597314,0.0766075523897461,0.14294060111009046,-0.09879727804868234,-0.09171165984730498,-0.11723072311377335,0.059081630620724655,-0.06402159024798139,0.012025934822899402,0.07283638259277016,0.046650457745462164,0.002508673508173814,-0.13319745269297872,-0.09896672651228312,0.05196533777386241,0.1928859992649137,-0.0017484521651877313,-0.00979851706117923,-0.03945222492652344,-0.04946902649804355,-0.0007490237578537292,-0.04037409282703737,-0.009295416135285154,-0.08054842135637334,-0.08535626193481265,-0.03918342079525412,0.13861364001420126,0.01030270355617656,-0.14419125225657006,0.23209591150513662,0.17139524278641502,0.10282995171648601,-0.03887287422437352,0.1339051422482701,0.07208179696972347,-0.21837504065141727,0.10054756804308487,-0.04396216766466346,-0.0988048593203612,0.118480309128622,-0.08478939492448245,-0.22565024496348413,-0.1089910031568326,-0.06152995439879183,0.1190313634024162,0.07041555860865922,-0.1942777730849911,-0.13600663181903364,0.17172647252676154,0.2530414899763397,0.03332943062270271,-0.09003151001829739,-0.06416013927997576,-0.1493817305947524,-0.11070253176939776,0.15796252353406798,-0.0938061326733888,-0.03125155967567703,-0.08415839809110724,-0.12079169968591016,0.014145424830527132,0.15548982938002454,0.017861383515339637,-0.1251783795520672,-0.2268815416278357,0.06607694617840662,0.06432760828731128,0.11694183290470143,-0.024765453988267603,0.05349800074385315,0.1597883172460148,0.16894436088915724,-0.04332524207712835,0.06538885828088442,0.11086749919530188,0.047997434217897164,0.08547881248342526,0.17836554052795525,0.14122507491148426,0.016135344459195882,-0.036801870308248774,0.13734402302133078,0.04397744162165991,0.26874912557567354,0.13759152368591782,-0.21408568263097813,-0.17692974327388272,-0.06956478322372378,-0.013210485484364154,0.24608909314687885,0.024725569801009366,0.006735568315248099,-0.10468503199040782,0.18097548234489214,0.0060007173013101565,-0.07289877350397723,0.08695333248727051,0.019982469132066395,0.05653208525535178,0.10049272020893811,0.0033704961499688483,0.09022120971242181,0.1387338739804978,0.1625093260694774,0.08741326403514477,0.002258832583623938,-0.24015150232692373,0.09355122100651816,-0.005998442916366427,0.0892656066892892,-0.1227220178157183,-0.13837591056742385,-0.106373801702404,0.006104065894758306,-0.061341791917670266,-0.1925867347042767,-0.0484247498567705,-0.05529510899010673,0.05303804887040492,-0.1607363128033347,-0.06167789355767529,-0.18867930073512848,-0.10339382363855228,0.05631395277039824,0.0030289606391912275,-0.16160600202103054,0.004893236450950821,-0.36548026311195964,0.16608002901127955,0.17261615796343513,-0.006618269931641183,-0.11946452884326825,0.10484806425972923,0.0774438818366828,0.13513581752747547,0.14192564894986964,0.08448749181877022,-0.018311860355796808,-0.19855360195413937,0.18408593430594739,-0.15883133387215173,-0.06654247029423938,-0.13161802526194222,-0.10014349332133235,0.04038904018675029,0.0971723696990387,-0.13418372436999712,0.0656741232840271,0.09793655263017306,-0.1783809589778706,0.11774394565299989,0.16388885777702564,0.10968844571173098,-0.10213893553336698,0.10674597915164642,-0.09270887735601371,-0.12979184180825115,-0.08591552998432547,0.0622472692309915,0.05743808011530365,0.06215115290286989,-0.08461571879570597,-0.01220898555863262,-0.12446601586279839,0.1548057611208586,0.07804691497157085,0.02900302573178324,0.05832163894625486,0.03870781927770273,-0.15402310043545556,-0.18105096491862924,0.07854551027815189,0.09738385347843773,0.0320356636865534,-0.21035348677561136,0.002606227690491093,-0.0361833241844425,0.11779442817861024,-0.06945020640164294,-0.06087800647972572,0.1673309579632823,0.12675488918746097,-0.11970092473157437,-0.08078337909515117,-0.20359661462624457,-0.2012622965965564,0.04750443563216348,-0.12028504683022952,-0.09166511659799223,-0.017584269487754274,-0.032839464893215736,0.02989075783343143,-0.09867512173064728,0.13578587993674757,-0.001342511184592026,0.020934386322635612,0.004652974795883871,-0.02511841472120226,-0.04695362419790859,0.07778258142930833,-0.06426389191423258,-0.09112279530388076,-0.16140406962624093,0.1735654183227173,0.010072914726867995,0.08212418592531846,-0.025064353728336354,0.10475212268491965,0.056198286274223595,-0.13609139542107004,0.21349211566383994,0.03691453721409212,0.13416369672549194,-0.06223795874836256,-0.07647517549781967,0.14320801668531885,-0.05599268420283025,-0.13585279464531014,-0.19991972910742872,0.10255528426275262,0.07537182876450318,0.03129247357209829,0.07048398116741754,0.14485928452838698,-0.09086625240470898],[-0.026015234256714023,-0.13610724112701436,0.07396874191073652,0.2302153157569206,0.06559211834407139,-0.1394603714404607,-0.06952437552862752,0.007859452056151928,-0.005776467526993704,-0.15394120701931455,0.13456025212893377,-0.09562353126920582,0.06889578625021163,0.17442623951676683,-0.04765766499081056,-0.11813926156442664,-0.1748387527640464,0.19105337086741098,-0.03665407680925709,0.08611095678528534,-0.17912024747708638,-0.29930350437058734,0.1994250909469607,-0.07779837615717992,0.09240044533912263,-0.05757304622663181,-0.10483484672685348,-0.14095589390823404,0.042944229422174386,-0.1603619291692465,-0.0401193531946207,-0.12578603257345616,-0.13216016844861153,0.28088809431278217,-0.06762179140340913,-0.046888861344189035,-0.07704520223350075,-0.016247260986427065,-0.0415037971897077,-0.020251083768565343,-0.16250332514297955,-0.07502092552736869,0.11262727780228537,-0.12111360517147621,-0.09997557031375501,-0.11503037131075337,-0.08101318055264628,0.1315075587294083,-0.05017641704430906,-0.18958873159902112,-0.011361836753335327,-0.0055915529607273055,0.08346647819722063,0.11840288341041175,-0.0011873309048484096,-0.04605715001652987,0.18139146425850805,0.07745848280714691,0.11700772400994966,-0.06996158709936359,0.00788302329039402,0.0011626056445615774,-0.03896982966033922,0.017031157955306426,0.15637361375687947,0.1447373953838381,0.1691329819887281,0.01935768806176665,-0.1452528247721496,-0.12792467772834049,0.15071531790215867,-0.09853635066884844,0.0574876041532454,0.09096372813983519,-0.2196303650319064,-0.1176631957114878,-0.040619708375934926,0.1142118952874333,0.1110455817386757,-0.08805677363434572,0.03144730702479743,-0.024214827497465893,-0.04207033964295494,-0.23351670468514635,0.09264304345382635,0.10222761813415683,-0.11282995392956167,-0.14103741221151087,-0.04988445803651479,0.12075068762636369,-0.07268799644885603,0.0539326005934649,0.005904430799158963,0.12569360419031375,-0.0878866914723973,0.11873707780218214,0.03859435996617075,0.09849879186016273,0.026118359498813044,-0.0789295998197902,0.043943854389767834,0.033541071213122095,-0.0728585567936982,-0.11482844081298949,0.12968045116382115,0.02875663029703506,0.08762447258773694,0.059791048824294195,0.1238933207467184,-0.13355646304878957,0.24119162624609794,-0.022686043724231934,-0.03450605006301535,0.09578287249339394,0.016332569841523738,-0.1092872073257084,0.003838905814665463,0.21955059963233187,-0.13207796665121144,0.012942013658606847,0.10608829273880566,-0.13454728473522282,-0.03549558409125034,0.08028858023514782,0.099205856607347,-0.11637061545321833,-0.017014342718391293,-0.27016981744128504,0.10604998788941922,-0.17948085162207614,-0.07196386852668296,-0.16581494615997666,-0.20250285464213102,0.04911740634287593,-0.03545421640976674,-0.03224997643272211,-0.08626845018264961,0.026571942485189536,0.020711126385661194,-0.009131428924140487,-0.09324150875882341,0.11286935112874136,0.03544349222896674,0.04476628305893932,-0.03800014198313224,-0.23571348857464638,0.07872142915077762,0.06127101392387665,0.03127702948285337,0.06577811645852855,0.15723997758206681,-0.0264390927504444,-0.10166465462061765,0.1855475190478888,-0.10704390775870593,0.20391671310504564,0.21406034687259173,0.12261968874087761,0.053199518170874684,-0.1312122415218739,-0.14974063906054152,0.029233601202819495,-0.03496455363659501,-0.08996463442261232,0.06738952771136968,-0.0424189890021577,-0.015716848953260417,-0.15902961770365204,0.07354181211477938,0.11023546212759767,0.1261158879223749,-0.07736966652817989,-0.07805680277063841,-0.10401985322821915,0.15858455224011248,0.10278765453089454,-0.1265492247672182,0.08930663943593672,-0.10803523619235392,0.17574651445065817,0.15828297621098522,0.16304118329330738,-0.07087945910119982,-0.0812645144316558,0.048263284192445036,-0.0728795495062089,-0.023576801993964846,-0.006364373033677303,0.04483964266790037,0.10881297746716935,-0.032030918483270755,0.027095134470935194,0.07526430847775756,0.12269784629187917,-0.015364441565169053,0.12678032892576524,-0.09117819070254703,-0.013060967540812115,-0.09312823754132638,-0.12333280043753608,0.05728583503053547,-0.08615307132069844,-0.10563264948223655,0.1419200432094534,0.06870092212544425,-0.18638266270845433,0.0358048886815485,0.038658787113900556,-0.31618848029252145,-0.13779617463858473,-0.10466310752016332,-0.08698589437111125,-0.08997979156042957,0.0046987984366570566,0.0016529572807830657,0.07590355854351875,0.11613339995198466,-0.21820886804595435,-0.1692594881035282,-0.0905872403762757,-0.06613202217042025,0.07462432211366084,0.08109687654919581,-0.10832632448912449,0.09482032896552894,0.05501646320472706,0.015950435816181288,-0.05890171802703048,-0.05902140268703886,0.019720296361148894,-0.11384775559920284,-0.011272783724456196,0.14711836513560245,0.1148217951516238,-0.11111879342190051,-0.18052162155819068,-0.02683028830004485,0.049338702749590096,0.01974752649775056,0.06159372709760001,0.08380777170497171,0.06837826698476134,-0.00858707673830601,-0.104309240883332,0.16559640394642763,0.23962215869881276,-0.17750167338254058,0.11279441932503616,0.23294685900170922,0.07811958539231952,0.025156268098563837,-0.027520688354674184,0.0725090988355379,0.0448741436375871,0.08467438540390582,0.12123189925594074],[-0.0875720502117066,-0.10609495586488152,0.044858213284648396,0.09085280869689126,-0.06618354975750225,0.07967497047032457,-0.0330121522905162,0.08191858006451598,-0.2046569352004116,0.11543219976707877,0.10967828859015151,-0.07123576679584129,-0.09280239099327481,0.03849424010025043,0.09197971549934475,0.05984041965200239,0.06954320990813537,-0.10220821490894812,0.10983367142718527,-0.048134995224236976,0.11953658542190593,0.08209851847982441,0.08472660234870288,0.10601399093496099,-0.13426863916965598,0.02509213100193053,-0.13151043520919684,-0.14704787358802643,-0.14029307129417515,0.1379119265642419,0.09750271482048016,-0.07640733000026236,0.06858086142595098,0.03401170846321869,0.10234495261228184,0.0014067087473617125,0.047159816655506004,-0.026268597765701427,-0.10745495796469583,-0.07021818515600857,0.16240756821737026,-0.002876787976581123,-0.1577567324880624,-0.1161044887089236,-0.0601920452179291,-0.07666597494397741,-0.14054107541646324,0.009432903471991924,-0.11488463635671718,-0.04315820902580895,-0.11687066947259757,0.09516690026551418,0.07641702434398225,-0.038379627347002454,-0.0951204324604789,0.05996693676610071,0.039760622054160415,0.11917305584063362,-0.11033346803803093,-0.03887290166852892,0.076267045100133,0.10068416415013302,-0.0674962395692606,0.14571691477252696,-0.12822672020402368,0.007292190426297109,-0.04368067572665405,-0.05581232123720287,0.1026450656882762,-0.09347379036700314,-0.03150492578471693,0.12619671199694416,-0.054125719449254435,-0.11142003520726051,0.03847989067844118,-0.12710383689751764,0.07785968024070934,0.1905713154866872,-0.11267366085846542,-0.09374801844242393,-0.05196869116184442,0.10086955416481905,0.03859337814226879,-0.06360355653521783,-0.035650470650857316,0.026963708558674623,0.057462818316806566,-0.06112807996800612,-0.18551543969426068,-0.07543682394327324,-0.1234391485498336,-0.04395320989080679,0.12388031451671651,-0.1250954170937602,0.20174572142008776,-0.10523604291270648,0.0542280586613653,0.008887004984188483,-0.12283953906903444,-0.09159259042073903,-0.07447096553555793,-0.07804642603970723,-0.07373738076701726,-0.027296690325847774,-0.2029338534827114,-0.001849096608126572,0.09198569831854685,-0.030335761161091504,0.07400247883173193,-0.06342630065002933,0.12775366763072935,0.11751509264112621,-0.0835433989937302,0.168670826005049,0.03911812604586518,0.22229951392546873,-0.06285713919263874,-0.2446525472414445,-0.10879851665088809,0.06328012778615466,-0.10510268575286733,-0.027480012686138776,0.1906757388052541,0.15881255245482911,-0.09522023722525151,-0.20122574698841786,0.11011871863645446,-0.004077480281376647,0.14493090393297997,0.10912892095314089,-0.07025716325086975,-0.03339527592025321,-0.08908018314942293,0.17926329402736585,0.008089480204398774,-0.0863833443837424,-0.115353124544466,-0.16196993968857407,-0.019114363193259484,-0.043897673667957444,0.030199169298713534,0.01904501617085988,0.005058393555724827,0.005023978457211834,-0.10742260799027142,-0.010399958752519915,-0.05329563689252311,-0.09857307784718496,0.10793752989468199,-0.07991524684614332,0.0300871784056688,0.10180028213870446,-0.11959227779445683,0.09059923293967248,-0.03069817840255021,-0.17054693822692538,0.025998813532722348,0.07128839352622326,-0.19304236507174152,0.08716827448877192,-0.11184627638680271,0.060522844278985216,-0.0717095630693592,0.0028387382706560097,-0.12755389210624835,-0.061996088614287084,-0.15605895376281434,0.04685496764512182,-0.12130487748692598,0.08269546733833281,-0.028677000440488033,0.09421884855892537,-0.0984452567213713,0.11579976231516127,0.14424079857758518,-0.14097869069425134,0.1655984684367721,0.02016083760286717,0.11461599031621925,0.06329603393607888,0.04883018737129113,0.020789727987809682,-0.1024736476180549,0.0985459397615865,0.06894334939309935,-0.12503032517153598,0.0733121523560975,-0.04496173203181682,-0.053243465370691564,-0.1373426335682978,-0.1275113165251057,-0.13383610622229836,-0.13077523280502285,-0.09133928034071885,-0.10931527567682946,0.04962032607866868,0.062208843605717934,0.05826451881756086,0.09391912777626227,-0.023817370822955996,-0.13351448983068429,-0.200804553442827,-0.16188201488983336,-0.0341425989647222,-0.05448809656392088,0.05984036849574486,0.08565722088166183,-0.07722203576592963,0.12463842232944362,-0.0872079069527174,0.04935873045794417,-0.1743825388084108,0.11585976935937671,0.15163477536907274,0.07698103738637815,-0.11229111984094323,-0.12323557136511387,0.036970933839527355,-0.08586398123364092,0.11400162842672455,0.0025746217248820333,0.12469111394920797,-0.14303616339461614,-0.0831824690394153,-0.017627218825542797,0.006467199517361537,0.035414375728717876,-0.06932001256972369,-0.09029701303269708,-0.06917124271018735,0.04254741955222443,0.026406342518151216,-0.06159812715836734,0.0008480525756314085,0.09802149062902682,0.15253062165757456,-0.08328891469616838,-0.06746874112896863,-0.11024043486565142,0.10271559914008413,-0.04553373810140797,0.09249865732537046,0.09455607464061873,0.12199722626229359,0.0016563201083984725,-0.10997577486736032,-0.04370315149861167,0.07267170952141846,0.03794620274958112,-0.13340646821370958,-0.02652999201301844,0.03866426201263136,0.03954501222034834,-0.16068424465278758,0.020413258041492632,-0.06023541144675768],[0.13601430086065602,-0.001748396298878859,-0.09742217719964777,-0.13575869782873032,-0.2131836860540817,0.10317971379616506,-0.06486711878819854,-0.11196876654769962,0.052851603880355764,-0.12376810594749633,-0.18939168817688917,0.05697130363907774,0.054449238755965315,-0.13941415859712653,0.07066915084357113,0.02021581873206206,0.001548210044445514,0.11495251244521179,-0.03878697547833783,-0.07217309953708238,-0.011848230846961008,-0.20388377613448116,0.04659665372023681,-0.0988137114265999,-0.08549708057223243,-0.1533325056328089,-0.023446712236379244,0.03784273221977863,0.13432217644158165,-0.012581557571697736,-0.05693985042948326,-0.08762079385821853,0.10387022624797873,-0.0345655604438653,-0.12156843819633806,-0.1245279777032321,0.020409348231302426,0.10828459904890857,-0.21292152916965995,0.022916419370855014,-0.14676408096145538,0.10946418028291467,-0.18410928148562267,0.13323583146960863,-0.14183055891371524,-0.0762439815246385,0.07784726444708442,0.13845030099585737,-0.03786013158435904,0.24249669097980023,0.15356808740170055,0.011203404039223467,0.16347003849889438,-0.0797125351269407,-0.07632748761229144,0.004773168994417121,0.14378906728839846,0.03213448283931287,0.06772892289777767,0.06332128166191056,0.195200504037418,0.006552571631210343,-0.021561811949581594,0.006881718661713923,0.0976063455732943,0.13198644457526304,0.12340311009879769,-0.019378062101835507,0.11808747208116854,-0.09258880155858143,0.3194783667913118,-0.08263410154900078,-0.0864617999641504,0.0445603180024684,-0.006644421770992668,0.13271448551991277,-0.07637577458258175,0.030460906838213224,-0.09895107147716857,-0.0068748888622650476,0.008601771273019672,0.07045452456565932,-0.11064528792659495,0.09364314606379479,-0.0861066633449444,0.05154546760008662,-0.18446965746021277,-0.08565787161454588,0.032212994551797006,-0.05827022523958121,-0.09339420876053542,-0.1468498173806753,0.05021995366010067,-0.07799445945824766,-0.09630280443080047,-0.05833639195279183,0.08480663491891123,0.08286135811328384,-0.07419047389735917,-0.031332322906176144,0.17108106221091107,-0.038978420512121595,0.16982563250977095,-0.0927212489922571,-0.059228651127112945,-0.07550454595959642,-0.12219432253794055,-0.07996463573828645,0.020957744888122826,-0.04604857054109299,-0.010369782235117397,0.1133270712216581,-0.012020992848716472,-0.1671462800764578,-0.02239688825163548,-0.12775619332227697,-0.13161125065803309,0.16803523557679947,-0.06668893278627026,-0.10509795735290957,0.059794618479342525,0.1344334512489149,0.11577718023173515,-0.022017194783731715,0.10576327953203961,0.14711231461284682,0.02519717631601986,-0.11033506154589083,-0.1879213503084428,0.10775261204962802,0.09761063777513115,-0.15471211375629698,0.15719810947682528,-0.021148436795530925,0.012632576076102114,0.11367116515218292,-0.07880188267647019,0.16051156890833884,0.03237402771960333,0.16709333263911916,-0.13066578263854625,0.09329485493737226,0.023453415769338595,0.09838668955203227,0.10397304712580956,-0.03874808465671528,0.028273516760959544,0.09282121992140765,-0.11912316566811827,-0.12016463390288991,0.20919284374352773,0.051395323661981934,0.13570095466708293,-0.11574718479634546,0.05437435204583668,-0.176743062682062,-0.2332442498405721,-0.05436147214011905,-0.0894408144162553,-0.07118413909369592,-0.19575672516658157,-0.10710720943181852,-0.037999042547699514,0.09238680994667099,0.06895445769110428,0.1296147935775211,0.0929350155030156,0.05134619227305193,-0.12903397074465164,-0.038167411714767584,-0.10128752890074924,0.010215055687372148,-0.1739861485657251,0.040179850679864355,-0.3356822658347783,0.050575728830264566,0.008450606988505662,0.08499519676908965,-0.05992868413675419,0.130766698305894,0.05476788884132319,-0.13795269933510512,-0.057682491669374295,-0.1031717284896017,-0.05224127468673732,-0.11732652545040335,-0.04567940289330871,0.09847354054393144,0.018852182073027315,-0.1138955390492169,-0.12074675087926759,0.07895383180407341,0.1396808133405385,0.05519489103487921,0.10599737556171118,0.01396774073480914,-0.24505288121649182,0.19613725238903143,0.08234038285238199,0.04722489866237507,0.10058941800204634,0.04505138300610499,-0.056715300711755526,0.14927252374297378,-0.0050787714733157505,0.05590144594573386,-0.19704345389142494,-0.08746484018101558,-0.2634414362627562,0.0342343911033609,-0.10304528913464485,0.055197117349260715,-0.1522780139121304,-0.06478266710722856,-0.09555628637608954,0.2270780505448225,0.006456373209193717,0.0803713665293516,0.061765332993462166,0.0032491220493750445,-0.0931173885960739,-0.12104019221549263,-0.10933963962017107,-0.10779350092686871,-0.1381501704771429,0.004539928098708553,0.03859058293294453,-0.08732218729701147,0.054229524967922785,0.09067902327870875,-0.08046240306237637,-0.05428284229411258,0.0385046074828619,0.1044722053422561,0.027015167194020594,-0.10263542694762624,-0.1116606113473875,0.11346193594622137,-0.05452386522588791,0.028838351346386605,-0.21539811361751524,-0.006236856602258455,0.1392331730733974,0.15034454929444865,-0.16216455391978382,0.08027841886255117,0.026443520208442248,0.10287336123245765,0.13101724133965437,0.07237743822623936,0.06421448736200464,0.06485146927150684,-0.10434758872071655,0.09936388684397574,-0.1304253044768456,0.12645205043970453],[-0.04564007979820928,0.053771425730506896,0.16196940021746647,0.06037335419543581,0.05105519931141952,-0.06363682024330393,0.009919015765316822,0.06677554198849867,0.1697377970312541,-0.20900312171846894,0.19347911012456154,0.1215422541258974,0.08261216835781642,0.06298021671567648,0.07334282394321084,-0.14629666012368384,0.31054342283188685,0.10407048845728255,-0.0278487156033397,0.1843557282917147,-0.09205561964584942,0.059352509172748306,0.11953771385549655,0.015670158694804898,0.20309383734126984,-0.1834524106027808,0.18943859019050147,0.08590959445098686,0.16024450320105094,0.09682710041301125,-0.1347407618956922,-0.13200656133313604,0.028401810146725513,0.09711643388725713,0.2189148146474009,-0.021929024300721685,0.12837673259442825,0.14939676798087875,0.1291219743958678,0.1187017283147722,0.037966908375427245,0.10543330550633524,-0.060888835431054875,-0.06189294295846222,-0.02934194065570825,-0.08705928461514957,-0.16067529240102724,0.033268781790272976,-0.028034853931022275,-0.12754839747987132,0.09224361833043679,-0.034865344316833594,0.04311057343674986,0.0351043539574292,0.012193922689295275,-0.05709681768201793,0.059247678754675515,0.04280010130176022,-0.04672889886064432,0.14846269811034682,-0.13927096550202536,-0.09167093921952695,0.07672012514503342,0.27057986355327324,0.054698111653788406,-0.13361587214277193,0.0750976650425437,0.2024950977950273,-0.05533415751358642,-0.008485933850034093,0.08027697371206367,-0.08636244520184999,0.2800589087016102,-0.021949930824667323,-0.06564549854064794,0.11853328421161784,-0.08809187279822255,-0.3279104605573832,-0.2046999261621726,-0.17595614982670008,-0.17292689753567142,-0.023363203966559956,-0.024537490818091243,0.2031704265901391,0.08691465962529482,-0.25153680218984625,0.18324757948147724,-0.13957056114924832,0.1319116012490039,-0.09227447990324054,-0.004746112228895424,0.14238184011620117,-0.007996891179198185,0.04276366054849178,-0.0590206320417853,0.1295422278897725,-0.15704229223593644,-0.02612732993185461,-0.1172024542185157,-0.06483442871651147,0.09636042680685113,0.06997534862064547,-0.19099470686645129,0.1030442808331524,0.1215677957929285,0.08448471923990712,0.08432080720149585,0.08468477948761038,0.025192036940790884,0.017466528485960607,-0.010468032520924039,0.05960505906197537,-0.007459889374870834,0.14446400146983132,0.019115509477658596,0.04198830247303108,-0.12535272308804427,-0.015661244789602898,0.011219988821359819,-0.18681157859842012,0.09881870817207115,0.0007527171939952526,-0.12586803966787818,0.00975176524415368,0.14660915015221188,0.011140473574777173,0.045904280941050285,0.00623086783543184,-0.008204006176593802,-0.1320627804346038,0.08050678046947293,-0.13250794863089296,0.06997319722581993,-0.12707550845080998,-0.14854366607422667,-0.048004751139659435,0.10937873187540378,-0.11454238030679918,0.025541762702928638,0.06876938126050725,0.0139783841995293,-0.13779316410755166,-0.12573961794189537,0.07192492750009018,0.039593845831353364,-0.0019590674860197974,0.009949218311727072,-0.09164299045057121,0.027121920880344246,-0.10318274271713881,-0.15045016237671277,0.019886648670094306,-0.1569684945153049,0.17114556345457588,-0.04262439725846871,0.050125423602071346,0.054845205714182846,0.06433437041691246,0.2926026119307446,0.07933267922016736,0.19556105716701738,-0.12806245058583146,0.12327797996699617,0.053050093592011814,0.09939362858991399,-0.059142694764404535,-0.07665949586455385,0.11291113507434765,0.05803138699807625,0.1538794159408043,-0.0607078974484347,-0.13364902193566214,0.04145873948451065,-0.022827417647516484,-0.10428095685773855,0.09979868232797352,-0.12140831599765325,0.22862134386576785,0.0061081634684697385,-0.20092269411200545,0.13044628900514735,0.04665700332751384,-0.004894624993083166,-0.14926722963639535,-0.08440724356027549,-0.030768157169835,0.08338092030713694,-0.18211332732137403,0.04026230251401819,-0.06401889652358292,-0.14333755905434922,0.0806891543594145,0.04787576426533436,-0.01185534565182595,0.11882129858819755,-0.04488394995145162,-0.0008677383677222279,0.04707425585370726,-0.03609516097142793,-0.10540063972489931,-0.05372889409686364,0.11764329981877097,0.03252667424496149,0.09038459812640148,-0.13635652965887582,-0.051504100434820774,0.10833883843976672,-0.10493833513224843,-0.05965526669050058,0.12762769877293545,-0.20292306724744985,-0.008941807392870788,0.09083650554604729,0.0467115805930038,-0.10404269725183919,-0.3212011794964459,0.08516604735121906,-0.09737337206918995,0.06668156889183391,0.14565346075824134,-0.05650759711044331,0.0012527947052679976,-0.08819157265623837,0.061383790375942174,-0.10993151248341505,0.2613522099327445,0.07189171758616739,0.004042229110427005,0.12509970618308608,-0.0017019725110806944,0.1591664198637583,0.0505331310222503,-0.22138735796127065,0.23040751065016912,0.20801783557272646,0.11461847378329845,-0.11274039521586249,-0.13011593995978057,0.0347816077396544,0.027998455525103178,-0.1771035457882453,-0.03879480110571999,0.017732873516321877,-0.1019560663381,0.04629381599874602,-0.08793015445154441,-0.16689001235406284,0.13283240144775202,0.049109710010662874,0.18552421495257296,-0.11082928607616647,-0.07512322185898555,0.10872461607383348,-0.06167359772278293,0.057152601612430465,-0.1333111880287216],[-0.06216655738200633,-0.00854023461351486,-0.2208378080194257,0.07295139302423595,-0.02649248682114871,-0.11234819878681444,0.020139791891271224,-0.10265003398374535,0.09653179121300272,0.074792923639143,0.2007411904801857,0.0525054472189067,0.03877429787888378,0.15380115011431625,0.015289794125241979,-0.09274798410987166,0.08270641109107804,-0.10340088771972017,0.04517533856309027,-0.07435023919965428,0.10474013369959134,-0.03415725000653213,-0.15661040791030303,0.03000243777464989,-0.0901372850234857,-0.07387602978752998,0.05475820818489654,0.14486660596381482,-0.15646541619283064,-0.1476848417763038,0.0310883805153735,-0.1481942014005403,-0.1330446144845476,-0.10522760368519143,-0.08093866800746373,0.09605333833970363,0.033411630853395415,0.017844255445331497,0.028441297867967768,0.026811588737081,-0.04245369556568115,0.06489608684264545,0.15297762706535042,-0.06629457769878791,-0.18427947616248966,0.09641485875564568,-0.05697473745349075,-0.10670905662249705,-0.11902459682698449,-0.21062347724899838,0.07964972572843493,0.11846123168653809,0.10726254440088855,-0.1145319827776837,-0.1443495381035964,-0.183396830397732,-0.14888442035045685,0.015553179203423181,0.06966875243594568,0.11685127615011504,-0.0003356181599543554,-0.07767438061454526,0.022433928030375635,-0.08620887165832108,-0.04718108964301887,-0.013471474135819724,-0.12988059546629568,0.02257004533725983,-0.029445995348249956,-0.002628955314240671,-0.09444635460419933,0.09931042259401214,0.08263548781887889,0.023957020765871122,-0.13126723266937526,-0.049847030016093516,0.09154015396640905,0.003963351784600999,-0.14124038093142394,0.17812826078830102,-0.21300668237730214,0.0684677555850797,-0.0367746321479652,-0.13370074083143213,0.05704164246677944,0.12954111500671434,-0.0633965535085274,-0.10683909533899569,0.14575064492027764,0.1996145451776835,0.14265788069601082,0.041298254575084486,0.027378197465199747,-0.19308145110839461,-0.20177295309385582,0.1328551271980896,0.1384206193742229,-0.10143052457254316,0.16414470676592327,0.03383467476699932,0.07248064758365919,-0.19409141435516175,-0.012276909897889904,-0.11347777564914448,0.11704099130272137,0.03853596723701219,-0.24441193947086415,-0.08096501612005545,-0.10962570480071233,-0.04122980274729565,0.11355941001489593,0.03574655604715885,0.17358567706993278,-0.04025455056387843,0.12368905280860558,-0.055564639952122706,0.039364068363322874,-0.007368755462287535,0.10418973785439743,-0.09278487527093161,0.03952652965705378,-0.13229217755141626,-0.01218827934159873,0.19131485002544457,-0.0527657302264308,0.008758327116195003,0.02302605149936556,0.08051917438324273,-0.07270719466272808,0.12505276484568953,0.007633054509736475,-0.04304396417201276,-0.13348976379015054,-0.1287580109670834,0.02721599543552353,0.10145412870408138,0.10286661834777569,0.07315314326347008,0.1344988135572627,0.07744529368860893,0.0720916067478398,-0.02451826549009952,0.004715005034376527,0.1276386962504228,0.10465110287875447,-0.24938907617589692,-0.15461268862721414,0.16038248371197966,0.11771753247283037,-0.04900727320169764,-0.19048180633273298,0.12410768560298749,0.02307617511142937,-0.23093683360825473,-0.09017624822969263,0.21663186065810075,-0.042003553119808225,-0.09209914856314966,0.15556428139123804,0.06380071086927046,-0.18348000446642873,-0.01781411684994322,0.2569284395437105,-0.13661752027267868,-0.24783497021684509,0.0019311145201700776,0.005037210504401471,0.10329528711030109,0.11645064624888316,-0.12105481908205361,-0.03643581755323763,0.1444778878270121,-0.10240659800896486,0.07529919527628874,0.22814547157161916,0.09216300920494429,-0.07964624337594092,-0.06202076030871748,-0.03728229095518216,-0.03385184370382321,-0.11179882352669768,0.056794223714320725,0.16956490718838024,-0.04192073693269573,0.0773721611579803,0.14268753497321454,-0.09485832466619251,0.0544652159781417,-0.10776086525858831,0.05054718506224206,-0.1335963897776708,-0.03465255966192866,-0.10767558391703279,0.1015398846732764,0.13265708369352802,0.08945084075484788,-0.00096855209100833,0.12690283126965934,-0.03916921558877414,-0.10931670941202457,-0.1009925745060315,0.1856708205873249,0.07445665447528586,0.1522703649421083,0.13785570296254385,-0.09724137147297066,-0.021604192957769407,0.14371713126039323,0.19240613859529682,0.03756887752606203,-0.018321866672646826,0.023939533871895055,-0.06768813492180141,-0.11515647611875912,0.03639474961584227,0.052430138416644505,-0.08682966818560868,0.10272300519327067,0.09793292803974256,-0.04635099853350261,-0.14223436617641744,-0.1266412421733909,0.10812982193221324,-0.1433236002417351,0.12301311028750775,-0.23201643105938552,-0.11796047731915561,-0.05478959546025318,-0.10026805189275421,0.08411392577967709,-0.0800293376228497,-0.1450874691917629,0.03875930372592135,-0.02145813662625649,-0.07952001958193186,-0.14673239075546843,0.10215350800474025,-0.05380578258043863,0.07429216380347586,0.004696321775202564,-0.03445969917765657,-0.11359500609116255,0.02236170790605047,0.0016352252510630954,0.1668485346730714,0.14064736772940198,0.2503723815333144,0.1151896474434692,-0.06083719671685009,-0.06289852567455179,0.039327064276037924,-0.10687474956962592,0.034590993378987696,0.08322564432068033,-0.10793102547831311,0.04726456441759494],[-0.03711740339223592,-0.13413137737773817,-0.08616273325025237,0.07803472445881544,-0.001959599363217417,-0.07123403233912433,0.07556234876858263,-0.09196970973293733,0.12881450037054287,0.04744192200127931,-0.1768876211244563,-0.14624152500002685,-0.09415848638691526,0.07614309412807943,0.08379840497692505,0.019216979969165108,0.02684934010309948,-0.08214189705513411,0.1206880446906213,0.0479361482294055,-0.11651496333918225,-0.16405682880497446,-0.14265180564890215,-0.07883952241896683,-0.03354082003230445,0.043188059310487505,-0.05041891763017208,-0.13096800906588033,0.002421050397877209,0.09522999740239853,0.13878482353224686,0.025986502602608,0.20496281111639256,-0.052212522466195684,0.04214371346104917,-0.01929026438211904,0.016342881179532906,-0.04411079791812474,-0.029129209601031904,0.06397494385738321,-0.08745143410108693,-0.13215355583913213,0.042433230178118335,0.09193120766211231,0.06353631994551504,-0.1444876160495882,0.2354271060401811,-0.03416738845936244,-0.044249543140569454,0.06997707766254266,-0.03361718896307504,-0.0837319209580872,-0.026806745148995857,-0.09887016582732613,0.10116958747985197,-0.0680819527244229,-0.050239236845691794,0.11235298308013926,-0.14544026275794292,0.011853740537332314,-0.06264995308337586,-0.02758900677318742,0.055189164689575874,-0.018346732174769592,-0.1350725811364749,0.07129870544929857,-0.1395238601031103,-0.03219605681643438,0.050273613444295505,-0.12249183875334896,-0.06661128078276463,-0.11697846209366271,0.13143916702360164,-0.15086664727109994,0.06519045467913437,0.03062126411216995,-0.006838491408716725,-0.10957046397718909,0.006120433821576285,-0.14669083971785474,-0.2160610553791687,-0.03935040551498001,0.02034550845647612,-0.26173408026426453,-0.232131028144981,0.008952271370951063,-0.0010529409120535627,0.138011836087627,-0.09135982849697842,0.07971728839900472,0.030155377766274066,0.2092714265906021,-0.12202247880243747,-0.06690661260060334,0.12296970798818545,-0.10733657034504113,0.08190536739951078,0.13449448680320616,0.09907775025554703,-0.04234865852237413,0.06847375968776125,0.044309554668863965,0.12968861617269617,0.141484522824286,-0.14935358303253318,0.07369177717019491,0.0823635505871802,0.021626857904581406,-0.06477452590055452,0.13399307887107645,0.13828471777699222,0.11928639803645931,-0.21769104388257815,-0.07043475982499581,0.14922030066510455,0.06911956817749416,-0.14751146045059976,0.1395041442965051,0.023584738463338514,0.24026545405869626,0.14696162863252496,-0.1497741882714236,0.002877761834722064,-0.14862976627008892,-0.001049808860053202,0.07484962995585522,-0.07940417414736939,-0.09136914202401808,0.08311158367520831,0.012811911208283138,-0.16123717878570196,-0.10480930329166344,0.08162517578016185,-0.10915553780848777,-0.05644670791685877,0.1238846684389807,0.06839530124317228,0.17714110713199718,0.24645703152772658,0.1520290699937191,-0.010003078131621662,-0.12820288302221083,-0.0052373497996661385,-0.1379892182369111,0.012420037784688481,-0.26236240441981257,-0.0049108101813361,-0.0716000487777082,-0.25313147068100206,-0.12823457526762125,-0.1208244310652779,0.020651099984826515,0.1624606635246266,-0.14760626541876884,0.11841872220420767,0.22820534757084518,0.1673715933241191,-0.12261465641833158,-0.0023282866059756227,-0.14555324902146743,0.20461468060419247,-0.13914181434040648,-0.08124581855584691,0.055207339007392935,0.16309722151799624,-0.08497234645540501,-0.02647605837016199,-0.09081377906482596,-0.0018156918147968996,-0.06497519499764287,-0.0074808856315340694,-0.1043574173721811,0.09711744230246357,-0.05602650762891833,0.21768132041760346,0.14331211905549265,0.1418908080207755,-0.1534339111460926,0.0889322292412434,-0.026596326737840084,-0.05540279234046396,0.07711092868398062,0.13649321168255857,-0.06997164771976783,0.06794853420008486,-0.14074607455078797,-0.15903428185028937,0.02766519758121067,-0.07221485634978661,0.07898893575508187,-0.04347047076606185,-0.1356118504304679,-0.18382723097866216,-0.007991100794237444,0.12568416768269286,-0.13870588443852322,-0.07571137650614132,-0.05761512333960242,0.12579561526078628,-0.028787399199890488,-0.01538727954284092,-0.10939805990053787,0.08103714824970751,-0.1248299054415647,0.11969933821582539,-0.08704488891128379,-0.15364455320961254,-0.11324227267404582,-0.12402049356848738,0.11462893944694648,-0.04967590134875634,0.2082215718611561,-0.22674833991420543,-0.10970871978637065,-0.12544087598227696,-0.1260436493644334,-0.0431917393923941,-0.005550614335863475,0.0794501587964283,-0.07471921666220097,0.0954763472506427,-0.05139871901566071,-0.08100166153243081,0.09580621545458295,-0.02058403596625371,-0.1355979767600158,-0.09064538624916868,-0.11191469520592019,0.13694786516305946,-0.08424785730313511,-0.0968058586720458,-0.12637044279768087,0.03125493625838959,-0.04227871410013177,-0.056304971287738544,-0.243438473636118,0.09580187213480221,0.0005617349510418719,-0.10136521834750295,0.01960987390663728,0.008899493065977718,0.19108785022281582,0.05551361269829009,0.016596915798716787,-0.0430650892190335,-0.2539361062517728,-0.1586403825481572,0.0979610927310389,0.11237850791615052,-0.19093894266599795,-0.03415009202544669,0.093784281568003,-0.26832140838547747,-0.17907164034466724,0.012912150428134987,0.08562596043520082],[-0.13145455933126704,-0.037066268591060436,0.06650081529392678,0.11318218333906073,-0.1591586370644465,0.01814785868678551,0.1311823740505771,-0.1878906324392087,0.07772256032666264,-0.025740575590506364,0.10178549822664469,-0.15051561943875671,-0.23119921586643097,0.002502280199850477,0.22145294516911906,0.01111599475369765,-0.1364485631019022,0.005541771097133898,0.00949719421693029,-0.02385982606580513,-0.05211242700065179,0.013101954339699871,-0.06405454341546442,-0.06123768866917809,0.005312330807696253,0.13177458621886096,0.08552329847009493,-0.11789355875303156,0.021575277587373924,0.20692491908925434,0.005624892675510703,-0.02148585732997115,0.26535901165103126,0.04683777056572521,-0.11016406732337411,0.13050899708327804,-0.042232359465107144,-0.13264007721397772,0.03966569368121316,-0.0644564322462878,-0.08522655426366389,0.018182628292066412,-0.06355572881927667,-0.010223021006853116,0.07541756077288078,0.14201516157312966,0.017868231155515814,0.06483495880793393,-0.055206573009643815,-0.0072148909090872645,-0.11307657776625044,0.06900649001594011,0.030326238544380744,-0.1363955483914379,-0.013802523364229916,0.07196286497187641,-0.0907222370564507,0.20018670604763708,0.007780325427614149,-0.06998772601824749,-0.15519861948088332,0.1362952891970348,0.06508790541276081,-0.16996102376995847,-0.04233343209726376,0.034717569858006184,-0.08295398144701795,-0.1395971452732091,-0.08954931742986426,-0.08342898202202012,0.04797588322581286,0.11828733683517283,-0.04026604235632946,0.058707522173382536,-0.05352745655775148,0.00296191247743956,0.0667832335644749,-0.12490064693574623,0.04128578646189449,-0.11094615820433275,0.26414395039842326,0.115521798116448,-0.039147550972852094,-0.07054247318056926,-0.08864782993889843,-0.024881058628239337,0.21362564925407904,-0.13488482304240587,0.07877160686944984,0.12405926166236704,-0.05693121302332701,-0.18899285525021264,-0.06813979316421377,-0.12406370031871752,-0.08959184724568207,-0.2440890429825463,-0.07704851787023655,-0.11865780626781382,0.16008497991184176,0.016597043632033456,0.13930533971191544,0.1262849622473846,-0.10436026392777517,-0.0799955151871689,-0.0174847121427608,0.1255900847127377,-0.13364695893440753,0.092489667123457,0.060206684205929714,0.11382179374619997,-0.043374512529538854,0.14598710407969354,0.3548519399402688,0.024934917394447722,0.010699531818664223,0.09826946459558718,0.15735420684840098,0.12084892398369934,0.10714406752814586,0.19309887744595397,0.0665108066962401,-0.07958527315558461,0.09198459006858317,-0.05018734657244965,0.18951740417148727,0.0404201311882116,-0.05791097145369073,0.11448129027573625,-0.08095804096703424,-0.1406958157672244,0.11894727524170866,-0.010946629719708632,-0.0441961025156388,-0.05813598156916896,-0.0007674795238482602,-0.12870156450405562,0.12517819513589243,-0.08397705809028684,0.16499679944998555,-0.22684673412323195,-0.11487320185179523,-0.1804648638773151,-0.016609109663921134,0.000880564089959243,-0.1551077520179988,-0.10411432267364183,-0.05375451625629512,0.0735393540854927,0.02640345158457471,-0.03151011931226031,0.07978387154257265,-0.02310226507178974,0.05399475059093909,-0.06644337296409077,0.05083760745107926,-0.05985199977420205,-0.10037859021062004,-0.025990621554474253,0.14929834332098957,0.17038011087807436,0.15555839922840126,0.15275397419108572,-0.10403712610759015,-0.0033177161364452484,-0.016531575770627898,-0.11166291022929076,-0.1017308298429111,-0.10141057754052453,-0.1417612199903078,-0.0650231983310026,0.0696737614535925,-0.19359599272752936,-0.06497671924346636,-0.09644898823074705,-0.3118212441461958,0.07397967103704135,0.15317805178887817,-0.16811755329981048,0.18113815344897463,-0.2879884996442741,-0.019272424020113588,0.18842200794366318,0.08518513886934458,0.0020957797339556166,-0.0355764739807678,0.03613277505928205,0.0997778447938907,0.05603884932520751,-0.13977302230425265,0.1396136053583702,0.07650023278776337,-0.1109491427833749,-0.09604259076411117,0.09057925227889997,0.03991919235878854,-0.08366505249891107,0.12595871969156416,0.03253828514610337,-0.0031359450520223446,-0.0920570026008866,-0.042976937153688284,-0.1710317410358566,-0.09379827698774458,-0.002329767432414414,0.08993753692038346,-0.16369179104445214,-0.11335295136281096,-0.015808655678286824,0.1948655370065937,0.12469439083575311,-0.16974191274114883,-0.03750910945817595,0.24392729990106585,-0.005093771897645708,0.011583039943601126,-0.12280662734809977,0.010349262628016031,-0.10286540359875918,-0.015818308238673865,0.0978411826307336,0.12092262251317698,-0.055822967969879095,0.03252906807548271,-0.005602077903835795,0.15419540801624643,0.09650223869450758,0.13590358722291426,0.052631794562683194,0.08242145266250522,0.09434085375661257,0.13809455449423563,-0.06761290010552688,-0.25113304134331094,-0.020924679063996792,0.00038090229080338004,0.19188692529688345,-0.054408395325031264,0.17133393046386214,-0.13289296330906872,0.03803957858198589,-0.24723171576554284,0.09287695101602766,-0.07354977372544481,0.13907842287415198,-0.10113124953550066,0.06474466836629333,0.09560673762149151,-0.02085484421914391,-0.09536420868978529,0.011223181866683859,-0.05230544902346234,0.12105874154536442,-0.03266057267946305,0.19496620629567113,-0.07789315136548892,0.18926071980031706],[0.11716936391091196,-0.11721437203588575,-0.06500382625107701,-0.09866302633986908,0.01108485164659421,-0.03128163844635388,0.13098492433866554,-0.11348103948221445,-0.1307956640960911,-0.044127597059345054,-0.020616311240805804,0.02001074224473003,0.12072216927335412,0.12017582983140253,0.11880235622458987,-0.10012062100588,-0.10582006705794667,0.023144184085913354,-0.11261333404964845,-0.09368853044259647,0.004268038848354069,0.13992840038886725,0.025678551810599633,0.10594802773141625,0.059079811456810453,0.142342959183211,0.032662620392711485,-0.13061166188670706,-0.07708074979146659,0.009652642401062271,0.03608798713639079,-0.12370118679453267,-0.01877106331280582,0.08472053394485836,0.017469505065034478,0.09154831523556244,0.014683702773731854,0.031685602732255895,0.007765733594295406,0.04359283184333733,0.08015239316771769,0.14094511697566517,-0.02751424300204486,0.12389540998663355,0.13447463900626141,-0.12072059200473498,0.010943731740802156,0.08643451871143809,-0.081071398330642,0.052333038148088776,-0.0857827385392885,0.11842056695909542,0.02924432282455522,0.12368473955007118,-0.10923771150037205,-0.07178743502774138,0.11384676149513717,-0.07915063779526439,-0.010119666245292532,0.13162821825935025,-0.12569361074009072,-0.024350970084140913,-0.1276854638738369,-0.06503573180533055,-0.0014970221763936004,-0.14190576300821348,0.10734658717654795,0.09028936106932368,-0.009334030207877219,-0.00965929448114745,-0.05940539248521012,-0.029769827939637665,0.05706719802734187,-0.010030399201555221,0.13519242155431158,-0.05970929854955356,0.13702466134035196,-0.05345413700777932,-0.14467884178426557,0.1351759154414657,0.03914527931345456,-0.05264118789112692,-0.12236549861412041,-0.02191404552789031,0.12694986094815947,0.09537389610601313,-0.013449166717048011,-0.13698247162850877,-0.12106977418993586,0.10821006266183987,-0.11852482265854192,0.013581366873298462,-0.043519781498974654,0.008648587496615812,0.06770813980263816,0.06539659112089125,0.08082704699898317,-0.10735281937062806,-0.08944612013483433,-0.03766877349929511,0.05666162981671965,-0.14186011717795355,-0.03191330708050326,0.1337630536937174,-0.05900396714028449,0.0948307298733171,-0.1418849408730293,-0.026939483446021865,0.04282740199549007,-0.00842173030103592,-0.023608893746276293,-0.13170982015966373,0.002452280116663341,0.05989868494776366,0.13822093785916956,-0.07153817215186022,-0.005422428901794828,-0.116272577807664,0.08451846639011043,-0.03444728580640676,-0.08130931952514489,0.07296703431925464,-0.03355764015404494,0.12965450505817241,0.08330173272771779,-0.10296554848502197,-0.09386855527640924,0.1381706718616705,-0.02188972095027055,0.028127181988787574,0.10252230319353457,-0.13641961851191067,-0.11386470743272854,-0.022603749514085242,0.04086787145071629,-0.138520449591665,0.0027944764309041316,-0.08394922672272413,0.00013222822911129522,0.051334185710357506,-0.14138820475931788,0.07463180712386955,0.02974803400675384,0.03460049763850032,-0.09391771273188,0.08751376796080085,-0.14201895027393657,-0.045993142607481975,-0.1422420932660711,-0.041972555397916465,0.08360469018604408,-0.011180642353402976,-0.046961040961239334,0.1389592530129879,0.09892986075211593,0.12062659984751678,0.05196087760576916,0.10355724175356197,-0.0997230002656203,-0.07413931556189472,-0.020554967951298197,0.13235814790019157,-0.13819717459414554,0.032434633546551996,0.05539411206209824,0.050169596352353976,0.11858370198833089,-0.003684594779695733,0.13554998220903788,0.09767391669941794,0.12207045200238989,0.008753901804802733,-0.02715015803359887,-0.09010537229008986,-0.048242109486769096,-0.06677071944533601,-0.0975344557399449,0.07031184975570264,0.12938506649406215,-0.00544223809530198,-0.09165388150770765,0.06997231384802667,0.014590121575183692,0.1179958110203329,-0.08192245757606334,-0.14063986916031398,0.043415498531516765,-0.0030624588272488255,0.045075724551013725,0.14222727751744385,0.09431596072641284,-0.03590477768476774,0.07005581553670841,0.019738613920483133,0.06960788749866084,-0.056506294301114854,-0.009722523590677021,-0.016970216100183576,-0.11548141354834228,-0.07482909552750966,0.13239776780317472,0.09814802740304258,0.060546099585335876,0.1424784462535115,-0.02025817570374068,-0.14484877311618052,0.14396439318986903,-0.08880347698418348,-0.10539673924858388,0.07039503142853307,0.01523024096390843,0.06751668162579139,0.0875668768068064,0.07295862575993621,-0.06452143251011802,0.052996308084984546,0.03239317935219125,0.10938125906187308,0.10632127362846526,0.12398472858724763,-0.1263024473371905,0.12359428323409422,0.046882848887559246,-0.07989311626014581,-0.08379346896730486,-0.0005524985064778597,0.12162964442195252,0.05039957729394079,-0.03969435220466557,-0.07472154835369754,-0.03323913840305768,0.102965939440478,-0.053828866730863914,0.016368981815048696,0.04726201379476063,0.0246283119623355,0.0233725344612861,-0.026417299295182686,-0.07163209317714989,-0.06932172953443608,-0.0222899398416858,0.02281885165082862,0.05376227366260063,0.08126826746097075,0.06536085106677655,0.02874275577354601,-0.07177772195692957,0.1288335462641083,0.036801774998749946,-0.1001841394453917,0.11879876462617424,-0.028873287248106953,-0.05816391701803444,-0.10718854148462471,-0.08189227273893883,0.023766642020940823],[0.1876882066545088,-0.1199359341718845,0.09271398936346684,0.1117969535368433,-0.04254705922452171,-0.018277725817858914,0.18404777019510032,0.1673679099665147,-0.1749422070913064,0.0896780898431439,0.038576173175140914,-0.07550215323797464,-0.05490957395290327,0.06868964224375362,-0.08232943567594823,0.01582050158366413,0.039879260818486834,-0.029806230163998658,-0.13933717627353642,0.017850473505501552,-0.043597583152775,0.11881276401638967,0.1132881356947936,0.027150420741815496,-0.12345957704308641,0.042305597185014615,-0.029489568920439697,0.05342612299972672,0.06447188650764714,0.04166530331074276,-0.06511896455380586,0.05800433925095553,-0.0029138480921126635,-0.0029712186907418087,-0.05782881883519528,0.0847645091021191,0.10725556911010863,-0.08906607220222307,-0.1298403631667551,-0.032788744012977204,-0.07238464679120538,-0.11439280515333965,-0.1253422338902285,0.14348576341353086,-0.11782848745967246,0.009840079310972421,0.04118520124937433,-0.0659065135005578,0.05281605475365938,0.2201134779972152,0.11145404371074745,-0.07815718972591396,-0.1445468964876194,-0.008289428040701397,-0.13020027567033937,0.03723634300167704,0.14747373078495124,-0.0863328300503653,0.15179172121419982,-0.1812277619301545,0.12500969175334614,-0.08789137739556856,-0.1185689222124668,-0.025795129134450246,0.011343693214990274,0.14094224484279333,-0.09919344071700903,0.11274428846269134,0.024834302019255326,0.12649826592586666,0.17106191498985063,0.11534459596027014,-0.13444623163762193,0.01633091581513785,-0.222524887694411,0.01356488101220491,-0.08193048635530588,-0.05259139807816749,0.09886806687745606,0.09306832138429842,0.06803945716985144,-0.06103057016902161,0.02892270875685311,0.17082904061654,0.09783628045567255,-0.09932697830605429,0.0712909759521921,-0.12175247198417333,-0.0017833679172379081,-0.05852730704282499,0.0954932075324513,0.02056384992356152,-0.1455701882487086,-0.0006654676850381874,-0.04391235919297714,-0.012983972911420444,0.05529996186025235,0.10683983805737494,-0.19072737575138649,0.021568016510075873,0.024629285266059536,-0.08648785619340202,-0.012480871600614403,0.1075466511775708,0.11922726824837297,0.04733969560478205,0.19211470142300544,-0.11162554999723245,0.09102501795950593,-0.07649082665666472,-0.012065434942308084,0.025056217716427447,-0.029911094347950445,-0.053978978212376315,0.10868102925083893,-0.15191941014273122,-0.01662240869711235,0.23821493727338602,0.11581812643898702,-0.07066346544057218,0.027326236527350087,0.12966618369392705,0.05359902488187391,0.21582087455348317,-0.10890228849078912,0.24135939545108437,-0.05477037231470449,0.11669674982364302,-0.053033630673820345,-0.10621584072912767,0.18043970354256747,0.19413462646950236,0.10409580977282007,-0.040028693593888685,-0.06381251498654945,-0.11012650434758305,0.05113575504847421,-0.08817053191945201,-0.09502572526678363,0.0311017097424478,-0.0683281697149897,0.2255875892988388,-0.11840465723240332,-0.09210833796890645,-0.12963663741269527,-0.0002886279206291071,0.009452208141229749,-0.20162647031212336,-0.008345537310963847,-0.14622276154716465,0.08758194760101139,0.10389931141126717,0.07238250533715432,-0.06058973431755751,0.13350274346402924,0.19168110789192896,-0.02022217700280331,0.10456331244576977,0.060699806266801645,0.12849039797902267,0.03999878880182694,0.013912050718918151,-0.03845764214779386,0.017049415087424986,-0.024884100017595383,0.05172355228357791,0.13928655715296404,0.009489635998489378,0.050280863607275565,0.07825868937957818,-0.0863116596143629,-0.028465106551679227,-0.12618382602876144,-0.0066919728008113175,-0.10373504373981758,-0.11639823554466358,-0.12771526018516316,0.08851261842153554,-0.12004848167370362,0.04462021056189483,0.05655616057354135,0.03451230869924573,0.01898283186241787,0.05814523659946951,0.10417906731120471,-0.11244980104763155,-0.13269476475693964,-0.06189816863734004,0.05691926455553542,-0.1435597976629826,0.05170868508007903,-0.14507717176570978,-0.05104429574856825,0.05680227860140724,-0.07757442712158849,-0.13586249284263754,-0.17247128808010162,0.11986162793667242,0.010162363297425956,0.053103573304942725,-0.038632796499372936,0.010251453356627258,0.07410192478654519,-0.11681477765929145,-0.07074900272799517,0.011293995719676183,0.07073293451820177,-0.1149184828055226,0.031034651771029684,0.11577182361643283,0.057141688532540175,0.14755380403166485,0.06394100027793519,-0.192692467064259,-0.08027568960637967,0.08974262351790828,0.04154579740303879,0.11062010723041832,0.046831798977510115,0.044270435043270925,-0.003657429726888987,-0.10423317130211916,-0.024830860773798702,0.0343119657745858,0.01066522812066445,0.10042183933940377,0.11343660628323798,0.06791021438387418,-0.0718350869239305,0.19478560603675213,0.038540132504150774,-0.09408980475187124,-0.061472258929329636,0.07296936471501689,0.025610657043384687,0.07959624933900067,-0.09875918684344925,-0.0865493909234412,-0.14928420140535,-0.07249145779651253,0.17689470071286123,-0.06426613096621218,0.08375991722925248,-0.043416306465790644,-0.10348374117693161,-0.01462827195579805,-0.11494057050390027,-0.004812612332449581,0.1596142278484998,-0.12550163035946282,0.0749641447096937,-0.0847858821948308,0.13191722127890326,-0.018735092907298266,-0.14656633370199723,0.13892886959387532],[-0.22188391880167407,-0.2121272528938689,-0.1754434960445998,-0.20457045353585396,0.08919534472095193,0.0650929322558569,-0.011543020686766286,0.0683306440204157,-0.09664061529739938,-0.14280488840013505,-0.17368187299348806,-0.04297354419752618,-0.21337823231349914,-0.13403475388105016,0.15784042642994475,-0.00969764629698875,-0.1851844470165245,-0.03670114969233837,-0.07824041947700214,0.0021154452070422988,0.06513473887695277,-0.054127340260610037,-0.21270113316661282,0.05339576591498175,0.11184278373981421,0.15591654193751453,0.004835023598771446,-0.1275173466212055,0.10769051735625207,0.25858715170018226,0.007016967986819233,-0.039281008403997744,0.036588612074183284,0.07166173739289074,-0.23887394825745525,-0.10534676121870443,-0.11836829999608728,-0.08141281331486282,-0.002787640215364141,-0.009595984093072904,0.10004097442906347,-0.047683505889127266,-0.10556285515089692,-0.0045182360856476445,0.060110046341862414,-0.0009864942376254866,-0.05506116539564053,-0.029452096372933806,0.11679530510997548,-0.11874639135365775,-0.11738397545859455,0.11651921210827494,0.03656704744101834,-0.065514294393073,0.07463107943400091,-0.016244456305805472,-0.18437308338702157,-0.038521845302783755,-0.12620581659722152,-0.09278772897930647,0.07267394783549017,0.12307100592510731,0.0927678906288026,-0.06799170166723481,-0.00007167296007605796,-0.08910781214449869,0.16435614756217815,-0.4726879806964693,0.0672521279248035,-0.20502863205614802,0.01822675208350215,-0.11339151444048448,-0.0040691712106603545,0.04960492876587273,0.07940200903628254,0.10918969288700825,0.13109015534735394,0.006913342119490591,0.05934388524709092,0.0693673880563248,0.10526037169008014,-0.08196834785305068,-0.038903073334996076,-0.15261013750389998,0.13735982579647307,0.08348852851127359,0.021204524268543037,0.06473471865931381,-0.1822614640382192,0.10191411354588707,0.10337110679621725,-0.041896575035755536,0.06186713708540258,0.055380373973757904,-0.016135948608162157,-0.08472727390485811,-0.06839202390425847,-0.05452731362049496,0.030157832111278784,-0.09166609110533706,-0.1308097492070642,0.12246589111952172,0.026718444499727205,0.1216059064595624,-0.051996051222091895,-0.1123587572266313,-0.07043328984858166,-0.07572894889096297,-0.10063725291258821,-0.12445831852418245,-0.13577077767156978,-0.09815966585627821,0.21013834566922499,0.058448188578219915,-0.05341092771335699,0.10986610221942043,0.04561156928154478,-0.04762361102212381,-0.14325905586200946,0.236593009489126,-0.08193942290836835,-0.008690337776574455,0.01888282342222103,0.1363803297976829,0.0489728884073509,0.05685893125454234,-0.04889782117037785,0.13851909732765988,0.14897480874415597,-0.11470882947592964,-0.002961322154140045,0.17867830629160247,0.10168159883161446,0.20683459805352078,0.16491415240579088,-0.047371891738483725,0.10747008547145867,0.12577986597262633,-0.11631267804569069,-0.20986260129879872,-0.06710420266595578,0.18930168521712576,0.07414171617381982,-0.10264654019425645,0.11673700790697547,0.11375063220388576,0.0988573243216745,0.1510918364233209,-0.1724004548367579,0.0986562116592278,0.10562992228383601,-0.04118595189505362,0.14874607112074284,0.11216991617665761,-0.02441368051941336,-0.06362460982252832,-0.022339394919391457,-0.1602597139886378,-0.024316542155469793,0.05525335723758064,-0.1299250051967182,-0.08937457428393943,-0.11947905281239513,-0.06394365719975105,-0.03296813071340085,0.00029674576128805593,0.09771410014792857,-0.25260665421642536,0.0006379691008827461,0.0677708965737255,0.03653624680767628,0.09102701232629189,0.018378687208563827,0.06559545432120269,-0.06278721596222242,-0.04215922237968839,0.08687840022018135,-0.12741266138178228,-0.0013134911231680523,0.043586206287677856,0.044075694776322775,0.11045712785021837,-0.18864388070280932,0.09879459953281622,-0.12731392275432105,-0.06990573837540422,-0.002387851600967059,0.06557928375741658,-0.036287809035399646,-0.14570138740609417,0.024104638566017293,0.08253707933342416,-0.09235386880402517,-0.015407274728313885,-0.11427662950039322,-0.08591637584355699,0.06196384064168801,0.1485956746361551,-0.06933418792859367,0.13730779885148953,0.07143890688498804,-0.021600003142702433,-0.2407556500554748,0.11971142780840129,-0.02257918620678685,0.009923717298298511,0.10067394813319439,-0.11438623519963786,0.07536409107330011,-0.07913771569152463,0.08035955484478767,-0.1633525504975286,0.26358432643499696,0.09346799392140799,-0.13160858168212572,-0.04476548629543621,-0.03973543837260586,0.11354045440848806,0.0491915841095707,-0.08537051874615995,-0.1343069497256044,-0.043962387504476834,-0.10296868553469406,0.05482257874736202,-0.13899790418101185,-0.025760101218218798,0.13895668027554933,-0.0320907229734247,-0.028645117148339744,0.022757556601694904,0.07493861018352814,-0.07660739755442732,-0.13731516196706972,-0.020947852948834982,-0.0871875529444755,-0.0652437242877937,0.09999287410680817,-0.1550937583032971,0.05053763664112615,0.041249277224517274,-0.13087564941104848,-0.05804158946170667,-0.01308199705017263,0.05028443751434872,-0.10115456898995949,0.09619167650890306,0.08120229181244688,0.14224665713569992,-0.1741314264213307,0.00850937832241553,0.029396265216295896,-0.003679039963440883,-0.03827366795431839,-0.10271919440020799,0.15418405392591497,-0.1436490299445141],[0.02969182856097575,0.07559873378019152,-0.23949823246579968,0.07544109092423167,-0.19817671367902587,0.04797430458618242,-0.06711061317540094,0.05101683716988151,0.050650134896995304,-0.018934788804787512,-0.1713352520240144,-0.08624667422153741,0.09629689019820575,0.015497393943555576,0.14413443197858092,-0.1265663689851588,-0.1512238616774096,-0.07004091632330844,0.016701278468752374,-0.18075584233996767,-0.09915552231394689,0.07859537927289331,-0.1558955968407007,-0.06654388338571697,-0.0847752724676926,0.10257414003269558,-0.030849558551906353,0.23389921491491314,0.13771272440436258,-0.048219467483813276,-0.10309603694354667,-0.05122046640687395,-0.16868304321432448,-0.08242781381069159,-0.1965625709349833,-0.02006253942362508,-0.033820466072447236,-0.016622972467647806,0.07266881834224645,0.14043781782784065,0.1880445368171434,-0.03965685569881842,0.09088700141420618,-0.10025379369887386,0.174520789057021,-0.12062541035825433,0.062006679622777075,-0.015476103472733774,-0.11886530207962488,-0.07105096759180636,0.040183204211506805,-0.042186094954116696,0.2322391504924055,-0.04792469260382257,-0.05045740987186801,-0.08954835256949263,-0.025311045640555616,-0.06314824497508947,0.15428084635127784,0.13270550717301946,0.1400044531589396,0.15982734633372228,-0.13465254976146285,-0.26271111018149756,-0.016827085347171443,-0.11112198831843229,-0.25997131519502886,-0.3022108958437266,0.050695476921695994,0.10855357183034732,-0.270212720446149,0.12811718809372488,-0.3021953142501907,0.07628628897120415,0.20989832434716182,0.10104465233947442,-0.008761287272424385,0.20074812801832198,0.09021109726823634,0.10541830835928577,0.017833124449796893,0.01608434869106161,0.0031341385422320157,0.049556103923253346,-0.2397338191255289,-0.09888876776137419,-0.08624498572697725,-0.07325253757285496,0.06233263622334752,0.00710630786111602,-0.06134154137994809,-0.0075134146971563755,-0.01736890635125148,-0.14821986797205203,-0.01232111311266218,0.003157287083544192,0.26962692397895854,-0.03352757479865543,0.10828071913824258,0.14981389531822847,0.21993570656617456,0.10832199466238097,0.14289365782438973,-0.024402861228492837,-0.003959508258327934,-0.14748318543382188,-0.19854016781848663,0.020122821138935286,0.11700064379190354,0.10387083986523918,-0.06827106490058266,-0.05312861043321633,-0.027669894182411912,-0.024605233156972037,0.2157167659438648,-0.002617835696600464,-0.013524054211661004,-0.18311231235250114,-0.13344984591986842,0.03871605702780516,-0.009993054673956161,0.1158080193241946,-0.09487353019055758,0.03622501343437449,0.014656279254565092,0.044358444962099605,-0.08976897990255184,0.1016231450862218,-0.21120973394524742,0.07364235658953597,-0.20643106176975212,0.10062089429504152,-0.03251310534265595,0.19297905402891072,0.03864055579793414,0.0971920289138916,-0.026133707172642646,0.1458111011286967,0.05336084914919588,-0.306267278949083,0.09063628477094003,-0.27150140824233737,-0.09801930996564182,-0.09273031938422172,-0.03214812365941283,-0.10176661682059093,-0.1327317797127683,0.20431151558010668,-0.18381285345678858,0.15355097856457148,-0.03678701641189254,0.16612977297196865,-0.05464937933118253,-0.10973901392674487,0.028280368395506655,0.02437843928469025,-0.12245940820679792,-0.05460403109342029,-0.3567430602302746,0.17371269972951092,0.17289799009867876,0.13304476095205492,-0.1256584968571958,-0.16421025069482797,-0.10036810709633838,-0.10553470064382127,-0.14746168737697185,-0.19385922675542372,0.008306865317775813,-0.23638652485303602,0.12206695078157451,0.20464814062375378,-0.08150619794981588,-0.10583642495749773,0.29130077575546076,-0.005214864766505916,-0.07772009435513169,-0.07305299026141844,-0.02929253303007604,0.20903567019905236,0.07402011499548977,-0.09003544226019447,-0.14802071083207266,-0.02557684597296963,-0.02750327516224161,-0.03457547190435827,-0.08066095760090589,0.02821100682148932,-0.031380933911053455,0.1211840256805381,-0.1271288761601536,0.08254718699213731,-0.22713727019286503,0.08503078126574701,-0.1448636283716588,-0.008272715649297957,-0.00953735412405984,-0.30562009495494397,-0.05027254179018916,-0.07618447752137278,-0.2137711625320823,-0.213854821699381,0.05222533874281171,-0.054467714345791035,0.0677257186159501,-0.027290361703062867,-0.05657800325926717,-0.05288421757991461,0.11532362585687954,0.004130916489105023,-0.11126758299351254,0.00048163602731180914,-0.2842343038065789,-0.22734848204295652,-0.006839641925332645,-0.04843807268039639,0.03239583893636917,0.11185285534298114,0.033026147702282634,-0.20802173291830978,0.12357019500616173,-0.09460945460703674,0.03197014186193468,-0.07122161601081965,-0.13277331116774233,-0.21295785373468995,-0.019852470459419697,-0.09959806022858197,-0.04609133512639471,-0.4360884339935338,0.012370203275551746,0.09976428419684677,0.11282686877802975,-0.19233642821773247,-0.1837334653530817,0.07895300581922557,-0.06845229290979192,-0.014217321733945793,-0.004343439748702334,-0.03237621598265055,0.1268811048453877,0.20545179734945826,-0.023112481987628077,0.06398768014719226,0.12222513493956637,-0.14456630526200176,0.04748509653761958,0.14394329236664155,-0.2060725476984936,-0.190589453307119,-0.04333596363594183,0.0036912071175330386,0.13497297241669043,-0.021899321502919337,0.12516299058840857,-0.05578424861982087],[-0.07544175615951558,0.04509178271671171,0.09189758122959703,0.1131331024060721,0.071004117913704,0.056762447189514426,-0.06348818719175074,0.13739106520970257,0.20897124419935803,0.11097367939420176,0.2877700839066644,-0.06371100594204872,-0.2127731037023626,0.0034203856437386966,-0.03466281845278791,-0.021464177952351955,0.06265250324255782,-0.09570972540595231,-0.10994707343107657,-0.07827757198784464,0.14469120280347228,-0.0897735286510228,0.1550677343098508,0.13883263228972584,0.06775884380739731,-0.027244039569739295,0.1213231328140774,-0.14684191524085743,-0.11468881246421854,-0.020739546372370226,0.09656577404740599,-0.03522430676980555,0.0852396798301982,-0.19158046354245384,0.14834908343881673,-0.1132612131043464,-0.143438124008776,0.03010452874868531,0.18611681932609975,-0.10524078540603965,0.05962773553951999,-0.1304265610438211,-0.011973361996669759,-0.027171688926631056,-0.13024091511294417,0.05707914419020504,0.06772637530959487,-0.12836914238521002,0.1339283874839387,-0.0425396794310362,0.013523403791682502,-0.11942672258374001,0.14256145570946088,0.05069876966277946,-0.01661687382921312,-0.009955520464032927,-0.09433763342264051,0.027584042016350233,0.1244495537068836,0.046270030429813994,-0.2936113786341932,0.10398308564294077,0.00733631151519547,-0.15962674669556917,-0.015074944807590198,-0.027692474944570753,0.09860685662394801,-0.23649395330578007,0.05592998727743941,-0.18940877583114502,-0.0919565129737729,-0.12147509050443522,0.13603833363158443,-0.07613141779672232,0.10020624747228332,-0.12782109058222907,0.016340496808515514,0.055952933323609184,0.12779282756684263,-0.14221293580587407,0.030885446072460854,0.040542450941855726,-0.13088434564930487,0.09524611825370803,0.018468060449436136,-0.07297674190849943,-0.06577222740967686,0.01843604201540601,-0.13687994552622182,-0.09797948748089992,-0.08520602505145014,-0.07287417929643189,-0.009297670563828086,-0.006723058876970172,-0.14809300856445315,-0.07188169116657764,0.11120463949450682,0.02797717964490793,0.1595326929904873,0.1454629744043593,-0.2687121170348308,0.10909672441482575,-0.04411777690583178,-0.10017841767295618,-0.17649892382538815,0.056254108321201333,-0.028022756690070316,-0.20154616423620855,0.12947246800654139,-0.10975038138509662,-0.14404569742807743,0.08250259198986236,0.11437204503877071,0.15054667515531114,0.20382058523271002,0.04794594192892355,-0.17339986021700277,0.149591191383472,-0.10116916298285543,0.07148290170312188,-0.15374365795938633,-0.11758597406884364,0.11450657329862741,-0.18574274303269592,-0.11677126658354539,0.015593455838889325,-0.01111734340000073,-0.07117661184829532,-0.19518183115432514,0.16234786447363156,0.06308476699021423,-0.13630210506450288,-0.10932915117599896,0.18055604384509286,-0.23752329491647578,-0.15211010226754595,-0.022738032737184336,0.025187142967320726,-0.03889379533895837,0.25399425075983084,-0.12852024914450363,0.1328865316423646,-0.10870943325121589,-0.00790362936787386,0.16745829698543274,-0.12376174423048457,-0.07263081959593845,-0.09706500334893543,0.23434888724787353,-0.09789625436496352,-0.03455799429572514,0.08716627014500769,0.10636967348449991,-0.06560228605321841,0.06674185248370855,0.11450572730506438,0.08299407142065393,-0.19620092381776302,0.11428275509541432,-0.2285166750273076,0.03925467567470837,0.07114060906728698,0.11747816493919305,-0.020055189828836518,0.08643946516813378,0.07959884317442782,-0.0014668348501948882,0.02504463894435325,-0.09308516531241577,0.0697277012419558,-0.3007427496606386,-0.002389635980338621,0.15143196226460465,0.06431304858493937,-0.22419318710987454,-0.04625304973819285,0.06325561048732094,-0.007442847224188737,-0.029798149734411316,-0.1538234194404406,0.035185473538908364,-0.07379402552867255,0.10165598762806125,-0.02329209796973299,0.08627000016199118,-0.1154229747282102,-0.0922439967045851,-0.06351619349411426,-0.08885926245534707,0.04936091342209033,-0.06996494989802358,-0.16474315963380248,0.04398536621015439,-0.18251293654668935,-0.09691478937912265,-0.08974801703532335,0.10895370682813808,-0.030794516135037576,-0.12441974394559645,-0.05342355194794801,0.022619491168408556,0.022452986291898708,0.0050419635945621885,-0.010028898679539516,0.12053789732370988,-0.02243448282133515,0.06471320338197806,-0.041570215132652855,0.10725218019806862,-0.07814591291960511,-0.019971934470039022,0.13792514289771776,-0.14928113659371073,0.1512896444368718,0.09610939212566369,-0.08243542409177948,-0.06875003464117427,0.07836754463484645,0.08931587828219202,0.04508633142695312,0.13740433822894488,-0.08605089596561753,-0.13899675118676033,-0.13316290682039425,-0.006581171061659281,0.27960187640961465,-0.03618948666367047,0.0060433328318502495,-0.20178969818127052,0.02428996680709232,-0.14068946238230365,0.05814992253977789,-0.17640567652194733,-0.08108640636117044,0.058793045141570056,-0.011785196087032504,-0.13547148287605953,0.08791303865727343,-0.01733323962353599,0.2201053861413939,-0.01167021437461421,0.1818295176743757,-0.026828029467987864,0.05039362329210355,0.06737089763947753,0.17705299101828548,0.009416552805453933,0.013413700061938852,0.15849450769778684,0.13395613674931575,-0.021598217201295355,0.02118850403247949,-0.15482032059616282,0.020687403764104995,-0.21855698690674422,-0.2515664790601064],[0.1424940361336104,0.11626931561884034,-0.04539547251316453,0.10340235050979417,-0.03474100309606058,0.027943457470572378,0.15046514548762913,-0.112794154746664,-0.09584048621463923,0.1819322380281807,-0.13114170984234344,0.08893102969705138,0.040005034614329985,0.07486069007961449,-0.18864843197562933,0.015599193793153911,-0.25055101821907144,0.13189166398346527,-0.12690165146376461,0.22673365777481846,-0.0007657231647497875,0.029535369194691873,0.08166346987206106,0.018543697759658372,0.10935037788021867,-0.04148822461715842,0.03841142600849073,-0.10804140370862368,-0.12502903612146887,-0.1905283973854747,0.12867963022787338,0.13573137453430706,-0.08356649418395912,-0.023121701074879843,0.10713922582505767,-0.12249512410935053,-0.13352947255196695,-0.13626849469515379,0.06122240398444611,0.08354073466657887,0.022651823638796066,-0.09966073259782812,-0.045293420080285425,-0.08213127761661577,-0.17331430784542803,-0.008539971225490465,0.12399688754416457,0.010220436803303956,-0.08199353267444898,0.17909820868721035,0.05093549769236125,0.00241492368702979,-0.10724768344963914,-0.03077647549289278,-0.07952026624580605,0.09924597856703055,-0.010512862541746434,-0.0004922605712181229,-0.06902185614744039,-0.03664434364069114,0.3087426230911447,-0.09579038221753348,-0.013211729732882855,-0.11862060603131691,-0.11182830443171188,-0.04139004392008056,0.1703293441392859,0.15310511212048442,0.08348690493138793,-0.018769384394912055,0.3012844985254246,-0.13099265001964458,-0.04872927687060313,-0.006387901203948832,0.14686338751718106,-0.15146125219949022,-0.07680222940102684,0.07591970627152626,0.17440295413896315,0.06493579217641035,0.0653458253034021,-0.10941126077510092,0.028160413590349587,-0.09282079297487421,0.1874455750469367,-0.03566363185961173,0.11577786421014988,0.03692970244282743,-0.0010830690108136099,-0.1509858418659854,0.10524570682845263,0.13734327531509224,0.03111972531729896,-0.11180903442981062,0.048006164410048735,0.07176093406920264,-0.11472647706564663,-0.0600859766024489,0.006580173557956564,-0.12539910403027468,-0.038898223968802124,0.017126812159647606,0.06171085911714156,0.050843027758268,-0.11579804672969726,-0.0697496082194337,-0.23187863320237484,0.11568471963900732,0.066007197509777,-0.06986268645549787,0.07702890291962981,0.0832844356489013,0.13972241949059244,-0.025489164639354765,0.032669175365233026,-0.13414545119885518,-0.02589259335267154,-0.010672017316556063,0.11854458845002484,-0.05114076866274362,0.15960429915411703,-0.10978444644398896,0.07892760923294491,0.09302270765133845,0.030297604776134836,0.1868314865065265,-0.11277615639515755,-0.16431713275408674,0.10666801350741024,0.07480265055989056,0.15976287022185964,-0.06069719382997598,-0.12792869113921781,-0.067998387710972,0.13825512603295384,-0.013162853606879346,-0.03912301783291709,0.10244578584860255,0.005832421726735529,0.10685735722230795,-0.000249483221335014,0.19194465472978678,-0.04957911417137791,-0.10691682005838299,-0.07513943787899431,0.02470422292390708,-0.07805903608666834,0.11259739422342123,0.002166676275000435,0.1652792196443802,0.15953879340260582,-0.13350674898914058,-0.1767804534577769,0.1861247228251436,0.015439720356750843,-0.018795916425720455,0.16949559137939532,0.15951937077417538,-0.08369139438500264,-0.03542315311722588,-0.07600052882930194,0.009091783260011829,0.17415427764671484,-0.08550593746699922,-0.032546566916047216,-0.09897067342870461,-0.09238111451747753,0.14346333464478775,-0.03778796276352393,0.02940964939274065,0.06882038806242437,-0.043614681780567065,0.017190668469986674,-0.10770511847749686,-0.03421112867885789,-0.0457955418666677,0.16035766690450215,0.057077668927516,0.0349047544025233,0.12096613541798325,-0.026508789992447126,0.016561284987248015,0.1539470560046712,-0.034153000731854684,0.14002002769248992,-0.049797026821639855,0.13267825735330568,0.14325054070163645,-0.10902945470606254,0.10894584893720674,-0.11219533865505357,0.034618591178264414,0.06923386193484997,0.045073216138409214,0.031952319140317764,-0.10066234128531343,-0.012603802905743042,0.13775706441651014,-0.12761506544373594,-0.13014172573156013,-0.10111742488837278,0.0401280379283933,-0.04820091121809586,-0.06839590941991515,-0.0006248326243722926,-0.03136100201582346,-0.2264949233496175,-0.013351167325637589,0.017573593236447926,-0.048492804583410314,0.16537071479324747,-0.08197331225291113,-0.045543066158047416,0.0903438239087103,-0.11698089671487318,0.22478684258565687,0.1273436097962069,-0.082140517682526,0.1197249546664351,0.06216375246727358,-0.07312032088438569,-0.06444616337770978,-0.13286012859753174,-0.024219016384846845,-0.1229489319505835,-0.14044458202062893,-0.06244389344277873,-0.010987199190929558,0.10420384187361276,0.028232282200000385,-0.025906313371466493,-0.020543810415082873,0.19401308587186944,0.0055322498282880245,0.12607722389079276,-0.09803585855115668,-0.09516279630942817,0.11147637763925271,0.060176132115774016,0.175529771723751,0.08694170593134475,0.06304804382392269,-0.08925905893507356,0.06961989263551756,-0.11612476044857717,-0.09387621097544775,0.18175920240290233,-0.06584216945978824,0.14050624336800943,0.20644092184933396,0.19849710385737984,0.01088128428263058,-0.06515610056753658,