{"layers":[14,128,128,4],"weights":[[[-0.08595354814386238,-0.4312097843519594,-0.286143568452688,-0.3258844525649492,-0.7440275785742702,-0.5623059259743578,0.4028919064231768,-0.22710328532852844,-0.021655505103469995,0.14694957886753532,-0.8056390127414652,0.05117385186000678,1.4971047739858359,0.5710441063019358,1.0411485325818777,0.29971854135560777,-0.08208548959664104,0.3246499797242143,0.6577815026166057,-1.0091406639032425,0.0853096811120351,0.7639550856251016,0.07320133257731887,-0.013537741906111931,0.9785238266422034,-0.16185974959324426,0.20281949807577804,0.25211505538922735,-0.3717065836806016,1.279323148229236,0.47368298509301326,-0.005981503179744525,-0.3106917608918968,-1.1498318052475482,0.5746608193224628,-0.32081577692481744,-0.186399886822784,0.644791832771424,0.6942146537078261,-0.1268354932597069,-0.11465536550819688,0.6296187941448705,0.09919706246269251,1.165890843401845,-0.7296289224787,0.6783645905062852,0.7968092759539271,0.04747059815524004,0.3320206706792254,0.2692796452177706,0.3781536148875049,0.09282292455397508,0.14562769176567517,-0.15316914283565913,1.0361228701230947,0.21836584825952754,0.10359015239499483,-0.4016955985198381,-0.4494606898766593,0.6672601671218931,0.7047514687218441,0.6538359360026494,1.0137301013280595,0.04183794784412803,-0.24685561869205963,0.7340511989490746,-0.6215468816428487,-1.0201225713841564,1.981067084864889,-0.14556465178419817,-0.0180337455113866,-0.07884081095985587,0.7871969195155446,0.7880082143499617,-0.5869274730791542,-0.3236109648576907,0.2811493885487964,0.047205107208493594,-0.6939094143348431,0.08397424135752683,0.08013609960618792,-0.8790154339738132,0.27402226473632063,-0.4179780748609536,-0.21077694421225868,0.3603247213549794,2.56144422156407,0.7001720654431363,-0.35934040247470533,1.3928386902590413,0.9206681583110341,0.7189437267437508,0.24261471305387397,0.9080410993221931,0.4279876653887912,-0.3637211127190169,-0.4489997532074421,1.0477359764665106,0.46080652802894495,0.13213604972524656,1.144348415717051,-0.3070564383139961,-0.5023464405808656,-0.162287950063381,0.9142968050290317,0.41283478612653135,-0.8453931403830788,0.8168080167798034,0.5775756183716997,-0.5152810057416193,0.02576982262798361,-0.6464393898578351,-0.1854711718042583,-0.5423844743064556,0.5420990716383078,-0.6109455340807336,0.03497419213036549,0.5645351660818941,1.7397524421514674,0.40262436659849604,0.2780562276127765,-0.7369045402083053,0.3383574590058287,0.5927135330033588,0.05427383798029661,-0.054323961062016826,0.44516558520041477,1.1494099749338627],[-0.4578865067874588,1.1139543370415388,0.15925076361976984,0.7170661167771918,0.0643521733202921,0.11585394689258184,-1.0810213138851885,-0.9384943069193261,-0.006021875937875857,0.008861110899110321,-0.4526114456557738,0.9113896845344365,-0.09131841670763766,-0.38969454910164064,-0.2922905572148604,1.9738672170325524,0.9139791163238168,0.10461675034943192,0.25720196837696363,0.4568686157125278,0.3220670264863014,-0.12660408176620636,1.1883106153676026,0.09960553189887578,0.23134928660058976,-0.12208562909992246,-0.5182566786282695,1.270864881627543,-0.4045234230898646,0.17071808255376314,-0.4763880578445871,1.6094351445296362,-1.1253545074007407,1.2833850570719072,0.04111032625845315,0.807817960143446,0.6352601141883668,1.8710107935452347,-0.1567952586159666,0.590222738712921,1.3901016479729582,-0.9929633483221025,0.44450284092317727,0.44194351106424207,0.14000339989390867,-0.071502894288967,0.6301248032849758,-1.1467310497449446,-0.08144275835028209,-0.05976562517673046,0.6965406652868636,-1.0035323344602312,0.7036907667343825,-0.3983272792292138,0.2550252424004521,0.629612253565852,-0.15012082517597963,-0.014617195320189912,0.04785470389545354,0.6463094489673322,-0.30303010565813815,0.7662873204189297,-0.6379730843322623,-0.11016755132362678,-0.4775011108967581,-0.27800247291701946,0.29342593002278267,1.2248456789271307,-0.13365182355536934,-0.14838951306097353,-0.012457197742062059,-0.018858441832671817,0.5583874391804743,-0.28571922299355146,-0.688634811953136,-0.2679103975001657,0.4761866767581854,1.288834982452923,-0.22764208715327922,-0.035063451181760866,0.46932597305448226,-0.2307855351827246,-0.1083897762778371,-0.06034228428185713,0.8725132579101376,-0.007936688093042809,-1.0862145702479806,0.39034571720879274,-0.5864168591581809,1.0706856309167225,0.26649041164970916,1.8802435321751456,-0.5000855671708946,-1.0268453173502814,0.4458396615114421,0.8548156736534314,0.23620452942968198,-0.31681414553453663,-0.5198206186731344,0.2474151314885173,0.447468456080932,0.709643384586426,-0.6030646678801412,0.036350730680498385,-0.011706281908054408,-0.3999176275205551,0.25588067944300996,-0.21900346476637708,1.14764107384797,0.5776338661153649,-0.17384822962988478,0.6887544305343979,-0.5960676928947332,-0.16845493128815034,0.7112824137011073,0.1748082002583303,-0.10720799447479189,1.1615038902636183,-0.1648330815969273,-0.41326660565702406,-0.7778877848226782,0.2922460605250778,0.7640386853904461,0.21368741560735624,0.8125676495582815,0.0331573060390568,-0.43797619621525413,0.6467683887750395],[-0.5103398076449471,1.5956726154025533,-0.4370533490389816,0.5247229157342997,0.5397277378544395,-0.4493422351997921,1.4746017304214776,0.20955089892183756,-1.458290925928327,-0.4449434570672113,-0.924008303870888,-0.10236914718454512,-1.2240098997024964,0.01429598171167471,0.9640193881655753,0.09113105204718971,-0.08920598634516397,-0.44111891985295426,-0.6983902166961411,0.5834128790619509,0.4910676798683079,-0.07577324747972555,-0.08849520434795453,-0.02131014826325031,-0.8640131509458236,-0.14030711118260233,0.13257442727161234,0.9520534434005489,0.1512060764648232,-0.4683885079267949,0.5956548735191487,-0.885406905794925,1.2867783393536485,-0.43767354408347836,0.03711897966167936,0.5987185954559947,-0.12370081148673165,0.2924964803680669,-0.29212221205261407,0.14937809690671125,0.4139684930845408,1.5509787466721667,0.4034686259046976,-0.2385683764542823,0.07305982986758044,0.6161700122596261,-0.498674859706135,-1.1606805805505582,-0.35253756675879866,0.6786951093543837,0.03187234534351655,-0.033065515664388194,0.1234833479417568,1.6628756111552732,-0.7151298262983007,-0.06452916245881007,-1.1542637108738507,0.4360797307736791,0.47595673418090595,0.29723014066103043,0.49886912753810364,-0.7332117759088839,0.2599169406170188,0.31557961258420997,-0.01350408160881229,0.0048616842550914365,-1.0074293323962051,0.49719015973727515,-0.0389661021731371,0.052522295551423716,0.03814652113281938,0.150820940786076,0.6043415887955981,0.6238488370927024,0.15943969741652045,0.9961342649978912,0.21119617832387638,-1.6412621112652068,0.06896574101032557,0.026442714571560874,1.5383050521710615,-0.4308564316016588,0.4922330561968068,1.0441811406740094,0.9333175898542725,0.050540590898103435,-0.6417417197538138,0.08438625118748973,1.9213272276877864,0.9050198595832364,0.3838232668174331,-0.6894364890312235,0.9099196087504086,0.13728397448737512,0.19146183594736274,0.745004756524151,0.46435433718904356,-0.3867544883609845,0.1794724704084751,-0.38268033480157154,0.6266823756754362,1.012323030294174,1.0695735619888176,0.1598917899345952,-0.2732538269621227,0.6202186445174017,0.07369942296109858,0.6353247869802089,0.8071396964396824,1.4401606769365194,0.1829320312305481,0.4568864924609628,0.4430613947038937,0.8347784842756051,-1.3318531433586034,0.8823135838590067,-0.12379594713459514,-1.3865608781114909,-0.007474999068293849,0.9835486544271845,2.130274134808509,-0.22244273436808454,-0.27963983515886803,-0.747933570663847,0.12207263024030694,0.3953320428083725,1.2401968595729145,0.6065116029421717],[0.4401070646699971,-0.8729796786673025,-1.0013715519865125,-0.552444897278105,0.030738713904927863,-0.7390853282102599,-1.303063282371044,0.3442788566508246,-0.36329206175386974,0.21057048709194195,-0.049706819061952026,-0.12389324196050351,-0.8167398651821043,0.17860074653774743,-0.8373085268927112,-1.3812389676073928,-0.5861315609991508,-0.6973999551601805,0.16060297494716616,-0.6664832583408679,-0.7694602983969702,-0.267223904931568,0.08080406850109824,-0.15159133891237386,-0.23025300590928363,-0.0688966273174925,-0.6435128369805186,-0.7219799231907947,0.30656331806913234,-0.10252111188232542,0.9453510878780996,0.32152993800096946,-0.22603210556058712,-0.8516900342827793,0.40391721953760934,-0.14829179283083138,-0.07395363950726018,-0.28304118448739185,0.2514785660683125,-0.43927124734208095,-0.1492362793580583,-0.24397517324201723,-0.23976337676500667,-0.2433791420804406,-0.3494195921962004,-0.28929300483694215,-0.055446996993799645,0.32976742072404064,-0.1487516684026749,-1.0422517479739402,-0.35922409512254694,-0.3788361574077891,-0.22797688195361387,0.06603289696677338,-1.759621763214147,0.1428190033756546,0.08660979308874886,-1.8275866833278296,0.5783548815269528,0.7701733668087423,-0.6739055516680978,-0.19167887897268168,0.1612197732921218,-0.19729538943674235,-0.3214880899563251,-0.4868377966647007,0.8809554193832332,-0.5411877993410116,-0.2935616130276075,0.04257498722204575,-0.015719233574630242,-0.6936084635199228,0.1254184918253974,-0.56856104521223,-0.6496648341139438,0.37996528679258673,0.1586446324848103,0.8885624916851257,-0.6977756164638795,0.041303844651433476,-0.4756773952355119,0.08660406064760298,-0.21081862732886242,0.07039171541906845,-1.3318963587718728,-0.0745526723386705,-0.3536672503634502,-0.16858671696060615,-0.5155299552880666,-0.9558209602186807,0.02806973689835346,-0.26728442194676993,-0.03488344597629733,-0.8302889318740339,-0.28668205700472205,-0.8692200468291205,-0.5515237980991002,-0.23490036892390634,-1.1185071241313889,0.078479190272812,-0.3547167154403027,-0.2347829200067152,-0.7080087512317387,-0.04560886266885603,0.02712786429887922,1.1355936263203918,0.5807346556599086,-0.4214800001095958,-0.3552229182838745,0.556237598456755,-0.29162983944131937,0.0366110805652053,0.2322417187864116,-0.2731624058031825,-0.21852105524479604,-0.27086190016448236,0.23263589566688725,-0.320764846128425,-0.4173995000340572,-0.40846398064227235,0.21052184218442693,0.5043579395920614,-0.38950070088305666,0.3431044649546415,-0.3924488930202833,-1.4352711353792291,0.4446534691659892,-0.09354191486065459],[-0.4798846379987053,-0.20861974094238975,0.8263871365259499,0.014495798013845838,-0.2144964494611139,-0.2413819518105879,-1.0633621542124323,-1.0465477354302282,-1.888242453128772,-0.9946784389898468,0.1370140898770362,-0.05114598596706643,-1.2849684922687437,0.21898967679179046,0.911323329381184,-0.9079831630241395,0.4029652883791921,0.39427816205845356,0.11861867458974253,-0.06891956430084509,-0.6657274184405532,0.29136647987905984,-0.23639664911516975,0.016945668181751198,-0.31129265797216993,-0.16462905905278255,0.09778897876900446,-0.5358334145675409,-0.05420626937377142,-0.19607139857966066,-0.6378062274365423,-0.7549012527614672,-1.3259075675655871,-0.9588883954107229,-0.5809127669575871,0.031191580466173985,-0.3103286475234269,-0.15994315509592108,-0.24359575201316888,0.8373091112235426,-0.24235220008853814,-0.29307852879015683,-0.3114542223144758,0.5217727741463887,0.4707453593104872,-0.6421105463409159,-0.8247953684537779,-1.1136311502607983,0.07346194872797149,0.5623865305790287,0.5017534222419826,0.14368518656134982,-0.885805570866587,-0.040751182009211656,-2.355712286191255,-0.5123040975551489,-0.3248254337734922,1.313370076738478,-0.004087774696751997,0.04187913850533166,0.4237600600557312,-0.48301243940097965,-0.7014034275365454,0.1475131384332684,1.1414576318433176,0.0949031902990728,0.014717643203056399,-0.08323404562774023,-0.10458275942040889,-0.04517421585538009,0.08998953039299526,0.021344185451979483,0.22847065008914788,0.31446794599491956,0.11417792157603908,-0.4698617402847993,-0.27493957235891225,-0.4920954043664984,0.2529100161273313,-0.019974977547024125,-0.5086629078472602,0.18858226005498394,0.054608463148447584,0.11219366055394518,0.13625557682672063,0.25779134891822414,-0.044127665322371945,-0.0572777894702875,-0.05782280540089528,-0.40119582066066733,-0.7252706227180773,-0.02596307007969155,0.02009921975838933,-1.061833461146387,0.014810651121177817,-0.1721031700083433,0.3942791954713479,-0.8950205756690179,0.21105276831401104,0.19841532197101913,-0.3060866299788562,-0.12134289004976087,-0.10692708457974147,-0.1232186291007953,-0.32221657635823164,-0.2949417177912322,-2.618825527033943,-0.6975322519616329,0.20840149372281241,-0.6056743325816333,-0.19657401644201747,-0.5117833000844161,-0.09158349799956682,-0.7395350074270994,-0.4913600174334944,0.14866447606693395,0.9832013845860487,-0.6358412564741458,0.7962918896185425,-0.49680800933813307,-0.19019984441079257,-0.6397624656129676,-0.7703182827578816,-0.1864816646516474,0.2630702941041908,-0.3572739539149405,-0.7238819199457742,-0.31850748856220673],[0.3200994428142022,-0.27072234747210433,-0.11943225377608566,-0.44920539794930725,0.45568968594182246,1.364913935074654,0.1041764268730914,-0.406656940539371,-0.15511386346716613,0.27271677145124906,0.55321371906985,0.004963431407468716,-0.7464245182681568,0.19312717890744985,0.24594241294779925,-0.14427930131552227,-0.2927607215781452,0.01972800986694809,0.346086882010609,0.6972780459063247,-1.4908584021565328,-0.18333439933717077,0.03948633833979093,-0.0935983810208769,0.3462778335802263,-0.05408995527185334,1.6108879516245258,-0.23870838813292256,-0.0013036009084564657,0.09238895532314662,-0.4096091616072678,-0.2969648035628953,-0.2753516282496505,0.25698876506881496,-0.24764405958416041,-0.3587515892917413,0.08125982526702631,0.7535777100895051,-0.4867004598903029,-0.029479474303516263,0.17529721752121244,0.061637910060686446,-0.4277721487394576,0.25616269905777367,-1.20960118089371,-0.4342722781772766,-0.20282647906988258,0.27073651970272933,0.21939859558338354,-1.6087832362867067,-0.7965231950771372,-0.007778839859938092,0.21126481946048195,0.3496067053926445,0.8683345500237007,0.25702837777807047,-0.1518325367387555,0.44893632213804285,-1.2032050440260937,-0.17732870575598514,0.4326436939013203,0.13585355813680058,0.2618541156602464,-0.1874882914362025,-0.998302033909402,0.7171790520809833,-3.4140392982389627,-0.20585514859081785,-0.030533518644499706,-0.05635690311729334,-0.04484053133127753,0.23100911117066283,-0.4182121641810508,0.022299852775609873,-0.4665177153559001,-0.02417752907455841,-0.07312651467409934,-0.6537688551165155,-0.17311342289438275,-0.002393051715946042,-0.21685510313335354,-0.11264999357584322,-0.8380979374854037,-0.6718522173066309,-0.8255961752300309,-0.5458878582016015,-0.41588926285289024,-0.01268611236818297,-0.7246425062428037,-0.005589755591086031,-0.47405619639377605,0.042628736584809084,-0.20797596865724327,-0.2732935173394499,-0.1108847201046276,-0.0025561339168806074,0.8720537803034792,0.5228815253736396,-0.14207132287981405,-0.29756271779642063,-0.8621189791056747,-0.13189042737227633,-0.4243415498816171,-0.11041163212761312,-0.4181873231389751,-1.6813348251005038,-1.3311449733827818,0.01862960577925253,0.32258934210619605,-0.15195292715544395,0.011332373981742467,-0.30086244917506794,0.43128260143078245,0.04900013139062424,-0.3228988772429415,0.026120653733804396,-0.09250523223936756,-0.046593027915959095,-1.1193977817931775,-0.22397415735451923,-0.15516984078707602,-0.5381959647390937,-0.15170132629629882,-0.33134588352340877,-0.52346806514859,0.8939535877244684,0.01378633456937498,-0.473706614412674],[-0.5861874777789904,-0.9562280119785859,-0.25223770833512266,0.04288348611597785,-0.015646833091681477,-0.012685117030308286,-0.004792069135614347,-0.13093224901291764,1.2442067596457547,-0.32388122993580876,0.3326056012234083,0.011043983361324098,-0.3262191288487353,-2.7021943615642963,-1.1599011094730638,-0.15594150539786641,-1.2066318634213968,-0.23811874080865966,-0.11427025918083555,-1.3462394240399624,0.6165653720783052,-0.5284452776368217,0.22843573376542797,0.08184536967417505,-0.09422662505484253,-0.16366832968708267,-0.22528070475248582,-0.27878224564806064,-0.10555207510757708,-0.24984055890660584,-0.49796197471918047,-0.8593481767672662,1.9873026227345223,0.12986852587675862,0.44966897567257164,-0.6717534159840073,-0.09050394826301535,-0.8902577907248918,-0.10355183847326252,-0.4641004566049673,-0.39740720976137056,-0.648479780726519,0.30130235610705486,-0.5622170771018236,-0.36386909168290715,-1.237281821874253,-0.8067913762820065,0.16012879677363911,-0.27407345762461355,-0.9056988383158422,-0.6896094933450031,0.21507036719076308,-0.34806395590533945,-1.05511947551716,0.5261020189977799,-0.4633303796671042,-1.2969983330126529,-0.9762143139323993,-0.8696244464280207,-0.3104525610088962,-0.31208271539289595,-0.030237756781939063,-0.18374520671326958,-0.247068255633187,-1.2973117904794467,-0.12502954459872154,-0.005821259790574188,0.47548832031019783,-0.4343325090608332,0.10403121713706108,-0.11435799232908263,-0.03307248720889697,-0.3511655294110829,-0.45753709802436554,-0.016387259688934053,-0.7074600269377738,0.21467811402957518,-1.403931170473602,0.5687928733629456,0.01996763529974286,-1.6410530734418474,-0.5530018330877859,-0.027232941038906975,0.10751301775750238,0.13221844838205019,-0.146882355725232,0.09531479215161659,-0.5164609145549509,-0.6390293578002909,0.16518805190414634,0.11612859137772094,0.10340292545272985,-0.05951295683747363,0.11936129657757873,-0.5850434068429202,-0.2391209214089978,-1.520398377162696,-0.3946717627379496,0.5406088344575332,0.2543015313980346,0.32719928128977455,-0.2054269494509801,-0.5351911257771159,-0.021678771393405762,0.006971132754705483,-0.006095163098840685,0.6463485095942112,0.028372730487078092,-0.3902232799957776,-0.8564808257820195,0.23651269471978525,-0.134606117374475,0.17996322908177947,-1.0566657889438602,-0.36123706120536797,-0.5564284299704756,-2.0942321239177892,-0.49449510367283456,-1.0949050335096913,-0.18262016646635798,0.14171688364957297,-0.4072131405534952,-0.4880629231159377,-0.8860399570465803,0.25083032832509883,0.5129843190383493,-0.5419050751945509,0.4669560783094711],[0.12821488318242907,-0.24992730719770415,0.10260921244640901,0.13299871922485318,0.1258468645126968,-0.4876787752837159,-0.5206380128334862,0.33223995411529705,0.6125726493768309,-0.409853175102965,-0.2012857033385694,-0.7781061377181245,-1.1784942171951083,0.5432129041662767,-0.6998004026833309,-0.3107548504882716,-0.46029288196994406,-0.37947292112470826,-0.0016055455396416728,-0.25632081411266083,0.5135069526137623,-0.00881100744405124,-0.7993020136997724,-0.02531029758311473,-0.6679449902771084,-0.016089616430415773,-0.11803103171437183,0.05777107712653504,-0.3222846088583931,0.447244758681185,-0.68614273699329,-0.605645445104557,-0.41908662833463384,0.3606298896082447,-0.1010760916397279,-0.4427423641217021,0.24471521107168068,0.08984494672414182,-0.6822699155410984,0.05175775469901661,0.13622510207152144,-0.03041195743840755,-0.02684155529477088,-0.043348316702581685,-0.3206878737614603,0.2322278458636611,-0.6911482227653443,0.17432792148577,0.2357697603806186,0.032523132697366515,0.04564571509183048,-0.24456455729735463,-0.3036576710857929,-0.7440947944222948,-0.1814170997749546,-0.027892020294183036,-0.06552685542892467,-0.0049230412715271345,0.08371425981180335,-0.9230016252277644,-0.1786952580309894,-0.15120770747735782,0.299713275782412,-0.16290113137508927,0.38925871158560044,-0.5849695542961177,-0.08559714137010513,0.9032211189877899,-1.2310616543127013,-0.02346283664782298,-0.10530114799394845,0.5320513937354404,0.09330208219058819,-0.1647285065914139,0.23112105351695025,-0.63346324588399,0.45541129678946346,0.4506844238893976,-0.2828494376687568,-0.17460943002569054,0.7330015013073372,0.3435229511849887,-0.4592475493494546,-0.3877946428341392,0.11967862803238974,0.30556458864818126,0.9125317629165385,0.009209961256580478,1.1811786037360474,0.1908808920361328,-0.006370215173721455,0.15770193961506648,0.12294746615503567,-0.5824417791911447,-0.147446380206921,0.17649658221954903,-0.8598977881734837,0.4117357633242906,0.3247374483104324,-0.22867801310194205,0.19975586744471982,-0.09008301785521886,-0.4769911102484942,-0.0232051055722731,0.03825869926973899,0.39419977529171607,0.015707937628387007,0.11993171773070725,-0.02182671432774106,-0.9776194295317747,-0.064469853536104,0.47045760311977197,-0.32759290144079806,0.03185006547693988,0.905745452046788,-0.436914790173124,-0.02892405990997115,0.6940578796335845,-0.7261758330726691,0.4440101383338155,-1.4076945689954337,0.17617572447819138,-0.06736888488275583,-0.10673367825660914,-0.6949661728633263,0.2354739658526982,-0.8278879066653362,-0.2955200809241471],[0.23056399473768704,0.4041699314217056,0.26693356156690073,0.16261268726512837,-0.032957602592736245,0.18154768023279907,-1.2979374743608654,0.648323194965957,-0.46954429167220507,0.19435889572131082,0.25893232797654214,0.43510710504962674,0.9838245797347496,-0.22561436707835714,-0.9532368751690531,1.4027208228649486,-0.5180662334596927,-0.2308977390573016,-0.2279173346960956,-0.46104047418667427,-0.7537523958971277,-0.704119664661925,-0.7571752752605645,-0.09610141946724522,0.23061786819581206,-0.16785400396253855,-0.12426601144280308,0.13083848821709868,-0.2538561868858732,-0.34624844260768145,0.031214682648031476,-0.6204304866158208,0.08609015851272124,-0.8161439241130947,0.6311034567016296,0.5951045305111803,0.19040304653385026,-0.8064233506400047,0.713946023498931,-0.6880516527044965,0.07852380653658028,0.650788090212642,-0.20547245419896273,-0.4966764366881927,-0.13072428045016904,-0.21418497170710396,0.2446941609949018,0.13263241327114597,-0.07152381357459546,-0.06459020544247254,0.34436450490373616,-0.18134925521494175,-0.05019124064309971,-0.6212777034952689,-0.5310225579305354,0.3696302643437027,0.8540466389790224,0.023158446459605284,0.04043880779077195,-0.5290075383883678,-0.22081233828678334,0.7120739199865805,-0.3704282775391633,-0.19783444498267588,0.31397559351956145,-0.5455052649416439,0.49512203829902796,-1.1957540496044399,0.8244399372633665,-0.16437650583487565,0.02381756003944311,-0.21115014990022035,-0.14159272161987657,-0.010331722164133268,-0.01616784178542447,0.3592079202513676,0.183160072220792,-1.0094593015276432,0.36606513372627697,-0.11215381120219353,-1.2434236339562326,-0.2385307850609406,-0.050137713052310254,-0.3038097047961311,-0.35425722485095124,-0.21691704744489904,-1.2909583164260354,-0.4276692888564814,-0.46827020211745396,-0.705653345094314,-0.33475082288541225,-1.2194805949472451,0.3953786941555109,0.9265757264941489,0.5946112801120271,-0.7080085684110888,-0.47459105141168634,-0.1948884109525749,-0.3491362298606316,0.2775857862241525,-0.7007514771844859,-0.46374026858231426,0.8242013565659776,-0.07487310944760436,-0.31114904738014243,0.027782194763639405,-0.13175189661090678,0.1400070422135293,-0.9068282799719,0.7514689952105762,-0.12464737283719797,-0.8193227658299858,0.36353939611027486,0.4535305399501509,-0.023204077138373726,0.7189147532483846,1.0171348288483286,0.7479808769335095,-0.9169508917704734,0.0038222423800572812,0.10149562764151744,-0.5698955311514069,-0.4081055430060436,0.23853230503380152,0.0030029177691107863,-0.2898557993730808,-1.0248092284231536,0.4218864977407552],[-0.5612318921218213,-0.6569442647026712,-0.16808638069816256,-0.4788378198442422,-0.6036356732852304,0.31896852575887163,1.1071061742179906,-0.5164288454967287,0.08192678165787162,0.12725044218417578,0.1766491375795051,0.31441294740271886,-0.9664536208560444,0.27923982946062725,-0.19545075353286145,-0.8533829783548011,0.7195558977705674,0.22386770975127113,0.15729826428248442,0.427126820395558,0.5404768287821528,-0.13588484797666595,0.20084413397782916,-0.037397328965400024,-0.602922562011806,-0.20405343600051834,0.17706575105599037,-0.4865599038477898,0.043080358784630776,0.0288219246728413,0.8461673427715508,1.2149281656368676,-0.16665783415425786,-1.0094514964994077,-0.6891136142127822,-0.8745972385324795,-0.34185780962817097,-1.463161355306718,-0.5819529782560118,-0.5222721094473792,-0.9772557043194959,0.020769081606893655,0.4986199278537219,-0.763846316653352,-0.12355638378376013,-0.024518803872709535,-0.19908264525646094,0.4950359239502231,-0.22568483197303837,0.6453841167749859,-0.4655792472931932,0.7420702077702206,-0.4302616915009501,1.1444071132717293,0.3764819303360149,0.15060714169390071,-0.5686023463415953,0.2410122449868645,0.3668259835813107,0.45832447597874226,-0.5507912000037093,-0.48723652447765464,-0.8384381687326533,0.19214895047745165,0.7670222648453277,0.03232016967422873,0.2765460638872491,0.4451688707608075,-1.1361875295887,-0.1487818880260956,0.09669681443827116,-0.4448504016423251,-0.6203631512907929,-0.1135354906648958,-0.42839835161913764,-0.023901074427795613,-0.49170612739702485,-0.6677022368708672,0.031134226268243925,0.040112099196479734,-0.6988549180736635,0.12039357789020953,-0.012139718548398442,0.22465532406494643,-0.2853085528157375,0.02087824094362524,0.7979423247836548,0.32304564012353776,-0.15648177493378965,0.008658799565258687,0.37358526807682946,-0.07566323653485346,-0.15216459507495392,0.22260589808208334,-0.512863129684377,0.21269079190352272,0.18359664399226297,-0.32035706412544046,0.1303786446263477,-0.3075551246410174,0.36050780026965623,-0.6599116098235419,-0.030992743549911758,-0.0745830486113067,0.3464150776485158,-0.49513268757786216,-0.0039411648739574815,0.02769110623579181,-0.5388407896655588,-0.9525878807118435,0.2830317500671856,0.39699120035834595,0.21207644905353984,-0.29919879305241964,-0.10530709808554949,-0.6272648484024511,-0.8450652250307359,-1.0205729948976427,-0.28256050691780105,-0.6382167078015268,0.9517021450950692,-0.02339345101661267,-0.24636559922690296,0.3169573204938792,-0.3348533814288206,-0.23165673559756603,0.32799359507841885,-0.2705194675249561],[0.005977853377882066,0.2387604943477038,-0.6072269967814709,-0.24004596438270573,0.08885840712961615,0.057777306441052854,0.25847316657525227,-0.5478461707413174,0.22102042859109217,0.4469379235692356,-0.1808140355281407,-0.5972352740369692,0.4898947407732459,0.17513799879913422,0.7219671990667226,-1.1772932797238114,0.5053015730333236,0.10712614681039812,-0.2599790512104633,-0.1852928296112618,-0.12673083184355,-0.07447781982946244,0.3419100197020257,-0.11655018633741301,0.7560897005481176,-0.10314823415667662,0.010429385501119142,-0.060148409505047566,0.29618472234275356,-0.5923505596117549,-0.05262356938220585,-0.6207053906070397,-0.4107146642232027,1.0513021687933677,-0.22913978599493207,-0.3837431374228062,0.022724832285898677,0.6295213244708731,0.1496518572204515,0.5285737454493368,0.17682676851299858,-1.1388625003832953,-0.4774700448764637,-0.5530132588676304,0.6506457880999937,-0.8104437374604143,0.010616872599987807,-0.8317130416714907,0.0063167907013700385,-1.2600476181101674,-0.40292550779404873,-0.8066937454683938,0.01113608475621459,-0.08636378806421659,0.25628909993682797,-0.46160817193517656,-0.2600643372273313,-0.15202451307746434,-0.4882693132378897,-0.2401740268190129,-0.25964763233883287,-0.8554608480158276,0.09103018901242038,0.06434153293619699,-0.8421485094704463,0.08554676358218405,0.1535565393081715,-0.8119328016883793,0.6734219030260006,0.008754524789947983,-0.14123192701063744,0.06446754510569537,-0.2263322735694497,-0.08927689832482397,-0.03672370888538157,-0.3860303907054714,-0.3412339683235566,0.7396714324841117,-0.49022221353474665,-0.021717718461552137,0.275486663276154,0.20623150432747853,-0.12468045864457687,-0.7338873104746259,0.07006978023163779,-0.08260286557735992,-1.4181736674040815,-0.27974709958257415,-0.702627544095599,-0.6809082597843883,-0.6668063808389658,0.26448441483486623,-0.7095150794524997,-0.13537335154330127,0.08153478657145811,-0.7517344960897427,0.8008701518005447,-0.22813386748673486,-0.15664505041709337,0.1557164053983836,-0.4429183438049942,-0.1637404975600591,-0.8927497375514631,-0.13480226344407217,-0.5455048250781702,0.3155314821536513,0.2653498634394321,-0.8116973459878982,0.01554849843306789,0.38958818602829703,-0.05767818859765749,-0.542334377646991,-0.408758357264584,-0.08160981331010876,-0.9628088035750706,0.13549487209636724,-0.17762265993123058,-1.0123340961446585,1.0447105475665592,-0.4913255776745091,-0.8267605371851702,0.13963652665809187,0.5876850228535518,-0.5826546619460696,0.5492972679219105,0.10855762631382473,0.8974260566593669,-1.1294835354906623],[0.39137660776427147,-0.19866745808926684,-1.977667834840944,0.13182703603066195,-0.42125295494422454,0.266266871275781,1.364837631868194,0.3707861069586319,3.74701805500907,0.7591067166391794,0.13560864513296272,0.5286738860828162,0.03612706164351896,-3.115078013332794,-0.6388259879051621,-1.4973724213283577,-2.232515037453478,0.3289090307417276,-3.13681666498962,-0.3806986588807153,2.0367261744339884,2.6505725226494334,0.0811339743622385,-0.008131705751753015,0.32780775026351344,0.0015975770319608983,0.20984026050590526,0.31688230790762045,-0.1130986951346086,0.09248944290369426,0.13614316492963582,-0.26074688568474663,4.1694181253910605,1.3621926839236271,0.7132830300993547,0.5365401522224081,-0.168660163557837,-0.8317317760075037,0.5663623454679777,-1.3123557624800761,-0.22634389733902624,0.36711923859749634,-0.29070971847263083,-0.5303673830936657,-0.17221679793732186,-1.4331755607351153,0.16159653033985663,0.7359781411666079,0.3308572533754185,-1.8047697490995216,-0.353774119475145,0.9816388450538905,0.16780122923248886,-0.8644887617801962,3.3744219544448955,0.3362717076474401,-2.2594671417634005,-2.251195405414011,-1.04524020000021,-0.7965582232714739,-0.9518383222662855,-0.22968221407037404,0.5294625049401585,0.10067552582635823,-2.548010035313467,-1.4917600089880465,0.25490569892885345,0.7276209921375001,-0.21502635611844723,0.18687064473266193,-0.1623993710018237,-0.7063576302173521,2.1624778967075353,1.6187112341262027,-0.03676908029355102,0.4328451712372852,-1.6413950239913448,-0.42183382976848327,1.6839730686920458,-0.031135709999724245,-2.0241077435058563,-1.8896063574808575,0.7825130011509668,-0.44151881119238706,-0.44289454612760226,-0.1595876083077066,0.1370990207596196,0.03426424537194409,-0.39806946716841884,0.6077915375078571,1.5184777296774994,1.1363771917344123,0.34329897159858885,0.8004783980852805,-0.17833069187531125,0.38422254540260536,-1.8986642671134217,-0.6344232685218668,0.43395664369594955,0.167878849955645,0.6636891460942205,-0.5217720931095899,-1.0455718043280007,-0.05335035483146111,0.32019294359457123,0.20833801099726662,4.058646038299546,0.18601338146580004,-0.5930066306955214,-0.6298424170341415,-0.18030033134890477,-0.16000044218245765,0.8836339470168781,0.05290010898463692,0.1384200421546278,0.16911848896585022,-4.013173691816676,-0.18293693590454388,-1.6332714742123953,-0.387515040074119,0.6707030739646056,1.123542197152066,0.2080494644808344,0.27690946186164733,0.3670807916237099,1.1486551231179316,0.17527119660909513,-1.5485968313229372],[-0.028974504729383576,-0.893675931888045,-1.7181981441450414,-0.5297704728131893,0.9815994124205073,-1.8910519452677694,-1.0240417514312499,-0.0024223401958740733,0.08275167124211766,0.6773344803305456,0.9209987745763012,0.20876124944359178,-0.535707516916686,0.1591485088302747,-0.1736026655041895,0.3253774562075384,0.37858460662215765,-0.25295233661913297,-0.16958465143773563,-1.5977681368068328,1.232824774802468,-0.27437347516598865,0.07087677677370346,-0.04622858305047749,-0.00746784535811079,-0.0015684000821950543,-2.650909892685575,-0.43959794869134594,-0.4441008286359221,0.8718676232652578,1.148475984657336,0.04664709320825261,-0.3458791667156471,-1.4727661760955615,-1.3336261754488394,-0.08043510920975705,0.8234577675809468,-1.287683099824566,0.8197318157124582,0.5020485505371425,-0.07824521726509377,-0.04590674971585992,-1.0793981497101903,-2.0965396895517916,0.7094906104678071,-1.2831231608802967,-0.3126132342979548,0.32358091093253705,-0.15410233641633603,-0.02868635038869879,0.48052367103676863,-0.053977333755910566,0.2709663881796182,-0.8385098418970276,-3.018114024324902,0.21883619364005732,-0.298247720570059,-2.294879613246749,2.671640719773623,0.19786397565345096,-0.38662800804541236,0.6119525291835625,0.7695668518627878,-0.22090008240172826,0.43970272909748004,-1.0006621082863996,4.109011338430793,-0.7037308981000788,-0.27482229605593633,0.03725893365574541,0.03019266044041751,-0.5178086158400141,0.10332541807084086,0.48215306205098757,0.23901599996570558,0.741941491371791,-0.7409399602598676,1.6237722237836174,-0.6579854385418112,0.16680719972649818,0.43463266964514097,0.36487145693258977,-0.09125168867506252,-1.5242117254678287,-0.2606451445065642,0.11082465341244843,-0.4446590494075377,0.4723185183891537,-0.5598126730885971,-0.10074716759679539,0.4133425128601229,0.7220362521174906,-0.029353433319046305,-1.1295050869882475,-0.3690386095440003,-0.014015819358039958,-2.2256035142210857,-0.9904413716193685,-1.309582180791821,-0.5218910836696535,-0.5320455768103726,0.9298735185830332,-0.5126963296323381,0.1074411628690604,-0.028982607064696606,3.179393783929575,2.200517865008164,-0.1644501153893354,0.32402973511943883,-0.44428230601321217,-0.27309009513245713,0.644945357824463,-0.035079611273164744,-1.070547456338695,1.335985236435404,0.3835893799308596,0.708155207279369,-0.4452897689008675,-0.1787092148115794,0.04453141658244381,-0.12433630516922879,0.9006738359548219,-0.5332443706509563,-0.4659840011632712,0.6938770356923752,-2.2244049456738644,-0.19989962134456823,0.7024730635075198],[-1.1967167252740452,-0.16574779781276514,-1.715481738628803,0.1516447673482144,2.023917916147739,-2.4568991286520805,-1.571793894330269,-0.5535022463577686,-3.092976326386931,-0.552283796015013,0.24740584596766202,0.3417211767425649,-0.5482136078092639,-3.1447111395198983,0.39150867003799816,-0.1429336041860634,-0.3812180426342507,0.14597269082669065,1.489998383368556,-0.9087145364695183,-0.6683123017707121,3.134073012568452,0.5444470164059387,-0.0048880188339069834,-0.20496529861250756,-0.19382973639881407,-2.8850658569801944,0.7514404172327797,0.09992421232830673,0.8946510275488101,-1.309405291986633,0.029200354756088148,-2.682120052388428,-0.6860187839170606,1.2095993207064721,-0.033993211739335234,-0.2590714197182035,-0.03187737577892085,0.4913348810557862,-0.03271108475347558,-0.03344261091861065,0.5623924811950803,0.24348583494486825,1.2509104032153715,-1.0295173240007516,0.4588940331861446,0.1346576383921991,-0.7050154667108194,0.07752043990575937,-0.501539914661482,-0.48313974967921697,-0.816406566664652,0.2322894434078148,-0.20027947355989115,-2.3209367921576542,-0.6036451989236168,-1.4243303206326483,-2.0675782924871906,-1.5779833959884957,1.5523466452372592,0.03212283960859008,-0.4737294643698354,0.5316629276100607,0.05227036640341797,-2.3437604662656715,0.6570219623680056,-3.9456186242651086,-0.8064263743404976,-0.2609141900755411,-0.14190256464737333,0.12932501887950412,0.6059609919894302,2.3940840626364457,2.301613153630381,-0.6025273262045602,0.522155656222298,0.7227365492047388,-0.7830866019349929,-0.14093615644963775,-0.18184844804279712,0.6571879087388964,-1.868800162335353,0.2684008090437997,0.7351034523874345,0.2635393779027403,-0.11301871785264893,-0.15014621538985548,0.2625268499192107,0.32967130002677153,0.6114021221703584,-0.04237192997603625,-0.10849038834006153,0.36559501285637164,-0.5745555701409059,-0.06018264845704097,0.6702632852072868,-1.7800131794283502,0.2102746515632099,-0.44166253883235823,0.6416909089633033,0.18183298133752734,0.4817614189344966,0.09833279515181592,-0.20248925526726236,-0.13674422530855188,-4.039673583213382,-1.8720655282253822,0.37814359091358946,0.5439472898837681,-0.08120066234515282,-0.0007465511281017175,-0.35633016117621946,-0.15177889222325286,-0.27196317498649925,-0.7842993866234182,0.4308856229532675,-3.205266466717721,-1.0501795282477444,0.18832280084748323,-0.09011747584375683,-0.2571899194493586,-0.47567228628594543,-0.060513999990850866,0.3606770100224602,-0.19657916900347513,-2.685056380604596,0.18605683798014086,2.0026177720733913]],[[-0.02433032408844239,-0.024499410426060214,0.034410271550108756,-0.0650755826073878,0.00309232470529885,-0.08206923229030656,0.02774815293863666,0.10479015562454973,-0.1291323630550822,0.1051191142762189,0.11489493528275296,0.16914501808012608,-0.044537609389370514,-0.17953225175234094,-0.1330848871284292,-0.14977905928933716,-0.15688093531299302,0.12044363972058962,0.3039348213753214,-0.011406252674992649,-0.08049931714647603,0.0627794492364293,0.009612540038046942,0.015534687056592021,-0.20006381956934058,-0.4160660609564457,-0.09448220748293801,-0.11093805165687264,-0.23913229125973756,0.09360929253150496,0.03892927209102081,0.15061683768837092,-0.03933141484770305,-0.028729849508809843,-0.13746056280742794,0.09835902071043207,-0.21207631507332764,-0.09501544971568818,0.11438800682301051,0.045247485207953526,-0.050072505314936934,-0.22385516906621744,-0.01368118295615107,0.010352208886159193,-0.08749802561172733,0.0490684773765179,-0.07049794333048444,-0.5776457970372514,0.1371386704197716,0.05806233188173062,-0.1608850167796955,-0.07217553901768671,-0.08216609044153482,-0.11292442762248113,-0.08158693036770767,0.19216495009450252,-0.23001976858091663,-0.07305733346556484,0.04390074840692261,0.07540132170808161,-0.4212042774108253,-0.09714776592595754,0.10553379632159131,0.08749046094624202,-0.24904597609029175,-0.19562347591285315,0.09416303355362762,-0.17953845658024847,0.3017924834789895,0.08120539344037195,-0.11250673464115589,0.19747990196246107,-0.07078455357635025,0.331171591876049,-0.3289792764395088,-0.1408495816952112,-0.18612408484466475,-0.0017602183095760345,0.10400140234753227,-0.08983469109925325,-0.13128799910840835,-0.05286247791747843,0.11641010270542708,-0.06354372523275106,-0.11046872158584589,-0.0956768445807622,0.1576034524566879,0.16970316648594702,0.0940028094321367,-0.03523271493050645,-0.27200294401215397,-0.18036117265634277,-0.0356020789520358,-0.2068838646008487,0.23145075861635805,-0.1313757054315335,0.17537383577266757,-0.17060907886593077,-0.015454905444992204,-0.014710557250148252,-0.21137582576487374,0.08374720617947753,0.05740023352915919,0.15913270400234988,-0.2613783379049913,0.09685474101924996,0.07921637181223506,0.39805311934344406,-0.11198750400294011,-0.2704861056359501,-0.3554912505694059,-0.1592347434273927,-0.21123773878366536,0.04026954628024772,0.22861059235990133,-0.017500013720395457,-0.8918935517987294,-0.03417450637487024,-0.14422582111471963,-0.5610809604971562,-0.4215245991152207,0.20523975294783708,-0.49545447370420875,0.07193937813279204,-0.2515563596660527,-0.048850540578521826,0.020346360915308805,-0.0803718196993286],[-0.09955206500899146,0.06930798284546592,0.22859629458982522,-0.1143740057144149,0.09513189576689318,-0.265259884739789,0.059106016723825684,-0.016099261457706907,-0.13650047653811162,-0.04068355341959514,0.02819554975501521,-0.1723862981872227,0.00633504594465187,-0.06248996102771833,-0.15861052768984518,-0.009464629957951573,0.18090849296971176,0.25800691854637947,-0.13791435090381646,-0.17109421655068466,-0.31808450379097586,0.02711121149824253,-0.029580726233568028,0.20254057173253362,-0.1647546870995224,0.3263829557631958,0.1714052825878109,0.1002139929575742,-0.13094306931123748,0.15606903258542687,-0.10347885719587445,-0.10479154821321125,0.7228279475131851,-0.5122647747242298,-0.011615263209562403,0.0007667694131522341,0.24129300356591127,-0.04804540523932621,0.10288050041476648,0.3925866631295669,0.2203618446548606,0.1560948344911888,0.38719219930668924,-0.24829681321313204,-0.15008702343234642,-0.18792531610188404,-0.07683850904526257,0.2407129206783295,0.11423431730735734,-0.25922263063673495,0.5110884913007476,-0.1554609604810418,0.6392414358530993,-0.21894071935529671,-0.0581978225336871,-0.3366586116998598,-0.1699998597386791,-0.14996715917449713,-0.25010459460494444,0.021360219148366444,0.1213493932704891,-0.015418720161607535,0.021164383887973537,-0.24649978727131022,0.13386497910609696,0.29653872907820356,-0.11508237269964365,0.06354169057438423,0.06116868667796026,-0.12226147158170682,0.32879367725375225,-0.005379541407962681,-0.1570100979010005,-0.15089664783477705,-0.07634447828665021,-0.0028191558959591873,0.3954831242340101,0.2336071284130988,-0.14336055815097615,-0.0055978278330333815,0.10004956545481734,-0.17922639386259445,0.1604739323885434,0.22796290547564443,-0.06240439965513421,0.16490228829901707,-0.058340528589459616,-0.04321254119660876,-0.20545821971050895,0.13062957134194975,0.20788472306784975,-0.10212022066992028,-0.1632481551866464,-0.029906322442389395,-0.018846880349798582,0.027745645542448683,0.13717003012644816,-0.07495293261600605,0.5867563418710136,0.14836488570669093,-0.21603811381578683,-0.630995582088749,-0.2366047801451077,-0.09455701087490456,-0.2979366954731,-0.2281231070044368,0.05579669908037203,-0.5167257968750409,-0.06870099429146895,-0.24070475712799483,0.38545060310768775,-0.039374431528299565,-0.08913984693422793,-0.17743436275942198,0.019513923813454168,0.27801317972904593,0.19152323403526894,-0.04057480924436204,-0.21032691370489373,0.06480901541395553,-0.3749307299301314,-0.06296332528133472,0.18557841456580515,-0.23072026545610766,-0.32158109208342767,0.1029077235566689,-0.3343604782904006,-0.09567282081145374],[-0.37925593718110245,-0.25304205021532516,-0.11820097301967263,0.12676077515354728,-0.14213153309548981,0.06346554457467382,-0.012491444525359061,-0.11400709153022721,0.08959120177926727,0.19994006799830194,0.008424502905722872,-0.005558856156801646,-0.013701540496519312,-0.17059031568849808,-0.026338641190260675,-0.21911884890436045,-0.3158467032498204,-0.048282600650994864,0.22804954504690247,0.1357399548860754,0.2963489922675851,-0.9293943419370484,0.12688684260503827,-0.35632933775551767,0.2752436347584427,-0.33614038477476926,0.07997858527704593,0.06302882757919277,0.10215282599591445,-0.4088639849688539,0.045265976164655324,0.07494478291901535,-0.08929535229432745,0.15716819916193175,0.10707426426179203,-0.48097472468445035,0.039126618659371094,-0.07885286077793548,0.047714364155825646,0.4396316470370723,-0.0089182355214941,-0.027807512510861294,0.038770100145803565,-0.06177079931609505,-0.18978134382636616,-0.3054443444907094,-0.04967618978140356,-0.15774840764308795,-0.10824663957611709,0.24492494924240374,-0.17104926102051024,-0.02607365668024104,-0.15382862363303013,-0.21556632003252574,-0.05289335812612341,0.16479094585928475,-0.09397840643162524,-0.5325917552542235,-0.06654961676613408,-0.14841449041204502,-0.7167483065870061,0.0011081469732314572,0.18981138445644888,-0.13528004273715705,0.243930618511447,-0.0972055456956536,-0.2060314973281758,0.382698627936593,0.48428227171798655,-0.21858383947663707,0.16055498510652558,0.04753252436182692,0.09523867390958887,-0.22811809921334691,0.16272274499041214,-0.2171460306820108,-0.10189917184397869,-0.35970888982128846,-0.3069779520421576,-0.13685381063756402,-0.11896360934220883,-0.13101803124041303,-0.14474433653656957,0.1381383068438321,-0.08433582571271758,-0.13386580449206442,-0.3367324900213212,-0.3193140663440104,0.023596818768940157,-0.08410536480052835,0.2514938737834419,-0.03249031054811362,0.08151486275971852,-0.015037566628547798,-0.059118658333034924,-0.4670113001378115,-0.2142485960370317,-0.2969476942495831,0.1568153419579481,0.0031151158481066772,0.005935735459565169,0.08437175472389201,-0.12777226523704424,-0.0401444703182376,0.30296414332134586,-0.13202351924768146,-0.01017236653533164,0.22300719881331868,-0.023929660350357342,-0.20016549554292878,-0.4189450969666516,-0.06918714651762896,-0.2104370894016307,-0.12664230978057336,0.11814821578819332,-0.32846058541662326,-0.13698085886913244,0.0422704367900404,0.3282380703782928,0.09451346877586399,-0.12105415127258519,-0.25849573762935274,-0.07884379288039252,-0.4816196032615933,0.1663776640716132,-0.08524298945991159,-0.25720031542503957,-0.05321479335035527],[-0.1859504944724181,0.0857522112764348,-0.10073893028193538,0.11994391260199484,0.0389318993562223,-0.031406323734925044,0.030665646334797157,0.1425491811696889,0.12656461814785927,0.02893137991023289,0.09236873565487538,-0.004696250247932194,-0.09863358302494406,-0.03934217724401038,0.007708279257653897,-0.1264650782824697,0.05093392851027556,0.011639115143785463,-0.11388878325888616,-0.14610312555425742,-0.07132928231857698,0.1417950175936615,0.08511636631467058,-0.04815775093502954,0.3655836333926268,-0.08443212812303444,0.21398095812152793,-0.037668110245905134,-0.33996375131827317,-0.18354199831807963,-0.11742682890856712,0.007232612776570674,0.23045189009586994,-0.2734589458015898,-0.10971289824630111,-0.2756507625134133,0.15121600768704274,0.21209282344838754,0.02963001253316182,0.3199151180348948,0.027756030814776584,-0.0853221112397781,0.004749331181492616,0.021567583289630276,0.08052752108984468,0.04886150398781904,-0.1373004203329335,0.34882992103670984,0.0347256159647556,-0.22272209480425156,0.1461887253256245,-0.1237326167611196,-0.11102316309429447,-0.17144604923478543,0.05420539399532319,-0.12437519733823002,-0.16820651197489622,0.10752464016735702,0.09824063676868972,-0.0691959644863977,-0.36648385450065357,0.40980041499480996,0.02432876101324423,-0.2605114086669852,0.02917988016274331,0.034178197876878445,-0.0559674811161408,0.07225796397595026,-0.08598648488292439,-0.1763883061273208,0.0373103838286799,-0.13752502250726728,-0.06090695320459652,0.06767857752708702,-0.2736486292441578,0.1418407619806923,0.25001321983152536,0.18481126159492656,0.0008795172373303933,0.09259208269468278,0.00585613154649804,-0.1591477506457698,0.1961082778539159,0.06869254570575732,-0.021139111869688348,0.17011146667511912,-0.05633553848972117,-0.1476550082821547,-0.1620776232094301,-0.17764985287812804,0.0068602163176939065,0.320772389646865,-0.1103834070010074,-0.008029838798353481,0.024181697767129744,-0.0665339415781633,0.13960538362648345,-0.15844868231944037,0.12717844282793153,0.13824402669669797,-0.16216845976603803,-0.33788501108444663,0.1119370910773758,0.02273476959360158,-0.056394324571140075,-0.012427518537257428,0.06638286209259932,-0.24694664913462858,0.11249087267125009,-0.016238727520861633,-0.002823418344337721,-0.13575031967876194,0.11705663086529258,-0.07413356018227937,0.059120197603558154,0.19383782618866446,0.24453627958470758,-0.17305463460619908,0.11870330390577229,0.05434719399587774,-0.0673753998583992,0.05179866527178555,0.07348683831637173,-0.09580283981215124,0.3697054945784605,-0.05944000963628357,-0.32497146523937726,-0.1571863127451566],[0.011720632052183683,0.0690521755457018,-0.015564507320418003,-0.0006304101641624621,0.10844795487197208,-0.3734207148803434,-0.0921104205951733,-0.00986825024796212,-0.30383375102324656,-0.03932592429825303,0.13270248271098514,-0.012849914017239086,0.01375226093177881,0.048100239397725154,0.21433074731863203,0.022782457480436228,-0.1259394026955406,-0.08577642258508816,-0.11430582767546586,-0.10932329517657821,0.19206258468567192,0.029737953143853548,0.18566941512020038,0.19746534958061937,-0.25990290934603816,0.026834760171190002,0.08553609819172198,-0.008708837273287258,0.04164425848945021,-0.04387532916608225,0.08768110915952108,-0.11532969923791468,-0.020508778116547718,-0.18042800828820024,0.16782755824912973,-0.12493136058303965,-0.005544472099456936,-0.1078618089453286,-0.04058704217118674,-0.08631820390765564,-0.021473080893547405,-0.029770649023401107,-0.3124455021363184,-0.19414128562230748,0.1508644000000404,-0.28696721974473294,-0.18988326657793272,-0.42188745496327257,-0.0015640215703008145,-0.467630389390025,-0.23220095148242453,-0.0742229093931646,0.1308435003899784,-0.1107292242494291,-0.10279988055968739,-0.3023342154050689,-0.18829537535917856,0.06861633135032888,-0.027351913532089656,0.04842507080713393,0.40024036848299166,-0.07312786180062215,-0.12812514032585623,-0.41579699084514765,-0.2914163834894105,0.04912221549270531,-0.13539898258649447,-0.1439443392932532,-0.2435266732002745,0.21864098395812318,-0.278579689873581,0.14011213417707138,0.22560168245700915,0.15849953881972118,-0.03235290482315939,0.09639880364125825,0.13716165697222912,-0.12071556166155452,-0.02967724835384955,0.03242921539580492,0.04152567058134997,0.002975150658292717,-0.2744530833583082,-0.19165218170035,0.21062619107068675,-0.1108075509937293,0.0474940446999638,-0.19348484658214546,-0.03398182399111603,-0.01332831071300481,0.486324212009822,0.08990766089800367,-0.002314635025235028,0.09748417781135182,-0.027067802852698917,0.3375248693998289,-0.19810581620952533,0.004527911644788993,0.04175383863974658,0.08153562247086166,-0.18172350911719784,-0.25806057397542365,-0.04503207420556441,0.050773744075493114,-0.25342428807128725,-0.17990593259057006,-0.0540007463303911,-0.040276445528986134,0.1494906091691201,-0.014504939290443854,-0.0725713438581393,0.2343575042928898,-0.08758341373830499,-0.05562381583326552,0.0945674408260395,-0.07831639255821575,-0.339718036961002,0.07709018876828964,-0.06575765668955992,0.2844823922887893,0.06350711483129175,0.03558503438154992,0.34447738507258213,0.07620177007020286,-0.3568228754287376,0.13892094099964442,-0.11995682238225733,0.12089603335207365],[-0.2891400934459475,-0.02671219651889405,0.07186019899882745,0.09290489446759684,0.20923515537220222,0.09035963248146128,-0.3408208231382517,0.05195750383355866,-0.012273943384118845,-0.0433058544586097,0.19775211546915505,-0.3113281373789781,-0.06716875385471525,-0.054021629479468966,-0.005076696392458254,-0.0012868901567775976,-0.017464060196833088,-0.09350056348574973,0.20093395192463173,-0.014754597499478285,-0.6180527875812648,-0.5612284421954006,-0.10906287324070346,-0.36065638445732856,0.2511695988830816,0.14201466480187064,0.11866321510043924,0.0583156393394335,-0.10942439223970513,0.19833921117606243,0.17708797119288747,-0.07203379725780812,0.17661393910740567,0.08211494371220986,-0.08992471177228042,0.013230253483604567,0.13093613990475986,-0.13109792309452287,0.08554435231038096,0.15480132330283863,0.13326513512373414,-0.09625510719592853,-0.3401033455707349,0.14723489535251238,0.05038165855987548,0.23992463970924283,-0.09755575000471516,-0.13450181766646557,-0.10212958296349585,0.23285148836201552,-0.4947391892943936,0.03536709327580201,-0.4796141251186147,-0.04655707642283388,-0.05370097402490004,0.14906864012766705,0.3951119870774668,-0.14510274719405425,0.38575152856399353,0.17893180805563533,-0.3402414762889687,-0.03354360887879442,0.08215221789599653,-0.12410468360728927,-0.10433780866282517,-0.22637873458277513,0.1399218874691781,0.17102876215598692,0.08407521571113737,-0.005442822210935384,0.1961234979548971,-0.023935652526480243,-0.030179087361085388,0.12157908572278227,-0.07935766045039487,-0.3062240026329031,0.008596639142740817,-0.09489475935916072,-0.20863698172418552,-0.21617739915848233,-0.1559348091734916,-0.1896575211970569,-0.2527029398501336,0.20847587647065116,-0.1969390488827446,0.15866248210359887,0.11999839892145575,0.22528330835189306,-0.16085153067750832,-0.20934201464641444,-0.03738062150422393,0.02755223974693072,-0.14959754691664665,-0.2652685966246325,0.08450276751799185,0.25480668017107877,-0.20058282814252235,-0.15992203076682826,-0.09795721756925338,0.05405975617399399,-0.0352569861597941,0.06605838924955369,-0.2888179962315746,-0.05069647422428229,-0.1124036163092345,-0.1778246723476799,0.1854833784651235,-0.2099692956638573,-0.04431122474324819,-0.020320783871764777,-0.00961212890475138,-0.14440465380794265,-0.32691250186631166,-0.002236821236367462,-0.09748458485266782,0.15817877472950345,-0.23715656465584006,-0.00438574244399558,0.2562395204310176,-0.3042936362901404,-0.19233514393507037,-0.15057501407885904,0.07616882786858334,-0.1783072282102628,0.19567148607793403,-0.29924337283047336,0.09367377466011081,0.1578875329680737],[-0.17575574715044165,0.02392367159621703,-0.21169259307490979,-0.043492346762476715,-0.047433753223125416,0.43845598077719095,0.18019459799174528,-0.027470506649211284,-0.18185456601786965,-0.16896263065161926,-0.04289413612833364,-0.041952585415250924,0.19470779777882952,-0.061871662019024755,0.18480492100111104,-0.21380728296495272,0.09221881888877692,0.06425019850679944,-0.21648226892462374,0.07443510304743357,-0.21166824679892451,-0.11932216949662404,-0.2157020132567054,0.5086245604314688,0.035669940168385796,-0.6274798377257864,0.2563584478458214,-0.08002493507604455,-0.128783780745959,0.2476786183688816,-0.08967562177526398,0.10866834460861968,-0.1899054643256839,-0.0070401093227276945,0.17805666766276537,-0.7969615230986689,0.19351539575467408,0.06010690990249793,-0.16381420253216034,0.5590589964251893,-0.25545857113900594,0.10876916270595698,-0.11961428357721632,-0.15653533510392684,-0.14956694617991492,0.4254979758179648,-0.14192695520862078,0.16408392195624255,0.14775737622364546,-0.12061096435712748,0.13073949036360275,0.02786292707964801,0.6364899536746216,0.010286379962571625,0.11934503077845633,-0.06149107849549334,-0.30600516623656615,0.06256674890457785,-0.2728930474083025,0.07583453695135048,-1.2025137736640148,0.34146141111192524,0.18325763670607154,-0.26747830594586713,0.03724209689779249,-0.15962758688280831,-0.22952130790053055,-0.05541350336952207,0.4212635680136458,0.2337252232531706,0.06928967660773351,-0.18871026092131338,0.10318404017776447,-0.04226234681143704,-0.3184319320650782,-0.048836649129007426,-0.25379839428440515,0.4737902585092603,0.0688205525568815,0.2927194660570107,-0.6470759377002694,0.3220143606631375,0.43305213259650094,0.15267606467934414,-0.1224320699356078,0.22650135449173384,0.019858324884826115,-0.12082403211966238,-0.30011509757449073,0.21882578421447835,-0.25611781551444457,-0.0710962687005597,-0.1550926144194017,-0.2866321124009857,-0.169102938088862,-0.06122771313533339,0.04002585162890867,0.07258384236778956,0.4636413709633443,0.014016458732296656,0.37701877870418177,-0.42531482277981003,-0.023695251487947395,-0.06314061665931524,-0.10095497043988062,0.08683397808655438,-0.17670260786672604,-0.515437754728349,-0.19354928834145302,-0.13913686905675765,-0.6271387089185319,0.14894959522620643,-0.055994276125364485,-0.23933888143065124,0.0051267257894882946,0.18213530348609075,0.12225914951819992,0.1357749609252537,0.1203497703359914,0.009240643610528012,0.41022954719387655,-0.2504302830242071,0.053355097322978204,-0.20080803024610192,0.2979634539507015,0.4184917392934416,0.35399481730645355,-0.2965799151816042],[-0.4513100793612781,-0.010967308369276849,-0.004227660319357316,0.17788033537403902,-0.11199277160383524,0.14259196461551174,-0.13940518894412052,0.015538123231744378,-0.0552583222248056,0.08904058593756958,-0.19478496401099107,-0.03873817072186199,-0.031998247824250474,0.17097478806438074,-0.18893515985327686,-0.14361876309216048,0.11698437185740468,-0.12877825723980835,0.11917567141832223,0.0520203254314418,-0.17889578177020568,-0.42379804514074243,-0.26056487133143846,-0.04442640935010935,-0.09909749109847328,0.20383824718032886,0.06823867019462744,0.024836750128020352,0.025472061215168002,0.29035364375669054,0.012687305897353415,-0.2143992340466479,-0.24858157494906732,-0.35045592180098334,-0.14773422014130302,0.14478545093839898,-0.04007557299377374,-0.032160294831107515,0.06402242914879559,-0.145165998271755,0.05438390698205945,-0.1351071960186327,0.033772643468839465,-0.07200341892015509,0.24769249696927456,-0.23013354157017757,0.09365786953272308,-0.06912811423216973,0.11218248645345183,0.019152215459051006,0.18882469904911373,-0.13728315128854876,-0.1528332072148468,-0.06328865462503562,-0.06669458399187689,-0.29130297433477825,-0.34953948353542613,-0.0863329772821428,0.07042435283953956,0.1610111919184298,0.008909497918246974,-0.09569997459982181,-0.06961075317351498,-0.3741862128028103,-0.3765555881793249,-0.15357803802878023,-0.3441162909529429,-0.13909214646206824,0.13348856732443287,0.18508267027904265,-0.19194802423097823,-0.16035068789901397,-0.07656737058759648,0.41021258434583474,0.05770343819721137,0.17132906260694294,0.028701588990221273,-0.16742550091785485,-0.12416307615895132,-0.44624778395376996,-0.03375102117714528,0.15818297341711557,-0.3006560726965238,0.019842591502329594,-0.12791451484566843,-0.15459633870206824,0.14860829172541015,0.32929703397542415,0.023014625210927817,0.004407836788095718,0.38542968544102735,0.1352725941145991,0.003313928803014184,0.1796608963832706,-0.07811207713523077,0.35546680539109693,-0.15538552549103343,-0.06151697767139812,-0.248144315932264,0.10804964233081131,-0.10985475178243927,-0.2627947759469913,-0.1088095208039635,-0.16827642563693027,-0.31426344418314245,0.1111285986176026,0.11239169547670493,0.35291237980440954,-0.05072235170544767,-0.21329701718259741,-0.039595374166722215,-0.13910759840460574,0.03803702611900392,0.25913258254929983,-0.2830057704809556,-0.08366251313187131,-0.2916466013241783,-0.011331608408514559,0.04136259964015552,-0.08297920465748562,-0.44090825332678135,0.15717616046153288,-0.1791188633572997,-0.1116780840382224,0.016094561666883864,-0.01721856811788717,0.31965181421699834,-0.03839851645345718],[-0.15872138517306392,-0.5728896086047505,-0.21532187253419802,-0.04258923189796685,-0.15441836738853043,-0.037410799142317874,-0.22192217136123132,0.05276951138313735,-0.3825319057629641,0.0691349820029378,0.15536554257772903,0.16152039213921712,-0.28131030874925245,-0.3322600478550561,-0.2702006735149183,0.269469136375444,-0.32603220158446167,-0.04599003363406561,-0.15500020432690176,0.058455192346758916,0.24697751965670217,-0.8428434426954208,-0.22165058664624077,-0.4245713571143459,-0.7781466245497941,0.062037132886933535,-0.25501520657269766,-0.10005753238993421,-0.41506118921551743,0.23526967257485326,0.024935845687822478,-0.04511940364008725,0.08396826357801727,-0.16151373825311685,-0.2556098698542171,0.2339078112701209,-0.00994632690921149,-0.1111699207983241,-0.06918556924670864,-0.1941441723268052,0.5125082548241364,0.2756776778448316,-0.09491067053747224,-0.722044993154337,-0.014910144536381448,0.3171475267068715,-0.21680481517355898,-0.21375682564016504,0.1924788899219163,0.3273088885637398,-0.5552542443437808,0.01134536606348294,-0.11325965661897384,-0.057126021118566475,-0.4996646167715453,0.12988351650506327,0.021831652441463744,-0.6856488485386244,-0.39788116330117773,-0.17717037130316618,0.2288752653913822,0.062439329603990464,0.19828590327732978,0.010905404450015607,0.04865474364041942,0.05498264243516279,-0.6633928057030585,0.3594717641045696,0.13545117038128504,-0.04533868875468739,0.0683132034199504,-0.16836441096488006,0.15036591787541745,0.37415818158708014,0.024587322694467197,0.040634475057438495,0.18141413858199815,-0.19647194556123893,-0.07388861587140247,0.23090685584574466,-0.7776031858507274,-0.1409698407186911,-0.12199405462399236,0.03229722711181426,-0.09394697663084908,-0.06829908532460549,-0.016722101624635412,0.4764307262944703,0.28795892947080104,-0.38342679672165303,-0.05373549535148996,-0.26922786675731575,0.0006977621799958895,-0.2591318969075233,-0.08953791766819517,-0.2597717152786975,-0.3584694314728282,-0.14328864569907312,-0.382467943986195,-0.01229539733018368,-0.313136704143253,0.6133899711284001,0.37293586486366953,-0.0928120701680526,0.08998498507900372,-0.2539597545242195,0.09302277702113833,0.08461786991810938,-0.013645210441440537,-0.4489318943218573,0.20956423160385929,0.05050266939858402,-0.5210402938777856,0.18834396174916135,-0.39482762570153174,-0.632012037520593,0.04316247959143901,-0.36217607707863764,-0.5558055219733143,-0.30887934819557705,0.027476180268989132,0.058961877623754495,-0.2746155547701316,-0.006384194833970967,0.4256387327767178,-0.5347692738195888,-0.1530474092092262,-0.5915516664520655],[-0.28711003411277103,0.022151566987067314,0.17763883726637905,-0.14901736495011814,-0.18467345106989344,-0.18326870073214171,0.1194492845233282,-0.08389023429548348,-0.15498610075867075,0.2179517465590214,-0.178591752042867,-0.09740829072868815,-0.027580571484939385,-0.1669771300419506,-0.15195856929316776,0.20550189269037283,-0.2477264049246933,-0.0732051296418191,-0.06574219269945726,-0.054844350656964844,-0.07450586194138754,-0.4672020749452023,-0.08033638190554687,0.0735950620194465,-0.029406848090634048,-0.012934767398467967,0.008385999609017973,-0.07578015326222284,-0.23767782650454092,0.0661463948223409,0.16252758685606514,0.059553272817338396,0.026282473868937017,-0.02939750841103108,-0.07525823482022624,0.35158939941502704,-0.30420655383064854,-0.1565363762793593,0.1948143034702265,-0.06184287307987578,-0.17049799060954088,0.017928403218749372,0.3458718893784562,-0.13878788597260894,-0.1430051311212409,0.11058460653929934,0.09353986849106538,-0.2056182453221254,-0.06323930007566982,0.06592335201039576,-0.5478421277302347,0.04718522055409862,0.23957395238158144,0.09533786305624026,-0.07235568145640854,0.18146030583725212,-0.170542162696345,-0.2089541176749367,0.03006004400557126,0.017332249153095856,-0.015360062581612537,-0.2729186965079263,0.018190520126985868,0.22836126266116166,-0.08301788483677099,-0.10016498334565226,-0.27837215585019565,-0.19397630998197954,0.2239390552007312,0.24771109191801463,-0.11168182412515933,-0.0759185471303126,-0.06764051328226484,0.16889470760395325,0.11465946316819205,-0.029577030203463535,-0.21145911667747158,0.05399038891810402,-0.1291972582618086,0.015180809490551202,0.06172049987275751,0.10335339545000032,0.02570855921636956,-0.16217393618311363,0.16379882498556564,-0.06797004415330712,-0.024760900298855876,0.18391847856015714,0.2974201821631371,-0.135907749961436,0.10498910900611773,0.07852314262164575,-0.06978481203235859,0.16303657223460594,-0.01154564878662554,-0.012114409460235552,-0.11221902512709099,-0.31967604420868834,0.08493740956182297,0.09272531995037987,-0.24320229394313952,0.10729600546329782,-0.16703140163344668,-0.047603179746143295,0.11482258431664628,-0.15794008369390955,-0.1621586475584131,-0.28551164720805167,-0.05634601516949449,-0.17578599223056904,0.11023144808090843,-0.01910937540092459,-0.15106454906436514,0.198579128690595,-0.20239931245873669,-0.025431038159797473,-0.14335865672766718,-0.14909792178858994,-0.16072364651837856,-0.07179667933983493,-0.18618510063715055,0.16989939514823962,0.12218661463694176,0.10824407831324456,-0.2451129565424549,0.03568148561935114,-0.1140036046054409,-0.16523456628229433],[-0.17797635550482158,-0.016940981128141155,0.07525997610456789,-0.1161268273867443,-0.32751476877846114,-0.29580494440605143,-0.11649126759450154,-0.1990543519105666,-0.012389501149301065,-0.13931139733339332,-0.013786426837832674,-0.3578398541185963,-0.3829753804030388,-0.040871003949698455,-0.16070255788730928,0.09091955847811373,-0.11263834347804465,-0.08725925866231318,0.21235910547831927,-0.26432273554283153,0.15192835636747365,-0.11876172581806912,-0.13729119033189535,0.0024238869570973472,-0.5160505911554337,-0.827421789859896,-0.02479807828236426,-0.11839249954959113,-0.3564757682493575,-0.1993516076714731,0.0860912749850019,-0.08182365882925301,0.27683826969480607,-0.10790116916760709,-0.29753267775959485,-0.19520924353371097,-0.2706283322428916,-0.16186960597292127,-0.003118549007998095,-0.518678958433236,-0.06121494592582302,-0.23300277702413225,-0.2715937274888236,0.3312684607892092,-0.2190437921045957,0.25377535907841803,-0.04530931096927708,-0.17323869560102623,0.05412233268976745,-0.18995868831787846,-0.4485707735353341,0.08845912047902674,0.2044634006606027,-0.13517121697373102,-0.22741980560970226,-0.1184986892671748,-0.35085337272275147,0.09785348634606597,-0.04386404561349676,-0.07325988856492566,-0.10492660063640401,-0.5169158175897748,-0.1863639740650018,-0.0016410875965802876,-0.2190419233652059,0.241593157157423,-0.20969848182938355,-0.20815406683422685,-0.1544412289964748,-0.001887456902131983,-0.15339202915628122,-0.18846509771597084,-0.11949430907525023,-0.0921558288757268,-0.32301033780936766,-0.21909053122496197,0.05717206024462359,-0.33289761306309734,-0.09517238891019739,-0.13233149817514217,0.044175024017425,-0.19589019368006733,-0.0973981770486477,-0.6723488090851462,-0.23475814078140847,-0.31418488640627396,0.22302421733599145,-0.22368170094182432,-0.07602694357963323,-0.0639666631405493,-0.06374310437975822,0.0025627312542241413,0.12204185201326904,-0.19903583593830151,0.14288999331632288,0.29648630469664855,-0.18119988934022227,-0.05035485448214893,-0.19676484519848378,-0.1413091099160738,-0.5083842447486807,0.03810190105472556,0.0006689066031683954,0.10237559411919357,-0.27247364178422434,-0.07463969009197775,-0.002276440662333211,-0.1917121124626347,-0.041045808714753856,0.2064699106238829,-0.0324021818752107,0.21908960645268835,0.08562085671847564,0.07295030300815934,-0.3240384128958498,-0.4033610531493687,-0.4228593468905327,-0.17262030188857028,-0.3479772741917308,0.2069661539632581,-0.257362664723832,0.20922652688897292,0.2134166133705932,0.08813206063334775,-0.8195612623718683,-0.2866282164109363,-0.15014787654725292,-0.2438501736808828],[-0.09653019587447872,-0.1962250111026784,-0.22319374545965626,0.02506701758527659,-0.10851665455616162,-0.251033073616831,-0.04744632768167881,0.07256585786765123,0.4494646182522456,0.09762261413922348,0.1509162713697935,0.11289296926284718,-0.024959616832150172,0.0166808681997568,-0.0426085130801541,0.21482947127059276,-0.11452255038605767,0.07633350268344193,-0.056344790244907766,-0.0048319961157616016,-0.21435609676166623,0.13228504849600756,-0.07475500197377682,-0.20219587384278578,0.29871186273668665,0.03274273597060356,0.057471961439769126,-0.006531060860959374,0.31914645914284634,-0.07930298768528556,-0.03488971851582883,-0.03401929324270926,-0.10947048950518204,-0.03763592995485732,-0.03804332215657748,-0.08728499654534674,0.03765726356264375,-0.00983184595817767,-0.07094730615879723,0.12451217455192022,-0.00282924746280291,-0.05426753166489486,-0.08272187946567641,0.18550900388084615,-0.03798537881253553,0.24636160796532913,-0.055601221760271206,0.08036327477526949,0.035876914108068106,-0.07387638690865206,0.15402424785464547,-0.15164009159609013,0.17942847963508574,-0.14095805901288694,-0.05290540385344123,-0.014726493929371268,-0.020764650929366982,-0.08078059345660683,0.24808783266805617,0.07814046177998352,-0.17171918546728393,-0.26925922196734225,0.06843598011192734,0.07360238255640743,-0.03868128350338337,0.09503743134802942,0.13822026622077488,0.15035370344146098,0.0780075301697775,0.16417382872626637,-0.11175875211783919,0.15122189487101098,-0.05119830597963451,-0.1787470044880439,0.02674921201873544,0.08750200860656489,0.0367815541508735,0.046610053821046625,-0.18148545661267018,0.2463708965233829,0.0661275545632958,-0.043843734242264516,0.011656605823657884,0.220769282913615,-0.2103548329315084,-0.07576738985242719,0.24684483586755,-0.017245448776242022,0.09732370886367019,-0.07388406375309607,-0.025656545112890478,0.030404241538711803,0.01588201635137977,0.0029439281169524154,-0.1365706085284469,-0.08875589255249088,-0.019572231948626846,0.3078293115868413,0.2581590089376456,-0.03702121624867982,-0.10556373221294581,0.056419132220770704,-0.1455181033163195,0.14162298696088702,-0.10951200348520658,0.0075698449354586325,-0.0900990772652793,-0.030705332220087343,0.13806002229115075,-0.002869108567935618,-0.0191951152187312,-0.13868394521206615,-0.29266654972734324,-0.03818434908362796,0.1553564419500878,0.15981550270855827,-0.11388164017133841,-0.07931134633259694,0.4928164112913361,-0.0013912529891160074,-0.3019376294088556,0.16498635572028597,-0.2419734543320139,-0.0649051158100702,-0.22401155250354232,-0.26757730700047994,-0.11508160539862604,0.06896276282056356],[0.5410914602104338,-0.1918337998073722,-0.1901666755835389,-0.0499135742783164,-0.032819854467274576,0.29122497098049455,0.3354376886192473,0.0448614503091679,0.6532056429921709,-0.16631344714333313,-0.017812416904455435,-0.12927160915796407,-0.43661807531799524,0.35108137586506805,0.11920359201841521,0.12956308796123275,0.5936782787878987,-0.17140431882861581,0.15629138000506201,0.15870008955936257,0.18076914748413658,0.6925135431532291,-0.07997981027757559,-0.007768425594744144,-0.41106303144974093,-0.8855996180757617,-0.16428248619503213,0.07301405176941031,-0.8939258189745739,-0.1996191231527846,0.11212226608012503,0.2696362750416098,-0.24934162178294414,-0.40885728162776647,-0.18268742446748432,-0.5568259077701998,0.012274584046374791,-0.02807683276890043,0.09553098967888458,-0.33094484985764455,-0.2260225075938486,0.17114653904791896,0.07422420501960382,-0.19975483127078048,-0.09427176165662594,-0.20660272798588278,0.07006333493728212,-0.23727056496733331,-0.021405892944544192,0.2646284014514596,-0.1628263633000596,-0.03028120124611742,0.046032183220357945,-0.11368569514349317,0.028041151946011884,-0.0937748429015554,-0.16246500555472607,-0.16716129452680534,-0.13400668762221504,0.06125510718900219,-0.42282316850387636,0.009406326294636351,-0.0761663516276938,-0.6873782204437097,-0.306374720978782,-0.18827574601364802,-0.2648368027897252,0.12643690706003768,-0.3810029757782284,-0.03918338631668372,-0.0396922719623916,0.04486591910846548,0.01160140355452715,0.0021521039225847415,0.07260038537709348,-0.02661254271897208,0.11511818347741795,-0.36948983376704003,-0.015990359000013048,0.22004235051053964,0.7747695511831799,-0.13771860234307148,-0.1344578458283201,-0.0036941596702480014,0.21250247600629202,0.08821562263917329,-0.15084500245318694,-0.1692692284686124,0.359399915596669,-0.1007023805924721,0.22801380467737653,0.4186502154290457,-0.037437318143044254,0.1326049456523104,-0.21677964200201177,-0.021773260979547484,-0.14112088561816483,-0.0735649952061312,0.03982508726596733,-0.09300865318071708,0.05005017225046552,0.26450486991640665,0.019966626601851552,0.0264095617837505,-0.14800718207207178,0.20535651465647373,-0.08539233487456875,-0.2669848743216552,0.01888438402168068,-0.0024664056781619954,0.3886109878542627,0.15498065834566382,0.5514065009204303,0.2326978763037917,-0.001914354150409736,-0.3806340772491055,-0.17525500734245814,0.15610008465711145,-0.22462837458026308,0.2156969918004182,-0.35884733633744087,0.027509937403552738,0.07214552193181668,-0.3748022436416466,-0.38860450489137494,-0.14399259191982777,0.257021811058191,-0.18405739356868472],[0.5442338076078919,0.3958402819786957,0.08285056097741607,-0.12821357936021988,-0.0022892151923044075,0.3685703911099609,-0.3862318153570489,0.060767558495667014,-0.2794476969576525,0.09560690037022085,-0.00686809985608516,0.30986420057831393,-0.31368367274166015,-0.19155530548976277,-0.3918874962477569,-0.023421682290059413,0.20397413067557532,-0.1596424889794393,0.5485633181489837,0.3172808583580692,0.20321044305269334,-0.3489782478689613,-0.3044627634248871,0.35496433009618084,-0.343424628052132,-0.08530207694587427,-0.2618127845301613,-0.08477645367987731,-0.20714920232530423,-0.21537723783363869,0.0654013396475687,0.29459154212957106,0.1340000660615578,0.06127652156879216,-0.25379325565280003,0.500086347962247,-0.3958142879006909,-0.3090279506292493,-0.048907617254508776,0.036026959916028535,0.15408885271668038,-0.08232912935743222,0.00001094762057883775,0.2662326457727157,0.36483181237125306,-0.28391212377308617,0.1477026790770579,-0.09774345566525962,0.32534472436231776,0.16814609667353514,0.042261523459783124,-0.26043094850559556,-0.14726559747667073,-0.10802683126099184,-0.17385916546461128,0.1973779433955404,-0.19100212363788327,-0.5529365042000417,0.19677019747921692,-0.39373327807182823,-0.4940616894740056,0.07279038727206656,0.312537505550548,0.37416465965145745,0.13048468801686008,-0.20405708523021127,0.21461328474365468,0.11590280208205725,0.5072354093938322,-0.13196738576573921,-0.1658170908117527,0.07052752275665884,0.11986646313855165,-0.16342290228473874,0.01583615233936822,0.07674853607331963,0.1780503648142378,-0.20620972080976618,-0.2109675750953932,-0.23192078835901614,0.1206739540526705,0.3098814824987059,-0.23294100570415038,0.36752692179656077,-0.2451143830861179,-0.3230616117983178,0.13785792638431832,0.17922423726534056,0.04163078690595433,-0.15150582618504702,-0.0198961429828459,-0.25884045251386123,-0.14446801698320288,0.43360626423931975,0.126356200555539,0.15402812862533147,0.13589687316385082,-0.2120643451622864,-0.38615057369961214,-0.1602087329322218,-0.042370422670748295,-0.12796678348782417,0.05470207088179188,-0.15836715029821896,-0.037361736181495915,-0.1168466450301204,-0.32920265089053774,0.28147777305814575,0.4753192280605253,-0.30003911391408017,-0.017426182147776637,-0.16551165985007907,-0.13955724868182182,0.08606930534781077,-0.8378150039685921,-0.39570604925717917,-0.0355873724567304,0.22392900863832313,-0.42063942865411297,-0.14190776803229338,-0.3345098180880642,0.020769284828402283,-0.16685669151399546,0.10258559251710112,-0.8499484281506525,0.0997833874261278,0.10733363343836518,-0.41537970939055874],[0.4450080527116104,-0.09535241116177769,0.07347811644123252,-0.028819903976773177,0.22775052546918084,0.037577135724660635,0.14466438272437704,-0.05705279146841581,0.20880669166355614,0.17170308994477831,-0.026723047616678763,0.11865808487854276,0.028183083218887284,0.07235234220512318,0.3023611926723464,0.12221609074368872,0.14527356940722377,-0.08597234253836536,0.03586718441862283,-0.07843616940884036,-0.08687389960462386,0.4700485200466387,-0.18488972291439332,0.26517865722436346,-0.2738793112272307,-0.8482443319259194,0.06371965947321746,0.07637475540122975,-0.05752535628723601,-0.019117097240852806,0.01899392017910817,-0.07740620984350255,-0.8232143558920251,0.1820099416766632,0.131652427892998,0.051358692451146735,0.08067656923491288,0.07477365327104622,-0.050764294642347774,0.2614481318186917,-0.3455774450388008,-0.06013982146918551,0.26720286242063357,0.20309206974961672,0.03783337870693453,-0.14003955255683376,0.06196953974289383,-0.11789851510668131,0.13234104003618452,-0.39914801611328116,0.6789791593239831,0.10107492592352492,0.33219564531799334,0.2117225313367635,0.4019898742130639,-0.0397251640355433,-0.15670337499290415,0.330880331006803,-0.13449123422030115,-0.01805646340482276,-0.2407661033573629,0.1411079932376129,-0.33671150904332436,0.10783013400517587,0.09647379089208091,-0.08673829565888846,0.31608518955198667,-0.23314890282209566,0.12775878845121233,0.15555111820425474,-0.49637005628455616,-0.07319344623902839,0.12776026215462208,-0.03323440900284852,0.31758633137216413,0.01172386733044708,-0.3724604802922665,-0.0016566500404514898,0.17084887007650368,0.19336880589756583,-0.031625599646710835,0.0699660615759297,0.24868415707180555,-0.07851283651720563,0.08918046815895354,0.30163233351707175,0.037227663013229204,0.06479085676086069,0.19204730699628797,0.3428939836931283,-0.23541806192093873,0.13532287356463685,0.10048803478710357,0.11423800459952041,0.18877183857155025,0.047085409042423976,0.16139727461705658,0.024431856787335556,0.17829854632667907,0.24752400825625212,0.058806171281505906,-0.38505884559748044,-0.22620052460723916,0.0758068506172541,0.029637311399839012,0.015409940566357755,0.10462835032460492,0.22123350869131905,0.11294229684754054,0.29302061928455764,0.282717827381051,-0.05394810940748778,0.2028243851336261,-0.08465776631999504,-0.05522458238202342,-0.2673362699809086,0.11258686850720004,0.002568465149400187,-0.0948676831086272,0.24070395396234173,0.08889992295231415,-0.04422026128581971,0.19127466148351263,-0.06158002738459004,0.33430964884812364,-0.11862554639612893,-0.1348599556427786,-0.06843456482171816],[-0.04383082867395075,-0.10730051086119344,-0.16887303648467525,0.022919779164650125,0.04268874146922789,-0.5251085891747612,-0.11125920121877858,0.10578136698245166,-0.3138313078705863,-0.13535088283464514,0.18402169621498973,-0.080014128800387,0.21337625533389706,-0.10939436281010168,0.28664292891817833,-0.1662705102423186,0.05154628011531765,0.004795424564915411,-0.34666649487351087,-0.00415838102938858,-0.12836956093918836,-0.043365501664350097,-0.14963125486678427,0.023079870445917985,0.1031571743486667,-0.21469055849267965,-0.07654766917950975,-0.13806777396578646,0.341029012956041,0.214954800871806,-0.05393177989311551,-0.20025977449265955,-0.20807877028875604,-0.25573792207773877,0.2510615177728511,-0.316577203379056,0.3664755268687612,-0.1461857847021635,0.03443046498466221,0.25693531165885575,0.16749588838797816,0.03728007637881973,0.057861192632316705,-0.006573304300843779,0.05783219485848349,-0.2097967211924811,0.20634239673219387,-0.30172172873435105,-0.05987203780654672,-0.24684324348681083,0.48657076679561556,-0.010539523221958022,0.9498983745450554,-0.24465457396655205,0.3210488363677153,-0.15513921462801733,-0.06785119695028258,-0.10108363357543619,0.13176469601994575,-0.07044077377550442,-0.05519143510476772,0.05451243895197686,-0.07636207930067226,-0.47529527668153576,0.3508395838704349,0.565117425765823,-0.2615353960210875,0.3885944182890423,-0.2634039648205372,-0.09148830521866656,0.10635430661560019,0.1447548873013986,0.17546882060791633,0.08031768807058066,-0.6154499684166549,-0.08593959485402773,0.27746149980575063,-0.20535379992343697,0.565725637600372,0.6184025159010922,-0.4902542807059074,-0.29263346421003444,0.13291050991963183,-0.3059377021512418,-0.09369978695971994,-0.02394064177443889,0.03022918877611903,-0.7524075289927655,-0.6226879814764443,0.19320684444801783,0.012062801774006898,0.12805751421390113,0.07752570926901803,-0.42078442200327054,-0.1649386233814213,0.21052891705149673,0.08014964960881188,0.013857657606072398,0.8045180922096148,-0.010378657783904689,-0.2506549830127357,-0.6094832723652092,0.4018908393240115,-0.1510522297736285,-0.04445113456917453,0.229784509836788,-0.17418628626197985,0.24320739950872636,0.01963862298468958,-0.08149374337035518,-0.026252792879791036,0.5026383164598173,0.10075833362996102,-0.0821073301607468,0.37495892265679703,0.03314496986922175,-0.14430669845371252,-0.023434187316475605,-0.2537528570854194,0.08223732649136799,0.27904778533445096,0.3153944089936787,0.016815550570767418,-0.04868094944172404,-0.026770081867269105,-0.3662345344362492,-0.7148436678438641,-0.37358525950169885],[0.12110470434355308,0.17203204179574122,-0.07439460259246156,0.08903770892161478,0.14347960734784299,0.014502777450119929,-0.12316679651785657,-0.09004182542229203,0.08031843018391882,0.005805732453898889,0.057197684906062425,-0.07046197216436688,-0.19072855044507678,-0.08034253435713631,-0.16562663579190917,0.16970582528089337,0.17559631196873524,0.0105882688939393,0.24345558680363283,0.10793125149086445,0.02770106031329221,0.13141770310980297,-0.10299263562140533,0.17558202000551454,-0.016858636614477944,0.07058818807845711,-0.11887108910389164,-0.046140700444894725,-0.1026066405785064,0.829680280298173,0.274459455307392,-0.12906086690322274,-0.37514205354958746,0.2458503802218323,-0.17578336319430413,0.4633975757586197,-0.26641028526245747,-0.2325681582848991,-0.11621279334440893,-0.7153326382060965,-0.09089526554299021,-0.11587797711284559,-0.3287907302832455,-0.22624303488278402,-0.0988984433558408,-0.5415473865997924,0.05572729909759729,-0.4749479209188358,0.06196030732046202,0.15689894036852262,0.44608643972405154,-0.15904431347110906,-0.18470182261835297,0.02439763720606432,-0.0057732260108722885,0.11631770398721425,-0.06777020112043838,-0.29700174695940323,0.4979484820624333,-0.1512725467604412,-0.3303600515440498,-0.14517904469983214,0.05674235361341546,0.25904500728369906,0.13370575966222562,-0.08423498428465381,0.20205343021591787,0.009938613644430183,0.3003642633780719,0.15037770169368544,-0.01902752289965178,0.008184780766549053,0.03739309635794602,0.0010100903413162784,-0.15179536623233872,-0.022210356182084137,-0.28234596400690926,-0.1740151157344197,-0.12021159803152104,0.02195562110600014,-0.07006595403416481,0.3840936815497012,-0.5415679189294892,-0.34547526150219654,-0.24300873622125116,-0.15909464345198795,-0.15657311301328078,-0.621346044252523,-0.1622402077436779,0.06684429661495754,-0.16246346102593437,-0.225782234402322,0.005438482152020375,0.14584341248149255,-0.22440094718936107,0.07770076435966415,0.07388298099825244,0.0035362776724345854,-0.19585085859287882,0.011031064905383432,-0.11841014040728161,0.15573410323967907,-0.18270826841120863,-0.06534665499222285,-0.0015030641763551936,-0.17084353549317238,-0.055742126345121455,0.25623089264538923,0.09747286525996102,0.08126048962439304,0.3790038466791862,0.18975264751412,-0.3299348225147211,-0.3296325055190388,0.058593998003552146,-0.005360413636842466,0.013047396064848376,-0.3210994205628894,0.4017659399986167,-0.2935460378756585,-0.4366763378202844,-0.1715325532754922,0.0015844230792045918,-0.058836842013728755,-0.30982699979832545,0.1444007176683277,0.23309786189537432,0.04858816071546825],[0.06968046192363726,-0.039135376121996086,0.0034253057336104576,-0.12504064422238675,0.008653431293726786,0.04094548508102969,0.02790713524935273,0.006749877234268986,0.09073361490003425,-0.03800924095102597,-0.014625159919622028,0.10809427139364988,-0.2239353019574708,-0.16672930598213914,0.01280816348208246,0.04390951575974241,0.0815675346480231,0.05517238105842232,-0.027345585609567926,0.10538033370144231,0.1256919677590054,-0.08994923275153542,-0.06526269081540864,0.042992134900440994,-0.10953347494854052,-0.1493068365211854,0.10399564090012621,0.04283151190638238,0.08613957959734277,-0.030468727335160924,-0.0555264155547527,-0.004146865548588014,-0.0005931902537017053,0.041930718293368745,-0.13982754073877793,0.12231358105013396,0.05459597815831485,0.016157558264935108,0.0991448039593838,0.0015825260621225002,0.011266044879930685,0.03991208732556219,0.10131570919235303,-0.10949254832605239,-0.06819164941554048,-0.07660092484768255,-0.07087055596512049,-0.05412593262628776,0.15304067812944933,0.05602001722573011,0.5104570314449071,-0.054432425205319816,0.15474922763967597,-0.16625665554892555,0.17045394395564487,-0.09205768413693317,0.015495400971951378,-0.06629194233373811,-0.01374242749405288,0.04545503291814684,0.0064344562432883,-0.025998268265841822,-0.02510716473470867,0.29353249630653677,-0.026996647339451264,-0.12979223076998478,0.3338453920860783,0.16570685038572383,0.028230967736977735,-0.16991486957798055,-0.19931885308517291,-0.08633302707484344,0.09019647597268765,-0.018545691460220646,-0.05886098312058567,-0.02612388151617128,-0.09610300092631237,-0.23210711088069286,-0.07062786834773165,0.024007303126967607,0.0936198358259582,-0.2703980896368068,0.04065630267332364,-0.22820921733505548,0.001479264783595719,0.0017940393282457605,0.26716171942583716,0.15337237330815404,0.1214231068670336,0.15249861017746502,0.030366481335376547,0.08832095694752831,-0.14426546536368745,0.23488445698872712,-0.04800067554824231,0.024213648750347355,0.12216149585488541,0.09112059499455731,-0.15209809441274938,0.16039054408498019,0.02942574717617488,-0.0882284349120229,0.1374540241428017,0.006690064912133736,0.0035424038908893384,0.021845549494910892,0.0327673819696654,0.20058156880661443,-0.09489594224460253,0.08951699854325579,-0.10190983988458448,-0.01590155966743539,0.029739987339713208,0.07679744881799751,-0.11604821878675763,-0.18998353772108348,0.13712693799718564,0.0112137681064856,0.009815629088686668,-0.019638576969955433,-0.2148561713069655,-0.0686504920003628,-0.014664978540636059,0.13395216561794418,-0.2469316726995704,-0.11533841692410986,0.271552789667949,-0.08258444530757048],[0.23339180626805253,0.06684561691617844,-0.7701526713504852,0.11531106725056002,-0.26969875933302956,0.4253095911865489,-0.18370550783549375,-0.1346470458396639,-0.2263243503232869,0.08611271306979512,0.03408503987688615,-0.237073002301722,-0.3015685040986399,-0.015656981966841097,-0.1111679861839203,0.010804169800032843,-0.05085514981164872,0.03817604492519058,-0.19798408102333367,0.15430312321654194,-0.1506013669789892,0.2762701202748099,-0.28584933436431037,0.2546961128066766,-0.1438525980435662,-0.21953566722665013,-0.09488706262716969,-0.15054376112529985,0.22676713443160396,-0.01669622451375646,-0.42914205256912896,0.11053670062036568,-0.6049358152710574,0.08270675879821812,-0.18785359413815858,0.008900558044844738,0.2109639325060977,-0.07039066910264646,-0.03478916181061651,-0.4484752322018058,0.18986300624997202,-0.12999637946123355,-0.4871850539446617,-0.8677774730666881,-0.38781287964342737,-0.8011219249762118,0.156597639587809,0.05319903860872226,-0.2560760135328476,0.48859395495200963,-0.025305729052384915,0.09255424457501583,0.038753938103495325,0.021857414820857225,-0.2527617872699006,-0.03105096493135823,-0.007646823734791919,-0.345533958425119,-0.43716347910213293,0.11785133352863955,-0.08172951387536657,-0.35470069473184285,-0.029156328873858977,-0.13371783401695955,0.16194424926980408,-0.02184351565854567,0.4694404535964219,0.01839667975903158,-0.4234887622128327,-0.2286958001533084,-0.05353996674550044,-0.03815474560987745,-0.22771141354827454,-0.21521612885337113,-0.5397358054437902,0.10138781276943422,-0.20150264787331434,0.19886648925111922,0.46463950671235216,0.12898877895826263,-0.16536547792353382,0.01110275630866615,-0.0777890226851009,-0.1522471508738444,0.1153573222536033,0.07068166486476236,-0.8756790291634984,-0.23315824864252319,-0.3720372764474872,-0.04989535332638441,0.041618681285097915,-0.2525644193940634,-0.01853883424913252,0.7880600166788716,-0.000954802051765838,-0.5901032930544703,0.12448842174283636,-0.04367543164520503,-0.3069141620353661,-0.29022696285090754,-0.3631032718723012,0.2810330859587236,0.2249880413889468,-0.1568439284292291,-0.22597912041267781,-0.23973471061759574,0.08522419206467914,0.1431002253493186,-0.11273602205894317,-0.1802634483834727,0.632573384115874,0.2562513313317573,-0.3636834689549263,-0.5112053385146238,0.2363991025210945,0.783289228025319,-0.12122502607892406,-0.24756160488789855,-0.3251330144919454,0.02210264058486925,-0.14022322744234425,-0.17515075333990268,-0.9485900064423898,0.09479351296457814,0.08400642802643676,0.49714167508043117,-0.16382502760809237,-0.19793589771943645],[-0.2070135098349713,-0.1975129809171265,0.3127449092846352,-0.021745280571955208,0.11977794298773908,0.20131722361372267,0.2887700911429796,0.018734364362558344,-0.06375985372307583,0.07736674804584659,0.04766720272739961,0.13594057975533455,0.005099006541349555,0.10916547907383019,-0.11638031242761432,-0.14397683952976734,0.18345180090303992,0.005816398107996803,0.2865048082776873,-0.09763814597387785,-0.3136326300253362,0.3866502525708028,-0.029945863164626118,-0.22032154899929804,0.04098700015833207,0.1344604873051891,-0.12993599719030563,0.08559213071391758,-0.3343814098920686,0.3540099456153861,-0.058400083128869344,-0.09654738808556389,0.4350701697218612,-0.318594267218167,0.1826939469208497,-0.39460856158337626,0.023469079489525868,0.12638392695676443,0.0037218438402427034,0.45957401905956524,0.015614048331162129,-0.1417803381003952,-0.1719291469897726,0.3668215635450624,0.22334093751691675,-0.2257786353833558,0.0711960133702929,0.2061013845838408,0.23841243698454148,0.30515185460423744,-0.20559939470070526,0.09677867132209686,-0.23241886604312062,-0.30284297318442727,0.1643388709840277,0.09244287214473272,0.4474583373813928,0.30123541669683457,0.24700876908461084,-0.04400498307423716,-0.053253419159751104,0.13203168021148676,0.16593131911634001,-0.1541718602911213,-0.02265410334082483,0.159744211644954,0.29783537950118116,0.19581771411274385,0.07838119727171249,-0.026363717487377775,0.031304153007205536,-0.10695696037893583,-0.10472172821928928,0.2735141400588185,0.40117440404955546,-0.10576319473854857,0.21058727126529705,0.38688114440684523,-0.1616159626257377,0.1555323669235057,0.2746557588356428,0.1905951667962309,0.40610855254352823,0.06476516732552226,-0.1083011224161396,-0.03158835884610993,0.3231504241401999,-0.24707834353715455,0.14089532899488003,-0.20159086972144544,0.05958218349635895,-0.3475567642072041,-0.12020427223185612,-0.10748991772959396,0.090437784368526,-0.06708017509833421,-0.07533963735709873,-0.0580571939345343,-0.0801260097162531,0.041041171227297786,0.17541299926203885,0.29119850645688533,0.0021316052223367948,-0.06461420942694843,-0.21348480731928487,0.07940934885263554,-0.023314205594831522,0.24818270490846084,-0.12348488533593972,-0.37899930119753183,0.6061629162039847,-0.03363708961674019,-0.058033489160591305,0.13621618958005918,0.3117810564172971,0.8831513914383848,-0.6390637569928708,-0.39625672963936526,0.17767965622468607,-0.3411067485915142,0.1974501881268029,0.045312303418831607,0.12411121944586488,0.039131067490797505,0.2713943497946386,0.10898825318841857,-0.1447185983707958,0.12749163200615238],[0.061956753476326794,-0.13459610319509305,0.44143716966130836,-0.030577277093109912,-0.052497783519038485,0.16012501609831864,-0.07625722809736134,-0.11595428823116775,0.1128203592956434,-0.09557906194540251,-0.07971090288019293,0.09671517520713395,-0.020074496757831208,-0.023562208406089722,0.12221435801173532,0.2523197697713399,-0.25413211330291996,-0.07104191895334185,-0.09887421274784083,0.16748028305831278,-0.1413363728620241,-0.09791322479721731,0.04639265495203571,-0.0805201799976469,0.18394186377206023,0.07582873900449254,0.03290003964135253,-0.14243168086320157,0.11341699626461534,0.10079667350606682,0.08718820180310044,-0.1240590646805625,-0.21169702878992616,0.1069277758350067,-0.022679027632280083,0.04011990620110468,0.10216024989520699,-0.09502625296158149,0.09079166849491677,-0.05327394996594048,-0.19356066681728548,0.21127221099052373,-0.10932588134569392,0.1508521258650812,-0.08239729825353649,0.256357647218429,-0.16756891991837614,0.12783329114347602,0.0215027246276995,-0.10976049336202984,-0.07741746851501531,0.004213936816110302,-0.2427275475367337,-0.011457819629095223,-0.1718312553558045,-0.160184937188486,0.038664206648264414,-0.20257454596963329,0.0771196489732741,0.1781420292077977,-0.219575115377279,0.1716497493791122,0.23849775166108678,0.15010260241531342,-0.0013254235454325677,-0.04633125448663577,-0.05473096982756917,0.06399849711306992,0.06638320549826003,0.06064824682498954,-0.1668659185747237,-0.059194730228062084,0.06757630516715939,-0.19348781655974923,-0.19022423465602992,0.13278687430610708,0.12133777976380049,-0.18826696374239651,0.0022050905146471624,-0.07643875283559409,-0.14030738350183472,-0.11162829488730557,-0.12577929208249458,0.2403081755295817,0.03550264467499974,0.04388763506684457,0.14519920596002905,0.19374531949703783,-0.05053646690426594,-0.06907544310798043,-0.06162177195984074,-0.13764436159358245,-0.14087630492237024,-0.026085624171075083,-0.15423122138189121,0.14385741493169305,-0.23079462796208,-0.24439820733672357,-0.2667026759374287,-0.16091451794166942,0.010487249430023148,-0.1873901099076185,0.20629560937643004,-0.003674297526697223,0.2889043689513151,-0.31020053169655676,-0.1225794654064484,0.053250215727958426,-0.05340388779951528,0.18450883514029084,-0.2661847334993797,0.03904428515328602,-0.28698160308604,0.2285583945490322,-0.2610737299884736,-0.09548476227873393,0.3278551731649392,-0.02244778310061982,-0.2983640192421611,-0.01275650462340905,0.340169068150654,0.036972659282248986,0.04734513442323972,-0.0654276910376995,0.26588786044194507,-0.19354571375495622,-0.08973705707833197,-0.5364485201623502],[-0.3315935569581451,0.2541832655059886,-0.3018298817657389,-0.06963015407034819,-0.5031693731936174,-0.25782674663473565,-0.1264239519907401,-0.14632255934538518,-0.3070576079954353,0.17384054158470422,-0.07348524254681638,-0.05466319542701475,0.09155942027424346,0.13219814768333876,0.01708495615169122,0.0991841162232053,0.03126640928077565,0.054971635367944416,-0.31886923485493585,0.030981869576963705,0.077059190545005,-0.5316365900739642,0.001082319787770806,-0.2452447997587183,0.15980574994203034,-0.26741363577391736,-0.15311662474710042,-0.02817674802827448,0.06647791050667295,-1.153014042967619,-0.3898105405766175,-0.2514056721327,-0.10171450242536954,-0.04775137254618027,0.01512990637294028,0.44978388384557333,-0.08993010311428835,-0.04728698920563793,-0.35789511071286384,-0.11376095717180294,-0.24394351554961177,0.006630512561351849,-0.3742677071710045,-0.07187954087669417,-0.19923614104787357,-0.18654615932108454,0.19086955849464446,-0.13687241201668637,-0.391692571908665,0.24724502350389396,0.13449142088590882,0.0764571394656283,-0.18446139921051047,-0.24951963564116234,-0.19978796504230076,0.15320229629809073,-0.3452067963552976,0.20457763757361871,-0.12153161449551776,0.020210414328802263,0.16781064277002666,-0.46467613703097815,-0.16580836171429075,0.0787372174291428,-0.27573744541999046,-0.25889937436773847,0.4200340861635001,0.16463015054767385,-0.6672715889533732,-0.9156941450299121,-0.7085368896280546,-0.19596987296976706,-0.25692901850120414,-0.5801773976238667,-0.08634131022549932,0.10052024310982992,-0.9360802348839968,0.13921800191396183,0.31568619580040463,-0.7308148921127077,-0.2823474108622548,-0.5043937712146452,-0.6749687169422931,-0.6835456550123601,-0.12341019855783068,-0.529393372120152,0.30784612890186064,0.03915954554859428,-0.39273691768675145,-0.3694979440619951,-0.19829225808823434,-0.3058932780361727,-0.06206361893509426,0.1312253819768729,-0.4106995962824973,0.051447996167798334,0.11986831545141016,0.11270829556993797,-0.5630615565571327,0.12099485635399673,-0.5988417636092269,-0.3561892344109131,-0.15963225041196316,-0.07877247618132563,-0.125259197514163,0.009753107008068373,0.1776316558449668,0.08346567623556063,-0.08657501057473074,0.24793843392187467,0.36586273091620436,0.18631748062771838,-0.4439876286114072,0.058664297849740143,0.27422118228980147,-0.13398934937477688,0.29010125535875075,0.14565809903526855,-0.4782594533238943,0.3042359323351281,-0.2973889590815691,-0.3424886310470166,-0.9915590067895945,0.33134192984366434,0.0442690788793898,-0.23462008282742014,-0.32082413688749295,0.2564081389809022],[0.052758810601262356,0.01464821545668564,-0.11320723570589325,0.17219468952962827,-0.2359569182442322,-0.4106576068883351,-0.057873126835927345,-0.1387781293443455,0.38472030296707277,-0.044966256562459846,-0.18522150761657913,-0.010908048486496817,0.24182298397908805,-0.039215362107908346,0.05711767626834918,0.008587470137466946,-0.11869271335502235,-0.14386740932239714,-0.0460261648535064,-0.052762434802529255,-0.20632373644387306,0.1598456443867636,-0.034872509697432524,0.13371636713698667,0.5606307381164065,0.6876158060896423,0.040787319244162984,-0.0013319815955963172,0.13669846244479064,0.09704051305103437,0.16732110051034604,0.06494707999468179,0.2290678445487441,-0.05961708435563095,0.12398281756471359,0.2645744924476213,-0.1641538251317349,-0.18801975426116804,-0.15872631037032037,0.044320021976587166,0.07767644423787068,-0.10455780605916515,-0.25684159864214073,-0.1615482850714865,0.068267490684625,-0.09031773911383549,0.12000372027804125,0.19703702321776911,0.0543974443569195,-0.11802929578899042,-0.05744992261353095,0.13101759950225927,-0.1392095065078522,0.04739765861560286,0.05013628623138234,0.14572861708196808,0.22540847234652514,-0.1350810604830881,-0.17201878279703767,-0.060858769047285564,0.21299112623700175,-0.10223193558603476,0.08175174966767224,-0.08446105073143614,-0.06260184263559472,-0.28722287038993743,0.14707059007592135,-0.10424134210575774,-0.18439724206490954,0.09544351722654623,-0.22844917823428598,0.028640257229326054,-0.07645805829843756,-0.14108206519634378,0.15108213713852559,-0.0026150665577707784,-0.11998834695519989,-0.024370700079132078,-0.054330974310740805,-0.2844278445552985,0.12307362568811618,0.028225927792096702,-0.2128953451866828,-0.14584805001825848,0.11914970803664797,-0.11414247264401133,-0.00650963038277698,-0.00983539337423304,0.17132108360380893,-0.020277991012835554,-0.16678253578602578,-0.24345129843516344,0.12918303086919208,0.029350175014537697,0.08913828260577689,-0.014627800230534905,-0.07480275534495999,0.1000129158900769,-0.37473466752899454,0.06833090942361877,0.12378522051081363,0.004492124498012806,-0.15287493305619423,-0.13041711795894617,-0.00659912953944808,0.0020787641234694607,0.11888691508446898,0.1721668624953756,-0.0735533670996428,0.02809776458739628,0.10792821243727689,0.2702205894298342,-0.15015522804894552,-0.13852631512608954,0.004583426563346937,-0.11145666793233167,-0.23165845274937757,-0.12047192236377727,0.3302219051622662,0.01690227528813234,-0.11196365150488834,-0.11518650154577174,0.14690727629791095,-0.2022487533810626,-0.48968276434092134,-0.2369495515734887,-0.06689763694160343,0.022363704509592446],[0.06919327060752903,-0.019519361607070476,-0.05378808023762429,-0.11592691973372536,-0.05903229528539021,0.049259205553967886,-0.03404141209824448,-0.043527884772007634,0.051137321073327906,-0.11108870028430234,0.0019360120002936368,-0.04231162291720931,0.1542556575990889,0.08355356108793,-0.12410835549643214,0.05788208804735399,-0.02643664203883327,0.08228169910874598,0.12117255278963174,0.12279626130094194,-0.06730076226674242,0.1069308145944775,-0.08011785001362833,-0.032094308000800716,-0.1049355434803727,-0.09699512867028721,-0.035793036394049633,-0.08918150108015535,0.10368664497685286,-0.07398955747042452,0.11512523285645472,0.07741005209417527,0.03266415144123429,-0.01584880625327076,-0.05057171157075236,0.13317365565418227,0.0748693231557812,0.08806885514428944,-0.12153249488067382,0.144292846036667,-0.007527093925888196,-0.11570848907922529,-0.14020430614341173,0.011059564091585329,-0.03559756070990249,0.12854630995262958,0.12691052514067377,0.05685430423039829,0.026050808905558595,0.018305797159977454,-0.14733788085370023,0.05388768703179739,-0.14808558701939872,0.10618962223720708,0.019300103564726518,0.029070978264208833,0.0798554561740355,0.09109766729357757,-0.13401226628890148,0.1090595119258886,0.11511029200004741,-0.038077097796167574,0.13709608649799798,0.0031821949622499084,-0.11515858338130898,0.09188786718323158,-0.1502689143689784,0.06224565160012819,-0.019042865573580627,0.01686020180651642,-0.15179749642184115,0.10610289738810749,0.0277385476436954,0.08635829786895942,0.016814666184099596,-0.059461342717006586,0.03290133468108484,0.1422662223466452,-0.005914241385846705,-0.011675994032932098,-0.13029161700498937,-0.15162211367798442,-0.10463778222475825,-0.06250566596512797,0.12664728755031043,-0.10878325086259394,0.10616710962640341,0.08622889095102122,0.04335802895722031,0.12054014055880266,-0.019543516686169507,0.0541680508900443,0.13545585486518086,-0.08480873417283265,-0.12937033854099186,-0.018181735197760302,0.08288890730739781,0.09637835017850735,-0.021261594167126002,-0.10682131022579162,-0.11527240118109336,-0.08239076043417981,-0.0498668859321307,0.04289387254888085,-0.14187582249097014,-0.1500537552234562,0.13433073075650934,0.10700619924581493,-0.07845084104204855,-0.1361439133405054,-0.026271024055203394,-0.11614352482902783,0.019819668398326457,0.04695591152129199,0.08672782259112716,0.06205310132832622,-0.07224918843858985,-0.048032671711913895,-0.03735047858105779,0.13222031360581554,-0.12111250840964964,-0.12132395996378684,0.0651959870131481,-0.03693096526187354,0.00581263692435009,-0.08164509879781857,-0.14030652475497837,0.10690639860230725],[0.3943033036907459,-0.11870623211781778,-0.0371242254848914,-0.16955603761650856,-0.2560794203710452,-0.07291830368954219,0.13450396550209784,0.017088544958414928,0.22443892177058253,-0.1987071600109346,-0.12840783009237958,0.07666555912104157,-0.23433452181547923,0.07159855817167135,-0.09527601740885237,0.11692611632041486,0.16655467178793956,-0.07560536516912567,0.0859359265763948,0.05370364906295037,0.15997757542278948,0.17111471403027131,-0.19283821818663863,0.00659689023386131,-0.1555282405793284,0.11003588515642734,-0.052777876939792925,-0.051114624021250145,-0.22304300345713418,-0.3172424611985773,0.11022237909891575,0.4157497922579896,0.5213696370437789,-0.2716261773395334,-0.09992578285115926,0.2894748247567634,0.021821476308434125,0.0720706037138013,0.07666420335574657,0.00020902041124290984,0.07657615334324853,-0.060579923502687795,0.4572440339206591,-0.15048921767521786,-0.08001954147262874,-0.012442175126164539,-0.07776129808091518,0.14812795785368418,-0.17684663442538642,-0.07602186496535948,0.15084053523030871,-0.02373279892332454,-0.06418139202231332,-0.33875152997865837,0.0980456168779897,0.2698089342987523,0.08990066851919903,-0.11902907993365482,-0.09276123079510344,0.04609793708169173,0.570467111987931,-0.43798962393384777,0.09650887573139906,-0.18807617664510576,-0.049625181101063155,-0.09513895712888089,0.07634144583650279,