{"layers":[14,128,128,4],"weights":[[[-0.0356637227433949,-0.49606903673075986,-0.03726294033745817,-0.29831384350019713,-0.6046688797437383,-0.5231343749422985,0.26169373120458905,-0.5203708559098515,-0.25865925016886193,0.0817224461434621,-0.7568122987654466,0.03427767643349391,1.8755225265907505,0.14221349305621975,0.7745312557518315,0.23126459560028045,-0.07001198633254421,0.34205689306524073,0.8077577348541076,-0.9458599416131136,-0.36661623488107226,0.7461031340958784,0.1445689554736405,-0.013537741906111931,0.7493950271892953,-0.16185974959324426,-0.049709551367995444,0.3625720618741512,-0.3422075037034313,1.1532130607724067,0.3627313597054935,-0.2046594762056213,-0.7945067622215036,-1.0895743128711786,0.5102071518873124,-0.4718528543313186,-0.18061046697437666,0.5704821401998859,0.7408919517815686,-0.1445523243057229,-0.1294588180923074,0.44921557802833945,0.03700512625352078,1.48097474913031,-0.7409769861359415,0.5372409177546456,0.9543268811301067,0.14421448520650926,0.13624958847499263,0.4638327989175708,0.36143846933577956,0.16364554152615599,0.18791268514134035,-0.10639951739359281,0.9363241952131589,0.11577546977884133,0.2240417971460973,-0.411587212899031,-0.3419909019903043,0.8606405840859087,0.6638436701278793,0.5472880748838973,0.8269453701907071,0.08163552887993131,-0.5826889003339497,0.8488061546252756,-0.4075607712111568,-0.9954496640151382,2.0374948542562468,-0.14556465178419817,-0.0180337455113866,-0.12209499612105176,0.4859144157487402,0.6094632602805183,-0.5321603427807163,-0.27135753597380685,0.15348267920924,0.09012072677249126,-0.9352851970440664,0.08248875353968946,0.14203853921192955,-0.7046747453040121,0.24917533841235115,-0.402575597224944,-0.1453432220883944,0.2214581557758294,2.356522428459461,0.7873197843713032,-0.40707179337253485,1.3644647001755639,0.9398992295719252,0.45327639710731255,0.19234463373770347,0.7271918736347656,0.24621897494680614,-0.332149402161463,-0.6842787759539345,0.9851042867669704,0.1400049759855355,0.29418466799219456,1.1516492449851135,-0.32291336945863086,-0.2853674907204553,-0.162287950063381,0.847531393023833,0.5404911210539903,-0.7366592563231544,0.8427848231549179,0.8511386162999918,-0.5129175429467511,-0.019943586341206854,-0.5469502690252768,-0.2617321911108396,-0.6089158322161897,0.6526024721878936,-0.5785707608392895,-0.3558465177387685,0.6608224048961968,1.4880445355732983,0.4674120147157227,0.3821232216382015,-0.7436719180745877,0.2512625600277755,0.5432975502236623,-0.07240760343308637,-0.18846195727875145,0.5100991331992062,1.3485248834764687],[-0.42300478579110856,1.0657806522256763,0.35239905052643716,0.6541318459568218,0.07367486847466645,0.08535366002799369,-0.9528749848453943,-0.8883787319717344,-0.35824800196685963,0.009386257404522846,-0.4033842460115138,0.9463043692569093,-0.07429343795004695,-0.5582852673501082,-0.36954846889316656,2.2068849643900217,0.7863807250744503,0.06523860633284466,-0.15363454046986164,0.6506412080797881,0.26399075912678377,0.1983452724494259,1.1752124693136752,0.09960553189887578,0.28764516108378,-0.12208562909992246,-0.5544899102869393,1.193300992886471,-0.38519085883966747,0.2533826974312087,-0.41229122282947844,1.5860852669000627,-0.6265133204635139,1.2654018517002446,-0.03841306271295325,0.9072479995166552,0.5027913923932698,1.9268351171784446,-0.13615429197791382,0.5785283785692605,1.458632066349528,-0.9188236592609628,0.3932162752748431,0.9691473765568435,0.15016167293118637,-0.07343217871174153,0.547989925648125,-1.1335495234942017,-0.11692915213068697,0.050696690351080945,0.6560023673370375,-0.8576015197721565,0.7296310335342949,-0.5104359768140809,0.170144765529705,0.6017432399262591,-0.22262248535798648,0.2492571521272664,-0.0010279141155600023,0.42538752554726383,-0.3150734344038498,0.8573874616789833,-0.4629537283742768,-0.09764014656679859,-0.3698220616919201,-0.32716021311196264,0.3217459649498121,1.1418672025776744,-0.22037719603921346,-0.14838951306097353,-0.012457197742062059,0.09720932108274906,0.5420062710686556,0.01538241801290692,-0.6584976184745199,-0.22718901328638677,0.42097709604868333,1.0601449055079213,-0.34990414480484755,-0.038601026920996075,0.5654445452206763,-0.403521137268217,-0.07182000785775727,-0.09837201054770488,0.797648831013456,0.0037066780440040484,-1.1842960250773082,0.29308156250651113,-0.47160673183786106,0.9337584308334529,0.08007279362529009,1.7715879702627846,-0.4722208874083858,-0.839286190860213,0.4314900662482059,0.9440341804943495,-0.028094607148368336,-0.2649423574742038,-0.5617853927643068,-0.01607732845114321,0.5310951125713795,0.5697294623977049,-0.6287298921336961,0.036350730680498385,-0.11018252581994688,-0.7504520531225649,-0.05851831904881695,-0.21162478950256727,0.96594973911469,0.599269557529096,-0.16411447617979066,0.6655547467917631,-0.5265925400946173,-0.05101475235648799,0.7677758083659196,-0.07926782178645628,-0.10596219868070902,1.1425201281824124,-0.16878035251068224,-0.36001933705491723,-0.7878590993475586,0.22992346843691414,0.6780781688697084,0.2051408257606537,0.6458948181840967,0.05801893797319508,-0.25208153909334763,0.7229733621785193],[-0.5371731420093202,1.420420737708167,-0.4982086550257211,0.4736594633244037,0.6334584329933267,-0.6005708399008769,1.4672390893886083,0.18367124350701267,-1.449523710720389,-0.482781339652382,-0.8920616160073637,-0.10933143237410217,-1.1679168463411527,-0.10773807422260816,0.8151573047203571,0.10905179292793586,0.24100744140484023,-0.425428847786736,-0.644523464111663,0.3091991829472436,0.17895298900025147,0.21497436993642405,-0.1340678910243258,-0.02131014826325031,-0.8920769942519532,-0.14030711118260233,-0.15383645456425618,0.9103042935286633,0.13382258645065068,-0.39244411861188905,0.4144367307987028,-0.8050266491018748,0.9636765158488587,-0.4456787999647034,0.1556927464076511,0.689645155622233,-0.20894035525099355,0.41257219015146174,-0.27191652439301894,0.2989988070628686,0.48253153130936377,1.6423433844236344,0.4002367352658683,0.24924119901573338,0.0811149767213364,0.8321837586438655,-0.47442370848956716,-1.1606805805505582,-0.3126373544741029,0.8735584337538206,-0.06488580287234978,-0.018285144220253208,0.11916386435480142,1.350086712525082,-0.8357379073532171,-0.11384192177374662,-1.1848749590806864,-0.05780824773680791,0.1751650564511533,0.19920977733640377,0.4048663396234244,-0.7101093886082753,0.4134325442451699,0.22382966667323748,0.03959717053183613,0.1556346027005997,-1.4824141596027007,0.6506033717902091,0.21465108441745073,0.055358981138273256,0.03955835434053473,0.1471252308122253,0.3679253842096129,0.6803718358938426,0.20870463480933232,0.8680516282695108,0.16655773469398577,-1.6568684285643192,0.12990718514414246,0.029298941738234788,1.6936372472701147,-0.06765243788508064,0.4240858339014402,0.953867949106927,0.8853609225719427,0.0007281271235086177,-0.7261485845008147,0.14988195842891455,1.7179791231279622,0.6680777428531244,0.4055219941121232,-0.7563800766647413,0.8619987108016489,0.07908459331519913,0.2678824541246978,0.8193891941292386,0.2329639150144362,-0.4071497375999691,0.10929671116416712,-0.3099761336102553,0.6690675841457552,1.0391780539774893,1.2017317314844416,0.1598917899345952,-0.27478059109972497,0.0812908261612965,0.25588805456618746,0.48104912237881153,1.0097026677276204,1.5127232308887681,0.08909219310743514,0.39037518747014516,0.2693127496037847,0.8160344710117996,-1.2991649687341815,0.7082066956939278,0.07824355573136026,-1.341510211767236,0.17833802524055534,0.9857228699901053,1.9682943051191655,-0.012108664895192812,-0.2757298663402142,-0.6109238361705959,0.08162752817051022,0.11791698575633168,1.3346808954694513,0.7442271214970484],[0.500002778656884,-0.8393888840598989,-0.7019879743677079,-0.4756005516763159,-0.026644310285617496,-0.567224989769462,-1.3576426656552685,0.16242101961017918,-0.43707063296233206,0.2975865413867813,0.017620516653292576,-0.16412991233415236,-0.47247000432576,0.07054809551202722,-0.8161195379260727,-1.2751303458599357,-0.4508531662486288,-0.6293103142840019,0.22968075122713502,-0.7463722253415331,-0.7155071256492322,-0.07974642909558988,0.0026830105848712838,-0.15159133891237386,-0.18059140961474887,-0.0688966273174925,-0.9711064317471612,-0.6801428609442378,0.226175599740029,-0.2666536538875608,0.8221099778945493,0.20074797554071944,-0.6552399106926496,-0.9058021593936643,0.15429509638649636,-0.0027112736737766353,-0.09748922369514491,-0.2818362582036638,0.2781440284583389,-0.4105295866577488,-0.09081021130043658,-0.2147514368647897,-0.33791539226133127,-0.07299036451809293,-0.4604505314959394,-0.48113041496945214,-0.009233926171422291,0.4470341277237654,-0.18883458749284537,-0.9236958679096442,-0.2205174578822234,-0.5224901881589078,-0.22305066251663808,-0.07133060536461197,-1.7745962726131344,-0.0733001720304918,0.1333468769668672,-2.0254793520205006,0.5907841333956163,0.8608748556575563,-0.5544152536124378,-0.2956473176636167,0.18723224516786313,-0.22215663565795624,-0.43686888236685506,-0.3712304525108237,0.9834944453199789,-0.4944888867184559,-0.18354177170336325,0.04541167280889529,-0.015719233574630242,-0.71151945144412,0.12937205960886827,-0.7413178345687734,-0.6078045110899071,0.3244635780956129,0.14456933231826646,0.9030078794537103,-0.6625915228649601,0.047304789572841004,-0.30705657643885886,0.20077259681266058,-0.1476563503836813,0.07497374761192017,-1.3053218413942465,-0.14891347785961148,-0.4541609047376446,-0.12030049974374286,-0.43691595781841763,-0.8831141142858839,-0.11217312845468347,-0.44117875097915293,-0.1425924029515506,-0.9323247783473957,-0.361763549021651,-0.8149313135793315,-0.6965782326229255,-0.46370926957441516,-1.103577924193207,0.1170738401050151,-0.48665320344152146,-0.27276495825701086,-0.7500560132959442,-0.04560886266885603,0.038859086051979054,1.2821431333574174,0.49505165377027954,-0.20009447935981714,-0.2808150880206367,0.3625261996060876,-0.24358290933746696,0.26244772052094506,0.28657405088096494,-0.4919187384068076,-0.1436695725223628,-0.22047904724619793,0.20203850447675267,-0.34582564027993745,-0.29939025483512804,-0.3919805806599292,0.13370697364346826,0.5240014063481135,-0.4062287394305113,0.22267563994739362,-0.3814638455101163,-1.3279210077536574,0.39587759764034997,0.14023690390585483],[-0.23007240843377716,-0.47145917033429563,0.9825939578084555,-0.08784940055128856,0.05482474490326192,-0.47834690233255683,-1.0810852298617257,-1.0805376956953348,-2.067747787199584,-0.978578003673707,0.3560921558027538,-0.18834913037491233,-0.9211944652635232,0.2388686977175751,0.638161883702035,-0.9415075769682688,0.40034057977835796,0.40033273853548673,-0.021771031858365195,-0.014416110890011397,-0.6439953704973357,0.10044049559376964,-0.13834722099510152,0.016945668181751198,-0.35011340600237667,-0.16462905905278255,-0.24673032587723626,-0.7157874579517125,-0.025593447223513532,-0.09311137150591417,-0.7000874472181722,-0.5503307746082168,-1.2624223436057485,-1.0735530067332828,-0.4122839392144142,0.024807140925587896,-0.2373108456084568,-0.18660976791119444,-0.28233346196501874,0.6656047111370429,-0.3592323857183908,-0.3945836433997085,-0.34304679321694365,0.5206784085877678,0.2987489027684199,-0.6529936486767979,-0.6193891964537309,-1.1200044349897589,-0.010641998651433218,0.8565375119105763,0.5106106102958962,0.02867815571543975,-0.8631564570649929,-0.15674049818034552,-2.38406865828196,-0.45127356279714154,-0.0830743092250731,1.1554169723193364,-0.040872856883361945,-0.15208002363619066,0.4491559008762136,-0.32514415709715966,-0.5932548485053866,0.09270941180124169,0.8930346819922709,0.14056286035423327,0.019709803249205172,-0.24907401385914293,-0.27412535506076674,-0.045438124214646256,0.09140136360071062,-0.02403950081201654,0.05444779731098086,0.18386800499624278,0.10400931867616398,-0.6312543372489751,-0.3287819121746091,-0.3100178405896171,0.22038882008879185,-0.020969651907005143,-0.4896044903518888,0.26925700012500126,0.12431465040158461,-0.125673872977441,0.1404263104603251,0.2672040370128594,-0.25182463035039626,-0.15749032991104497,-0.2618969660987306,-0.7453423796538476,-0.5030755235434655,-0.27459396137661796,-0.08078862380966266,-0.8014588158328879,-0.03368423582145605,-0.008668686950950586,0.5228351635957211,-0.7752114863135989,-0.07700463041693598,0.13173780700004833,-0.22181755521708532,-0.12402624230182183,-0.009186667031095757,-0.1232186291007953,-0.2890512783564047,-0.32444852696181153,-2.6954366139847927,-0.6082611006788786,0.0696748450543221,-0.5421329703085951,-0.15965325207841868,-0.47706103373288045,-0.1096439881579939,-0.47927892762186936,-0.3562561032643935,0.03672193448092446,1.0799412464540543,-0.46212171387000045,0.8109538123689328,-0.4316363375171138,-0.2713009325378083,-0.6942199159517186,-0.7678551207409422,-0.18832067025374505,0.11659866531446873,-0.6410622587890392,-0.5120994047484907,-0.1007518843526169],[0.3403661294201328,-0.33748059421790777,-0.2462645705459188,-0.5023842299662927,0.3615306480998873,1.2448009617491735,0.27123143663679866,-0.06662394316901674,-0.36897198652021596,0.23342345331461742,0.5671423434636121,0.04307359573353642,-0.6571498436340973,0.22941993616854853,0.10983714875246432,-0.5598491745965709,-0.3543975650628656,0.06205759805185355,0.4953744975101025,0.7106923661446591,-1.37930513325235,-0.10465212966685679,0.2109753006217539,-0.0935983810208769,0.2861535957043508,-0.05408995527185334,1.449422573852063,-0.21264332365415517,0.045120090100171484,0.12267662646934865,-0.39373999719030867,-0.316343256680523,-0.5143171452894763,0.3307627491217687,-0.1450461142062382,-0.30312709817209793,0.008781149176509538,0.5633280699316893,-0.454807515340304,-0.06401638821123001,0.23855807030885434,-0.1118186438832337,-0.3281433220460958,0.4816021759689879,-0.9964886513744206,-0.319671661613167,-0.09871500155657495,0.10687147367909881,0.2105176348293004,-1.5419187013897222,-0.7321271938871748,0.1604257048383388,0.3337322110466212,0.4126322103043751,0.802282780601793,0.22172193172053137,-0.04349452078592239,0.27520825383316105,-1.0965960023980237,-0.09930268619479747,0.3653333189792765,-0.2543392780090075,0.14747104342833228,-0.18718402110166477,-0.7820124710529924,0.6630912932966981,-3.174763622370459,-0.40696687517409663,-0.023213110850893733,-0.05635690311729334,-0.04484053133127753,0.1619379631826864,-0.04748966847551538,-0.05028778890677699,-0.5106114625565115,0.045647864257452354,-0.20636723203716134,-0.5327812121709063,-0.24099671796703448,-0.003025359272524592,-0.22482536305676104,0.145186330976207,-0.840334020963114,-0.6818995315612056,-0.8031446445865363,-0.49707035913331693,-0.2575518710180506,0.04550058519854851,-0.5627742261816184,0.024687455688765875,-0.24894877166514462,-0.04541638834740309,-0.22425787887077142,-0.4364720221925514,-0.17517921359831892,0.04993345903451529,0.9150876114812134,0.6844095819141429,0.08042805374629905,-0.28456431151476175,-0.604139458460201,-0.017772191196020738,-0.26968569055185293,-0.11041163212761312,-0.3039782156361773,-1.387441574044227,-1.0757336958600119,-0.17926219293210557,0.15376991778043028,0.09532163394203882,0.033209254468199736,-0.3984538475577725,0.4216934907661519,0.23369969931389234,-0.39847710567460787,-0.11435887983966087,-0.24194086147610205,-0.005032445897566508,-1.1432605113919054,-0.24592322706386086,-0.1636863810832151,-0.4858275352143511,-0.1241576494318954,-0.27885250801701816,-0.5357193620839,1.1670420892924456,-0.01372575209068684,-0.39426884074442375],[-0.5106113434701938,-0.8341663593984551,-0.3378516150609138,0.041477825382959764,0.07638571556053113,-0.12956201422357586,0.037066209992800414,-0.12037299042782053,1.3712368484919544,-0.32432856815530103,0.24954571437873715,0.21918134574405457,-0.21087520595428616,-2.5241297470533355,-1.1611583602479794,-0.528982754109993,-0.9925818986858496,-0.2383456954969772,0.045994675795567215,-0.9096792552857861,0.6327409371014886,-0.45159523008959074,0.16746161350145483,0.08184536967417505,-0.1146273804552932,-0.16366832968708267,-0.25208291076825895,-0.41551725414529456,-0.12241974668525077,-0.3339449592225581,-0.4878884336320385,-0.45846531894168535,1.886422645181372,0.3429785054038095,0.4874151054218327,-0.6318332854103119,-0.10294859575177892,-0.8540158410113851,-0.07118227316531828,-0.5197704920901776,-0.3193133961617737,-0.5705742089313643,0.20399952284611242,-0.24521020891311746,-0.3843364530947956,-1.0280145352830115,-0.7230961255792403,0.15477934024673654,-0.2546601920551379,-0.7637293305250197,-0.6439600259275423,0.16229363978140554,-0.2220364688858255,-0.9232841908688878,0.41367306693529815,-0.41528885400058857,-1.3558210959224068,-1.0420228650384598,-0.5968687771852562,0.13359087834661712,-0.4207882103382924,-0.3294272260044111,-0.21043584054356043,-0.21393614963915306,-1.442866709428443,-0.01250004062446599,0.02651473138953718,0.3542382538946246,-0.43569839566446134,0.10713181108317679,-0.11435799232908263,-0.07313071932154448,-0.23233287431818672,-0.4448051031567693,-0.01938144563569565,-0.6688307132628218,0.0007812656493486538,-1.440198449168422,0.5417246035737631,0.029411175014796367,-1.6821916183983334,-0.772666613735255,-0.0313730823549785,0.05141635002613508,0.04931132985873805,-0.20653899590393837,-0.0864213517699575,-0.3807201815358133,-0.7308939506249783,0.22821003858503097,0.09478725980683432,0.17859957642864072,-0.12606427166397818,-0.09630810616440441,-0.5678812070727696,-0.3836289649792405,-1.4185899301498228,-0.3382425896598069,0.4151809507800381,0.20633705725324578,0.09639003178722419,-0.17042359653038142,-0.539766903556052,-0.021678771393405762,-0.0614592805668345,-0.09598074485565547,0.46318928569716766,-0.04795608909857514,-0.3903344469098808,-0.6084073477276348,0.1248315639022546,-0.11632087693168643,0.12166721726825026,-0.93754829516778,-0.28315198053613116,-0.508959135851478,-2.1753202123588267,-0.3316453282147658,-0.986237356520333,-0.2012473973379342,0.1596778930952678,-0.4222958501508483,-0.5415731159070112,-0.7137850514711525,0.23101823381002012,0.16728313931522168,-0.6341119605458626,0.21361671069766844],[0.20109040030966846,-0.24019073828481297,0.2709340040274463,0.07312064700801456,-0.07619326562276761,-0.29195122673403,-0.5040309673347254,0.22452817985102086,0.5405130534289655,-0.329177115337054,-0.31767319367411645,-0.7500851236434711,-1.1615138392840785,0.4032292085956646,-0.7403534373784416,-0.2549864203500217,-0.3260191012500765,-0.2954646491506174,0.28073959335776416,-0.05856651226545234,0.2733893991873346,0.09064091628652626,-0.6990945369261101,-0.02531029758311473,-0.6340687211578754,-0.016089616430415773,-0.27555811140479636,0.009832059814796103,-0.25688793968858814,0.41498766600427217,-0.7068039905429333,-0.6838184274085015,-0.36620509867558193,0.37247786197713256,-0.19290819259763686,-0.2914133509133951,0.18807514869217326,0.2557861123531713,-0.697113272315717,0.02074692681284462,0.14713796723134462,0.044091344568334113,-0.007004011366993898,0.23661359011392086,-0.3416683828541253,0.2137281878454361,-0.6683272569443144,0.16113765637304772,0.25910004284886573,0.17612185561355467,0.07389936785655628,-0.24502284970876498,-0.29497083403622154,-0.7455203519028286,-0.4126043769309795,-0.05231134026465849,-0.020839830670040776,0.19370212574556175,-0.0697566659293572,-0.8523562953152556,-0.13551065795262812,-0.23435969611801116,0.1635432435135478,-0.15337321319376054,0.5108848553186922,-0.32912239191578396,0.1749171159359137,0.7618961898306753,-1.1313464812551661,-0.02346283664782298,-0.10530114799394845,0.49363271430648864,-0.18157900710703764,-0.08452403289896007,0.20263188627263146,-0.6162441487846227,0.3226320090155127,0.41552232970701963,-0.14704656293326987,-0.1743291506273316,0.6590534115342536,0.15566659212101486,-0.42285693391695905,-0.29518988167561466,0.19906384615083128,0.21137586979276463,0.624099051321537,-0.02051806729423287,1.3102019232485889,0.03286645868373457,0.03856176807532902,0.07858288302136147,0.016413381932581936,-0.4385768628220323,-0.1376880799509355,0.16926252973481024,-0.821135494981956,0.21490442304153068,0.23906334803504412,-0.2927699876163742,0.22806562596617067,-0.26760775653191216,-0.405495703225029,-0.0232051055722731,-0.002489830776287249,0.1939636381510539,0.05448893275685181,0.04203489331834694,-0.24102289016262496,-0.9143108715331821,-0.07933722767103232,0.4837578432326693,-0.18340994816863632,0.024800120697333856,1.0177935625259342,-0.4721637969697439,-0.03794897625443663,0.8484338293725588,-0.5401474255902997,0.4905774856741622,-1.3672224668582142,-0.01183308023212637,-0.09112582370977476,0.06637501715065917,-0.6812247106770262,0.23248195438906777,-0.8013354524181445,-0.4778980691826739],[-0.010211068983997014,0.4985619323240819,0.25140091836502804,0.18427723130453944,0.11550025304238841,0.0854842876394781,-1.1935680327320708,0.6162349854205179,-0.5879555051749203,0.40164537654263294,0.42508355757486493,0.3172663099450495,1.2822237602467241,-0.04015606822147456,-1.021338166894813,1.2813399827468535,-0.6644350260561944,-0.2126387522090968,-0.3349631927044853,-0.33545155219018913,-0.7300952605413604,-0.6974811934082391,-0.6958805544046819,-0.09610141946724522,0.16672957998756194,-0.16785400396253855,0.2523389722097052,0.09284370550537205,-0.2802670932091619,-0.35745071413417906,-0.14172141653749756,-0.5956695239311971,0.133344866543727,-0.6169166927123432,0.6912378750273205,0.4526479086117155,0.10655965792805229,-0.8230422508624964,0.7104422214071326,-0.7044392190165192,0.11924101010130625,0.6364082813290691,-0.013123562843577885,-0.17794270602018938,-0.007466930082844773,-0.180241718834933,0.32193408359480163,0.11780185560590392,-0.032398781643153955,0.14208414520512921,0.35200565918202037,-0.3047900764501602,-0.027746432877275247,-0.7271635913800016,-0.1363288015143836,0.46607802447799107,0.8543528324193022,0.2158926981003338,0.09864850037115581,-0.3140482210200565,-0.09731651296870095,0.6195541521441985,-0.2851982924037106,-0.20432999864182275,0.16866658985605723,-0.5146736789621464,0.40406901394157796,-1.1132730183420643,0.930276924179478,-0.16437650583487565,0.02381756003944311,-0.23445273862477595,0.11428601308788719,-0.14367782491499118,-0.0828189044686688,0.40644787611064903,0.17081891508568586,-0.9399034420346996,0.26828696388776535,-0.11058968519805866,-1.2350025095565487,-0.23900770736453095,-0.10070540354930882,-0.07954250924611672,-0.28553842674500257,-0.15271260576467616,-1.0669658051151212,-0.44137914353248037,-0.45522514867562863,-0.8358735026270867,-0.21470531113419156,-1.1366428956130215,0.38667273383224343,0.7952852742704997,0.5400598762439942,-0.4983030106033596,-0.42282023700618565,-0.12810650891495548,-0.49960466761972644,0.31056494410296553,-0.6327530796018725,-0.2762774048352364,0.7519315302175712,-0.07487310944760436,-0.25954470607151814,0.2398673061789943,-0.06798394208642972,0.23070453259581253,-0.6453569406157157,0.5933287466677348,-0.12325675649436346,-0.7860269790530499,0.4081110741014503,0.35707485514699067,-0.08861288679767826,0.7474852066724964,0.7474254297295558,0.6751766969243326,-0.768708063682107,0.04932561623338262,0.10060163135687664,-0.3499863949478228,-0.4082307850326325,0.2422975430280974,-0.11923449858321596,0.053585842679240415,-0.915363050799257,0.2962181642686132],[-0.5174240453162792,-0.7833349869579873,-0.11533536609439286,-0.45250320607518424,-0.21002825410850604,0.11417180586041957,0.8075710930820266,-0.5091786609096809,0.19262855188051028,-0.04030551638166853,-0.033682357371005174,0.4198628326751225,-1.0222172582716054,0.25556389085852055,-0.16446688402792728,-0.9597666234892259,0.6332703587452169,0.16004139893681743,-0.013327155217412774,0.09537356916389322,0.5307154852025058,-0.04655401775621624,0.2478751256992142,-0.037397328965400024,-0.5469225437740309,-0.20405343600051834,0.11424250304292166,-0.4008263152553893,0.07684202959408372,-0.11982081722059666,0.7982291576896571,1.2566877013133708,-0.436997206821996,-0.9789000329829225,-0.5943867534406249,-0.8258853154874205,-0.2655684872508997,-1.3746779043446506,-0.5794004731788143,-0.4954761793451641,-0.9225011261276993,0.07534330556441805,0.25153036019151126,-0.6512591583655808,-0.06367363705136855,-0.1497042726700518,-0.20797905433213795,0.4963255529920925,-0.23348830868242176,0.6573051479969141,-0.44653743838959575,0.8548578994592123,-0.4316023656632292,0.9838179892724644,0.3746221996653221,0.026913062825261527,-0.5631957909592319,0.07152401199041249,0.5284659452331276,0.2742354125307644,-0.686201265919887,-0.4482156958228377,-0.6800899109542823,0.20397891322959721,0.6987715081435303,0.023884808057774067,-0.13273848076832154,0.5724734852841695,-1.0484830523641437,-0.1487818880260956,0.09810864764598652,-0.3793277710558822,-0.5756108623711889,-0.16917404539223563,-0.3999843418922416,-0.03475579383755124,-0.43903622664921277,-0.5989936909168543,0.08182539935664983,0.046217270187076755,-0.4987938613750832,0.14200918406954016,0.10243071047508567,-0.10092612270748047,-0.21792619880168343,0.08288911316141319,0.9297957744168004,0.3305735227923633,-0.5204995096228388,0.07776071576760428,0.3303897682708872,-0.1403257324644813,-0.1739829633925948,0.09702692392045727,-0.5148296301776003,0.2661658586228749,0.1446537309767374,-0.27064123425209463,0.1802109635662684,-0.3505802283126237,0.37633206116087475,-0.5234920459232897,-0.007888773860574861,-0.0745830486113067,0.4026143896391972,-0.5439506236926794,-0.2776542548980014,-0.031083372018997597,-0.32010193716501545,-0.8966546612313728,0.2833702669045401,0.4955913506352471,0.1342103838319054,-0.2897407282830142,-0.1970212636455486,-0.615347055409168,-0.6464982626489106,-0.9475571947070448,-0.4120700289547944,-0.6240933967657507,0.9412843362458007,-0.18615156909120412,-0.24644147641802594,0.21313057065417423,-0.2461264866725466,-0.26764228860183376,0.536053416167928,-0.02191388151719256],[0.1877739092425131,0.11658616632933068,-0.6214479014423627,-0.2688809647158178,-0.10340658329893805,0.23688816435969048,0.5065218295286189,-0.4808862625865513,0.1310351962428741,0.4536968936394864,0.14790317342933007,-0.5209771493803275,0.5552063224670102,0.05568358253762525,0.6597077169847075,-0.9405876255414128,0.4777190476868043,0.10415180263520896,-0.28932908448572986,-0.02544555078478673,0.05275627409392105,-0.10871067858700054,0.21351899951988917,-0.11655018633741301,0.5480907726479413,-0.10314823415667662,0.0835038598391199,0.0024445277980397616,0.17402825293617086,-0.4895015398940068,0.07688138311875918,-0.590231139312945,-0.28819446795834763,0.9453358447190756,-0.17231677281373994,-0.329019377806231,-0.07369973680543228,0.6162664517536802,0.3045058002581944,0.39976154588532703,0.20224994164206872,-1.1477531107624075,-0.4462296832902397,-0.627371733533662,0.47761841366661684,-0.7332989817974861,0.10563324521390564,-0.8317130416714907,-0.04453811289653059,-1.2265358941338218,-0.37398066972544725,-0.743470125925589,0.12006421371644549,0.09327525708738135,0.052112492187747494,-0.42014376743206416,-0.30684244534123556,-0.5424114910337138,-0.4577686003199001,-0.06137448477408914,-0.205757975834934,-0.7797475411914574,0.07083299660146408,0.05468912253448152,-0.9224258968356451,0.0276031688247776,0.22886598209332937,-0.7902051739287732,0.6198534922626361,0.011591210376797514,-0.14123192701063744,0.1259082741285013,-0.2551481840018193,-0.049689752008035444,0.012876412688830453,-0.29602361439653824,-0.2604449290807862,0.866577555781145,-0.5582200711090691,-0.02057712890935963,0.2620579425285875,0.06409363043269908,-0.09736099499411886,-0.7293762838674319,-0.060157671313115446,-0.10413958113410546,-1.459970413217203,-0.22099734959984713,-0.6597193640882764,-0.5583035530991131,-0.6420896120919974,0.32278402267668177,-0.6135901611572022,-0.22899633130360506,0.1103838121181938,-0.7724926851336179,0.7514061024895667,-0.1176808987958218,0.046579882783502446,0.30267765065849955,-0.43364933018436425,-0.22036469794338567,-0.8699140594873681,-0.13480226344407217,-0.5445519365743307,0.1735577105359534,0.39419511470802987,-0.7813321229257864,-0.1485683031039848,0.5110607900741898,-0.07644290815949555,-0.5552042732851699,-0.4049169876727117,0.16046305706027855,-0.9110488260347501,0.044409513182424955,-0.11183720272640328,-1.0181966116732528,0.949377856566004,-0.4270892227078055,-0.8553640212781234,0.2718922743902465,0.5534373459706058,-0.515167279070972,0.4486304260941606,-0.07177704279126895,0.6832965026064969,-0.856713103745327],[0.45936014459393504,-0.32634498144037505,-1.7976773977230776,0.08350806618856975,-0.30968352630940477,0.19658459518777513,1.201774932523651,0.11139106759421043,3.565688077015883,0.589906216239625,0.26656668002660105,0.4370000108225152,0.20380623158980024,-2.7256300614429736,-0.6707747757186421,-1.1616338891955666,-2.1001018265280247,0.31994583478049743,-2.974084191123112,-0.4010436674423397,2.01061503246609,2.4788697865471576,0.15557387857260357,-0.008131705751753015,0.2998765611623142,0.0015975770319608983,0.14431939415685802,0.3080058012815319,-0.08421912504599899,0.36228821111560366,0.023330056484574882,-0.2573466376491732,4.115752701418572,1.421103396389481,0.6466253693223835,0.5033574946159451,-0.22690366837429685,-0.8055291198536888,0.5013061283047918,-1.2424210023098767,-0.2593353279380577,0.278942432955878,-0.36670261897968653,-0.728533077414205,-0.12533442453000684,-1.471692738339897,0.20024243544984047,0.6838162377805727,0.25562971100776233,-1.734213604088955,-0.36040099354257876,0.7676186475188322,0.14210117229646538,-0.8575988995187607,3.138639464738499,0.2812599705467355,-2.0159161155370455,-2.050107284159325,-1.047523852839764,-0.9552871268471123,-0.6674807272013288,-0.04985955183444211,0.5332936349964769,0.09518830701306841,-2.2974473048306234,-1.516120670314937,0.4492269055669691,0.6210942222745175,-0.25436731571150145,0.1863567669825198,-0.16225818768105216,-0.7058702980454525,1.9574014252711924,1.4725388122255556,0.033610664015586496,0.3523390618387926,-1.4322732559456675,-0.29287374396152405,1.6458882824140428,-0.03005541843130075,-1.9703252400586775,-1.8027837946768541,0.780185460321577,-0.5113205236938809,-0.43184459646161183,-0.08641030990029966,-0.04818847490286928,0.06097646797115392,-0.4955303793420811,0.42701013850843417,1.413578927616593,0.9649313132522916,0.3098308478423051,0.9122825676947728,-0.17053104224448346,0.41697262465557977,-1.9420926848545437,-0.580949544113577,0.36173422409599343,0.0996689754973368,0.661577334617277,-0.5995923695052848,-0.9668631588473156,-0.05335035483146111,0.31623295743309526,0.037279038115731626,3.9384585535492107,0.28354123792917846,-0.41237998097121065,-0.5314455281436494,-0.11105243115245272,-0.08576653954463961,0.7151124520040973,0.11173551891290541,0.15741538988871195,0.02447310159526979,-3.624331314245056,-0.281375979313728,-1.663352311980616,-0.22609232336463475,0.42151608089615766,1.0518769395619598,0.1710629011899804,0.2599942055210598,0.3146119573811706,1.1352320183467393,0.2310382695011764,-1.2797574835332155],[-0.02313748980033152,-0.6404930193400014,-1.8349355785202803,-0.5543635635791512,0.9552312576053479,-1.890064956833406,-0.9386445002592949,0.28788167564677036,-0.037915054188377914,0.6472452484104027,0.8042479520439271,0.2366476285053302,-0.6955978539919674,-0.008612385682456437,-0.0699091259407351,0.1950521719319546,0.27334388849022767,-0.26282070215450176,-0.2766835979593322,-1.5099532223597723,1.2156843430622957,-0.39888189593776757,0.0670694705480168,-0.04622858305047749,-0.08038942421846337,-0.0015684000821950543,-2.5381794589882083,-0.3211862142767374,-0.36131967478622146,0.8283303893932813,1.136413673700729,-0.09957467693298845,-0.22938878917226316,-1.4206011292619993,-1.0095344613407011,-0.03268927535732105,0.755467367641676,-1.1499598046109563,0.6930733241281642,0.4484473072942672,0.0689743419116645,-0.18393419686848822,-0.8910824025915258,-1.4228802286979116,0.749775847684715,-1.0808660629292772,-0.27783134576104646,0.14121778836457882,0.023699233802950657,-0.15805978731736553,0.3513570883053929,0.01872892927110722,0.23813089797394027,-0.9260256046458889,-3.207943816857676,0.1625210208410338,-0.23194736044608238,-2.187291653249549,2.5015120573943457,0.07793389388458953,-0.46735459264086376,0.5066684843749324,0.7686842009214845,-0.21490289903355636,0.3552695163376332,-1.0125827240167375,4.26529023998706,-0.625393126640952,-0.3158985200009522,0.037050853416277174,0.03019266044041751,-0.4839279522289717,0.40452621674537165,0.646855704654357,0.13213369102227598,0.8331553827430203,-0.7708791437740531,1.5711340447298525,-0.5842891156847723,0.16072162785303268,0.4719966769847556,0.27206110811302153,-0.14322938731242657,-1.4116576258030626,-0.19890916976753112,0.09152381250584386,-0.3655164826907327,0.38621528083421236,-0.49747104051262253,-0.19845243084365705,0.40566180354332193,0.7679241156755471,0.001330331406415885,-1.0859591859985194,-0.3005398581018035,0.11271091296515388,-1.9988874918234247,-0.8721891410307281,-1.0779149978759948,-0.35225495562949716,-0.40987768394235,1.040636117787563,-0.39374262347130523,0.1074411628690604,-0.09392008912917618,2.9724452385430937,2.1365998277908402,-0.33587618294677807,0.19392806243087432,-0.16830255356961643,-0.27644631029482925,0.45215524290280723,-0.19403446429395846,-0.7942712342097847,1.3388000224425425,0.2589980688457829,0.7212152311492718,-0.2954940385144375,-0.3021392101422237,0.0350189095330294,-0.18848290381665936,0.8821834172162476,-0.49711724887864067,-0.2735193168522954,0.6422890060863594,-2.2713491077090437,-0.33324033054127883,0.5583805011086967],[-1.0096694924399152,-0.19596051366854955,-1.498430247645993,0.13992714336594367,1.3985750477016563,-1.9319203934259073,-1.4046005566817388,-0.44452372692059744,-2.4575464912754486,-0.4281245041418792,0.1302932803192149,0.34991621778108417,-0.45265875105261183,-2.8332693336511188,0.35577859623662583,-0.11855533399867743,-0.29502927122583844,0.16919954452926486,1.1573034229138048,-0.7911801538387093,-0.6176229523579617,2.5310678767176165,0.5546296801113041,-0.0048880188339069834,-0.17929488703430502,-0.19382973639881407,-2.3070769776285354,0.7072850838938175,0.07996524642973198,0.8056758199126092,-1.1495804494024051,-0.010804368153979078,-2.1036480773466883,-0.5188323761666617,0.6963223361351194,-0.031534275419232594,-0.20819541632194186,-0.002126424669467091,0.39541181968317646,-0.011741720950210746,-0.08572144705433549,0.5274743145079828,0.21382323665039063,1.0257976849232227,-0.9310013352113663,0.43105339995746483,0.17765593577847874,-0.6648537388430007,0.021603384563452427,-0.4052829378321647,-0.4503489677320087,-0.6762531609501518,0.24957264489691836,-0.29126358363710353,-2.050516239298837,-0.5276727096350537,-1.3470880139981156,-1.8285026398571713,-1.4110223359293,1.2779426240400813,0.05465594302320569,-0.4729959063524923,0.4642975380033818,0.021552205698776177,-1.9937250096289818,0.651365674478015,-3.332313244297419,-0.7345721846496438,-0.265840957660288,-0.14177183658620707,0.12947561442166045,0.43466875721437814,2.0089621634179085,2.0772144773958945,-0.5675167530195281,0.5078274033510869,0.5810642631639529,-0.7507522053058308,-0.10621814889324663,-0.17903077398940007,0.6181632875079469,-1.6512880260022327,0.2538386641772871,0.46206186133958865,0.2207923680374644,-0.10379992603377601,-0.14286689825413149,0.2667448835103659,0.2733436813700774,0.5215328758480483,0.003084744709168134,0.0274495245538287,0.297201808668333,-0.43764716069366427,-0.06509260305498983,0.6376746068402801,-1.6260330966292602,0.17480380719906907,-0.3267449177994393,0.4999006986662115,0.19510546562463266,0.4043675330467503,0.16325615307251853,-0.20248925526726236,-0.09398579854544696,-3.4963464552414427,-1.7254075138004692,0.35896675736954203,0.49467375855792706,0.008817667263439678,-0.008665785855741775,-0.33991845507105606,-0.2475661253284507,-0.2587824873180137,-0.7310806807336833,0.3927624859801447,-2.895559036571082,-0.880871747306083,0.22475780667449877,-0.038375112530545055,-0.28231235665482435,-0.4354057186577533,-0.04786692975910239,0.24532402490381755,-0.19887301036392607,-2.2543194979677854,0.15143859522262534,1.573314132626732]],[[-0.06419753847949809,-0.013883289788513633,0.019105323853752867,-0.049842115821015595,0.02186970076141187,-0.021947349107502838,0.042329852623979654,0.11290230369161067,-0.11964756592443203,0.11508184027493557,0.05464810559275447,0.1120606458587567,-0.02176378570509993,-0.14411276456894614,-0.13301693814795623,-0.11155994027145884,-0.17681603746078942,0.09691157468378601,0.26521134001863866,-0.061647179337215155,0.036460382101949615,0.04479570613647607,0.02042472826234454,0.027181076039152065,-0.17824482319543075,-0.35519927958505015,-0.09947822052660095,-0.11067246937398909,-0.2052397482740457,0.0831780515927611,0.03455300170963516,0.1430048037600872,-0.04049634748303855,0.0002932219762743777,-0.11101381540837887,0.017361289252997292,-0.19596807426962204,-0.08735235483684753,0.15266066468037454,0.0352756405302481,-0.0578945886677514,-0.2085075043486562,0.0191331486575081,0.03588301157498148,-0.0687459679643633,0.06795845638530486,-0.12180486545650955,-0.640135316262563,0.13316378327737127,0.15780568804676823,-0.2595250585292669,-0.04637069181829991,-0.16901361018579086,-0.06190563680098242,-0.13911273391886653,0.21463238151259487,-0.21161925660296038,-0.07100802319693478,0.10543591404233983,0.10926454093634794,-0.3597626005216836,-0.06603446962122221,0.10230119046789656,0.0939587346164791,-0.1800148340831808,-0.14395567657261069,0.07867813040211732,-0.12061897035416769,0.2571658558329196,0.10336327849100155,-0.09401236194644513,0.2065463400428906,-0.08696710830965226,0.3164979952814341,-0.24844542513092405,-0.12422118262784995,-0.2369048104978424,-0.07017253436477451,0.11517620297176856,-0.031186695563620005,-0.09242406469025138,-0.029681111418879403,0.05451944215431999,-0.026134671218790942,-0.09883075139954836,-0.07806101277773678,0.1843776078380686,0.077018057869018,0.10025266348015713,-0.0334702908056584,-0.23450365425138614,-0.15209228596578347,-0.037321116107358096,-0.20885926917137598,0.18251014562179707,-0.039934396435585155,0.15227107544592294,-0.181365045986743,0.009908823653421122,0.00867014789534756,-0.21117636047228003,0.1429520089557365,0.04931578494359064,0.14237282970174117,-0.1813262234208844,0.050696232735244116,0.13385388882194735,0.3672923685941314,-0.09207507250734868,-0.313750812981538,-0.35336411233336945,-0.12565414926135157,-0.13366147000209821,0.017800763344786526,0.29572129371035355,-0.04266501947518439,-0.8449988947714312,0.019745577241704663,-0.07758470689171176,-0.4398365737513652,-0.3718857778193785,0.20993852833754523,-0.335793604625856,0.024164372663273183,-0.18302224261835262,0.016072275003470735,0.044852317118233787,-0.1428308162639881],[0.026229797555933264,0.09876674826443471,0.19981650753365754,-0.09117867442905007,0.026599571488614613,-0.15946253517715112,0.10666052500344061,-0.0375089595639824,-0.16039595949536473,-0.0386504455941419,0.005720569354385111,-0.17951889362256257,0.056405593030124476,-0.09660652661272179,-0.10216368196378849,-0.008259129669401526,0.15735461547776708,0.24142849765984276,-0.19263873089764436,-0.11105496374436045,-0.17417487780224603,-0.0220711237168535,-0.02140875205717976,0.2509362574495676,-0.22175210009199608,0.26869947615665696,0.2088770049084192,0.10014621839438324,-0.0911606161168613,0.049001935681172636,-0.11622987535148459,-0.07177571063124773,0.7016087547980382,-0.5005359057601801,-0.004004860110258354,0.11084313191812828,0.1776383230246939,0.023506946730223834,0.06955113380754076,0.4210660941997464,0.2067983959053621,0.16550307052663935,0.3335609346080791,-0.23468797792026994,-0.1267929692844508,-0.24784979288604908,-0.09303129049513927,0.23951732591768146,0.16869656801573132,-0.2612701778816115,0.5813310169255353,-0.15698955359089906,0.5618781567377836,-0.23115667121817302,-0.04248949743346041,-0.27428610107050144,-0.18173096141149625,-0.02267057962700766,-0.22948450017366442,0.05712225037259972,0.05983811328242862,-0.1060252974308048,-0.02460688621440568,-0.2384444437065359,0.08730331317413029,0.3054077931605432,-0.10603114938356481,0.03542565646070526,0.06271503205111616,-0.24872934738558342,0.2941121050535261,-0.05967739436368087,-0.1243331974696981,-0.21011889216342905,-0.15923499992949425,-0.0027760613211763674,0.3137611456137236,0.346973369039807,-0.08348067285150575,-0.0033372783805937145,0.16760990547106402,-0.1827957013279909,0.23278542580806885,0.18150372681049137,-0.009032313250783734,0.25380934600138255,-0.07353539299380403,-0.024815099430651,-0.19937762158030692,0.14402988225584648,0.14776609921126693,-0.07209409209103641,-0.1632481551866464,0.024877218372369427,-0.011099674125834616,0.016009015225530308,0.18850924039625447,-0.10684749171453597,0.6275940702913255,0.16641144870108826,-0.13865047373427286,-0.5399279076710227,-0.24739258589563526,-0.09610650219654425,-0.3125587882127365,-0.16304495152581744,0.08895801894565131,-0.48551293926402433,-0.07737111180973269,-0.25144094621888874,0.41403474214429625,-0.1364426099761004,-0.14241025529280296,-0.18357689278479722,0.07857113088019561,0.35808197597655106,0.11417539694326112,-0.028483325738015364,-0.1763616092744678,0.01811638724311399,-0.2695979226080597,-0.039288422800936994,0.26938456800957433,-0.2121200435524159,-0.30167078934119446,0.09205359942261974,-0.2527620520871066,-0.07331900256242813],[-0.3763406163712193,-0.2534587417265123,-0.11126233839596099,0.10963205517316248,-0.16960820679893476,0.20682773171431182,0.037209531324013,-0.12069128937617714,0.0363418294150494,0.1757081197718582,0.042368457839803295,0.027208758440993155,0.025297208024198912,-0.14773705525096106,-0.004908852185471717,-0.19191773363167614,-0.26379669300431946,-0.06992039855006925,0.27734941271232094,0.1503565220968345,0.3519348954655109,-0.9601244268428577,0.1058839257710034,-0.3381652400674424,0.2562685329904833,-0.3519690961612509,0.09218042723043611,0.06313997397049931,0.05235394181756408,-0.31114369439290596,0.07368674395603651,0.027648152363954816,-0.06608721364118596,0.21738161088657246,0.12334836342124184,-0.4199105725984306,0.02657963303844019,-0.09591610855978266,-0.01918477286882992,0.3571381212490545,0.0565228060922842,-0.0014216035859365812,0.07766774361655529,-0.04692626839672389,-0.2087424891163837,-0.2732964708749851,-0.15640237455950953,-0.20729562274969773,-0.1343146673842137,0.2781638177464873,-0.1463928454783711,-0.011461625641485805,-0.037611703477218476,-0.17605011325853923,-0.05257525474583009,0.217053043790143,-0.07101271147496305,-0.4717559426786138,0.0018079246034364196,-0.17164376932492334,-0.7267060239978894,-0.049180973816764485,0.28768253500572866,-0.07656586766217925,0.25104666468698666,0.030863418878348405,-0.22298677001535402,0.5135334440187268,0.6281759657041974,-0.21644687777169205,0.22680186293557125,0.055215655193144364,0.15577910681481094,-0.2417977311848386,0.1535046443014913,-0.19346033223605918,-0.12925688734249197,-0.32921055386255177,-0.2618324693163866,-0.18107014223601084,-0.027665168012672114,-0.08052666507568233,-0.14958164170865237,0.12080788257802812,-0.0872072085939796,-0.010186911217377496,-0.3180218508748181,-0.340990740273689,0.030641232912251636,-0.08535612117497901,0.15479303740196787,-0.0771758907227756,0.08151486275971852,0.028032961012472452,0.01736757509001973,-0.41174884237312137,-0.17246861376228376,-0.2633054982121937,0.22604594556232302,-0.001290626509435692,0.027186273699049728,0.31142068369522546,-0.08778523997992158,-0.039026804875342956,0.2621998134235098,-0.15596841587650404,-0.03917192081850713,0.1787757762391301,0.0028416540258657964,-0.16807547116411392,-0.3827453461397974,-0.06089780054568147,-0.2177250350666568,-0.12181316603786874,0.10242433698784294,-0.34815541091054897,-0.09414998546975714,0.12996178804061256,0.32213976865747945,0.11299109002545453,-0.11970659783481696,-0.21388674777050326,-0.10211000360373748,-0.47428238506022335,0.0708777746096196,-0.06973293520456283,-0.1439065554802794,-0.052924788952794836],[-0.19307719781667226,0.0742154552383485,-0.12410297230640666,0.11282959757250217,0.010023570750124937,-0.008820742724997065,0.061657785545278496,0.13830776898374353,0.12897426848384716,0.019206127894201237,0.0969662812345059,0.00218481751486344,-0.1035623213938241,-0.05010211707106407,0.007922659794795027,-0.12387645566880583,0.05051330045415321,0.0061329395431561455,-0.06310162037371732,-0.14666492307048257,-0.06986127157542882,0.1299200500718585,0.09305387429450766,-0.02527399936400674,0.3320384959768372,-0.07399074168289757,0.2114278787858621,-0.03770245209673256,-0.385661778695505,-0.16891513892416246,-0.10009850419495295,0.00557689028994441,0.27071188484764325,-0.27127418310697854,-0.11477441402119368,-0.25108930409163294,0.134694997348026,0.21570938511021528,0.038229623708264576,0.30724902091219575,0.07513826192612202,-0.08667658376978156,-0.009559535289762076,0.014724118422783617,0.06562564507584903,0.06575380648063217,-0.1408314457590005,0.35860294237070967,0.03306238792120324,-0.210297077581812,0.1668239181235697,-0.12525586829143828,-0.13124662437312828,-0.16898748139482223,0.05271439687582139,-0.12001547882447952,-0.15960482000188853,0.12436840851120458,0.07776667754060895,-0.08038427489401806,-0.37387819703894243,0.3773148691265851,0.016344252799099842,-0.2563674427517879,0.0234380740028973,0.011010762355649744,-0.04122499815098668,0.12092879966825122,-0.04658311028054135,-0.1993254224854514,0.045073311778689354,-0.14567354727904436,-0.04988364025285099,0.07005075982841524,-0.2718701387177107,0.14188615042362643,0.26399774520935715,0.20609717901733815,0.004226775979887186,0.07773269367873205,0.05507053676701694,-0.15995146381245676,0.1892968058657909,0.054548570927389184,-0.012693734875824144,0.18940205611583538,-0.05996776834569035,-0.12770607269888024,-0.16221713078319897,-0.17853877209627814,-0.0018711678924747195,0.2925821360369278,-0.1103834070010074,-0.0007673253886131239,0.020516712752668847,-0.08216615724790391,0.16358606984811314,-0.13050290930847114,0.1317937840586672,0.12256597753477112,-0.16255939314368706,-0.2728482381066046,0.11525938133085543,0.024652696978580996,-0.05146856936750729,-0.012004259384132963,0.06025650480104681,-0.22885573584571203,0.11196570159764095,-0.014694286495355093,0.04017157887626598,-0.1386799362710569,0.08892554949774448,-0.08489759460626402,0.013274353639100997,0.2295487024723311,0.2124382817782284,-0.16821119305638743,0.10846241697417006,0.050688339826718644,-0.07668116944751951,0.05679949505521449,0.08739528833858054,-0.09084912784601819,0.37621364651709716,-0.056306776857507845,-0.30608682971514234,-0.13497315670797538],[-0.006557065149094039,0.11338794790092238,-0.04429833998622085,-0.01422948889000787,0.15000587025361795,-0.38730692138528844,-0.12374894889562547,-0.0034319518058575655,-0.29968196088069116,-0.07397652696144263,0.10893529576794328,-0.00826978383363487,0.0041154897502288556,0.00764863774970119,0.15118712737551243,-0.017700970668688303,-0.03289455988600344,-0.0689533053194317,-0.1018784974800484,-0.12068117030851565,0.10505345029506079,-0.12267842592880618,0.1641158393734594,0.11124760330373368,-0.06921110889086352,0.15615311877222665,0.07680218530176824,-0.009994617063782511,-0.0025177691514977818,-0.018309942016155527,0.06604431232147137,-0.12158320612364813,-0.0288580903082901,-0.15237550411696,0.14597987860354908,0.06115296187856514,-0.006553669779493771,-0.08000917767021613,-0.028585397542977963,-0.016744668063465855,0.02450112518649684,-0.03146234488789047,-0.2894071066440667,-0.22004614444653087,0.1191419422173752,-0.3306024431381767,-0.1596467391794149,-0.3443061867637558,0.028194786806110827,-0.3283395176154947,-0.13145664680130908,-0.07076942887861587,0.10242431243617085,-0.0937932204828753,-0.06706738726246154,-0.27609630376831834,-0.13589426528668697,0.0479697414235093,-0.031244132309808992,0.016887004387626386,0.4264260658487434,-0.09868718036762782,-0.06892287805682264,-0.3919673480527275,-0.2406273484053146,-0.07202197338670736,-0.08983374847666561,-0.2019514577170385,-0.24578171243959307,0.16080190679885933,-0.2890462719809541,0.1840403236677363,0.2007632732836589,0.10807995716571087,-0.14648899892118664,0.09917497823986998,0.0380423453582117,-0.11454834843878509,-0.1107407550857282,-0.028761781940921317,0.01757237565256548,-0.014371505813013066,-0.290619744696131,-0.12270705899563474,0.1866159163494794,-0.08407595851555008,0.009043070785822544,-0.19671632218839433,0.012154163525103663,-0.015388377370143968,0.3541271326853324,0.2199495811208362,-0.003144604132034685,0.06593207049894349,-0.00923330137613696,0.27477998591914143,-0.15810554496002416,0.035859582580068314,-0.08796731582434511,0.079062123879461,-0.10188443066409979,-0.19050841100340757,-0.10604216175509065,0.039514768644440354,-0.18463635658510968,-0.09812069729468825,-0.07813830148441783,-0.11537524650796403,0.12755014648589777,-0.013030574297663529,-0.06169418404559508,0.11603175754829421,-0.10415631825739154,-0.059466288469827676,0.059890129972747716,-0.07863579254778373,-0.32965255069191995,0.0584412219590818,-0.0027818482175358556,0.26766875217092995,0.09267535939277699,0.013044482402417644,0.24957541474591569,0.04423237547357635,-0.22751271623104816,-0.029373567129671554,-0.0787260077695741,0.10886636486280543],[-0.26246251723209824,-0.06971191614361595,-0.05889389352289569,0.10747076264276424,0.19124080609634195,0.09586164052845941,-0.31233532551186244,0.0120335692489462,-0.05871223874993352,-0.031031340041633458,0.1636890098158815,-0.26517124065219466,-0.020829938654504745,0.025988497720406213,0.06962720543558072,0.038930343149769855,-0.03330073996844277,-0.074687143127418,0.23585005899175615,0.06566493640746471,-0.4545153579464297,-0.47289879711190136,-0.10917382998747197,-0.2688057233453215,0.22108276523844642,0.16646750254001397,0.15131811274810558,0.059386071218226345,-0.15892870689735,0.21483957606587584,0.2140119622925924,-0.007625191948976665,0.23854313694127938,0.07070389979175486,-0.06304010951075514,0.02780717326907973,0.29716355637384484,-0.13236677746067446,-0.03007852530138369,0.1765180963570888,0.08137842126727818,-0.08817314601902519,-0.31647952023358705,0.09347037885682638,0.09262851939647124,0.1821390724529638,-0.0592099294894324,-0.07853153060242557,-0.1274963959153627,0.23683602548567098,-0.49219947125658065,0.010441636291860049,-0.3170199415854878,-0.020924217616716204,-0.05007371681165979,0.1620357821460954,0.4038494110290765,-0.01406056895218351,0.33622533648491576,0.17459284238451467,-0.3342107449039744,-0.06506058700433186,0.07420305441403093,-0.16282911016601823,-0.17073818566654506,-0.20489722794816895,0.15571724884201144,0.16078850784951562,0.10810380488410004,0.025691333575990228,0.11677266938670856,0.05231450200619218,-0.06513085689411628,-0.04392553123269806,-0.04328262293549964,-0.18385389942552294,0.07408743637054699,-0.05584310257153949,-0.1698447684546128,-0.21173387164218202,-0.06745070806426037,-0.06448654851857868,-0.22012386172447895,0.25183364567921884,-0.19029187779210485,0.0993072206018921,0.07308952919282552,0.22830212565712507,-0.10237023854126706,-0.1559986662554269,-0.13411923153370536,-0.032659417329801065,-0.14960310054858922,-0.2636389472464691,0.12120903970725871,0.19531304879780592,-0.17123109749608206,-0.09120524412807547,-0.09572520329109474,-0.052885926645614124,0.08076567640442915,0.011784335417867617,-0.18281821675557902,-0.051786987636328205,-0.0841746475241116,-0.11339649858224861,0.21176252913630852,-0.15262051331833804,-0.021716529924197384,-0.053539128084524774,0.015318357106926394,-0.0720317306425074,-0.3253563622109662,-0.037385140157144774,-0.0254155941526101,0.13249455263746504,-0.23584619919910574,0.15078647829387506,0.1223092506009944,-0.33149619549962683,-0.1601989513144745,-0.13667304130228303,0.05549147095129699,-0.16465035218496865,0.13844651148291426,-0.2961274962533801,0.11129203659143444,0.1668595732094372],[-0.1819335849721206,0.06323220779016679,-0.1879740142371217,-0.05203643846724795,0.008152407054000483,0.36113522050531344,0.23265980176121584,-0.023306245906050665,-0.21052135309812675,-0.14510300120578692,-0.014020418813991001,-0.030661224580885185,0.14835730763219365,-0.05145540400086672,0.2595212294731919,-0.22440669336768204,0.1860816568123938,0.08704683045273977,-0.1887021380070882,0.05192334462042557,-0.10663260049942988,-0.21721918572395252,-0.21867293806063726,0.37540253361254533,-0.04882294952950228,-0.5272751494002199,0.1574497810706373,-0.08014847132210942,-0.10860237826115104,0.227174219509907,-0.14151312104464864,0.08144013585976505,-0.17139182814217266,0.021680805939030687,0.15790354479677085,-0.7555414477809775,0.1668036366024523,0.07520625364898355,-0.14623369847142934,0.5383342715116681,-0.1643436666219691,0.08434010938059985,-0.11244907885481759,-0.1792010680902641,-0.09755569606130701,0.29694086614877657,-0.029405599619454728,0.1352975438042483,0.14336422914854585,-0.07518045419572998,0.175852971003582,-0.012500839804813266,0.5610404013715843,0.026231736397357885,0.117306899526862,-0.07026238993282048,-0.25447294162737444,-0.03272141966802791,-0.24920812654993826,0.10941993628896099,-1.1358007954975382,0.24224232386175606,0.11033783748162794,-0.24911719050857423,0.08723010647965784,-0.1300237557342748,-0.2535697685408604,-0.021379607302853144,0.3298026553056786,0.09958272176512706,0.08441664186459368,-0.2011646287154918,0.11285986636368434,-0.06797791831481076,-0.2984409266913471,-0.018216872920892153,-0.21420005521853128,0.4877782165465868,0.07008989496224723,0.19534163624852302,-0.5831092847040175,0.32970750625830814,0.4919465868345175,0.11043109426199778,-0.04484238947510118,0.23946380701248007,0.011508957317493549,0.0633435063092231,-0.3234624151886482,0.25752850530863386,-0.2772755391369435,-0.0791048179060138,-0.1550926144194017,-0.31162085425940056,-0.1194150753415613,-0.00561427242437576,-0.029861201690260845,0.009650202190170364,0.4669172165775078,-0.0011427775033352311,0.5266695626529971,-0.3156051282555732,0.015547359032830797,-0.0620956943818519,-0.11959052465260978,0.15428511647420007,-0.17840723181142895,-0.4784047329103939,-0.18029411488208266,-0.19257723068506355,-0.6234911886432435,0.13066586224649965,-0.15724088968298564,-0.13318420236389614,0.04572116161942916,0.2126441587038201,0.05456901594532694,0.11654285462178822,0.12419701337903287,-0.03336871755606811,0.4449430985305677,-0.23992081484354358,0.16286795459009126,-0.1860979762152812,0.24413980091373338,0.22286273605078422,0.2479725159427965,-0.2938868733263377],[-0.4164754243450105,0.03943329891254746,0.005914996153595776,0.17553928642813962,-0.1193443750363841,0.18171160671549827,-0.13933156906850164,0.017067451870235853,-0.06865408009848331,0.05668407529572212,-0.1981755016773265,-0.08127669671189677,-0.01578340340690468,0.17817795898484806,-0.2069679666180272,-0.13599582318350267,0.09613107955295415,-0.12707323704920512,0.13477891089036023,0.02116429044450272,-0.06623077558053814,-0.42809995655462996,-0.20429010829791247,-0.07679934301932623,-0.061520529444543774,0.26874177361950136,0.10024986192209481,0.02397651559224166,-0.06654162679190413,0.24414677751731573,0.03946964007864829,-0.2080769881675175,-0.3276927220620528,-0.3136834043755391,-0.13837460930814957,0.2067108545411159,0.04787753615240199,-0.023784120815828733,0.07977670034635341,-0.1579988873739164,0.06992768170656147,-0.12342940173672157,-0.04587123484711948,-0.0565684357340271,0.22595416256700274,-0.20752357567663698,0.05784427412997568,-0.038170811144533766,0.07399943120028239,0.031221151791935027,0.2028271265187969,-0.11439292059348705,-0.1417086125496146,-0.0067936003201951095,-0.07712411861360774,-0.2619258061543869,-0.3322549210148014,-0.09544587505805713,0.08286515372480635,0.14020971005209207,0.08612409851109532,-0.07962576034081499,-0.050266931850898346,-0.34513235924201635,-0.3208959320285194,-0.10026406457514499,-0.27588563604359506,-0.11871194946153597,0.1680693497206382,0.12452221188185145,-0.20071731811619975,-0.15560245054652155,-0.06978702975454708,0.3494451327596892,0.05761143042365325,0.1520878281205755,0.03333621692699184,-0.17766442663540977,-0.048206445666478824,-0.4166573996726595,-0.00612402772205656,0.0971627155807009,-0.3305833066366274,0.09023254240611077,-0.11549131435359161,-0.1718382442431386,0.1388864794847466,0.29003477752186024,0.025121646186499747,0.006024253159051202,0.2703619408130193,0.1691060628609425,0.0032741722619206216,0.1392465227149766,-0.13774037217902357,0.4060002396877236,-0.15438747159996255,-0.026736585862664274,-0.19065447837951152,0.061382341731738094,-0.10730273087835611,-0.20169184077215452,-0.10483482735266254,-0.16942316891155462,-0.2647085571287153,0.11775151486888331,0.15373600841829074,0.24215210663750056,-0.06076351951789114,-0.1758712511845648,-0.03959021276124382,-0.17197719403723957,0.11422550941258959,0.22131581683520696,-0.15193455461856678,-0.07485552404716594,-0.26952518743256476,0.06047995054881734,0.05139446359134627,-0.08598071167715951,-0.48004595602056355,0.12564278562894657,-0.07057066908622513,-0.08001356010132088,0.0045761115450745115,0.06716263143253183,0.316247013391543,-0.0817577586157235],[-0.10567318753470475,-0.45423988438977136,-0.20803054402994178,-0.034358250004378706,-0.1606378857725597,0.1386085911739612,-0.19721611404198888,0.05338301499189204,-0.08581761361823222,0.19566187705946417,0.13060172091121622,0.12160687311556737,-0.15295263904326933,-0.23922557412581003,-0.28667597649216925,0.15422495823713978,-0.3188200241249858,0.025382007285081484,0.04865504915872518,0.046068664099813056,0.2837182030918822,-0.895383290772948,-0.19211971070526696,-0.3790813865194826,-0.7152932745572201,-0.0051192100238877285,-0.21425353773982952,-0.1000457140557532,-0.26995738173053246,0.45391716510085034,0.0865954874580809,-0.04569691131415618,0.14499801209760818,-0.1526192917302761,-0.1931127875907303,0.11624168455495994,0.15532076800388636,-0.10939399296060259,0.040577344680396726,-0.20432627546385929,0.5806812699674091,0.26371496202452577,0.01708482085467829,-0.514473644048933,-0.0220216338351328,0.23212951394823408,-0.139813474460711,0.003408895957570602,0.06572074521263047,0.42330270504097645,-0.5468336464478478,0.020408557952614707,-0.05625727365032038,0.04766704370846914,-0.4952748264873804,0.13129767283923688,0.12351701264856225,-0.48553083281615333,-0.4344597768057584,-0.22014994169839608,0.27671061264554275,0.12042505411438136,0.24530979320894475,0.03677148207717585,0.1698242226917405,0.033052371900469474,-0.5320866880730385,0.4246053311419159,0.2163514726775194,0.0463057239256214,0.13829617634222874,-0.07102995667331623,0.1857419915069451,0.2838710276337227,-0.03965263124716508,0.0715961896634622,0.31845647179124514,-0.19606078989651113,-0.05756884018951687,0.30487842279694,-0.4206250078571914,-0.09019065958190943,-0.2197815607924513,0.11380814550586066,-0.06777763046368133,0.04186956756146107,-0.00018684220597809298,0.28386931498410556,0.15834531731686294,-0.3697777695345256,-0.11156519853487061,-0.26499461713521494,-0.0036444238825911164,-0.18641059817664396,-0.08572234074885393,-0.2724389326850059,-0.2518556603327503,0.009679852280688083,-0.43700873633547904,-0.009624662261776513,-0.2379811626031758,0.46512786842341813,0.39642962190001946,-0.09484289881005568,0.1415929210091614,-0.2485714561116983,0.11592072606825321,0.050723690083645676,-0.05999986062437928,-0.3364006506499422,0.16547969560970946,0.09523408390291527,-0.34100277673811813,0.19495244744615994,-0.28980531985544944,-0.5879290096841223,-0.1413038924849247,-0.28070434596690635,-0.6006154618830666,-0.20010604428874443,-0.0546478404962326,0.04906157224236854,-0.39927553593305776,0.06280693005987102,0.4204760541693434,-0.5402509450032088,-0.05447707108648637,-0.572813737803975],[-0.30784311695277067,-0.03449026586450133,0.13559352245261705,-0.13733977015503882,-0.16870599368868375,-0.08717198387440298,0.14000670457675557,-0.06572669654164319,-0.11579227261496236,0.17342422856033302,-0.21342636468339146,-0.0902589603446304,-0.0005621675263207635,-0.1332893940058142,-0.15057519844172787,0.1592493703654324,-0.24552292776290663,-0.09800388088313809,0.007358310782128349,-0.0030550062366629057,-0.048907601426061,-0.4325616829410438,-0.07346172920933328,0.040200085567106754,-0.03344457675095851,0.030773999975347365,0.025800946322304966,-0.07574670763794535,-0.3694979966216038,0.08336885974917328,0.2061386014253011,0.087989485021669,0.016848196206839836,-0.04214870567636798,-0.06595121967397136,0.15304819416555612,-0.2645967643611632,-0.1565363762793593,0.25880017302017777,0.01304265005069238,-0.09263328998748552,0.03204126900371888,0.2640944723206033,-0.11622471330111644,-0.16878983388882504,0.14041063713161422,0.08081899927055536,-0.29227939257350166,-0.11317184361103307,0.21852145671832263,-0.5381190817603636,0.041715084539419287,0.3648588405662903,0.10138050062698867,-0.08001634782017265,0.20968997635770084,-0.1432700863931359,-0.1866219207528336,-0.020743069740047495,-0.0022966455958798424,0.09221816703096594,-0.2521926536986372,0.06957862796041316,0.22941882831473287,-0.041984126285921006,-0.07509587326403841,-0.27624319036705813,-0.13185280692406576,0.29907666289365725,0.20107749926961963,-0.1223840332896874,-0.05315181628479258,-0.06886907864587474,0.08842253829754072,0.10949859647548482,0.08996130959797964,-0.12168206732799268,0.07616743725718242,-0.16726129907327755,-0.05788228494430057,0.13799714259364565,0.06163274442727722,-0.007535191283894688,-0.07883024246457034,0.1551497230833662,-0.13570222978247753,-0.0076961474048310675,0.14285768991049258,0.2765933501704383,-0.14679620001025556,0.05523829438132583,0.0872995998215183,-0.07608658136353698,0.1585536507521543,0.046143964147754644,-0.06258090335740463,-0.10617662836214843,-0.29090966439346616,0.037149177510348304,0.12633678502820178,-0.18639561023763745,0.160129188187056,-0.18429448905130844,-0.047232254626222894,0.10273424242985173,-0.12632640053323146,-0.10876200991875412,-0.1474716083715144,-0.059083056710851074,-0.17894722865687013,0.056340245972131685,0.0005491391603934435,-0.04882241463548365,0.21484214722229034,-0.11382173841767577,-0.007380677745959519,-0.15926428324008354,-0.06541423400647248,-0.18719920951430127,-0.10360441274574082,-0.19274960385908382,0.12071698739667275,0.09267545874232207,0.12721135475997808,-0.18147524626436157,0.013454589729428012,-0.07615805703736657,-0.15720028613624396],[-0.22930554791631094,0.016743985404011393,-0.04921604923419091,-0.11215369254708357,-0.29491846961653667,-0.22938076209757582,-0.09832888034243341,-0.20563685591111266,0.06680713698531303,-0.07911203521716126,-0.07391863912218481,-0.3404791246523651,-0.31790924105720764,-0.029513916874595536,-0.21801614203894848,0.07678915168702585,-0.13016128474088232,-0.03761201824072684,0.25462113828039346,-0.23680315123537163,0.14619368261118587,-0.1384453623539551,-0.13825810820784373,-0.16129685232164914,-0.4283114691662103,-0.7472281363944554,-0.02997098817735347,-0.11821536893374375,-0.2792585642745981,-0.16764782208380105,0.10674191457319417,-0.030348630650751572,0.33671112226804245,-0.12272202996064317,-0.2677450311652903,-0.16494654376312748,-0.12507929595440723,-0.16186960597292127,0.03021952609483565,-0.4913635265777833,-0.04352657303967114,-0.21460737878855637,-0.2744887105119805,0.2386922366280977,-0.23472066263454577,0.220572106342529,-0.015116530089663132,-0.24063364905399018,-0.01695842520636342,-0.06713831062531297,-0.4548763638701027,0.07809434941180561,0.038649774891957187,-0.1340879853690677,-0.22722790237004326,-0.022017604642687347,-0.3412482484454443,0.09856421051049023,-0.013584267515461157,-0.04727506613284416,-0.13474379999099234,-0.5254239779779113,-0.13569208326210808,0.01038677005730551,-0.22719164348476403,0.08758461440456555,-0.14728870425572962,-0.16385672633786239,-0.05908753236645783,-0.03245505139941416,-0.23029973929192807,-0.15393443078384597,-0.11965518020015854,-0.1116920720951616,-0.3135655590722574,-0.1353101028038708,0.013002912700723799,-0.30458635291431957,-0.21567139090343163,-0.19849874587553915,-0.0025000969462568635,-0.18810278971813804,-0.09289490263644432,-0.6638224726402833,-0.23017332197271337,-0.39648813416826395,0.15628130221579187,-0.26357860298224584,-0.06090907020119343,-0.051752722135277006,-0.10937973934007747,0.04613315093377898,0.11792742228121525,-0.20484673294710357,0.14934849534613162,0.23722875063754906,-0.1987445900321721,0.002707538819214287,-0.3574928160485504,-0.17688846286993162,-0.4906395266919939,0.04435014550517297,-0.0604370960608983,0.09060852945607488,-0.2356394622022587,-0.05796943131174375,0.04950887850425652,-0.22183191217448175,-0.05632447929592821,0.13476918668671864,-0.07291515333316682,0.20397581582892177,0.14225466828482058,0.04307502401927788,-0.2482176163822155,-0.39663449913455573,-0.2826234716336774,-0.19393943833425487,-0.36234141884716375,0.07366188063534827,-0.2542448725675956,0.15933796052780935,-0.008188769600254718,0.03454595029543143,-0.7415573097781155,-0.29229191384183884,-0.09014677542561278,-0.19793140556471717],[-0.07597088215222522,-0.19433505699721815,-0.24569717845955666,-0.0066536311950592475,-0.08253168582761564,-0.18330391261998136,-0.010655814456072289,0.06545103695563978,0.42216550905884276,0.08937803189755902,0.14277747798879822,0.1321316461952702,-0.07125660667727518,0.08668243989462296,-0.10681187418405318,0.17382293461201365,-0.09653120676439916,0.09709049108350615,-0.07251068394219487,-0.002740071802893188,-0.17369163761817114,0.11743347987746475,-0.06777552481047981,-0.17899829213132692,0.30844274318634574,0.05691747701443418,0.0597985653878966,-0.006411710344493592,0.1764589584161235,-0.029974923585390733,0.003213931656289958,-0.030579813080857565,-0.17040883713690572,-0.08587523340140578,-0.03278469545880127,-0.0611979319284089,-0.04511594677170621,-0.005552980075577723,-0.041278483435045775,0.04418479560431001,0.03518641271598429,-0.10551434242809185,-0.09198680943924235,0.14751827486632854,-0.034795897168412214,0.1918077992586634,-0.061700489476731284,0.018545994368087383,0.05700242258065835,-0.06210209334913147,0.20441155755548432,-0.1486141312750505,0.12918812594692453,-0.15575165823763784,-0.05805236431412482,-0.0129014216176141,0.0027696855958963193,-0.021232899768926842,0.27568347902350715,0.10110241848553245,-0.1720274282419695,-0.24131636433423906,0.059786780609508684,0.02216939141098578,-0.055871008735169876,0.16190101102470247,0.19289761037542735,0.14405823840081114,0.10798895419697574,0.16797352495376883,-0.09968699889443208,0.14275100387151857,-0.055289596553621,-0.1621609312917323,0.049572866080712506,0.11094451821988593,0.003140698522353927,0.04961054990946091,-0.17665512376798556,0.2126268825700395,0.18234999719939915,-0.07343368794561551,0.03521527215187224,0.2111249650782174,-0.21273256453912343,-0.028578054584544516,0.26635724063670807,-0.04422024146788829,0.13634547781280612,-0.0487640068858554,-0.014452110600743114,0.07784945231548447,0.014788425062875142,-0.011129649709633186,-0.153379805687726,-0.032810522464825354,0.041799295644921214,0.15466972638617088,0.26293883909060317,-0.06709674076550753,-0.12665244822776375,0.00503366168877017,-0.16163466109152266,0.13846451178149688,-0.11762106423996697,0.0841000034171517,-0.1004401587212986,-0.09791592061578527,0.13425077258247597,0.01949090029012848,0.016789433327920336,-0.12534599415239683,-0.2841680564470602,-0.05608278516623064,0.10035655761284312,0.05217615422436218,-0.11266559953088538,-0.038236705602739715,0.4858936429956597,-0.04392775441498681,-0.26373963619473295,0.1341485387484699,-0.11243462871727662,-0.04738737175832816,-0.18995817362877795,-0.27274717835277734,-0.11791356779029954,0.08770349471836622],[0.42862559038670034,-0.17057624229230806,-0.21107086260286279,-0.04758288228115394,-0.04231613794730147,0.2785656638427671,0.3570493313060258,0.046754708883939934,0.6294595189345872,-0.15945616339306162,-0.01836335574546761,-0.12455057729014786,-0.40936798514759476,0.2974256078156717,0.11275507931509969,0.14725654277176173,0.5668358851484773,-0.1722881218424975,0.15993585732826024,0.14127256959677537,0.2122911210568856,0.7272054811956227,-0.10368365381826913,0.014517619916887955,-0.4105738126808105,-0.888798293404471,-0.15235676204487011,0.07301405176941031,-0.851055436807439,-0.19001510995632312,0.060559603055924484,0.2347992428234583,-0.33000400091433946,-0.4179853475481945,-0.1686808628244676,-0.5719584083397764,0.03254927471712229,-0.02807683276890043,0.12164105836168713,-0.31447378727767905,-0.28734610735195115,0.18889420892216505,0.130543582302982,-0.2206725227556226,-0.0919656906282596,-0.1609283308925915,0.05987511507436242,-0.2498407967440283,-0.025198864926865076,0.2405981176975202,-0.11586275302806348,-0.022672886234316864,0.11379203492752983,-0.10139053000510248,0.06280917988666784,-0.10119275395115399,-0.17878994890603717,-0.2391501491700834,-0.1591166192840518,0.04909069101317094,-0.423415334910276,0.0012317188195927718,-0.023915187348827176,-0.6749327557614995,-0.3352020253250207,-0.14607045204610314,-0.24400240500954712,0.1250097554305385,-0.3791828210711037,0.007117870492748448,-0.1256313584996535,0.029567921215508563,-0.015609454017661986,-0.0214775511902125,0.11880107108795926,-0.0018082447225284764,0.11566848718592505,-0.34873946675951384,0.0539519674869617,0.11292483318743055,0.8113376293077408,-0.15181789668636514,-0.23533020752694297,-0.0857635984012248,0.19076808028321177,-0.04349676967118889,-0.12162848341440853,-0.19919631261787193,0.42538366306851927,-0.06889340867887224,0.2541798584296607,0.44697539135639364,-0.03983174126212385,0.16934302837452161,-0.10899619174467623,-0.05823416630276258,-0.07212376587284983,-0.05695504525612175,0.07733633975162844,-0.0765960111997739,0.052762129635108165,0.24392894414940972,0.010961736780551004,0.03431581157275694,-0.17965748108916055,0.17338349779898068,-0.11064962812242901,-0.2261097852542867,0.009974002117360142,-0.026186746746536406,0.4074315304299282,0.12646999666732273,0.5559331662528416,0.20736981580822914,-0.09701689949336503,-0.3636143228062017,-0.1785185899271771,0.19102706870299613,-0.22729363672814407,0.21437885988531297,-0.3360404308070487,0.03841396632159298,0.06823174959856633,-0.3815903543208981,-0.355369723446543,-0.10001996782796606,0.2325121688331013,-0.18879101864102277],[0.4225190985792459,0.3510183183600709,0.07227446008108332,-0.02686535760127651,0.07767219487484214,0.3990667096316056,-0.37630667471479357,0.0670200102162761,-0.16543214688716035,0.1965822953504609,0.0615244244131527,0.22314144476186956,-0.2737589502809301,-0.08942615490662681,-0.46924604918989626,0.06466440065827037,0.16462622626195858,-0.10297025196819444,0.3647737284861323,0.1483175147263746,0.3750333657886185,-0.3380955570998236,-0.23500758837052377,0.30145363653028145,-0.05896400697706751,-0.13782279450645138,-0.21661555636171825,-0.0857160259254823,-0.24132969844518942,0.017698116750591134,0.08485581300662144,0.21289222436707292,-0.014961522786703312,0.06933827816509315,-0.2299532403086127,0.3100382332119368,-0.36905635843512274,-0.2733361576735941,-0.12098308814940473,0.02017105199991576,0.11186396146973594,-0.07412025588299888,-0.06622322135869821,0.274279621045761,0.20361784109101586,-0.07862888550593351,0.006792502799791246,-0.12385974083121636,0.16657727270293524,0.16905689018976539,-0.11402171113508068,-0.20432177567105264,-0.19788098557352113,0.043247316253872195,-0.22038165338272245,0.2310578400819722,-0.16545815812282705,-0.40043139834918434,0.3398234010960944,-0.2466757963440714,-0.6100999382078642,0.011374478219768702,0.40265471177212836,0.3220056123494816,0.17933837450463655,-0.16786301378153562,0.15027762222347998,0.11717235904691674,0.55266097307513,-0.1358503305002518,-0.03452777100599882,0.022346366659106387,0.1608437348837841,-0.06885760467719872,-0.1481466050802758,0.07724966343904581,0.1472875913125617,-0.2603545261308146,-0.10556151967659187,-0.15418591033614368,-0.12030705115054664,0.36559497566493887,-0.24550595305758313,0.3682152318391399,-0.27021624069303,-0.2958328714385396,0.15302772493756672,0.1152332352589816,-0.1495461146125965,-0.1651449213108741,-0.16000399557482825,-0.3376035572990718,-0.14198609005287624,0.16676896686049802,0.16267938495494227,0.2891810211121383,0.03773422564241235,-0.09549883287353433,-0.33074948480023075,-0.14934751426104917,0.1490010059008481,0.07556994247450506,0.11643073811647586,-0.13220513938652118,0.05479461584362066,-0.11240392081723448,-0.14487610454974392,0.32994232039361965,0.2375072484861785,-0.15402504461001057,-0.13500773347543873,-0.0779640237066518,-0.13167641018681805,-0.00893571713396432,-0.5865917966836887,-0.5888381559140579,-0.03334910457569292,0.27581046001958204,-0.621086819372535,-0.21343722501107812,-0.30461403851158675,0.05373152981175245,-0.1697271283037358,-0.008141208118287875,-0.6823965502714886,0.17311347347234815,0.13559814179274804,-0.47166703777938573],[0.46540949526848774,-0.02806905294905936,0.13609808613784333,-0.03480357446000765,0.2673090840340167,0.03896568379912168,0.1634906804573202,-0.04861537431112955,0.20892344689677278,0.11850731170025676,-0.01584285140134166,0.10880915252124705,-0.015433580077736927,0.10593953465107965,0.35139352726774803,0.0851199371091018,0.1847443512609639,-0.09927074475673185,0.03073921196062614,-0.10767279796321315,0.008177561358023286,0.4820052732916249,-0.21885909005364962,0.25137011316252916,-0.24457818919561117,-0.8280939754308216,0.030910404073368977,0.07678339618999963,-0.04501858034148598,-0.005794013146550877,0.03114341538710041,-0.09942314393965701,-0.7688897744507425,0.17585214087781156,0.09453394905307203,-0.04200342116110216,-0.008389283908953075,0.07477365327104622,-0.03478895672180413,0.10152855795247404,-0.3107119652094664,-0.07831639513648046,0.15328999017949382,0.23296618063686894,0.054164851140274965,-0.11923477743470991,0.11864739426662681,-0.08029801867221992,0.1498914278958055,-0.3901900183237303,0.7466283934710243,0.09399599753665852,0.29967917248719317,0.21150575859142462,0.4128675817508509,-0.03120505010899842,-0.1340962345838347,0.31763489578225734,-0.1446998315058535,-0.034979329849337805,-0.26109019009398843,0.13423290037623453,-0.35058756741192904,0.08933988389307947,0.09559120122869112,-0.10793326196610098,0.2944193429430208,-0.2661839776263131,0.11191106331778007,0.10282481571052159,-0.43693109385554624,-0.09373641575122278,0.12642587695985552,-0.06880548380197857,0.05635531759946951,-0.012172681965129203,-0.3289843832484821,0.04974622026822638,0.19483202035466068,0.18553035511846863,-0.03743225479089692,0.07671093886136578,0.24915654472099397,-0.02011273804781882,0.13160228921779793,0.30773389822712804,0.02589765079016765,0.046755940201381116,0.06889155656540451,0.4127899434481531,-0.19117985080581082,0.1492551548642161,0.10127935903893626,0.05723407889648684,0.16378701364399986,0.07840742539634644,0.21203382462291265,0.023122936327064122,0.16543764057592805,0.14744550682411756,0.1096181728706221,-0.361201779216362,-0.21998594011055275,0.08794141166559276,0.00906361741292452,0.037949418052774166,0.09971435487138855,0.005562526433043057,0.12902067226619138,0.23129809409328855,0.16092703376631728,-0.05670141373667619,0.23132447140556436,-0.05331620617195726,-0.07065010552510362,-0.18854501001941662,0.06936807630395773,-0.013750919994362436,-0.11313132634935079,0.21014476090082532,0.09919864071299267,-0.03247869489613107,0.20166052324533898,-0.07607336830707574,0.36941878311942017,-0.09401354148206728,-0.13701054598351128,-0.06487949270975693],[-0.05436697870552607,-0.18519721599871924,-0.12485111120567019,0.006293867639958706,0.09501134249975382,-0.6045246681569245,-0.052792900259980784,0.13038013548167388,-0.31352508091834175,-0.13610621454147465,0.1651885081012966,-0.07996577893501514,0.19566738706862982,-0.11774884827328254,0.21714405378026183,-0.17229006442032924,0.08081612527243283,0.03822856332249398,-0.41474452566834363,-0.010854514483995223,-0.163580081061232,-0.18418770861858016,-0.1604786359443342,-0.07353415591000116,0.19952883713198882,-0.21679077932763993,-0.11239511585958938,-0.13806777396578646,0.31920465638628637,0.20127009503055335,-0.02960749756128776,-0.22175764916724394,-0.3347512876805436,-0.2374508543846883,0.2675664757649624,-0.2431093226192891,0.2802548005329842,-0.12143413202975974,0.07364737173594348,0.19441626242925267,0.1988240977656125,0.06151133007482419,0.14035838186605656,-0.02465373286844709,0.08529506814953369,-0.15277232788663334,0.20498294104671924,-0.28615845107907056,-0.0513155355842599,-0.29267708315123053,0.5586522235407452,0.02651159952830811,0.8363978561889971,-0.25784026705147495,0.3204097532213628,-0.1954806523378166,-0.02160345768875109,0.014531699446431548,0.14275783934600503,-0.011230942756252766,-0.09091069834885837,0.045201632089275794,-0.1434164145309137,-0.4439623034217865,0.31536831783110736,0.6616064124542792,-0.2784231364095662,0.4635292318919513,-0.19929851946908492,-0.05808246482022147,0.14799559047902125,0.20498351566554604,0.23006569799446466,0.15824681736004773,-0.6442812361752382,-0.0644440809728789,0.252215976057629,-0.06830212210682761,0.4724940896511905,0.5257788195893709,-0.4180846788178392,-0.28248036280081973,0.1589724244463827,-0.2493827973573549,-0.07901492235479271,0.14433715807049974,-0.006921526572178131,-0.8001182462447021,-0.5747291839082569,0.2248656949251175,-0.109745913567659,0.2120633718751471,0.07752570926901803,-0.38704277789628166,-0.12362602100700552,0.21275381922439954,0.09794487513848124,0.13469202296849125,0.8155936900263255,-0.02864951856359405,-0.2437993670343446,-0.45693073832419895,0.3646529461426453,-0.14799527723412537,-0.05805473380891935,0.1773929989588491,-0.16383469596289377,0.20924799930499366,0.060870588226714,-0.07485534097653757,0.010067453229600953,0.5054456293988386,0.007916397080029326,-0.11642888721329402,0.31764560171693,-0.058454846352786645,-0.06961349787906082,0.08500091796295475,-0.25627609798084333,0.0905637776571283,0.34715410349687065,0.31367296798832467,0.14593722610250692,-0.060266439572378795,-0.012545995459783103,-0.4041733362323315,-0.585288384588175,-0.3793731258072035],[0.1304012766787917,0.07571198748875542,-0.06164714320053511,0.07396748149150405,0.13779630807284435,0.01489874914157124,-0.13724288218696018,-0.08628876141181228,0.05669412165828297,0.061770718946365176,0.05954532950027345,-0.07531040704403219,-0.18705986946955483,-0.028812957180641505,-0.10880902333439227,0.17693822175575769,0.14729975242755697,0.0016104331420241085,0.18998092376625692,0.08945773699533471,0.044674905437199125,0.18064118174568347,-0.09498766620395173,0.22617011831611436,0.06924143241348076,0.04386918411480195,-0.09935797721955869,-0.04614795451382182,-0.1656195941819274,0.7610084139665647,0.2758340277410013,-0.17871619840940425,-0.4362139868406804,0.18862162660548332,-0.1570034841751619,0.4715021948808636,-0.2770211971128281,-0.21852522899320817,-0.12625351916368385,-0.6895025175492314,-0.11677552824547814,-0.10374638746795882,-0.3593939489907007,-0.1588619889609777,-0.09202266126899783,-0.412862382797373,0.07083375510045187,-0.42179366347868,0.011187745808534271,0.16011014953833871,0.38432081100578386,-0.1427696530172964,-0.08245437098006055,0.022861068484770593,0.04358227245979341,0.07742226492011425,-0.058150774139381176,-0.2210895325104539,0.4722397398500489,-0.13209695754207906,-0.3122491234811378,-0.17220503305974064,-0.022816984708802036,0.2301104252865891,0.10397464517118316,0.005960541905852585,0.14536207775752527,-0.06179660932397396,0.21562279949624014,0.11236230154591718,0.009752845633122328,-0.05755789780453794,0.005332897162963479,-0.022047307344581404,-0.19461123130494373,-0.0282759317838865,-0.2801184729892673,-0.20492953797870286,-0.12438991151637901,0.10999073945017195,-0.10323977643601465,0.3407647182320337,-0.5077410382377612,-0.32132400491812535,-0.22090726371173647,-0.1365477989328775,-0.1325281436281659,-0.5781031379260344,-0.13776359885755382,0.09868089481189722,-0.24222333092896128,-0.28270080110336926,0.005188629457589877,0.02531888951388849,-0.2063654009665595,0.054791189530741004,0.06610873496290338,-0.047942927642317654,-0.16769512377301246,0.0313386749876583,-0.06730246040782802,0.16418373016084972,-0.16523823773879756,-0.0660814719538473,-0.00016164058904035746,-0.1198706318275959,-0.0531261050444769,0.31195283282043584,0.04834059678038886,0.07936441611479862,0.3242510837269953,0.07480811758072069,-0.28485960851409564,-0.2645796651122934,0.019446234886685277,-0.04963809401214624,-0.013402100379018355,-0.2806759414676074,0.3967941345515415,-0.22975730494967095,-0.3607900990080698,-0.1441328483981043,0.06482135865610529,-0.06051081652336837,-0.2868436954693785,-0.04038364222053108,0.11042837222402595,0.10025378862895747],[0.04895592949933816,-0.050742925076823785,0.012857602021430832,-0.12658858470587586,0.014497783553900273,-0.0005997889813839093,-0.0017157874419946968,0.004813550910597686,0.09016645297483335,-0.026494158796378002,-0.004861999947893048,0.11154728658020398,-0.18017008013059646,-0.15800647529576203,0.007425727554075675,0.037151897476879255,0.08336405012753481,0.05920203258229982,-0.06457748332232374,0.09251215872678023,0.11990286015839921,-0.07940516075136984,-0.06321042013246171,0.034861146576242515,-0.06295446614087796,-0.1646286289039224,0.10710243750505216,0.04295819117351443,0.07308722777806469,-0.024864983314331453,-0.05305082363567752,-0.0057328690947610105,0.006410302015078169,0.03141503239060411,-0.12277066815216857,0.1533809726823561,0.07343420249292328,0.016157558264935108,0.10246948278374055,-0.006050546422216482,-0.0005847786668767698,0.02668071516584056,0.09920983467385126,-0.08843988643599292,-0.06347681358491584,-0.10617244582520827,-0.06788002660269042,-0.040253728271584674,0.15742504474260377,0.03113413124382571,0.5042953764640576,-0.06003566083210454,0.17489206791246387,-0.1653248784316979,0.16880461023827778,-0.12882229342729343,0.009207708542522198,-0.0567048876143562,-0.023712063886687503,0.06202881513277608,-0.02149314001135276,-0.022499827206840357,-0.05970626135059192,0.26969557284937873,-0.03603849318438313,-0.11159602865040441,0.32307076539280294,0.12244049850126684,-0.02990379094711517,-0.14612619934559035,-0.17714433518023237,-0.08607584890804186,0.07570754477263633,-0.029093545949745173,-0.044718274308313724,-0.015162651702408471,-0.07865604261324093,-0.22405775871880704,-0.06790922756601028,0.058312992535196506,0.08655325890403448,-0.2680931287034284,0.040242643217968374,-0.20486291559247333,0.001326543082810063,0.003304183438839251,0.2241569752726747,0.13211967882185194,0.09866837457470518,0.16443014931706543,0.03122884896361521,0.08812390804944857,-0.14411338156251274,0.23607263332414383,-0.021621020623487412,0.03201928171647987,0.12328039737318694,0.12472990919089853,-0.14135718592932087,0.16294420460693407,0.03440524845792909,-0.12479401962520495,0.1416766243967955,0.00841692822986522,-0.014538879934635035,0.00953132114090412,0.03637178074377126,0.2042606944020841,-0.10162460447377827,0.11021120665940391,-0.10937649641882143,-0.026098316918787574,0.07697897109640943,0.05066964293191105,-0.10668331557496233,-0.17447432313882474,0.13634358905871477,-0.0006233351503552062,0.0006352179283897979,-0.024277591973793262,-0.20565668938394738,-0.06425939132590036,-0.011850981030044562,0.1073923833092529,-0.24367118258049683,-0.11831422214548237,0.23583860419574706,-0.07622551688373334],[0.16363940528503032,-0.016118467883197887,-0.7302862346977071,0.041194872148229686,-0.2399826776224087,0.413570686807664,-0.11713969934076146,-0.13923007029371184,-0.16721950973097507,0.24817937925120342,0.12203743918682844,-0.21676067240654556,-0.2888724687108627,-0.09686965251163795,-0.13753401853576624,0.005144163414721027,-0.03433224771196511,0.035689387003101224,-0.3173841429899627,0.14978719460332818,-0.06384776462558503,0.21798398941175115,-0.257805422852413,0.23329644572586422,-0.205584645244267,-0.2659148936566726,-0.1049176230755446,-0.15094592776118218,0.10951505002539076,0.05862332023321786,-0.4064070060472177,-0.02272246634180043,-0.6019610862994967,0.12832811930634383,-0.18534759240966436,-0.0839765369528724,0.18905035587148372,-0.11781022203914758,-0.052026170985084386,-0.4587307178063431,0.015976638181556726,-0.061096924358830365,-0.4065882887880834,-0.8040902504173172,-0.38319617745374673,-0.8170219871878005,-0.08120896758816858,-0.07815202601261816,-0.23674459416524335,0.25702133721249687,-0.14713577390620916,0.0921559759106493,-0.07840886408707576,0.08975060640868941,-0.16522037501018724,-0.033088951386009965,0.07572602648074953,-0.2534080403224344,-0.3927709887249462,0.11260110127666899,-0.09068322415707662,-0.2917895926299839,0.029245240547063938,-0.12789260384093706,0.17818372544740627,-0.1151991120168254,0.1703438745431566,-0.13121094237351247,-0.4484288874863751,-0.28397553659131625,0.012869074948327243,-0.01963325342942566,-0.21783843179291382,-0.07948559355927175,-0.5681772719282302,0.026273108280177676,-0.2794960909118179,0.13331352771993576,0.2908731647806761,0.016343874077145774,-0.2511480959394206,0.10972724522260231,0.008622997076248796,-0.02405495664053541,0.06738984199194908,0.09044715412749432,-0.8915043715650802,-0.3167583550824387,-0.3158653324518266,-0.052417159443958354,-0.12294444642809706,-0.18389107798563376,-0.0204781316514348,0.5943524040808837,0.012308284348475574,-0.45812253623140287,-0.023681013550690206,-0.09031568375990286,-0.3737879705777577,-0.2754159287776264,-0.2580112709004189,0.32212764301690106,0.10637044723326647,-0.1392739183386595,-0.160600467593928,-0.2838664232444932,0.04208465621845153,0.2535668429114483,-0.1260896482340588,-0.14225639032146903,0.4543592547857349,0.30859240031463403,-0.38270854957710293,-0.5029908966915497,0.32305190673983936,0.6883552655594263,-0.2342143168781653,-0.17334243361953777,-0.5765666793512204,-0.06556317300255259,-0.1073252139457949,-0.14465706570560766,-0.9032966318183947,0.002957391711428211,0.10585324608444446,0.2847598903903077,-0.27227266777642833,-0.2153318640221782],[-0.11925378275046204,-0.139175520388758,0.2828805913516881,0.0003686898032711131,0.08222866499522846,0.19653232533494883,0.2793077608669503,0.004897841867022858,-0.06342083921309384,0.07171700332059887,0.061364448274466736,0.14520066318343833,0.030144717051923182,0.12220024182253901,-0.04385297850497558,-0.09473464012854185,0.22835292142672514,-0.007214572732868288,0.17037172250869712,-0.0972550505863693,-0.20737138927209336,0.3868090361603676,-0.02280940868073771,-0.14886513078207397,0.07682272972797043,0.12979835422341934,-0.09992121845852314,0.08544988152008734,-0.3324151758782962,0.2066957233989157,-0.09769027810524575,-0.08602273686201178,0.4046423990873469,-0.3091129049247101,0.2001342910131978,-0.3138318485451671,-0.015597800720206258,0.09650114312167199,-0.07988879595930283,0.44473620016715754,0.01937467060610662,-0.15604571646749482,-0.18638221076246245,0.34485286292581746,0.2674719171299076,-0.3120044195313557,0.13115734985369665,0.21880781712600747,0.2698098845354988,0.2972400563250418,-0.20291764900585751,0.0914608198040553,-0.23693579750148427,-0.3063667689381915,0.18197027308803268,0.04774791987455102,0.4319787937787518,0.33006578858080815,0.2361826000416151,-0.00475290482377505,-0.0727446111556704,0.08909284910295832,0.13151227312747366,-0.1597013454486723,-0.019321867469013227,0.173027255033449,0.3277869418510184,0.15495269717962715,-0.10871148007247898,-0.09864945622381291,0.006662277760669511,-0.12146425241454806,-0.040366161763832654,0.1915911016869227,0.24599234298687236,-0.057242825552795897,0.14951448213279445,0.3569344353168759,-0.1581145123611271,0.12053717210972323,0.20239320663531074,0.1446500608624693,0.4635541085420303,0.07404457323523551,-0.09767688708269348,0.028526401648405905,0.2735212795925502,-0.15582378029029387,0.0996780816324864,-0.1720334097777628,0.030257428221315212,-0.3523341479311481,-0.1202546656189083,-0.07978364870465192,-0.006726562111299706,-0.02109621279036753,-0.09055903931682252,0.033010739414918694,-0.02000726167897829,0.09541245134616011,0.1727674567111304,0.2683094294236608,0.01149323239962647,-0.06836459849971015,-0.2026604566632385,0.14076152671751468,-0.003410890053053124,0.28176808383097046,-0.10708490099634824,-0.33124530474342917,0.5018002494883583,-0.03620089969888676,-0.0833907128148574,0.1795056472781608,0.26449965496390115,0.7880464452300873,-0.6456488679717176,-0.36592060162053897,0.21200568682800147,-0.30770935338253835,0.24223100838268155,0.05754085231866412,0.17454271928686935,0.040924222431832545,0.31701317921191235,0.08314075753787552,-0.22703080685691163,0.12324544183882272],[0.0669866583412586,-0.09285148758883471,0.41103534456380114,0.000725702636931084,-0.052914753036389955,0.12320197066006415,-0.04132019753987739,-0.11570447451781941,0.10989567303585833,-0.11035929090149671,-0.0779831341928611,0.15110199551066128,-0.013213859305007389,0.009426179969843334,0.07924645736826723,0.21884182873802183,-0.18064911131445224,-0.09225394939445962,-0.136509683827045,0.08736426995536792,-0.13173042557846534,-0.12303824668683264,0.0695572224777194,-0.048375374757906923,0.13486096854178764,0.059449283436134336,0.047509563223680606,-0.14248248372912845,0.15127817741858576,0.08559330800804811,0.05510720279617062,-0.12075929027836498,-0.15334328257992258,0.10010840470342257,0.005411697224916353,0.05103157465587801,0.06762406290173259,-0.061189022611137706,0.07681847475521729,-0.08686361299383297,-0.14271427991223848,0.1546173657936769,-0.11842016741656658,0.18452006734285123,-0.04560258053035945,0.21828664256388236,-0.05897164675502814,0.17476453517657783,0.0649037531771718,-0.10153186970845428,-0.07534262985721145,-0.017785188942409456,-0.23443847418492,-0.025960416919929608,-0.1606527557610754,-0.16141480605274486,0.018591694218929103,-0.15041612735429333,0.06881978388042381,0.1294014304535009,-0.19863672769601404,0.15362506112193583,0.16533342566572565,0.13881751682879606,0.024530923472471194,-0.11490871217431307,-0.022643730408738797,0.1287028056112897,0.05577462111912454,0.008780958818360869,-0.11857840745159431,-0.03181724944402343,0.051199915496229355,-0.20094366534467945,-0.14418043370206435,0.13526124541328544,0.21186237773678263,-0.14993942611526784,0.06933590107241454,-0.09087530732009703,-0.10933389529148352,-0.08645809954911911,-0.12365588214623463,0.13904452166580242,0.05428965503292404,0.004003474754699571,0.11514211918458603,0.20255111270577938,-0.0663274158388924,-0.0543485131421429,-0.10510757597340996,-0.12251351218405675,-0.1409901423953997,0.02431617663296895,-0.15423122138189121,0.15692568436840507,-0.18620371721320347,-0.23903598994943856,-0.21724439883937283,-0.13920518729466602,-0.012248628276373963,-0.1595485026702716,0.18173383693416767,0.012114686650655578,0.24486671496723483,-0.20995252411500837,-0.1125285969047049,-0.07830095483563275,-0.027396068016562976,0.12772391908144198,-0.23630731448718081,-0.04129879666171494,-0.2544084924031906,0.2081311423368694,-0.2217764029668763,-0.03582692414048111,0.2965725909232799,-0.023039361405755344,-0.32196554898800717,-0.05017789312841014,0.33676165152713805,0.03155885205588711,0.011483738474841704,-0.03070300730228008,0.3409579072928309,-0.2138723056150774,-0.044939444333106024,-0.415055265330791],[-0.32073739293029996,0.0728172874770537,-0.34602601243275727,-0.10286074920767317,-0.4976416073802736,0.10529846322876149,-0.05748196385204037,-0.20354402021081167,-0.43055610863040983,0.10470793777870362,-0.08405823432640615,-0.029642026599503834,0.15041311941468233,0.09971998570131411,-0.07544052439097615,0.12152998521744893,-0.17608060011018678,-0.030119394859346407,-0.17353414908449208,0.018079201659034136,-0.16053805305871285,-0.6029808287677914,-0.04395645141424851,-0.24761210353902016,0.18126287886521664,-0.24211919308847424,-0.15902312021489975,-0.025937104616999343,0.09686244315454845,-1.1695458226808664,-0.30313422533627365,-0.1778156758051116,-0.14533168927282045,0.06283234633875971,-0.020625835427260618,0.3748738533727155,-0.12025941392715278,-0.07331898528593139,-0.3101967345062526,-0.19091854342278528,-0.10521421095861018,-0.1234063324087533,-0.30793485513394747,0.03400391681845912,-0.19861128712601778,-0.37377766451675465,0.1571008665016589,-0.049481928655918654,-0.30791576501878404,0.3593603198537427,0.17064371239468817,0.005376928668565933,-0.20417406134101387,-0.19703197521776966,-0.2281722816535694,0.21442157153295424,-0.3103220610238363,0.1337164482741532,-0.1987861386655868,-0.00421487957766973,0.0750057195989711,-0.13760678605001841,-0.0030774203934451267,0.0751373160410515,-0.24339129113743227,-0.25263213387336947,0.39619438370512416,0.2240900870528478,-0.49939822858079486,-0.8609632373629372,-0.5847508443673844,-0.24445716508781185,-0.3461602886510048,-0.5076836823885565,-0.1956896328268636,-0.05697288633286348,-0.9860929208461438,-0.07251205058199901,0.09663297455690222,-0.6987272936909039,-0.15572706105256198,-0.4309276400380717,-0.6058230530627529,-0.5351238090408746,-0.05277909867648113,-0.4833026523878609,0.1946727242928315,-0.08819540480635177,-0.28755938115392954,-0.33997318273479876,-0.02865837108341804,-0.22366797497756113,-0.06206189973466797,0.1716445658234232,-0.3128482885885808,-0.03924630282732688,0.07046054375610504,0.1308536373321562,-0.6338253051347394,0.05896623824485314,-0.5370991272858913,-0.3922778019671048,-0.09528106535156716,-0.06317485610707857,-0.06721307147957294,0.020175061516372335,0.15744236168777376,0.14604875621038146,-0.007003625426163168,0.17332072112439226,0.1548215429007031,0.10247801677162266,-0.30015509104373905,0.10566110955920441,0.08956061047148876,-0.09283675294061651,0.07655565988434028,0.05240728382747451,-0.11561777229575601,0.34601740570413747,-0.19883060206591516,-0.3007638358092271,-0.9598272475624187,0.19868862097293907,0.17729288514707645,-0.21162047854017552,-0.26693763868194165,0.105408430333368],[0.10233139908806878,0.03254373429584997,-0.10925566130506277,0.10855856005530702,-0.2041692092120292,-0.337143175564853,-0.09419391551636552,-0.14358095440959986,0.3695604842205572,-0.01534093832685134,-0.17568606051654234,0.0013716476786729246,0.1434263949278627,-0.012353494220259296,0.06113333332284997,0.0031269834261525857,-0.14146723302714123,-0.11985644411224214,-0.03795400353702142,-0.01818106853125368,-0.1598932901051768,0.14432036743596946,-0.03114322947618415,0.1034598236806467,0.5454506365311843,0.6204600673869796,0.01758027077695228,-0.0012548929603668443,0.10776927735624287,0.08098773748548946,0.16754201955933776,0.041166173651263835,0.26175564423624215,-0.09917803803649287,0.12659206867957273,0.39056580038889693,-0.1394620137480219,-0.16763185102777434,-0.12309744798533549,0.06650637938968058,0.10322699714221556,-0.07163171854404293,-0.2398834767218425,-0.1865400862395087,0.1489105478367041,-0.08763679117648099,0.13148199353160828,0.17329015786784568,0.07976135495314575,-0.060051547112001176,-0.05534846443806724,0.13978747170213085,-0.07805537765826501,-0.012799754717129049,0.07916945826221407,0.17122151155892054,0.14932551542328987,-0.1428921169349492,-0.12612010641677818,-0.03327681533116396,0.16373214426942068,-0.10079935166757695,0.07707138717549869,-0.053819041893428364,-0.04434171251170428,-0.15403232093811384,0.15463069777519953,-0.08513590583378347,-0.23971500535145668,0.07944568907281951,-0.2073603583302686,0.013974500266859258,-0.10410872360922271,-0.13039351805662688,0.14785753852093247,0.009617378225626883,-0.10863365030300193,-0.08051683793949566,-0.05270923601217759,-0.2121576831222894,0.14167620536055112,0.007713465216889745,-0.16258580734266256,-0.1404121114482536,0.1093693314933212,-0.13350995829806062,0.09482425324942202,-0.030841795162582397,0.132570341704436,-0.0348715005922583,-0.20699894362278712,-0.21838859303331631,0.12891729895912027,0.01981147873914788,0.09523211717543595,0.019383880661944537,-0.13485514600818538,-0.0469074873634921,-0.28881060317094204,0.05540382339146975,0.10487667461667327,0.010151558160796242,-0.14579240433006202,-0.13271185760848545,-0.03743438411609319,0.05179825130282148,0.11162582707996943,0.11595458415216288,-0.05539880290888735,-0.010003815276125616,0.1044351048366982,0.21318532121912903,-0.10496227930685156,-0.029941564276720314,0.006747561142834869,-0.13455515069385565,-0.2280109939368241,-0.08602375733542303,0.363901281955741,-0.01484044224105095,-0.0848926589262783,-0.09183743839270862,0.10509859050833065,-0.19817946080951204,-0.49186554154573703,-0.28527361199046847,-0.07380068926261879,0.053277518019444914],[0.06919327060752903,-0.019519361607070476,-0.05378808023762429,-0.11592691973372536,-0.05903229528539021,0.049259205553967886,-0.03404141209824448,-0.043527884772007634,0.051137321073327906,-0.11108870028430234,0.0019360120002936368,-0.04231162291720931,0.1542556575990889,0.08355356108793,-0.12410835549643214,0.05788208804735399,-0.02643664203883327,0.08228169910874598,0.12117255278963174,0.12279626130094194,-0.06730076226674242,0.1069308145944775,-0.08011785001362833,-0.032094308000800716,-0.1049355434803727,-0.09699512867028721,-0.035793036394049633,-0.08918150108015535,0.10368664497685286,-0.07398955747042452,0.11512523285645472,0.07741005209417527,0.03266415144123429,-0.01584880625327076,-0.05057171157075236,0.13317365565418227,0.0748693231557812,0.08806885514428944,-0.12153249488067382,0.144292846036667,-0.007527093925888196,-0.11570848907922529,-0.14020430614341173,0.011059564091585329,-0.03559756070990249,0.12854630995262958,0.12691052514067377,0.05685430423039829,0.026050808905558595,0.018305797159977454,-0.14733788085370023,0.05388768703179739,-0.14808558701939872,0.10618962223720708,0.019300103564726518,0.029070978264208833,0.0798554561740355,0.09109766729357757,-0.13401226628890148,0.1090595119258886,0.11511029200004741,-0.038077097796167574,0.13709608649799798,0.0031821949622499084,-0.11515858338130898,0.09188786718323158,-0.1502689143689784,0.06224565160012819,-0.019042865573580627,0.01686020180651642,-0.15179749642184115,0.10610289738810749,0.0277385476436954,0.08635829786895942,0.016814666184099596,-0.059461342717006586,0.03290133468108484,0.1422662223466452,-0.005914241385846705,-0.011675994032932098,-0.13029161700498937,-0.15162211367798442,-0.10463778222475825,-0.06250566596512797,0.12664728755031043,-0.10878325086259394,0.10616710962640341,0.08622889095102122,0.04335802895722031,0.12054014055880266,-0.019543516686169507,0.0541680508900443,0.13545585486518086,-0.08480873417283265,-0.12937033854099186,-0.018181735197760302,0.08288890730739781,0.09637835017850735,-0.021261594167126002,-0.10682131022579162,-0.11527240118109336,-0.08239076043417981,-0.0498668859321307,0.04289387254888085,-0.14187582249097014,-0.1500537552234562,0.13433073075650934,0.10700619924581493,-0.07845084104204855,-0.1361439133405054,-0.026271024055203394,-0.11614352482902783,0.019819668398326457,0.04695591152129199,0.08672782259112716,0.06205310132832622,-0.07224918843858985,-0.048032671711913895,-0.03735047858105779,0.13222031360581554,-0.12111250840964964,-0.12132395996378684,0.0651959870131481,-0.03693096526187354,0.00581263692435009,-0.08164509879781857,-0.14030652475497837,0.10690639860230725],[0.34653744745647835,-0.14348059604559893,-0.08058706199197789,-0.16257583416835333,-0.24326330217618122,-0.004614278342172224,0.1427339872579922,0.01461168880122691,0.23787008567477863,-0.21732696537803448,-0.1394208189935105,0.07191158149537338,-0.20778475944353073,0.07988343284689393,-0.07947387063252824,0.1240924961781789,0.13446234257964937,-0.0946776299346765,0.11532531453750904,0.07395799426531051,0.15981513021949245,0.1765233449177028,-0.1814462827536566,0.06490022831849199,-0.15443826599644447,0.10898822813582672,-0.042871212802596974,-0.050858526658717505,-0.13918718348511552,-0.3148710808672433,0.1060899388026683,0.3577930684855575,0.5145745601646547,-0.27453626562411587,-0.09407631718772345,0.2473563270572898,0.01503040975255083,0.0720706037138013,0.08677857940483606,0.02437565600054884,0.11326631971421143,-0.06932598263172308,0.38536608373764875,-0.15150129573431637,-0.05659710258753595,-0.028823052778257276,-0.06435721361769156,0.16195033503070824,-0.183004953103909,0.006831588172343707,0.15299702606875643,-0.016707766121352573,0.0765727839841549,-0.33585188012925077,0.1030636229855756,0.2657598459819012,0.08852466449365251,-0.10744016217060597,-0.10116353873637579,0.0299269880755986,0.48655799728403126,-0.41356396183686095,